tree
version=v4
num_class=1
num_tree_per_iteration=1
label_index=0
max_feature_idx=15
objective=binary sigmoid:1
feature_names=ratio_tap_position_y screen_height tap_position_x tap_position_y predicted_isAnswerCorrect s_tap_count scroll_time s_view_position response_time taskNum screen_width ratio_tap_position_x s_choice_left event_scroll s_scroll_speed scroll_length
feature_infos=none [844:844] none none [0:1] [1:1] [-0.10000000000000009:10.999999999999993] [-343.99999999999989:756.66666666666788] [0.10000000000000001:7.6999999999999869] [1:49] [390:390] none [0:1] [0:6] [-1719.9999999999984:1911.6666666666704] [0:1530]
tree_sizes=442 441 442 541 542 444 442 542 443 443 540 543 444 543 446 547 550 543 547 547 446 547 446 544 543 444 544 443 443 545 445 541 444 548 443 548 544 444 547 544 548 546 550 444 545 548 542 547 549 550 446 442 547 548 445 546 546 549 546 445 447 545 546 445 446 547 549 547 445 446 547 546 445 547 542 444 549 548 547 445 548 547 446 445 444 549 543 446 548 446 550 545 549 445 444 548 548 444 545 548

Tree=0
num_leaves=3
num_cat=0
split_feature=14 15
split_gain=3.33868 6.54468
threshold=151.66129898013955 798.33333333333303
decision_type=2 2
left_child=-1 -2
right_child=1 -3
leaf_value=0.7077604543532765 0.49140736776289012 0.68179808396243013
leaf_weight=3.8517284244298935 3.3985839039087296 3.8517284244298935
leaf_count=17 15 17
internal_value=0.632523 0.592552
internal_weight=0 7.25031
internal_count=49 32
is_linear=0
shrinkage=1


Tree=1
num_leaves=3
num_cat=0
split_feature=9 6
split_gain=2.25409 1.3547
threshold=30.500000000000004 2.1000000000000005
decision_type=2 2
left_child=1 -1
right_child=-2 -3
leaf_value=0.086848914288765192 -0.05661090687176791 -0.0032256867581202603
leaf_weight=2.9561596810817719 4.2906558513641357 3.8368349373340607
leaf_count=13 19 17
internal_value=0 0.0359728
internal_weight=0 6.79299
internal_count=49 30
is_linear=0
shrinkage=0.1


Tree=2
num_leaves=3
num_cat=0
split_feature=15 15
split_gain=2.14016 2.82809
threshold=798.33333333333303 697.66666666666674
decision_type=2 2
left_child=1 -1
right_child=-2 -3
leaf_value=0.022639060998040493 0.056080321428321013 -0.10680654488935176
leaf_weight=3.8317175358533859 4.2314493507146835 3.0164858847856522
leaf_count=17 19 13
internal_value=0 -0.0343789
internal_weight=0 6.8482
internal_count=49 30
is_linear=0
shrinkage=0.1


Tree=3
num_leaves=4
num_cat=0
split_feature=9 15 7
split_gain=2.03951 2.02649 1.31422
threshold=12.500000000000002 798.33333333333303 382.33333333333491
decision_type=2 2 2
left_child=-1 2 -2
right_child=1 -3 -4
leaf_value=0.076317470911451829 -0.11533374518819479 0.033982045813032803 -0.0114030865149976
leaf_weight=2.6704236716032037 2.5485864728689176 3.5032851099967957 2.328135684132576
leaf_count=12 11 16 10
internal_value=0 -0.0240378 -0.0657175
internal_weight=0 8.38001 4.87672
internal_count=49 37 21
is_linear=0
shrinkage=0.1


Tree=4
num_leaves=4
num_cat=0
split_feature=14 14 6
split_gain=2.67871 3.74183 2.46792
threshold=151.66129898013955 351.49621212121195 1.0500000000000003
decision_type=2 2 2
left_child=-1 -2 -3
right_child=1 2 -4
leaf_value=0.069074921706919354 -0.1261679098157745 -0.049445211012264539 0.098930920813192283
leaf_weight=3.7374387383460999 2.7843489646911621 2.3488878160715103 2.144397035241127
leaf_count=17 12 10 10
internal_value=0 -0.0350787 0.0213665
internal_weight=0 7.27763 4.49328
internal_count=49 32 20
is_linear=0
shrinkage=0.1


Tree=5
num_leaves=3
num_cat=0
split_feature=14 15
split_gain=2.20142 3.29977
threshold=151.66129898013955 798.33333333333303
decision_type=2 2
left_child=-1 -2
right_child=1 -3
leaf_value=0.063801654371750102 -0.098394504789014514 0.036085039789061669
leaf_weight=3.6465774476528168 3.6596692800521851 3.6388396471738815
leaf_count=17 15 17
internal_value=0 -0.0313466
internal_weight=0 7.29851
internal_count=49 32
is_linear=0
shrinkage=0.1


Tree=6
num_leaves=3
num_cat=0
split_feature=9 8
split_gain=1.89967 1.00318
threshold=30.500000000000004 1.1000000000000003
decision_type=2 2
left_child=1 -1
right_child=-2 -3
leaf_value=0.081644226915995891 -0.051470499121955261 0.0020058098542839299
leaf_weight=2.6518086344003677 4.2797417044639587 3.9198167026042938
leaf_count=12 19 18
internal_value=0 0.0341418
internal_weight=0 6.57163
internal_count=49 30
is_linear=0
shrinkage=0.1


Tree=7
num_leaves=4
num_cat=0
split_feature=14 14 6
split_gain=1.84912 2.65218 1.84702
threshold=151.66129898013955 351.49621212121195 1.0500000000000003
decision_type=2 2 2
left_child=-1 -2 -3
right_child=1 2 -4
leaf_value=0.059424949007363281 -0.1032832359173242 -0.039370100659006729 0.090534275509308371
leaf_weight=3.5613877028226852 2.8720480352640152 2.3863750845193863 2.0218564569950104
leaf_count=17 12 10 10
internal_value=0 -0.028507 0.0202112
internal_weight=0 7.28028 4.40823
internal_count=49 32 20
is_linear=0
shrinkage=0.1


Tree=8
num_leaves=3
num_cat=0
split_feature=9 6
split_gain=1.57159 0.965865
threshold=30.500000000000004 2.1000000000000005
decision_type=2 2
left_child=1 -1
right_child=-2 -3
leaf_value=0.077168446867058205 -0.046428260790248962 -0.0013056611219184684
leaf_weight=2.705804854631424 4.2944683879613876 3.7312491089105606
leaf_count=13 19 17
internal_value=0 0.0316808
internal_weight=0 6.43705
internal_count=49 30
is_linear=0
shrinkage=0.1


Tree=9
num_leaves=3
num_cat=0
split_feature=14 15
split_gain=1.54239 2.39707
threshold=151.66129898013955 798.33333333333303
decision_type=2 2
left_child=-1 -2
right_child=1 -3
leaf_value=0.055192704295547401 -0.08223351022541682 0.032926655293373526
leaf_weight=3.4732892960309982 3.6937860697507858 3.5394837558269501
leaf_count=17 15 17
internal_value=0 -0.0258817
internal_weight=0 7.23327
internal_count=49 32
is_linear=0
shrinkage=0.1


Tree=10
num_leaves=4
num_cat=0
split_feature=9 8 9
split_gain=1.34787 1.36991 2.01441
threshold=12.500000000000002 1.6500000000000006 30.500000000000004
decision_type=2 2 2
left_child=-1 2 -2
right_child=1 -3 -4
leaf_value=0.065608162819929552 0.061130200831801429 -0.0841898000351749 -0.056673266903020693
leaf_weight=2.4408914297819146 3.1421476155519468 2.3152236044406891 2.6978489309549332
leaf_count=12 15 10 12
internal_value=0 -0.0190962 0.00670963
internal_weight=0 8.15522 5.84
internal_count=49 37 27
is_linear=0
shrinkage=0.1


Tree=11
num_leaves=4
num_cat=0
split_feature=14 14 9
split_gain=1.2336 1.8659 0.466192
threshold=151.66129898013955 351.49621212121195 30.500000000000004
decision_type=2 2 2
left_child=-1 -2 -3
right_child=1 2 -4
leaf_value=0.050448566094854534 -0.085137372039475967 0.05355650781582201 -0.012442853171917689
leaf_weight=3.3596801906824112 2.8866034299135208 2.0344818830490112 2.258179247379303
leaf_count=17 12 10 10
internal_value=0 -0.0229684 0.0188372
internal_weight=0 7.17926 4.29266
internal_count=49 32 20
is_linear=0
shrinkage=0.1


Tree=12
num_leaves=3
num_cat=0
split_feature=8 6
split_gain=1.04286 1.82066
threshold=0.65000000000000002 2.4000000000000008
decision_type=2 2
left_child=-1 -2
right_child=1 -3
leaf_value=-0.051291881942792675 0.075381997994832584 -0.023282152521407629
leaf_weight=2.8387997001409531 3.3160601854324341 4.2897815704345703
leaf_count=13 16 20
internal_value=0 0.0197343
internal_weight=0 7.60584
internal_count=49 36
is_linear=0
shrinkage=0.1


Tree=13
num_leaves=4
num_cat=0
split_feature=9 9 14
split_gain=1.15279 1.26496 0.41516
threshold=12.500000000000002 36.500000000000007 781.33333333333405
decision_type=2 2 2
left_child=-1 2 -2
right_child=1 -3 -4
leaf_value=0.061962439244981328 -0.02042839054341079 0.034839985719788732 -0.077314614189977204
leaf_weight=2.356905311346055 2.7048479467630369 2.9372801184654236 2.440443217754364
leaf_count=12 13 13 11
internal_value=0 -0.0175195 -0.0474099
internal_weight=0 8.08257 5.14529
internal_count=49 37 24
is_linear=0
shrinkage=0.1


Tree=14
num_leaves=3
num_cat=0
split_feature=9 14
split_gain=0.994056 1.16959
threshold=30.500000000000004 151.66129898013955
decision_type=2 2
left_child=1 -1
right_child=-2 -3
leaf_value=0.085601507128430843 -0.036344117024918042 -0.0059799032466384371
leaf_weight=2.1567844897508621 4.3100598305463791 3.9455825835466385
leaf_count=12 19 18
internal_value=0 0.0263881
internal_weight=0 6.10237
internal_count=49 30
is_linear=0
shrinkage=0.1


Tree=15
num_leaves=4
num_cat=0
split_feature=7 7 8
split_gain=1.15435 0.609071 0.733796
threshold=505.16666666666612 350.50000000000051 1.3500000000000003
decision_type=2 2 2
left_child=1 -1 -3
right_child=-2 2 -4
leaf_value=0.021078150537725424 0.052373390223650777 -0.0057049750103339465 -0.082728954567693691
leaf_weight=2.3376674056053162 3.0269365608692169 2.7159354090690613 2.2711969017982483
leaf_count=12 15 12 10
internal_value=0 -0.0210401 -0.0407826
internal_weight=0 7.3248 4.98713
internal_count=49 34 22
is_linear=0
shrinkage=0.1


Tree=16
num_leaves=4
num_cat=0
split_feature=8 8 8
split_gain=0.658572 0.780624 0.0343752
threshold=0.65000000000000002 1.6500000000000006 3.8000000000000012
decision_type=2 2 2
left_child=-1 -2 -3
right_child=1 2 -4
leaf_value=-0.04002693783431871 0.057014454914126149 -0.0013391877411240438 -0.018776247941580709
leaf_weight=2.8952175080776215 2.8719599694013596 2.3812945634126663 2.1525457352399826
leaf_count=13 14 11 11
internal_value=0 0.0162221 -0.00961784
internal_weight=0 7.4058 4.53384
internal_count=49 36 22
is_linear=0
shrinkage=0.1


Tree=17
num_leaves=4
num_cat=0
split_feature=7 9 8
split_gain=0.907929 1.11377 1.48301
threshold=505.16666666666612 30.500000000000004 1.6500000000000006
decision_type=2 2 2
left_child=1 2 -1
right_child=-2 -3 -4
leaf_value=0.072780104312429844 0.047213306014990762 -0.068116438895456904 -0.041719200123416046
leaf_weight=2.1350433826446533 2.9529216885566711 2.7952673137187958 2.40589839220047
leaf_count=10 15 12 12
internal_value=0 -0.0184546 0.0121157
internal_weight=0 7.33621 4.54094
internal_count=49 34 22
is_linear=0
shrinkage=0.1


Tree=18
num_leaves=4
num_cat=0
split_feature=9 9 15
split_gain=0.933494 1.24944 0.375535
threshold=12.500000000000002 36.500000000000007 771.16666666667118
decision_type=2 2 2
left_child=-1 2 -2
right_child=1 -3 -4
leaf_value=0.057367797813413647 -0.071073904693650172 0.036415044024983641 -0.01653779535955557
leaf_weight=2.2456039190292367 2.7051382362842542 2.9284033477306366 2.3678792268037796
leaf_count=12 12 13 12
internal_value=0 -0.0155955 -0.0456187
internal_weight=0 8.00142 5.07302
internal_count=49 37 24
is_linear=0
shrinkage=0.1


Tree=19
num_leaves=4
num_cat=0
split_feature=14 14 15
split_gain=0.804051 1.59389 1.32139
threshold=151.66129898013955 351.49621212121195 800.16666666666811
decision_type=2 2 2
left_child=-1 -2 -3
right_child=1 2 -4
leaf_value=0.042422101945593538 -0.075799466081044126 -0.029397833217766019 0.083580832288190604
leaf_weight=3.1468552201986313 2.8679153770208359 2.3228190392255783 1.8675829619169233
leaf_count=17 12 10 10
internal_value=0 -0.0183582 0.0209546
internal_weight=0 7.05832 4.1904
internal_count=49 32 20
is_linear=0
shrinkage=0.1


Tree=20
num_leaves=3
num_cat=0
split_feature=9 14
split_gain=0.866733 0.842573
threshold=30.500000000000004 151.66129898013955
decision_type=2 2
left_child=1 -1
right_child=-2 -3
leaf_value=0.078169690992937621 -0.03406473897839507 -0.0019440984022566607
leaf_weight=1.9913741201162336 4.2328145951032639 3.8524542301893234
leaf_count=12 19 18
internal_value=0 0.0253559
internal_weight=0 5.84383
internal_count=49 30
is_linear=0
shrinkage=0.1


Tree=21
num_leaves=4
num_cat=0
split_feature=15 14 14
split_gain=0.718708 0.962065 0.885401
threshold=847.00000000000466 151.66129898013955 351.49621212121195
decision_type=2 2 2
left_child=1 -1 -3
right_child=-2 2 -4
leaf_value=0.0320082245343997 0.05022668793158841 -0.088129527643107455 -0.0026666385161794571
leaf_weight=2.8673740029335022 2.2455510050058365 2.194136917591095 2.7088060081005096
leaf_count=16 12 9 12
internal_value=0 -0.0140036 -0.0409125
internal_weight=0 7.77032 4.90294
internal_count=49 37 21
is_linear=0
shrinkage=0.1


Tree=22
num_leaves=3
num_cat=0
split_feature=15 15
split_gain=0.618193 0.742728
threshold=798.33333333333303 697.66666666666674
decision_type=2 2
left_child=1 -1
right_child=-2 -3
leaf_value=0.014695333634440708 0.033518972051188721 -0.053975760327086321
leaf_weight=3.2602275460958481 3.586425393819809 3.0470015406608582
leaf_count=17 19 13
internal_value=0 -0.0184794
internal_weight=0 6.30723
internal_count=49 30
is_linear=0
shrinkage=0.1


Tree=23
num_leaves=4
num_cat=0
split_feature=6 7 8
split_gain=0.641573 1.81298 0.747518
threshold=2.7499999999999996 382.33333333333491 0.84999999999999998
decision_type=2 2 2
left_child=1 -1 -3
right_child=-2 2 -4
leaf_value=-0.052324369383257678 -0.033905330449573438 0.020276293277834447 0.10652793390463476
leaf_weight=2.261942595243454 3.5140180587768555 2.2139080017805099 1.8398692011833189
leaf_count=10 18 11 10
internal_value=0 0.0194012 0.0594229
internal_weight=0 6.31572 4.05378
internal_count=49 31 21
is_linear=0
shrinkage=0.1


Tree=24
num_leaves=4
num_cat=0
split_feature=6 6 7
split_gain=0.519998 1.67104 0.678615
threshold=2.7499999999999996 1.5500000000000003 399.333333333334
decision_type=2 2 2
left_child=1 2 -1
right_child=-2 -3 -4
leaf_value=-0.054683255884673522 -0.030194788461297858 0.089840452308827312 0.027406607322319622
leaf_weight=2.3457982540130615 3.5492721199989319 2.1213331073522568 1.764537528157234
leaf_count=10 18 11 10
internal_value=0 0.0177586 -0.0194427
internal_weight=0 6.23167 4.11034
internal_count=49 31 20
is_linear=0
shrinkage=0.1


Tree=25
num_leaves=3
num_cat=0
split_feature=9 7
split_gain=0.924593 0.264522
threshold=30.500000000000004 386.33333333333377
decision_type=2 2
left_child=1 -1
right_child=-2 -3
leaf_value=0.010360785697042543 -0.035837239268490952 0.055438959595591641
leaf_weight=3.6231263875961304 4.0947558730840683 2.0317380800843239
leaf_count=18 19 12
internal_value=0 0.0265569
internal_weight=0 5.65486
internal_count=49 30
is_linear=0
shrinkage=0.1


Tree=26
num_leaves=4
num_cat=0
split_feature=14 14 8
split_gain=0.526418 1.14988 0.656498
threshold=151.66129898013955 254.70114942528883 0.65000000000000002
decision_type=2 2 2
left_child=-1 -2 -3
right_child=1 2 -4
leaf_value=0.035454251465295981 -0.0762738360007571 -0.023524067496541221 0.051723214773730847
leaf_weight=2.9660108834505081 2.1112546026706696 2.4061950296163559 2.237715482711792
leaf_count=17 9 11 12
internal_value=0 -0.015084 0.0127346
internal_weight=0 6.75517 4.64391
internal_count=49 32 23
is_linear=0
shrinkage=0.1


Tree=27
num_leaves=3
num_cat=0
split_feature=6 6
split_gain=0.437091 1.36769
threshold=2.7499999999999996 1.5500000000000003
decision_type=2 2
left_child=1 -1
right_child=-2 -3
leaf_value=-0.01724648366061516 -0.027657833613452771 0.082769978263999955
leaf_weight=4.0513929575681686 3.5372064262628555 2.0636661723256111
leaf_count=20 18 11
internal_value=0 0.0165064
internal_weight=0 6.11506
internal_count=49 31
is_linear=0
shrinkage=0.1


Tree=28
num_leaves=3
num_cat=0
split_feature=9 8
split_gain=0.810516 0.880878
threshold=30.500000000000004 1.1000000000000003
decision_type=2 2
left_child=1 -1
right_child=-2 -3
leaf_value=0.073378029443969511 -0.033694185235296721 -0.0075682166531215707
leaf_weight=2.24991774559021 4.0599424690008163 3.3402792513370514
leaf_count=12 19 18
internal_value=0 0.0250107
internal_weight=0 5.5902
internal_count=49 30
is_linear=0
shrinkage=0.1


Tree=29
num_leaves=4
num_cat=0
split_feature=9 9 7
split_gain=0.779053 1.36504 0.303701
threshold=15.500000000000002 36.500000000000007 382.66666666666703
decision_type=2 2 2
left_child=-1 2 -2
right_child=1 -3 -4
leaf_value=0.046609930696991264 -0.02669838090968929 0.037881350733179608 -0.080176954413824914
leaf_weight=2.6379747912287712 2.1892551481723785 2.7393554747104645 2.0621724277734756
leaf_count=15 10 13 11
internal_value=0 -0.017168 -0.0526384
internal_weight=0 6.99078 4.25143
internal_count=49 34 21
is_linear=0
shrinkage=0.1


Tree=30
num_leaves=3
num_cat=0
split_feature=9 8
split_gain=0.679215 0.833543
threshold=30.500000000000004 1.1000000000000003
decision_type=2 2
left_child=1 -1
right_child=-2 -3
leaf_value=0.070487735958029041 -0.03070247416414746 -0.0086334586830126014
leaf_weight=2.2225806564092636 4.0715697258710861 3.3211248591542244
leaf_count=12 19 18
internal_value=0 0.0230878
internal_weight=0 5.54371
internal_count=49 30
is_linear=0
shrinkage=0.1


Tree=31
num_leaves=4
num_cat=0
split_feature=9 9 15
split_gain=0.661131 1.0956 0.13412
threshold=12.500000000000002 36.500000000000007 771.16666666667118
decision_type=2 2 2
left_child=-1 2 -2
right_child=1 -3 -4
leaf_value=0.050861245245548893 -0.057188698935692339 0.03721432692265058 -0.023674521896938208
leaf_weight=2.0370523184537888 2.638244740664959 2.735647052526474 2.1813971251249313
leaf_count=12 12 13 12
internal_value=0 -0.0133305 -0.04202
internal_weight=0 7.55529 4.81964
internal_count=49 37 24
is_linear=0
shrinkage=0.1


Tree=32
num_leaves=3
num_cat=0
split_feature=9 8
split_gain=0.607592 0.792963
threshold=30.500000000000004 1.1000000000000003
decision_type=2 2
left_child=1 -1
right_child=-2 -3
leaf_value=0.068507107232393935 -0.02898032060960469 -0.0091015505917606526
leaf_weight=2.1982273235917091 4.0693545341491699 3.2823758646845818
leaf_count=12 19 18
internal_value=0 0.0220267
internal_weight=0 5.4806
internal_count=49 30
is_linear=0
shrinkage=0.1


Tree=33
num_leaves=4
num_cat=0
split_feature=9 9 15
split_gain=0.566374 1.01833 0.116873
threshold=12.500000000000002 36.500000000000007 771.16666666667118
decision_type=2 2 2
left_child=-1 2 -2
right_child=1 -3 -4
leaf_value=0.047577209912285118 -0.054255322798840704 0.036448919308607712 -0.022889935600284076
leaf_weight=2.0004672408103943 2.6232983767986298 2.7313431054353714 2.1712927147746086
leaf_count=12 12 13 12
internal_value=0 -0.0122874 -0.0400511
internal_weight=0 7.52593 4.79459
internal_count=49 37 24
is_linear=0
shrinkage=0.1


Tree=34
num_leaves=3
num_cat=0
split_feature=9 8
split_gain=0.54662 0.750067
threshold=30.500000000000004 1.1000000000000003
decision_type=2 2
left_child=1 -1
right_child=-2 -3
leaf_value=0.066519054156031085 -0.027447935736402841 -0.0093844375272446115
leaf_weight=2.1740290820598602 4.064519852399826 3.2453352510929108
leaf_count=12 19 18
internal_value=0 0.021065
internal_weight=0 5.41936
internal_count=49 30
is_linear=0
shrinkage=0.1


Tree=35
num_leaves=4
num_cat=0
split_feature=9 9 14
split_gain=0.486714 0.945491 0.214982
threshold=12.500000000000002 36.500000000000007 781.33333333333405
decision_type=2 2 2
left_child=-1 2 -2
right_child=1 -3 -4
leaf_value=0.044539875413488486 -0.017564231121617046 0.035611744613408741 -0.060055462339393198
leaf_weight=1.966789476573467 2.4492549821734428 2.7265772223472595 2.3172101527452469
leaf_count=12 13 13 11
internal_value=0 -0.0113548 -0.0382213
internal_weight=0 7.49304 4.76647
internal_count=49 37 24
is_linear=0
shrinkage=0.1


Tree=36
num_leaves=4
num_cat=0
split_feature=6 7 6
split_gain=0.568224 1.42177 0.269737
threshold=2.7499999999999996 382.33333333333491 1.0500000000000003
decision_type=2 2 2
left_child=1 -1 -3
right_child=-2 2 -4
leaf_value=-0.045105376716180146 -0.032172800357543573 0.031822207075990837 0.085443706544501521
leaf_weight=2.1993847638368607 3.4337426647543907 2.0833366513252263 1.7066207379102705
leaf_count=10 18 10 11
internal_value=0 0.0188522 0.055968
internal_weight=0 5.98934 3.78996
internal_count=49 31 21
is_linear=0
shrinkage=0.1


Tree=37
num_leaves=3
num_cat=0
split_feature=9 7
split_gain=0.533878 0.254153
threshold=30.500000000000004 386.33333333333377
decision_type=2 2
left_child=1 -1
right_child=-2 -3
leaf_value=0.0050412340204503605 -0.02727938839977069 0.050800743030551591
leaf_weight=3.4896125048398972 4.0171215534210205 1.8610805124044416
leaf_count=18 19 12
internal_value=0 0.0209573
internal_weight=0 5.35069
internal_count=49 30
is_linear=0
shrinkage=0.1


Tree=38
num_leaves=4
num_cat=0
split_feature=15 15 15
split_gain=0.381106 0.34556 0.582122
threshold=847.00000000000466 765.00000000000193 412.50000000000119
decision_type=2 2 2
left_child=1 2 -1
right_child=-2 -3 -4
leaf_value=-0.035213657805560669 0.038930884770796079 -0.039625355319348521 0.035714363561550583
leaf_weight=2.0030151531100273 2.0020490437746048 2.5956142991781235 2.7399739623069763
leaf_count=11 12 13 13
internal_value=0 -0.010292 0.0057607
internal_weight=0 7.3386 4.74299
internal_count=49 37 24
is_linear=0
shrinkage=0.1


Tree=39
num_leaves=4
num_cat=0
split_feature=14 14 9
split_gain=0.480535 1.10014 0.526716
threshold=151.66129898013955 254.70114942528883 30.500000000000004
decision_type=2 2 2
left_child=-1 -2 -3
right_child=1 2 -4
leaf_value=0.034411680953569675 -0.07488015722273747 0.04858927248095736 -0.020570951772210404
leaf_weight=2.8572547361254692 2.0735777169466019 2.1674220338463783 2.2384995371103287
leaf_count=17 9 12 11
internal_value=0 -0.0148166 0.0134513
internal_weight=0 6.4795 4.40592
internal_count=49 32 23
is_linear=0
shrinkage=0.1


Tree=40
num_leaves=4
num_cat=0
split_feature=8 15 8
split_gain=0.403724 0.79128 0.0379075
threshold=0.65000000000000002 798.33333333333303 2.3000000000000012
decision_type=2 2 2
left_child=-1 2 -2
right_child=1 -3 -4
leaf_value=-0.032287104040101336 0.00077830263461660843 0.06065738095572043 -0.018960763801760594
leaf_weight=2.7037781178951263 1.5054956153035162 2.316037118434906 2.7501853704452515
leaf_count=13 8 14 14
internal_value=0 0.0136206 -0.0119778
internal_weight=0 6.57172 4.25568
internal_count=49 36 22
is_linear=0
shrinkage=0.1


Tree=41
num_leaves=4
num_cat=0
split_feature=9 9 7
split_gain=0.485435 1.01413 0.291884
threshold=36.500000000000007 15.500000000000002 382.66666666666703
decision_type=2 2 2
left_child=1 -1 -3
right_child=-2 2 -4
leaf_value=0.037331948681076504 0.036204034097848406 -0.018414497208336527 -0.071394128303343671
leaf_weight=2.4041483774781227 2.6684480756521225 2.1328897178173065 2.0292986258864403
leaf_count=15 13 10 11
internal_value=0 -0.0143771 -0.044245
internal_weight=0 6.56634 4.16219
internal_count=49 36 21
is_linear=0
shrinkage=0.1


Tree=42
num_leaves=4
num_cat=0
split_feature=6 6 15
split_gain=0.576767 0.873394 0.00260934
threshold=2.7499999999999996 1.5500000000000003 765.00000000000193
decision_type=2 2 2
left_child=1 2 -1
right_child=-2 -3 -4
leaf_value=-0.0046128933045184138 -0.032665972428171021 0.075393450146656951 -0.0097612346610723051
leaf_weight=1.830111660063267 3.3757278993725777 1.8796338364481924 2.130489818751812
leaf_count=9 18 11 11
internal_value=0 0.0192584 -0.00738229
internal_weight=0 5.84024 3.9606
internal_count=49 31 20
is_linear=0
shrinkage=0.1


Tree=43
num_leaves=3
num_cat=0
split_feature=6 7
split_gain=0.465793 1.27118
threshold=2.7499999999999996 382.33333333333491
decision_type=2 2
left_child=1 -1
right_child=-2 -3
leaf_value=-0.042747322239379493 -0.029133031060595355 0.053797835552371658
leaf_weight=2.1873457282781601 3.4049455374479294 3.6221898943185806
leaf_count=10 18 21
internal_value=0 0.0174477
internal_weight=0 5.80954
internal_count=49 31
is_linear=0
shrinkage=0.1


Tree=44
num_leaves=4
num_cat=0
split_feature=9 8 9
split_gain=0.475764 0.76354 1.08564
threshold=12.500000000000002 1.6500000000000006 30.500000000000004
decision_type=2 2 2
left_child=-1 2 -2
right_child=1 -3 -4
leaf_value=0.044637828806959573 0.053676057749964451 -0.06106965217031432 -0.038805071284240017
leaf_weight=1.9104596227407453 2.6717971339821815 2.1729698032140732 2.4182238876819611
leaf_count=12 15 10 12
internal_value=0 -0.0114457 0.00973909
internal_weight=0 7.26299 5.09002
internal_count=49 37 27
is_linear=0
shrinkage=0.1


Tree=45
num_leaves=4
num_cat=0
split_feature=9 9 15
split_gain=0.478038 0.897239 0.292913
threshold=36.500000000000007 15.500000000000002 765.00000000000193
decision_type=2 2 2
left_child=1 -1 -3
right_child=-2 2 -4
leaf_value=0.034928628740804595 0.036284559159967353 -0.016409732797146005 -0.069671261643201268
leaf_weight=2.3559683561325073 2.6204944401979446 2.1161112636327744 2.0164908841252327
leaf_count=15 13 10 11
internal_value=0 -0.0143214 -0.0423985
internal_weight=0 6.48857 4.1326
internal_count=49 36 21
is_linear=0
shrinkage=0.1


Tree=46
num_leaves=4
num_cat=0
split_feature=6 7 8
split_gain=0.463494 1.13195 1.2832
threshold=2.7499999999999996 382.33333333333491 0.65000000000000002
decision_type=2 2 2
left_child=1 -1 -3
right_child=-2 2 -4
leaf_value=-0.039408976073283961 -0.029233099963958571 -0.01397553406335572 0.10670339470916086
leaf_weight=2.1686650216579437 3.3628408163785934 1.6056740134954455 1.9525902718305586
leaf_count=10 18 8 13
internal_value=0 0.0175387 0.0522468
internal_weight=0 5.72693 3.55826
internal_count=49 31 21
is_linear=0
shrinkage=0.1


Tree=47
num_leaves=4
num_cat=0
split_feature=14 14 9
split_gain=0.439183 0.967746 0.487391
threshold=151.66129898013955 254.70114942528883 30.500000000000004
decision_type=2 2 2
left_child=-1 -2 -3
right_child=1 2 -4
leaf_value=0.033481841531610636 -0.070733513347961921 0.047379532777543309 -0.020628096874547766
leaf_weight=2.7627903446555138 2.0501172691583633 2.0862992629408836 2.1293822601437569
leaf_count=17 9 12 11
internal_value=0 -0.0143779 0.0130282
internal_weight=0 6.2658 4.21568
internal_count=49 32 23
is_linear=0
shrinkage=0.1


Tree=48
num_leaves=4
num_cat=0
split_feature=9 9 15
split_gain=0.402647 0.838262 0.255432
threshold=15.500000000000002 36.500000000000007 765.00000000000193
decision_type=2 2 2
left_child=-1 2 -2
right_child=1 -3 -4
leaf_value=0.036159856922766291 -0.015772613439884411 0.032871978511731507 -0.065639128265215618
leaf_weight=2.3165900558233261 2.0998708456754684 2.5437589809298515 2.0108787268400192
leaf_count=15 10 13 11
internal_value=0 -0.0122465 -0.0401661
internal_weight=0 6.65451 4.11075
internal_count=49 34 21
is_linear=0
shrinkage=0.1


Tree=49
num_leaves=4
num_cat=0
split_feature=6 6 14
split_gain=0.417502 0.675995 0.0210399
threshold=2.7499999999999996 1.5500000000000003 928.86904761904782
decision_type=2 2 2
left_child=1 2 -1
right_child=-2 -3 -4
leaf_value=0.00032754849498387197 -0.027789008055611721 0.068017407958928341 -0.014492224992185188
leaf_weight=2.0326462350785737 3.3330811336636543 1.7705545350909231 1.8119707554578779
leaf_count=12 18 11 8
internal_value=0 0.016889 -0.00665702
internal_weight=0 5.61517 3.84462
internal_count=49 31 20
is_linear=0
shrinkage=0.1


Tree=50
num_leaves=3
num_cat=0
split_feature=9 14
split_gain=0.377971 0.641223
threshold=30.500000000000004 151.66129898013955
decision_type=2 2
left_child=1 -1
right_child=-2 -3
leaf_value=0.068176472328133314 -0.023621264328441572 -0.0069293024542252477
leaf_weight=1.7000309303402898 3.810133308172226 3.4307482019066811
leaf_count=12 19 18
internal_value=0 0.0179562
internal_weight=0 5.13078
internal_count=49 30
is_linear=0
shrinkage=0.1


Tree=51
num_leaves=3
num_cat=0
split_feature=6 6
split_gain=0.390539 0.565325
threshold=2.7499999999999996 1.5500000000000003
decision_type=2 2
left_child=1 -1
right_child=-2 -3
leaf_value=-0.005125010295865976 -0.027012584052130025 0.063495014686023366
leaf_weight=3.832031611353159 3.3025047183036804 1.7483647838234899
leaf_count=20 18 11
internal_value=0 0.016374
internal_weight=0 5.5804
internal_count=49 31
is_linear=0
shrinkage=0.1


Tree=52
num_leaves=4
num_cat=0
split_feature=9 9 14
split_gain=0.332422 0.701441 0.107759
threshold=15.500000000000002 36.500000000000007 822.11111111111188
decision_type=2 2 2
left_child=-1 2 -2
right_child=1 -3 -4
leaf_value=0.033255718168837815 -0.050615608295523196 0.030764224583929356 -0.01795872426678561
leaf_weight=2.2690792791545391 2.3317691385746002 2.4917616471648216 1.7830811664462087
leaf_count=15 12 13 9
internal_value=0 -0.0111084 -0.0364645
internal_weight=0 6.60661 4.11485
internal_count=49 34 21
is_linear=0
shrinkage=0.1


Tree=53
num_leaves=4
num_cat=0
split_feature=15 9 9
split_gain=0.402442 0.278137 0.723606
threshold=412.50000000000119 15.500000000000002 27.500000000000004
decision_type=2 2 2
left_child=-1 -2 -3
right_child=1 2 -4
leaf_value=-0.040832141985089776 0.047948899765380991 -0.045646575205191914 0.02968563354962089
leaf_weight=1.8801379874348638 1.5965657755732534 2.0858079716563225 3.2805418744683266
leaf_count=11 11 11 16
internal_value=0 0.0113068 0.000405298
internal_weight=0 6.96292 5.36635
internal_count=49 38 27
is_linear=0
shrinkage=0.1


Tree=54
num_leaves=3
num_cat=0
split_feature=9 8
split_gain=0.378822 0.864215
threshold=30.500000000000004 1.6500000000000006
decision_type=2 2
left_child=1 -1
right_child=-2 -3
leaf_value=0.057712226782843615 -0.023794173154262365 -0.024921715901000448
leaf_weight=2.6377959996461868 3.7691926434636116 2.4329766221344471
leaf_count=15 19 15
internal_value=0 0.0180641
internal_weight=0 5.07077
internal_count=49 30
is_linear=0
shrinkage=0.1


Tree=55
num_leaves=4
num_cat=0
split_feature=14 14 9
split_gain=0.374317 0.893264 0.383768
threshold=151.66129898013955 254.70114942528883 30.500000000000004
decision_type=2 2 2
left_child=-1 -2 -3
right_child=1 2 -4
leaf_value=0.031508635146091028 -0.06756532943520098 0.044023475011809643 -0.016976449834417318
leaf_weight=2.6668330430984497 2.0344606041908264 2.0546072535216808 2.0708909258246422
leaf_count=17 9 12 11
internal_value=0 -0.0133385 0.0134031
internal_weight=0 6.15996 4.1255
internal_count=49 32 23
is_linear=0
shrinkage=0.1


Tree=56
num_leaves=4
num_cat=0
split_feature=6 7 7
split_gain=0.339711 0.988783 0.0840193
threshold=2.7499999999999996 382.33333333333491 401.50000000000006
decision_type=2 2 2
left_child=1 -1 -3
right_child=-2 2 -4
leaf_value=-0.037964008224742982 -0.025275390330246568 0.03523490814677218 0.067094083128900667
leaf_weight=2.1273254454135895 3.2781541347503662 1.8977056965231898 1.4681857638061044
leaf_count=10 18 10 11
internal_value=0 0.0154027 0.0491317
internal_weight=0 5.49322 3.36589
internal_count=49 31 21
is_linear=0
shrinkage=0.1


Tree=57
num_leaves=4
num_cat=0
split_feature=15 14 14
split_gain=0.370849 0.56423 0.474383
threshold=847.00000000000466 151.66129898013955 351.49621212121195
decision_type=2 2 2
left_child=1 -1 -3
right_child=-2 2 -4
leaf_value=0.026929255568824306 0.039873049739063568 -0.067611037879827071 -0.0012921014836056151
leaf_weight=2.537602111697197 1.8554296195507047 2.0346837788820267 2.2953401282429695
leaf_count=16 12 9 12
internal_value=0 -0.0105127 -0.0324555
internal_weight=0 6.86763 4.33002
internal_count=49 37 21
is_linear=0
shrinkage=0.1


Tree=58
num_leaves=4
num_cat=0
split_feature=9 9 7
split_gain=0.340322 0.715075 0.264319
threshold=15.500000000000002 36.500000000000007 382.66666666666703
decision_type=2 2 2
left_child=-1 2 -2
right_child=1 -3 -4
leaf_value=0.034291838604558825 -0.012172404797910092 0.031749160872216825 -0.063375276368640154
leaf_weight=2.1847358159720898 2.0698262229561806 2.4076982438564301 1.9656000509858129
leaf_count=15 10 13 11
internal_value=0 -0.01138 -0.0371126
internal_weight=0 6.44312 4.03543
internal_count=49 34 21
is_linear=0
shrinkage=0.1


Tree=59
num_leaves=3
num_cat=0
split_feature=6 8
split_gain=0.350319 0.777858
threshold=2.7499999999999996 0.65000000000000002
decision_type=2 2
left_child=1 -1
right_child=-2 -3
leaf_value=-0.023694056284957143 -0.025895686386647909 0.052388947936938803
leaf_weight=2.589136641472578 3.2223156988620758 2.7937235198915005
leaf_count=13 18 18
internal_value=0 0.0157933
internal_weight=0 5.38286
internal_count=49 31
is_linear=0
shrinkage=0.1


Tree=60
num_leaves=3
num_cat=0
split_feature=9 14
split_gain=0.365403 0.526259
threshold=30.500000000000004 151.66129898013955
decision_type=2 2
left_child=1 -1
right_child=-2 -3
leaf_value=0.064892749800655555 -0.023852339677089517 -0.0047378489634415759
leaf_weight=1.6072737723588941 3.6445599347352982 3.3430626504123211
leaf_count=12 19 18
internal_value=0 0.0178698
internal_weight=0 4.95034
internal_count=49 30
is_linear=0
shrinkage=0.1


Tree=61
num_leaves=4
num_cat=0
split_feature=15 7 7
split_gain=0.378429 0.820802 0.49261
threshold=412.50000000000119 382.66666666666703 505.16666666666612
decision_type=2 2 2
left_child=-1 -2 -3
right_child=1 2 -4
leaf_value=-0.040365139764018981 0.054530053300822813 -0.050779316377128174 0.018707997741701673
leaf_weight=1.812800846993923 2.6434098109602928 2.0979736298322678 1.985960781574249
leaf_count=11 14 11 13
internal_value=0 0.0111136 -0.0169886
internal_weight=0 6.72734 4.08393
internal_count=49 38 24
is_linear=0
shrinkage=0.1


Tree=62
num_leaves=4
num_cat=0
split_feature=9 9 7
split_gain=0.291232 0.60282 0.163767
threshold=36.500000000000007 15.500000000000002 382.66666666666703
decision_type=2 2 2
left_child=1 -1 -3
right_child=-2 2 -4
leaf_value=0.031886566585616172 0.029916592539852124 -0.014383368118644803 -0.054704184312169529
leaf_weight=2.1183683611452579 2.3758687525987625 2.070786640048027 1.9614693671464918
leaf_count=15 13 10 11
internal_value=0 -0.0113058 -0.0339972
internal_weight=0 6.15062 4.03226
internal_count=49 36 21
is_linear=0
shrinkage=0.1


Tree=63
num_leaves=3
num_cat=0
split_feature=6 14
split_gain=0.382678 0.355696
threshold=2.7499999999999996 781.33333333333405
decision_type=2 2
left_child=1 -1
right_child=-2 -3
leaf_value=0.041891042807715329 -0.027446760957202193 -0.0096998121232955981
leaf_weight=2.712280347943306 3.1546296030282974 2.6344161368906498
leaf_count=17 18 14
internal_value=0 0.0164713
internal_weight=0 5.3467
internal_count=49 31
is_linear=0
shrinkage=0.1


Tree=64
num_leaves=3
num_cat=0
split_feature=15 9
split_gain=0.366214 0.257287
threshold=412.50000000000119 24.500000000000004
decision_type=2 2
left_child=-1 -2
right_child=1 -3
leaf_value=-0.039523878234928679 -0.011126811060009968 0.028440053470065653
leaf_weight=1.8251923769712446 2.9350347481667995 3.7345825657248497
leaf_count=11 19 19
internal_value=0 0.0110282
internal_weight=0 6.66962
internal_count=49 38
is_linear=0
shrinkage=0.1


Tree=65
num_leaves=4
num_cat=0
split_feature=14 8 8
split_gain=0.262953 0.709571 0.349211
threshold=151.66129898013955 2.3000000000000012 0.65000000000000002
decision_type=2 2 2
left_child=-1 2 -2
right_child=1 -3 -4
leaf_value=0.027025293535008366 -0.015005166290670391 -0.061541179052149314 0.04387688059910972
leaf_weight=2.5508506894111633 2.1663983426988125 1.912381626665592 1.8823857605457304
leaf_count=17 11 10 11
internal_value=0 -0.0113408 0.0123706
internal_weight=0 5.96117 4.04878
internal_count=49 32 22
is_linear=0
shrinkage=0.1


Tree=66
num_leaves=4
num_cat=0
split_feature=15 7 15
split_gain=0.324272 0.603898 0.414883
threshold=412.50000000000119 382.66666666666703 847.00000000000466
decision_type=2 2 2
left_child=-1 -2 -3
right_child=1 2 -4
leaf_value=-0.037065747342099768 0.048068020937417827 -0.039375578214546091 0.026479970377569575
leaf_weight=1.8338198661804197 2.5953110009431839 2.4624180793762207 1.5643627643585203
leaf_count=11 14 14 10
internal_value=0 0.0104524 -0.0137914
internal_weight=0 6.62209 4.02678
internal_count=49 38 24
is_linear=0
shrinkage=0.1


Tree=67
num_leaves=4
num_cat=0
split_feature=9 9 6
split_gain=0.331333 0.542011 0.159271
threshold=15.500000000000002 36.500000000000007 0.90000000000000002
decision_type=2 2 2
left_child=-1 2 -2
right_child=1 -3 -4
leaf_value=0.034676602530812332 -0.010624269353236928 0.02725621151181018 -0.050769805417714267
leaf_weight=2.0903348587453365 1.7409684583544729 2.3216164112091064 2.2856905087828636
leaf_count=15 9 13 12
internal_value=0 -0.0112254 -0.0334125
internal_weight=0 6.34828 4.02666
internal_count=49 34 21
is_linear=0
shrinkage=0.1


Tree=68
num_leaves=3
num_cat=0
split_feature=9 8
split_gain=0.340007 0.739895
threshold=30.500000000000004 1.6500000000000006
decision_type=2 2
left_child=1 -1
right_child=-2 -3
leaf_value=0.054341014903448386 -0.023338790739843379 -0.023886541177493087
leaf_weight=2.5577594041824341 3.5578730255365372 2.2929624989628792
leaf_count=15 19 15
internal_value=0 0.0173624
internal_weight=0 4.85072
internal_count=49 30
is_linear=0
shrinkage=0.1


Tree=69
num_leaves=3
num_cat=0
split_feature=6 15
split_gain=0.303177 0.372277
threshold=2.7499999999999996 771.16666666667118
decision_type=2 2
left_child=1 -1
right_child=-2 -3
leaf_value=-0.008276011974852936 -0.024567670443208709 0.045405776720184726
leaf_weight=3.0104846581816673 3.1199766919016838 2.2629001997411251
leaf_count=15 18 16
internal_value=0 0.0147598
internal_weight=0 5.27338
internal_count=49 31
is_linear=0
shrinkage=0.1


Tree=70
num_leaves=4
num_cat=0
split_feature=14 14 15
split_gain=0.261538 0.555991 0.362936
threshold=151.66129898013955 254.70114942528883 771.16666666667118
decision_type=2 2 2
left_child=-1 -2 -3
right_child=1 2 -4
leaf_value=0.02699737408969425 -0.055129402252707287 -0.023149543611678196 0.038125016014913589
leaf_weight=2.5303075686097145 1.9469266086816785 1.7705491036176684 2.1289980262517929
leaf_count=17 9 8 15
internal_value=0 -0.0114859 0.0103039
internal_weight=0 5.84647 3.89955
internal_count=49 32 23
is_linear=0
shrinkage=0.1


Tree=71
num_leaves=4
num_cat=0
split_feature=9 9 6
split_gain=0.3645 0.539509 0.121022
threshold=15.500000000000002 36.500000000000007 0.90000000000000002
decision_type=2 2 2
left_child=-1 2 -2
right_child=1 -3 -4
leaf_value=0.036564514564347471 -0.014036306535882294 0.027028364894796788 -0.049276481231279756
leaf_weight=2.0637803860008717 1.7106322422623637 2.2659192159771919 2.2646283805370331
leaf_count=15 9 13 12
internal_value=0 -0.0119144 -0.0341119
internal_weight=0 6.24118 3.97526
internal_count=49 34 21
is_linear=0
shrinkage=0.1


Tree=72
num_leaves=3
num_cat=0
split_feature=9 8
split_gain=0.356745 0.647499
threshold=30.500000000000004 1.6500000000000006
decision_type=2 2
left_child=1 -1
right_child=-2 -3
leaf_value=0.052883449814953444 -0.024144014407340347 -0.020840806224802548
leaf_weight=2.5100260116159916 3.4961909130215645 2.2674579806625843
leaf_count=15 19 15
internal_value=0 0.0178929
internal_weight=0 4.77748
internal_count=49 30
is_linear=0
shrinkage=0.1


Tree=73
num_leaves=4
num_cat=0
split_feature=9 9 6
split_gain=0.321744 0.512955 0.081362
threshold=15.500000000000002 36.500000000000007 0.90000000000000002
decision_type=2 2 2
left_child=-1 2 -2
right_child=1 -3 -4
leaf_value=0.034556638458326294 -0.016378426004698018 0.026755081258555094 -0.045377257242391479
leaf_weight=2.0430050380527973 1.693973131477833 2.2646431401371956 2.2561104968190193
leaf_count=15 9 13 12
internal_value=0 -0.0111879 -0.0329413
internal_weight=0 6.21473 3.95008
internal_count=49 34 21
is_linear=0
shrinkage=0.1


Tree=74
num_leaves=4
num_cat=0
split_feature=15 6 14
split_gain=0.30849 0.52968 0.654582
threshold=412.50000000000119 2.7499999999999996 928.86904761904782
decision_type=2 2 2
left_child=-1 2 -2
right_child=1 -3 -4
leaf_value=-0.036404478611887524 0.069141939494845817 -0.026381267266847499 -0.012358416424322165
leaf_weight=1.8046480715274809 2.2112377807497983 2.4331428408622742 1.7777629345655439
leaf_count=11 16 14 8
internal_value=0 0.0103905 0.03282
internal_weight=0 6.42214 3.989
internal_count=49 38 24
is_linear=0
shrinkage=0.1


Tree=75
num_leaves=3
num_cat=0
split_feature=9 8
split_gain=0.317224 0.55333
threshold=30.500000000000004 1.6500000000000006
decision_type=2 2
left_child=1 -1
right_child=-2 -3
leaf_value=0.049698316424964945 -0.022837331873271013 -0.018628366546739245
leaf_weight=2.4713509939610958 3.4729790315032005 2.2774916626513004
leaf_count=15 19 15
internal_value=0 0.0169296
internal_weight=0 4.74884
internal_count=49 30
is_linear=0
shrinkage=0.1


Tree=76
num_leaves=4
num_cat=0
split_feature=14 14 8
split_gain=0.262856 0.472709 0.372397
threshold=151.66129898013955 254.70114942528883 0.65000000000000002
decision_type=2 2 2
left_child=-1 -2 -3
right_child=1 2 -4
leaf_value=0.027264860610000864 -0.052167875060128356 -0.019438987251696547 0.043508493368326788
leaf_weight=2.4876226782798767 1.9166276305913923 2.0992795471102004 1.7016438990831373
leaf_count=17 9 11 12
internal_value=0 -0.011676 0.00874211
internal_weight=0 5.71755 3.80092
internal_count=49 32 23
is_linear=0
shrinkage=0.1


Tree=77
num_leaves=4
num_cat=0
split_feature=9 9 15
split_gain=0.358235 0.501479 0.12267
threshold=15.500000000000002 36.500000000000007 765.00000000000193
decision_type=2 2 2
left_child=-1 2 -2
right_child=1 -3 -4
leaf_value=0.036667933417862085 -0.016264859900372668 0.026099830438141639 -0.051671269426963852
leaf_weight=2.0183893460780382 2.0210963487625127 2.2177889123558998 1.8969578482210634
leaf_count=15 10 13 11
internal_value=0 -0.0118985 -0.0334072
internal_weight=0 6.13584 3.91805
internal_count=49 34 21
is_linear=0
shrinkage=0.1


Tree=78
num_leaves=4
num_cat=0
split_feature=9 8 9
split_gain=0.298589 0.652373 0.73959
threshold=12.500000000000002 1.6500000000000006 30.500000000000004
decision_type=2 2 2
left_child=-1 2 -2
right_child=1 -3 -4
leaf_value=0.038599180914452913 0.048752180022807609 -0.057303499699971949 -0.032330460407693794
leaf_weight=1.6157320737838743 2.4487525187432766 1.9804276525974271 2.0809347182512283
leaf_count=12 15 10 12
internal_value=0 -0.00942856 0.0115029
internal_weight=0 6.51011 4.52969
internal_count=49 37 27
is_linear=0
shrinkage=0.1


Tree=79
num_leaves=3
num_cat=0
split_feature=7 9
split_gain=0.292178 0.288359
threshold=382.33333333333491 24.500000000000004
decision_type=2 2
left_child=-1 -2
right_child=1 -3
leaf_value=-0.022265072189941001 -0.014715179674129705 0.036145492048121668
leaf_weight=3.3839957863092422 1.8281284365803001 2.8565571457147598
leaf_count=19 14 16
internal_value=0 0.0162979
internal_weight=0 4.68469
internal_count=49 30
is_linear=0
shrinkage=0.1


Tree=80
num_leaves=4
num_cat=0
split_feature=15 7 15
split_gain=0.253919 0.552886 0.430262
threshold=412.50000000000119 382.66666666666703 847.00000000000466
decision_type=2 2 2
left_child=-1 -2 -3
right_child=1 2 -4
leaf_value=-0.033292356956249977 0.046194148790372473 -0.041471284766330094 0.027358971302836762
leaf_weight=1.7745756208896635 2.488105021417141 2.311006966978312 1.4961406793445347
leaf_count=11 14 14 10
internal_value=0 0.00953549 -0.0144222
internal_weight=0 6.29525 3.80715
internal_count=49 38 24
is_linear=0
shrinkage=0.1


Tree=81
num_leaves=4
num_cat=0
split_feature=9 9 7
split_gain=0.288409 0.509143 0.0894035
threshold=15.500000000000002 36.500000000000007 382.66666666666703
decision_type=2 2 2
left_child=-1 2 -2
right_child=1 -3 -4
leaf_value=0.033523349421495714 -0.01761176324144597 0.027741624836865937 -0.047957850591476454
leaf_weight=1.9562385268509386 1.992813512682915 2.2076643332839012 1.8931160420179365
leaf_count=15 10 13 11
internal_value=0 -0.0106083 -0.0323955
internal_weight=0 6.09359 3.88593
internal_count=49 34 21
is_linear=0
shrinkage=0.1


Tree=82
num_leaves=3
num_cat=0
split_feature=6 14
split_gain=0.269157 0.317416
threshold=2.7499999999999996 781.33333333333405
decision_type=2 2
left_child=1 -1
right_child=-2 -3
leaf_value=0.039272818514338968 -0.023645587518095965 -0.010958588441569737
leaf_weight=2.5237724129110575 2.9905611723661423 2.5082513354718685
leaf_count=17 18 14
internal_value=0 0.0142346
internal_weight=0 5.03202
internal_count=49 31
is_linear=0
shrinkage=0.1


Tree=83
num_leaves=3
num_cat=0
split_feature=7 9
split_gain=0.294938 0.226006
threshold=382.33333333333491 24.500000000000004
decision_type=2 2
left_child=-1 -2
right_child=1 -3
leaf_value=-0.022315793145279178 -0.010856090410968992 0.034357334911857981
leaf_weight=3.3864962533116341 1.8259452525526283 2.8022744879126549
leaf_count=19 14 16
internal_value=0 0.0165195
internal_weight=0 4.62822
internal_count=49 30
is_linear=0
shrinkage=0.1


Tree=84
num_leaves=3
num_cat=0
split_feature=7 6
split_gain=0.238746 0.164159
threshold=382.33333333333491 2.1000000000000005
decision_type=2 2
left_child=-1 -2
right_child=1 -3
leaf_value=-0.020019280851185112 0.031170058985470584 -0.0069517234952469129
leaf_weight=3.3968974277377129 2.647819347679615 1.9699955731630323
leaf_count=19 19 11
internal_value=0 0.014907
internal_weight=0 4.61781
internal_count=49 30
is_linear=0
shrinkage=0.1


Tree=85
num_leaves=4
num_cat=0
split_feature=15 7 15
split_gain=0.214175 0.500281 0.377525
threshold=412.50000000000119 382.66666666666703 847.00000000000466
decision_type=2 2 2
left_child=-1 -2 -3
right_child=1 2 -4
leaf_value=-0.030466420926749716 0.043924838506638919 -0.03950843368292515 0.025423204435240338
leaf_weight=1.7817931771278379 2.4593382254242897 2.2870111726224427 1.4716116767376659
leaf_count=11 14 14 10
internal_value=0 0.00885867 -0.0140858
internal_weight=0 6.21796 3.75862
internal_count=49 38 24
is_linear=0
shrinkage=0.1


Tree=86
num_leaves=4
num_cat=0
split_feature=9 9 7
split_gain=0.319879 0.447547 0.468986
threshold=15.500000000000002 24.500000000000004 382.33333333333491
decision_type=2 2 2
left_child=-1 -2 -3
right_child=1 2 -4
leaf_value=0.035211474774283456 -0.058649321028202896 -0.03594137388448914 0.030109941645007788
leaf_weight=1.9578892905265091 1.500080347061157 1.7606734707951543 2.760198213160038
leaf_count=15 9 9 16
internal_value=0 -0.0113189 0.00438596
internal_weight=0 6.02095 4.52087
internal_count=49 34 25
is_linear=0
shrinkage=0.1


Tree=87
num_leaves=3
num_cat=0
split_feature=9 6
split_gain=0.280071 0.324772
threshold=30.500000000000004 2.1000000000000005
decision_type=2 2
left_child=1 -1
right_child=-2 -3
leaf_value=0.049495768208525685 -0.021946147575066688 -0.0050098724024970351
leaf_weight=1.7832435779273508 3.3406281992793083 2.8250375092029572
leaf_count=13 19 17
internal_value=0 0.0160819
internal_weight=0 4.60828
internal_count=49 30
is_linear=0
shrinkage=0.1


Tree=88
num_leaves=4
num_cat=0
split_feature=14 14 15
split_gain=0.307888 0.403374 0.33387
threshold=151.66129898013955 254.70114942528883 771.16666666667118
decision_type=2 2 2
left_child=-1 -2 -3
right_child=1 2 -4
leaf_value=0.029843615657893636 -0.051066576483595361 -0.026174264857397357 0.034378173996635432
leaf_weight=2.4183313772082329 1.8465266376733778 1.6999697089195254 1.9609217122197149
leaf_count=17 9 8 15
internal_value=0 -0.0129604 0.00626007
internal_weight=0 5.50742 3.66089
internal_count=49 32 23
is_linear=0
shrinkage=0.1


Tree=89
num_leaves=3
num_cat=0
split_feature=7 6
split_gain=0.18211 0.0923119
threshold=382.33333333333491 2.1000000000000005
decision_type=2 2
left_child=-1 -2
right_child=1 -3
leaf_value=-0.017584710922788519 0.025583962523683834 -0.0033148174003623009
leaf_weight=3.3454215675592422 2.5797821264714003 1.9339978843927381
leaf_count=19 19 11
internal_value=0 0.0132018
internal_weight=0 4.51378
internal_count=49 30
is_linear=0
shrinkage=0.1


Tree=90
num_leaves=4
num_cat=0
split_feature=14 8 8
split_gain=0.271764 0.370088 0.391162
threshold=151.66129898013955 2.3000000000000012 0.65000000000000002
decision_type=2 2 2
left_child=-1 2 -2
right_child=1 -3 -4
leaf_value=0.028192761227405078 -0.024217816012303384 -0.050003098376513511 0.041069238927891022
leaf_weight=2.3921987563371658 2.0004955884069209 1.7580860760062931 1.6954926513135431
leaf_count=17 11 10 11
internal_value=0 -0.0122339 0.00573188
internal_weight=0 5.45407 3.69599
internal_count=49 32 22
is_linear=0
shrinkage=0.1


Tree=91
num_leaves=4
num_cat=0
split_feature=14 14 15
split_gain=0.222547 0.292819 0.225584
threshold=151.66129898013955 254.70114942528883 771.16666666667118
decision_type=2 2 2
left_child=-1 -2 -3
right_child=1 2 -4
leaf_value=0.025708067292570282 -0.04368333604272906 -0.021287129690988071 0.028849619292195081
leaf_weight=2.3626834005117416 1.8260285109281538 1.6818330734968188 1.9241341501474378
leaf_count=17 9 8 15
internal_value=0 -0.0110563 0.0054657
internal_weight=0 5.432 3.60597
internal_count=49 32 23
is_linear=0
shrinkage=0.1


Tree=92
num_leaves=4
num_cat=0
split_feature=9 9 14
split_gain=0.342611 0.465898 0.0446027
threshold=15.500000000000002 36.500000000000007 822.11111111111188
decision_type=2 2 2
left_child=-1 2 -2
right_child=1 -3 -4
leaf_value=0.037291610151727113 -0.042246571520354548 0.026286124153342885 -0.020370485215652455
leaf_weight=1.8749173004180191 2.1312389001250271 2.0734884589910507 1.6563532873988149
leaf_count=15 12 13 9
internal_value=0 -0.0118194 -0.0326799
internal_weight=0 5.86108 3.78759
internal_count=49 34 21
is_linear=0
shrinkage=0.1


Tree=93
num_leaves=3
num_cat=0
split_feature=9 8
split_gain=0.322559 0.499795
threshold=30.500000000000004 1.6500000000000006
decision_type=2 2
left_child=1 -1
right_child=-2 -3
leaf_value=0.049106738595115357 -0.023906116549255053 -0.017955867784292315
leaf_weight=2.3604527767747641 3.2447285801172256 2.0999550893902779
leaf_count=15 19 15
internal_value=0 0.0175337
internal_weight=0 4.46041
internal_count=49 30
is_linear=0
shrinkage=0.1


Tree=94
num_leaves=3
num_cat=0
split_feature=9 9
split_gain=0.299146 0.442449
threshold=15.500000000000002 36.500000000000007
decision_type=2 2
left_child=-1 -2
right_child=1 -3
leaf_value=0.035063139023851733 -0.031484117528467255 0.02605970876658098
leaf_weight=1.8551112953573463 3.7607007250189781 2.0725709795951843
leaf_count=15 21 13
internal_value=0 -0.0110387
internal_weight=0 5.83327
internal_count=49 34
is_linear=0
shrinkage=0.1


Tree=95
num_leaves=4
num_cat=0
split_feature=15 6 8
split_gain=0.226261 0.35865 0.997681
threshold=412.50000000000119 2.7499999999999996 0.65000000000000002
decision_type=2 2 2
left_child=-1 2 -2
right_child=1 -3 -4
leaf_value=-0.032053469830957859 -0.019870468915899678 -0.022135966412251705 0.084261056911033486
leaf_weight=1.7035143822431562 1.9831271544098856 2.2575259804725647 1.7164323031902311
leaf_count=11 11 14 13
internal_value=0 0.00927471 0.028442
internal_weight=0 5.95709 3.69956
internal_count=49 38 24
is_linear=0
shrinkage=0.1


Tree=96
num_leaves=4
num_cat=0
split_feature=14 8 8
split_gain=0.213499 0.318682 0.25035
threshold=151.66129898013955 2.3000000000000012 0.65000000000000002
decision_type=2 2 2
left_child=-1 2 -2
right_child=1 -3 -4
leaf_value=0.025458310939259668 -0.017860641331490894 -0.046350610803682309 0.035071383936637328
leaf_weight=2.3146440833806992 1.9855214990675452 1.7191835101693866 1.6246810443699358
leaf_count=17 11 10 11
internal_value=0 -0.0109146 0.00596009
internal_weight=0 5.32939 3.6102
internal_count=49 32 22
is_linear=0
shrinkage=0.1


Tree=97
num_leaves=3
num_cat=0
split_feature=9 8
split_gain=0.311709 0.437851
threshold=30.500000000000004 1.6500000000000006
decision_type=2 2
left_child=1 -1
right_child=-2 -3
leaf_value=0.047073988584232757 -0.023744340340480154 -0.016038637854426951
leaf_weight=2.330584367737174 3.1855287402868271 2.0805582702159882
leaf_count=15 19 15
internal_value=0 0.0173063
internal_weight=0 4.41114
internal_count=49 30
is_linear=0
shrinkage=0.1


Tree=98
num_leaves=4
num_cat=0
split_feature=7 6 8
split_gain=0.169427 0.542483 0.810261
threshold=382.33333333333491 2.7499999999999996 0.65000000000000002
decision_type=2 2 2
left_child=-1 2 -2
right_child=1 -3 -4
leaf_value=-0.017181749699637573 -0.015845432623399301 -0.03522793677697772 0.091412618983991639
leaf_weight=3.2461334317922592 1.3781069163233044 1.5149433910846708 1.4405246470123527
leaf_count=19 8 9 13
internal_value=0 0.0130325 0.0389712
internal_weight=0 4.33357 2.81863
internal_count=49 30 21
is_linear=0
shrinkage=0.1


Tree=99
num_leaves=4
num_cat=0
split_feature=9 9 15
split_gain=0.357008 0.40311 0.199183
threshold=15.500000000000002 36.500000000000007 765.00000000000193
decision_type=2 2 2
left_child=-1 2 -2
right_child=1 -3 -4
leaf_value=0.038468563923058058 -0.0093940427457568018 0.024019060683024663 -0.055836974827382049
leaf_weight=1.8355409353971479 1.9156582504510882 1.9918003007769582 1.7829052992165086
leaf_count=15 10 13 11
internal_value=0 -0.0122499 -0.031782
internal_weight=0 5.69036 3.69856
internal_count=49 34 21
is_linear=0
shrinkage=0.1


end of trees

feature_importances:
taskNum=79
s_scroll_speed=46
scroll_length=38
response_time=35
scroll_time=34
s_view_position=29

parameters:
[boosting: gbdt]
[objective: binary]
[metric: binary_error]
[tree_learner: serial]
[device_type: cpu]
[data_sample_strategy: bagging]
[data: ]
[valid: ]
[num_iterations: 100]
[learning_rate: 0.1]
[num_leaves: 31]
[num_threads: 0]
[seed: 0]
[deterministic: 0]
[force_col_wise: 0]
[force_row_wise: 0]
[histogram_pool_size: -1]
[max_depth: -1]
[min_data_in_leaf: 10]
[min_sum_hessian_in_leaf: 0.001]
[bagging_fraction: 1]
[pos_bagging_fraction: 1]
[neg_bagging_fraction: 1]
[bagging_freq: 0]
[bagging_seed: 3]
[feature_fraction: 0.6]
[feature_fraction_bynode: 1]
[feature_fraction_seed: 2]
[extra_trees: 0]
[extra_seed: 6]
[early_stopping_round: 0]
[first_metric_only: 0]
[max_delta_step: 0]
[lambda_l1: 0]
[lambda_l2: 0]
[linear_lambda: 0]
[min_gain_to_split: 0]
[drop_rate: 0.1]
[max_drop: 50]
[skip_drop: 0.5]
[xgboost_dart_mode: 0]
[uniform_drop: 0]
[drop_seed: 4]
[top_rate: 0.2]
[other_rate: 0.1]
[min_data_per_group: 100]
[max_cat_threshold: 32]
[cat_l2: 10]
[cat_smooth: 10]
[max_cat_to_onehot: 4]
[top_k: 20]
[monotone_constraints: ]
[monotone_constraints_method: basic]
[monotone_penalty: 0]
[feature_contri: ]
[forcedsplits_filename: ]
[refit_decay_rate: 0.9]
[cegb_tradeoff: 1]
[cegb_penalty_split: 0]
[cegb_penalty_feature_lazy: ]
[cegb_penalty_feature_coupled: ]
[path_smooth: 0]
[interaction_constraints: ]
[verbosity: -1]
[saved_feature_importance_type: 0]
[use_quantized_grad: 0]
[num_grad_quant_bins: 4]
[quant_train_renew_leaf: 0]
[stochastic_rounding: 1]
[linear_tree: 0]
[max_bin: 255]
[max_bin_by_feature: ]
[min_data_in_bin: 3]
[bin_construct_sample_cnt: 200000]
[data_random_seed: 1]
[is_enable_sparse: 1]
[enable_bundle: 1]
[use_missing: 1]
[zero_as_missing: 0]
[feature_pre_filter: 0]
[pre_partition: 0]
[two_round: 0]
[header: 0]
[label_column: ]
[weight_column: ]
[group_column: ]
[ignore_column: ]
[categorical_feature: ]
[forcedbins_filename: ]
[precise_float_parser: 0]
[parser_config_file: ]
[objective_seed: 5]
[num_class: 1]
[is_unbalance: 0]
[scale_pos_weight: 1]
[sigmoid: 1]
[boost_from_average: 1]
[reg_sqrt: 0]
[alpha: 0.9]
[fair_c: 1]
[poisson_max_delta_step: 0.7]
[tweedie_variance_power: 1.5]
[lambdarank_truncation_level: 30]
[lambdarank_norm: 1]
[label_gain: ]
[lambdarank_position_bias_regularization: 0]
[eval_at: ]
[multi_error_top_k: 1]
[auc_mu_weights: ]
[num_machines: 1]
[local_listen_port: 12400]
[time_out: 120]
[machine_list_filename: ]
[machines: ]
[gpu_platform_id: -1]
[gpu_device_id: -1]
[gpu_use_dp: 0]
[num_gpu: 1]

end of parameters

pandas_categorical:[]
