tree
version=v4
num_class=1
num_tree_per_iteration=1
label_index=0
max_feature_idx=15
objective=binary sigmoid:1
feature_names=ratio_tap_position_y screen_height tap_position_x tap_position_y predicted_isAnswerCorrect s_tap_count scroll_time s_view_position response_time taskNum screen_width ratio_tap_position_x s_choice_left event_scroll s_scroll_speed scroll_length
feature_infos=none [844:844] none none [0:1] [1:1] [-0.5:18.799999999999962] [-343.99999999999989:1145.6666666666642] [0:10.399999999999981] [1:142] [390:390] none [0:1] [0:6] [-3503.3333333333576:6900.0000000000018] [0:14300.666666666672]
tree_sizes=724 732 645 642 645 646 735 649 647 642 656 651 655 753 648 755 651 750 753 649 650 753 740 754 756 651 757 646 651 756 654 652 640 658 651 758 853 760 639 758 648 651 661 651 755 652 653 650 652 654 758 649 652 755 651 756 761 762 656 651 754 651 658 654 653 755 652 656 655 650 853 656 649 655 753 653 760 754 756 656 756 754 758 653 657 755 657 752 661 653 856 655 654 659 654 753 655 658 654 654

Tree=0
num_leaves=6
num_cat=0
split_feature=4 9 6 6 6
split_gain=51.8672 2.53969 1.48949 1.54993 1.07338
threshold=1.0000000180025095e-35 96.500000000000014 1.25 0.40000000000000013 2.7499999999999996
decision_type=2 2 2 2 2
left_child=-1 2 3 -2 -4
right_child=1 -3 4 -5 -6
leaf_value=0.22538980401423425 0.54363475291840213 0.59667557773576352 0.5890983170475691 0.46522657710143334 0.52241842299145769
leaf_weight=6.1273556947708121 4.7133505344390922 7.5413608551025382 4.9490180611610395 5.42035311460495 4.7133505344390869
leaf_count=26 20 32 21 23 20
internal_value=0.488353 0.547293 0.52848 0.501695 0.556572
internal_weight=0 27.3374 19.7961 10.1337 9.66237
internal_count=142 116 84 43 41
is_linear=0
shrinkage=1


Tree=1
num_leaves=6
num_cat=0
split_feature=4 9 6 6 6
split_gain=40.4068 2.18047 1.24745 1.27119 0.921075
threshold=1.0000000180025095e-35 96.500000000000014 1.25 0.40000000000000013 2.7499999999999996
decision_type=2 2 2 2 2
left_child=-1 2 3 -2 -4
right_child=1 -3 4 -5 -6
leaf_value=-0.22528111001770262 0.050491157063375425 0.10048002744352527 0.093237165406541256 -0.020694974171565024 0.030932898491247765
leaf_weight=6.4181429743766776 4.6480396389961296 7.3281707763671866 4.8196200728416425 5.449762150645256 4.6737873554229736
leaf_count=26 20 32 21 23 20
internal_value=0 0.0539455 0.036539 0.0120722 0.0625636
internal_weight=0 26.9194 19.5912 10.0978 9.49341
internal_count=142 116 84 43 41
is_linear=0
shrinkage=0.1


Tree=2
num_leaves=5
num_cat=0
split_feature=4 9 7 6
split_gain=32.473 1.88232 1.22653 1.68129
threshold=1.0000000180025095e-35 96.500000000000014 446.00000000000006 1.5000000000000002
decision_type=2 2 2 2
left_child=-1 2 3 -2
right_child=1 -3 -4 -5
leaf_value=-0.20001087188720704 -0.018509038416595038 0.093474575332292809 0.071825233943780251 0.051848029232233472
leaf_weight=6.4999999999999991 6.7552194148302132 7.1015906333923331 5.7916292846202841 6.8310390114784241
leaf_count=26 29 32 25 30
internal_value=0 0.0494325 0.033292 0.0168658
internal_weight=0 26.4795 19.3779 13.5863
internal_count=142 116 84 59
is_linear=0
shrinkage=0.1


Tree=3
num_leaves=5
num_cat=0
split_feature=4 9 8 9
split_gain=26.6316 1.79217 1.29818 1.56054
threshold=1.0000000180025095e-35 36.500000000000007 0.15000000000000005 72.500000000000014
decision_type=2 2 2 2
left_child=-1 -2 -3 -4
right_child=1 2 3 -5
leaf_value=-0.1818810842493383 0.0059190317083596122 0.031053628458107919 0.05118123757943726 0.12874970645511952
leaf_weight=6.4354936480522147 8.0098918825387972 7.5274972915649441 5.8707105219364148 4.6462559849023819
leaf_count=26 35 34 26 21
internal_value=0 0.0452838 0.0627578 0.08545
internal_weight=0 26.0544 18.0445 10.517
internal_count=142 116 81 47
is_linear=0
shrinkage=0.1


Tree=4
num_leaves=5
num_cat=0
split_feature=4 9 7 6
split_gain=22.1573 1.55431 1.02588 1.41899
threshold=1.0000000180025095e-35 96.500000000000014 446.00000000000006 1.5000000000000002
decision_type=2 2 2 2
left_child=-1 2 3 -2
right_child=1 -3 -4 -5
leaf_value=-0.16826430428744973 -0.020654380795684851 0.082868297978027111 0.062744050827721207 0.044532271789918344
leaf_weight=6.2687797248363522 6.7152587175369316 6.6967231929302207 5.6021871864795676 6.6425064206123352
leaf_count=26 29 32 25 30
internal_value=0 0.0414534 0.0268255 0.0117614
internal_weight=0 25.6567 18.96 13.3578
internal_count=142 116 84 59
is_linear=0
shrinkage=0.1


Tree=5
num_leaves=5
num_cat=0
split_feature=4 9 8 9
split_gain=18.6406 1.44955 1.18769 1.38485
threshold=1.0000000180025095e-35 36.500000000000007 0.15000000000000005 72.500000000000014
decision_type=2 2 2 2
left_child=-1 -2 -3 -4
right_child=1 2 3 -5
leaf_value=-0.15769223185404393 0.0025298938521655678 0.023450007017316227 0.044118588992619931 0.11910737575554442
leaf_weight=6.0321218669414547 7.9191285371780422 7.2897094190120724 5.706324949860571 4.3324648886919022
leaf_count=26 35 34 26 21
internal_value=0 0.0379743 0.0541725 0.0764817
internal_weight=0 25.2476 17.3285 10.0388
internal_count=142 116 81 47
is_linear=0
shrinkage=0.1


Tree=6
num_leaves=6
num_cat=0
split_feature=4 9 6 6 6
split_gain=15.8159 1.28876 0.870618 1.09781 0.758809
threshold=1.0000000180025095e-35 96.500000000000014 1.25 0.40000000000000013 2.7499999999999996
decision_type=2 2 2 2 2
left_child=-1 2 3 -2 -4
right_child=1 -3 4 -5 -6
leaf_value=-0.14927566115831672 0.037671136002388007 0.073825247802026636 0.073802923761373193 -0.02973338987161693 0.015148274539921257
leaf_weight=5.749470233917239 4.428210869431501 6.3031200915575019 4.3776518404483777 5.3181945383548737 4.4452871978282928
leaf_count=26 20 32 21 23 20
internal_value=0 0.0347549 0.0214929 0.000891383 0.0442508
internal_weight=0 24.8725 18.5693 9.74641 8.82294
internal_count=142 116 84 43 41
is_linear=0
shrinkage=0.1


Tree=7
num_leaves=5
num_cat=0
split_feature=4 7 7 15
split_gain=13.5164 1.29785 2.79437 2.68674
threshold=1.0000000180025095e-35 446.00000000000006 348.50000000000489 699.33333333333223
decision_type=2 2 2 2
left_child=-1 2 -2 -4
right_child=1 -3 3 -5
leaf_value=-0.14244269980360316 0.067455737712377298 0.065549737353812129 -0.074085312086785232 0.029181326600733096
leaf_weight=5.4387101531028774 6.4841824024915757 7.7864931076765052 4.5165161937475187 5.6979155838489532
leaf_count=26 31 38 21 26
internal_value=0 0.0318342 0.0161127 -0.0164801
internal_weight=0 24.4851 16.6986 10.2144
internal_count=142 116 78 47
is_linear=0
shrinkage=0.1


Tree=8
num_leaves=5
num_cat=0
split_feature=4 9 8 9
split_gain=11.6172 1.1222 1.19076 1.19567
threshold=1.0000000180025095e-35 36.500000000000007 0.15000000000000005 72.500000000000014
decision_type=2 2 2 2
left_child=-1 -2 -3 -4
right_child=1 2 3 -5
leaf_value=-0.13680788640026625 -0.0021430984815817939 0.012498034781596626 0.037034783507731317 0.10922761162663196
leaf_weight=5.1131901443004635 7.7870793789625194 6.9323454648256329 5.5131461024284345 3.9292028844356537
leaf_count=26 35 34 26 21
internal_value=0 0.0291083 0.0439701 0.0670761
internal_weight=0 24.1618 16.3747 9.44235
internal_count=142 116 81 47
is_linear=0
shrinkage=0.1


Tree=9
num_leaves=5
num_cat=0
split_feature=4 7 7 9
split_gain=10.034 1.06167 2.45 0.225583
threshold=1.0000000180025095e-35 446.00000000000006 366.50000000000733 84.500000000000014
decision_type=2 2 2 2
left_child=-1 2 3 -2
right_child=1 -3 -4 -5
leaf_value=-0.13210153609121764 0.061747615101256738 0.057990917009657209 -0.031510259775403865 0.030525133437085208
leaf_weight=4.7828140854835537 4.7036496996879631 7.422420158982276 7.1599533706903449 4.5549285262823105
leaf_count=26 22 38 33 23
internal_value=0 0.0266055 0.0124169 0.0463871
internal_weight=0 23.841 16.4185 9.25858
internal_count=142 116 78 45
is_linear=0
shrinkage=0.1


Tree=10
num_leaves=5
num_cat=0
split_feature=4 9 6 13
split_gain=8.70262 0.966429 0.893626 0.917553
threshold=1.0000000180025095e-35 96.500000000000014 1.5000000000000002 1.0000000180025095e-35
decision_type=2 2 2 2
left_child=-1 2 3 -2
right_child=1 -3 -4 -5
leaf_value=-0.12812904510690987 0.024666091026965174 0.060231525226824491 0.038667119797482608 -0.035342673703380366
leaf_weight=4.4548505544662502 4.9047221839428001 5.6766851991415015 7.668013095855712 5.3028664141893387
leaf_count=26 23 32 37 24
internal_value=0 0.0242855 0.0128702 -0.0065086
internal_weight=0 23.5523 17.8756 10.2076
internal_count=142 116 84 47
is_linear=0
shrinkage=0.1


Tree=11
num_leaves=5
num_cat=0
split_feature=4 7 7 15
split_gain=7.57737 0.91273 2.03058 2.41976
threshold=1.0000000180025095e-35 446.00000000000006 348.50000000000489 699.33333333333223
decision_type=2 2 2 2
left_child=-1 2 -2 -4
right_child=1 -3 3 -5
leaf_value=-0.12474624038837612 0.054953771283434961 0.051959548762015112 -0.072717390451726524 0.025681917762907076
leaf_weight=4.1345441937446621 6.0241445749998155 7.1318760663270941 4.5268921107053739 5.5792021155357361
leaf_count=26 31 38 21 26
internal_value=0 0.0221699 0.00899864 -0.0183948
internal_weight=0 23.2621 16.1302 10.1061
internal_count=142 116 78 47
is_linear=0
shrinkage=0.1


Tree=12
num_leaves=5
num_cat=0
split_feature=4 9 8 8
split_gain=6.62174 0.836434 1.30056 0.899688
threshold=1.0000000180025095e-35 36.500000000000007 0.15000000000000005 0.45000000000000007
decision_type=2 2 2 2
left_child=-1 -2 -3 -4
right_child=1 2 3 -5
leaf_value=-0.12184402295749497 -0.0068083654219199766 -0.00018189103035638646 0.099443835683376711 0.033710132844756817
leaf_weight=3.8255817890167263 7.6354052424430874 6.5228359699249259 3.3580616414546949 5.4801253229379654
leaf_count=26 35 34 20 27
internal_value=0 0.0202424 0.0336884 0.0586856
internal_weight=0 22.9964 15.361 8.83819
internal_count=142 116 81 47
is_linear=0
shrinkage=0.1


Tree=13
num_leaves=6
num_cat=0
split_feature=8 8 8 7 7
split_gain=1.18408 1.73662 1.34195 0.893463 0.120189
threshold=2.6500000000000017 1.0500000000000003 0.55000000000000016 399.00000000000369 268.83333333332854
decision_type=2 2 2 2 2
left_child=1 2 3 4 -1
right_child=-2 -3 -4 -5 -6
leaf_value=0.0017302751952199367 0.048526638563118174 -0.06604472064088894 0.058076364242629422 -0.037686463937924866 0.026718549179993709
leaf_weight=4.2384511828422635 4.2135445773601523 4.3370814174413672 3.7050221264362326 6.2638486474752426 3.5261864811182022
leaf_count=23 21 23 18 38 19
internal_value=0 -0.00932377 0.00454846 -0.00958863 0.0130783
internal_weight=0 22.0706 17.7335 14.0285 7.76464
internal_count=142 121 98 80 42
is_linear=0
shrinkage=0.1


Tree=14
num_leaves=5
num_cat=0
split_feature=7 8 6 14
split_gain=1.03526 1.39281 1.83584 1.91578
threshold=348.50000000000489 0.15000000000000005 2.4000000000000008 346.36363636363666
decision_type=2 2 2 2
left_child=-1 -2 3 -3
right_child=1 2 -4 -5
leaf_value=0.035114532437729516 -0.062914252787245092 0.079509503956040672 -0.050639610139174986 -0.006898704276787869
leaf_weight=6.3545718193054226 4.1334962993860271 4.0185939669609052 4.6240789890289298 7.0978374779224396
leaf_count=35 24 23 24 36
internal_value=0 -0.0112542 0.0023118 0.0243379
internal_weight=0 19.874 15.7405 11.1164
internal_count=142 107 83 59
is_linear=0
shrinkage=0.1


Tree=15
num_leaves=6
num_cat=0
split_feature=8 8 8 7 7
split_gain=1.05373 1.38459 1.1123 0.591503 0.123279
threshold=2.6500000000000017 1.0500000000000003 0.55000000000000016 399.00000000000369 268.83333333332854
decision_type=2 2 2 2 2
left_child=1 2 3 4 -1
right_child=-2 -3 -4 -5 -6
leaf_value=-0.0019559462813441837 0.046141568660919799 -0.059072543455008758 0.052980100695002419 -0.031778365277753469 0.023550755680226965
leaf_weight=4.1752600520849317 4.1622445136308661 4.3755962550640097 3.6442946046590796 6.2921709269285202 3.4693894982337952
leaf_count=23 21 23 18 38 19
internal_value=0 -0.00873616 0.00379159 -0.00907056 0.00961982
internal_weight=0 21.9567 17.5811 13.9368 7.64465
internal_count=142 121 98 80 42
is_linear=0
shrinkage=0.1


Tree=16
num_leaves=5
num_cat=0
split_feature=15 7 7 15
split_gain=0.996741 1.3341 0.951432 0.989136
threshold=934.33333333333405 348.50000000000489 446.00000000000006 699.33333333333223
decision_type=2 2 2 2
left_child=1 -1 3 -3
right_child=-2 2 -4 -5
leaf_value=0.031627601231666559 0.049640253730833181 -0.071401596367079018 0.0098349243684114612 -0.010083641944834765
leaf_weight=6.2440523058176103 3.5049779266118994 5.2439578175544757 5.7887682244181624 5.2791890501976013
leaf_count=35 19 26 36 26
internal_value=0 -0.00768062 -0.0227275 -0.04064
internal_weight=0 22.556 16.3119 10.5231
internal_count=142 123 88 52
is_linear=0
shrinkage=0.1


Tree=17
num_leaves=6
num_cat=0
split_feature=8 9 9 8 7
split_gain=0.918037 1.04802 2.5081 1.6332 0.739068
threshold=2.6500000000000017 30.500000000000004 63.500000000000007 0.15000000000000005 348.50000000000489
decision_type=2 2 2 2 2
left_child=1 -1 -3 4 -4
right_child=-2 2 3 -5 -6
leaf_value=0.040773632901002124 0.043355202651293251 -0.079961274426851262 0.006952612207400094 0.048160431116561056 -0.053076738501823977
leaf_weight=3.6521932482719484 4.1187267303466788 4.7986223548650768 4.0443443506956083 5.1957824230194083 4.1611570045351982
leaf_count=17 21 25 23 32 24
internal_value=0 -0.00811371 -0.017924 0.00428983 -0.0234893
internal_weight=0 21.8521 18.1999 13.4013 8.2055
internal_count=142 121 104 79 47
is_linear=0
shrinkage=0.1


Tree=18
num_leaves=6
num_cat=0
split_feature=9 9 14 7 9
split_gain=0.7606 1.38557 1.16702 0.571591 0.763688
threshold=15.500000000000002 36.500000000000007 135.79242636746184 446.00000000000006 96.500000000000014
decision_type=2 2 2 2 2
left_child=-1 -2 3 4 -3
right_child=1 2 -4 -5 -6
leaf_value=0.046654541354918304 -0.055875508929514164 -0.061403120135602646 0.040212365628349615 0.015123650494540406 0.0035901370916509891
leaf_weight=3.0866383165121105 4.5100884586572674 3.7577347308397311 6.4526997879147521 4.5402312874794006 3.4842710494995117
leaf_count=15 21 19 37 29 21
internal_value=0 -0.00624699 0.00602775 -0.0126939 -0.0301336
internal_weight=0 22.745 18.2349 11.7822 7.24201
internal_count=142 127 106 69 40
is_linear=0
shrinkage=0.1


Tree=19
num_leaves=5
num_cat=0
split_feature=7 15 7 9
split_gain=0.660385 1.00343 1.29839 0.497566
threshold=348.50000000000489 798.33333333333223 446.00000000000006 54.500000000000007
decision_type=2 2 2 2
left_child=-1 2 3 -2
right_child=1 -3 -4 -5
leaf_value=0.028732387117861569 -0.065267829895672508 0.027693331340251016 0.018014928582758452 -0.018253236945714752
leaf_weight=6.136721312999728 5.2620889991521853 5.4387116506695738 5.0352310165762892 3.9339408800005913
leaf_count=35 24 30 32 21
internal_value=0 -0.00884226 -0.0228049 -0.0451556
internal_weight=0 19.67 14.2313 9.19603
internal_count=142 107 77 45
is_linear=0
shrinkage=0.1


Tree=20
num_leaves=5
num_cat=0
split_feature=9 6 8 9
split_gain=0.764025 0.741198 2.54417 0.982404
threshold=30.500000000000004 1.5000000000000002 0.45000000000000007 105.50000000000001
decision_type=2 2 2 2
left_child=-1 2 3 -2
right_child=1 -3 -4 -5
leaf_value=0.030545331614237933 0.03533070131785436 0.025271227057336251 -0.088947345754715551 -0.024747201230393038
leaf_weight=6.2447107881307629 5.2991546541452426 4.6358432695269576 3.9801211208105078 5.596260592341423
leaf_count=30 28 28 19 37
internal_value=0 -0.00964241 -0.020523 0.00447262
internal_weight=0 19.5114 14.8755 10.8954
internal_count=142 112 84 65
is_linear=0
shrinkage=0.1


Tree=21
num_leaves=6
num_cat=0
split_feature=9 9 8 9 6
split_gain=0.623424 0.608879 1.074 1.17913 0.673361
threshold=30.500000000000004 54.500000000000007 0.15000000000000005 72.500000000000014 0.55000000000000004
decision_type=2 2 2 2 2
left_child=-1 -2 4 -4 -3
right_child=1 2 3 -5 -6
leaf_value=0.027796420266886286 -0.039325273654251286 -0.050406303508241428 -0.012280848913478868 0.073041979820584746 0.0070549885408950968
leaf_weight=6.1796126067638424 4.8592951372265842 4.2154087647795659 3.1280991956591597 3.3588626310229301 3.9506766200065613
leaf_count=30 24 25 18 23 22
internal_value=0 -0.00865001 0.00152262 0.0318982 -0.0226071
internal_weight=0 19.5123 14.653 6.48696 8.16609
internal_count=142 112 88 41 47
is_linear=0
shrinkage=0.1


Tree=22
num_leaves=6
num_cat=0
split_feature=7 6 6 14 9
split_gain=0.602824 0.890834 1.51308 1.29458 1.59774
threshold=348.50000000000489 2.4000000000000008 1.25 781.33333333333405 93.500000000000014
decision_type=2 2 2 2 2
left_child=-1 2 3 4 -2
right_child=1 -3 -4 -5 -6
leaf_value=0.027705562150822028 0.058342385185436142 -0.047243737137041282 0.059631503823945775 -0.061983506901075382 -0.033922777407210565
leaf_weight=6.0521612539887455 3.5417861193418521 4.5361050367355338 3.6207071617245665 3.8251204043626785 3.9926261007785797
leaf_count=35 17 24 21 18 27
internal_value=0 -0.00841825 0.00333834 -0.0146044 0.00944935
internal_weight=0 19.5163 14.9802 11.3595 7.53441
internal_count=142 107 83 62 44
is_linear=0
shrinkage=0.1


Tree=23
num_leaves=6
num_cat=0
split_feature=8 9 9 8 7
split_gain=0.625677 0.867405 1.38069 1.14528 0.568207
threshold=2.6500000000000017 30.500000000000004 63.500000000000007 0.15000000000000005 348.50000000000489
decision_type=2 2 2 2 2
left_child=1 -1 -3 4 -4
right_child=-2 2 3 -5 -6
leaf_value=0.038373997403591757 0.03657633169833599 -0.060898382492807324 0.0052110840363389314 0.039617345373544194 -0.04772921739674995
leaf_weight=3.5749129951000276 3.9787106812000266 4.8870317265391376 4.0007179677486402 4.8994522988796225 4.1102534681558609
leaf_count=17 21 25 23 32 24
internal_value=0 -0.00659715 -0.0155799 0.00144286 -0.0216165
internal_weight=0 21.4724 17.8975 13.0104 8.11097
internal_count=142 121 104 79 47
is_linear=0
shrinkage=0.1


Tree=24
num_leaves=6
num_cat=0
split_feature=8 9 9 8 6
split_gain=0.512233 0.709273 1.1068 0.939141 0.588983
threshold=2.6500000000000017 30.500000000000004 63.500000000000007 0.15000000000000005 0.55000000000000004
decision_type=2 2 2 2 2
left_child=1 -1 -3 4 -4
right_child=-2 2 3 -5 -6
leaf_value=0.03503626536258491 0.033323661588146682 -0.054398368843619239 -0.045523446354330435 0.036291759282976163 0.0083937780142150226
leaf_weight=3.5265639871358934 3.9328680336475363 4.9218850359320667 4.1891780048608762 4.8180182427167884 3.9236624091863632
leaf_count=17 21 25 25 32 22
internal_value=0 -0.00594509 -0.0140404 0.00132109 -0.0194471
internal_weight=0 21.3793 17.8527 12.9309 8.11284
internal_count=142 121 104 79 47
is_linear=0
shrinkage=0.1


Tree=25
num_leaves=5
num_cat=0
split_feature=7 6 8 8
split_gain=0.521594 0.87469 1.32169 0.411867
threshold=348.50000000000489 2.4000000000000008 0.65000000000000002 0.15000000000000005
decision_type=2 2 2 2
left_child=-1 2 3 -2
right_child=1 -3 -4 -5
leaf_value=0.026036855156835945 -0.04147832576469223 -0.046606523000392731 0.046053420369495265 2.0540667842453604e-05
leaf_weight=5.9492063820362118 4.1098625659942645 4.4690848141908637 4.9448332935571662 5.720256619155407
leaf_count=35 24 24 25 34
internal_value=0 -0.00784216 0.00388318 -0.0173297
internal_weight=0 19.244 14.775 9.83012
internal_count=142 107 83 58
is_linear=0
shrinkage=0.1


Tree=26
num_leaves=6
num_cat=0
split_feature=8 8 8 15 9
split_gain=0.462692 0.670458 1.05374 0.378781 0.469752
threshold=2.6500000000000017 1.0500000000000003 0.55000000000000016 196.00000000000003 105.50000000000001
decision_type=2 2 2 2 2
left_child=1 2 3 4 -1
right_child=-2 -3 -4 -5 -6
leaf_value=0.025018361590447319 0.031823258634269824 -0.040453431429071401 0.052731242277685941 -0.03764374767129694 -0.018828319280601014
leaf_weight=4.4061132520437329 3.8977045714855185 4.3922673240303984 3.4459945857524863 3.4828866869211188 5.4852341488003731
leaf_count=23 21 23 18 20 37
internal_value=0 -0.00566287 0.00342199 -0.00928299 0.00070324
internal_weight=0 21.2125 16.8202 13.3742 9.89135
internal_count=142 121 98 80 60
is_linear=0
shrinkage=0.1


Tree=27
num_leaves=5
num_cat=0
split_feature=7 7 7 14
split_gain=0.451183 1.16745 1.07131 0.755549
threshold=379.83333333333582 446.00000000000006 631.49999999999693 102.95752895752945
decision_type=2 2 2 2
left_child=3 -2 -3 -1
right_child=1 2 -4 -5
leaf_value=-0.0048087502413373768 -0.040854915423741159 0.046754076650200205 -0.026009375992577511 0.052163193233426434
leaf_weight=6.1451981291174906 6.947577752172946 4.6123083159327489 3.6049220934510231 3.7471953332424164
leaf_count=36 35 27 24 20
internal_value=0 -0.01068 0.0148325 0.016772
internal_weight=0 15.1648 8.21723 9.89239
internal_count=142 86 51 56
is_linear=0
shrinkage=0.1


Tree=28
num_leaves=5
num_cat=0
split_feature=15 7 7 7
split_gain=0.423802 0.743263 1.0845 0.513066
threshold=798.33333333333223 348.50000000000489 446.00000000000006 382.33333333333036
decision_type=2 2 2 2
left_child=1 -1 3 -3
right_child=-2 2 -4 -5
leaf_value=0.023391923759074031 0.025604072737335355 -0.014052846950042018 0.019404550266428768 -0.061504689122268669
leaf_weight=5.8589215725660386 5.1884396597743025 4.2904232963919622 4.8081705570220938 4.8593194410204887
leaf_count=35 30 22 32 23
internal_value=0 -0.00650012 -0.0190475 -0.039254
internal_weight=0 19.8168 13.9579 9.14974
internal_count=142 112 77 45
is_linear=0
shrinkage=0.1


Tree=29
num_leaves=6
num_cat=0
split_feature=8 9 9 8 6
split_gain=0.406556 0.63707 0.950171 1.58834 0.458923
threshold=2.6500000000000017 30.500000000000004 72.500000000000014 0.15000000000000005 0.55000000000000004
decision_type=2 2 2 2 2
left_child=1 -1 -3 4 -4
right_child=-2 2 3 -5 -6
leaf_value=0.033942830561697959 0.030025128831762362 -0.043310194230623086 -0.041801159827550532 0.065434237248556487 0.0060765374605672648
leaf_weight=3.4597760587930741 3.8543084859848014 6.5171119943261173 4.1593037694692594 3.1099398136138907 3.860042005777359
leaf_count=17 21 34 25 23 22
internal_value=0 -0.00529391 -0.0129867 0.00477016 -0.0187556
internal_weight=0 21.1062 17.6464 11.1293 8.01935
internal_count=142 121 104 70 47
is_linear=0
shrinkage=0.1


Tree=30
num_leaves=5
num_cat=0
split_feature=7 6 8 8
split_gain=0.381998 0.788988 1.22054 0.352536
threshold=348.50000000000489 2.4000000000000008 0.65000000000000002 0.15000000000000005
decision_type=2 2 2 2
left_child=-1 2 3 -2
right_child=1 -3 -4 -5
leaf_value=0.022620886082072685 -0.038394829752954863 -0.043609531432010872 0.045449420190850021 0.00022186369855752765
leaf_weight=5.8057600334286716 4.061206482350828 4.4367643371224394 4.8631451725959769 5.6569368317723274
leaf_count=35 24 24 25 34
internal_value=0 -0.00668482 0.00455055 -0.015916
internal_weight=0 19.0181 14.5813 9.71814
internal_count=142 107 83 58
is_linear=0
shrinkage=0.1


Tree=31
num_leaves=5
num_cat=0
split_feature=8 9 9 9
split_gain=0.37058 0.540688 0.870659 0.590994
threshold=2.6500000000000017 30.500000000000004 72.500000000000014 105.50000000000001
decision_type=2 2 2 2
left_child=1 -1 -3 -4
right_child=-2 2 3 -5
leaf_value=0.031346468317499279 0.028791560272680667 -0.041179236323231193 0.027695389236531556 -0.018653344081470236
leaf_weight=3.4126804918050828 3.8232544213533393 6.5016830861568478 5.6116306707262975 5.3969854339957237
leaf_count=17 21 34 33 37
internal_value=0 -0.00506689 -0.0121637 0.00497287
internal_weight=0 20.923 17.5103 11.0086
internal_count=142 121 104 70
is_linear=0
shrinkage=0.1


Tree=32
num_leaves=5
num_cat=0
split_feature=9 7 6 6
split_gain=0.346086 1.01113 0.898301 0.732222
threshold=36.500000000000007 631.49999999999693 1.0000000180025095e-35 1.25
decision_type=2 2 2 2
left_child=-1 2 -2 -4
right_child=1 -3 3 -5
leaf_value=-0.01821241296353078 -0.014126185355854227 -0.042965539142987758 0.065017199804716153 0.0080702471840535719
leaf_weight=7.2410742342472103 5.1457182168960598 3.2016726881265631 4.7929544374346715 4.2688941434025764
leaf_count=36 30 22 27 27
internal_value=0 0.00780187 0.0192423 0.0381904
internal_weight=0 17.4092 14.2076 9.06185
internal_count=142 106 84 54
is_linear=0
shrinkage=0.1


Tree=33
num_leaves=5
num_cat=0
split_feature=15 9 13 7
split_gain=0.352007 0.608999 0.892416 0.450275
threshold=798.33333333333223 39.500000000000007 1.0000000180025095e-35 379.83333333333582
decision_type=2 2 2 2
left_child=1 -1 3 -3
right_child=-2 2 -4 -5
leaf_value=-0.035977595914762218 0.023638166092255459 0.010491558219956182 0.044338385600746391 -0.031021909435972064
leaf_weight=5.0139981880784097 5.0708703100681296 5.0536472648382169 4.044989548623561 5.4094926863908768
leaf_count=24 30 30 23 35
internal_value=0 -0.00593355 0.00444965 -0.0109711
internal_weight=0 19.5221 14.5081 10.4631
internal_count=142 112 88 65
is_linear=0
shrinkage=0.1


Tree=34
num_leaves=5
num_cat=0
split_feature=8 9 9 9
split_gain=0.333192 0.541849 0.74325 0.483879
threshold=2.6500000000000017 30.500000000000004 72.500000000000014 105.50000000000001
decision_type=2 2 2 2
left_child=1 -1 -3 -4
right_child=-2 2 3 -5
leaf_value=0.031659070162294793 0.027389030200382899 -0.038645179497804043 0.024827988076156247 -0.017455628134382034
leaf_weight=3.4033109247684541 3.7983446717262259 6.523509323596957 5.5162462145090085 5.313176117837429
leaf_count=17 21 34 33 37
internal_value=0 -0.00482477 -0.0119801 0.00408262
internal_weight=0 20.7562 17.3529 10.8294
internal_count=142 121 104 70
is_linear=0
shrinkage=0.1


Tree=35
num_leaves=6
num_cat=0
split_feature=15 15 8 9 7
split_gain=0.291327 0.581503 0.451943 0.685916 0.338792
threshold=798.33333333333223 730.3333333333286 0.15000000000000005 57.500000000000007 348.50000000000489
decision_type=2 2 2 2 2
left_child=1 2 4 -4 -1
right_child=-2 -3 3 -5 -6
leaf_value=0.0063167319479308891 0.021690324330528352 -0.042566298073828418 -0.0064744407626261703 0.052654508459039365 -0.034724242540804716
leaf_weight=4.0516122430563062 4.9976749122142783 3.457514561712741 4.4578449651598921 3.5039338767528534 3.9943750351667404
leaf_count=24 30 17 22 25 24
internal_value=0 -0.00537606 0.00265666 0.0195479 -0.0140578
internal_weight=0 19.4653 16.0078 7.96178 8.04599
internal_count=142 112 95 47 48
is_linear=0
shrinkage=0.1


Tree=36
num_leaves=7
num_cat=0
split_feature=9 9 9 7 9 9
split_gain=0.391429 1.05303 1.35838 0.649213 0.99286 0.784266
threshold=15.500000000000002 36.500000000000007 51.500000000000007 399.00000000000369 84.500000000000014 102.50000000000001
decision_type=2 2 2 2 2 2
left_child=-1 -2 -3 4 -4 -5
right_child=1 2 3 5 -6 -7
leaf_value=0.035123766896261663 -0.048037158959319891 0.069971227395700872 0.051225219468206198 -0.066240532284895931 -0.018264794088556961 0.0062522617325138146
leaf_weight=2.8288782685995129 4.4076751917600658 2.8375079557299641 3.66554196923971 3.0641060918569556 4.6827933192253113 2.909347802400589
leaf_count=15 21 15 23 17 28 23
internal_value=0 -0.00443866 0.00676041 -0.00576325 0.0122465 -0.0309332
internal_weight=0 21.567 17.1593 14.3218 8.34834 5.97345
internal_count=142 127 106 91 51 40
is_linear=0
shrinkage=0.1


Tree=37
num_leaves=6
num_cat=0
split_feature=9 9 9 6 6
split_gain=0.32141 0.844702 1.11384 0.616775 0.907727
threshold=15.500000000000002 36.500000000000007 51.500000000000007 0.75000000000000011 1.0000000180025095e-35
decision_type=2 2 2 2 2
left_child=-1 -2 -3 4 -4
right_child=1 2 3 -5 -6
leaf_value=0.032132516815935194 -0.042767836580100541 0.063748952208348461 -0.013251739561963677 -0.032178367003255763 0.052584191778683155
leaf_weight=2.7853719145059612 4.4530817270278957 2.8047894313931492 5.7459276467561704 5.3163902238011351 3.2953169122338295
leaf_count=15 21 15 36 33 22
internal_value=0 -0.00395924 0.00611031 -0.00514951 0.0107439
internal_weight=0 21.6155 17.1624 14.3576 9.04124
internal_count=142 127 106 91 58
is_linear=0
shrinkage=0.1


Tree=38
num_leaves=5
num_cat=0
split_feature=6 6 14 9
split_gain=0.294861 0.977311 1.06267 0.686954
threshold=2.4000000000000008 1.25 781.33333333333405 105.50000000000001
decision_type=2 2 2 2
left_child=1 2 3 -1
right_child=-2 -3 -4 -5
leaf_value=0.031888739091233402 -0.021004114874095401 0.051302213646249928 -0.05127531245271949 -0.016979258466746746
leaf_weight=6.3330649957060867 5.1812524423003188 3.7992330566048613 3.7936013638973227 5.2705997601151466
leaf_count=33 29 25 18 37
internal_value=0 0.00587886 -0.00532923 0.00969199
internal_weight=0 19.1965 15.3973 11.6037
internal_count=142 113 88 70
is_linear=0
shrinkage=0.1


Tree=39
num_leaves=6
num_cat=0
split_feature=9 7 12 9 7
split_gain=0.321892 0.397425 1.62244 1.48824 0.997156
threshold=30.500000000000004 631.49999999999693 1.0000000180025095e-35 72.500000000000014 350.33333333333036
decision_type=2 2 2 2 2
left_child=-1 2 -2 -4 -5
right_child=1 -3 3 4 -6
leaf_value=0.020654391981894386 0.056984115428715135 -0.03841080904085431 -0.066154710211548937 -0.030703437567740174 0.043248463365902108
leaf_weight=5.8298611044883755 3.8059840500354811 3.1885491460561743 4.1559152677655185 3.4167307838797569 3.9097540229558945
leaf_count=30 23 22 23 20 24
internal_value=0 -0.00629661 0.000401137 -0.018354 0.00876075
internal_weight=0 18.4769 15.2884 11.4824 7.32648
internal_count=142 112 90 67 44
is_linear=0
shrinkage=0.1


Tree=40
num_leaves=5
num_cat=0
split_feature=7 6 15 7
split_gain=0.28077 0.891945 1.0975 1.4073
threshold=348.50000000000489 2.4000000000000008 771.16666666667118 446.00000000000006
decision_type=2 2 2 2
left_child=-1 2 3 -2
right_child=1 -3 -4 -5
leaf_value=0.019741311843029349 -0.051207021587613789 -0.045122428155512789 0.04470467064904618 0.026639326525305623
leaf_weight=5.6283323541283634 4.8267445340752619 4.3944396972656241 4.9049271866679183 4.4755211845040321
leaf_count=35 24 24 28 31
internal_value=0 -0.00574966 0.00642877 -0.0137535
internal_weight=0 18.6016 14.2072 9.30227
internal_count=142 107 83 55
is_linear=0
shrinkage=0.1


Tree=41
num_leaves=5
num_cat=0
split_feature=9 6 8 9
split_gain=0.319171 0.411776 1.13365 0.513821
threshold=30.500000000000004 1.5000000000000002 0.45000000000000007 105.50000000000001
decision_type=2 2 2 2
left_child=-1 2 3 -2
right_child=1 -3 -4 -5
leaf_value=0.020621932380975733 0.026758040140999795 0.021269331360391379 -0.059145180741554115 -0.018344217542591766
leaf_weight=5.7992079406976726 4.8913116604089755 4.1847135722637168 4.0495008379220954 5.2231565788388252
leaf_count=30 28 28 19 37
internal_value=0 -0.0062912 -0.0144339 0.00346703
internal_weight=0 18.3487 14.164 10.1145
internal_count=142 112 84 65
is_linear=0
shrinkage=0.1


Tree=42
num_leaves=5
num_cat=0
split_feature=9 6 13 6
split_gain=0.260051 0.334317 0.91581 0.643064
threshold=30.500000000000004 1.5000000000000002 1.0000000180025095e-35 1.0000000180025095e-35
decision_type=2 2 2 2
left_child=-1 2 3 -2
right_child=1 -3 -4 -5
leaf_value=0.018704077573422073 -0.022112043700367266 0.019253460856351382 -0.054454285032581151 0.027899967126782652
leaf_weight=5.7567893937230137 5.2000891938805598 4.1618375778198233 3.8699229806661597 5.0852771773934364
leaf_count=30 33 28 19 32
internal_value=0 -0.00566189 -0.0129873 0.00261483
internal_weight=0 18.3171 14.1553 10.2854
internal_count=142 112 84 65
is_linear=0
shrinkage=0.1


Tree=43
num_leaves=5
num_cat=0
split_feature=6 15 7 7
split_gain=0.268584 0.952567 0.643353 0.957386
threshold=2.4000000000000008 771.16666666667118 446.00000000000006 357.33333333333218
decision_type=2 2 2 2
left_child=1 2 3 -1
right_child=-2 -3 -4 -5
leaf_value=0.0038288838661359684 -0.02009666933879567 0.044186427859992571 0.02405981194178097 -0.060531068287299185
leaf_weight=5.7675113677978569 5.1440633907914153 4.7921768501400939 4.438013680279254 3.8569473847746849
leaf_count=35 29 28 31 19
internal_value=0 0.00568268 -0.00743854 -0.021963
internal_weight=0 18.8546 14.0625 9.62446
internal_count=142 113 85 54
is_linear=0
shrinkage=0.1


Tree=44
num_leaves=6
num_cat=0
split_feature=8 12 9 9 7
split_gain=0.244424 0.80669 1.33857 1.35448 0.342345
threshold=0.15000000000000005 1.0000000180025095e-35 63.500000000000007 30.500000000000004 348.50000000000489
decision_type=2 2 2 2 2
left_child=4 -2 3 -3 -1
right_child=1 2 -4 -5 -6
leaf_value=0.0063118605301214345 -0.030840942938928341 0.037315166712331274 0.078971322685704073 -0.04075197780455786 -0.035235142266751479
leaf_weight=4.0175565630197552 4.1240081116557166 4.8083198741078323 2.9442536532878885 4.1326263323426247 3.9168618023395538
leaf_count=24 25 25 21 23 24
internal_value=0 0.00726668 0.0204895 0.00123148 -0.014198
internal_weight=0 16.0092 11.8852 8.94095 7.93442
internal_count=142 94 69 48 48
is_linear=0
shrinkage=0.1


Tree=45
num_leaves=5
num_cat=0
split_feature=8 14 6 9
split_gain=0.24921 0.912407 0.415943 0.480784
threshold=0.55000000000000016 279.75243147657073 0.75000000000000011 105.50000000000001
decision_type=2 2 2 2
left_child=2 -2 3 -1
right_child=1 -3 -4 -5
leaf_value=0.029744025670590837 -0.013274201854754487 0.044813883404129097 -0.037243035611774694 -0.017333093361259794
leaf_weight=3.7309977039694804 6.4419530406594259 4.6601902171969414 3.7720805108547202 5.1828958094120026
leaf_count=21 37 25 22 37
internal_value=0 0.0111086 -0.00940759 0.0023715
internal_weight=0 11.1021 12.686 8.91389
internal_count=142 62 80 58
is_linear=0
shrinkage=0.1


Tree=46
num_leaves=5
num_cat=0
split_feature=7 6 8 8
split_gain=0.242157 0.792809 0.908497 0.242045
threshold=348.50000000000489 2.4000000000000008 0.65000000000000002 0.15000000000000005
decision_type=2 2 2 2
left_child=-1 2 3 -2
right_child=1 -3 -4 -5
leaf_value=0.018497086218540525 -0.030522069961676442 -0.042521240315012969 0.042844819599386921 0.0021540373217438938
leaf_weight=5.5285664498806026 3.9200801625847834 4.3724744692444792 4.565944977104663 5.3754640966653824
leaf_count=35 24 24 25 34
internal_value=0 -0.00539466 0.00631657 -0.011626
internal_weight=0 18.234 13.8615 9.29554
internal_count=142 107 83 58
is_linear=0
shrinkage=0.1


Tree=47
num_leaves=5
num_cat=0
split_feature=7 9 7 14
split_gain=0.221152 0.760339 1.0372 0.656804
threshold=379.83333333333582 36.500000000000007 631.49999999999693 102.95752895752945
decision_type=2 2 2 2
left_child=3 -2 -3 -1
right_child=1 2 -4 -5
leaf_value=-0.0085012350278864356 -0.038840052244392048 0.032798846115628409 -0.037966334617042984 0.046325216352719911
leaf_weight=5.7938026189804095 5.0566764101386061 6.238199479877947 3.1006881147623062 3.5079929828643799
leaf_count=36 26 38 22 20
internal_value=0 -0.00760773 0.00930346 0.0121755
internal_weight=0 14.3956 9.33889 9.3018
internal_count=142 86 60 56
is_linear=0
shrinkage=0.1


Tree=48
num_leaves=5
num_cat=0
split_feature=9 6 8 9
split_gain=0.234222 0.303971 0.875599 0.390505
threshold=30.500000000000004 1.5000000000000002 0.45000000000000007 105.50000000000001
decision_type=2 2 2 2
left_child=-1 2 3 -2
right_child=1 -3 -4 -5
leaf_value=0.01780209722448884 0.024134116232867913 0.018713974750237599 -0.051833251840505905 -0.015585800987132704
leaf_weight=5.7081950306892422 4.7661411762237567 4.036453314125537 4.0175725519657126 5.1494810879230499
leaf_count=30 28 28 19 37
internal_value=0 -0.00545019 -0.0124506 0.00350637
internal_weight=0 17.9696 13.9332 9.91562
internal_count=142 112 84 65
is_linear=0
shrinkage=0.1


Tree=49
num_leaves=5
num_cat=0
split_feature=15 7 7 6
split_gain=0.217818 0.396309 1.00326 0.283815
threshold=798.33333333333223 446.00000000000006 379.83333333333582 1.0000000180025095e-35
decision_type=2 2 2 2
left_child=1 2 3 -1
right_child=-2 -3 -4 -5
leaf_value=-0.015238569557917038 0.019410614357516107 0.021296973640814877 -0.046759421539405099 0.021449781250759813
leaf_weight=3.3688115403056198 4.7008412927389136 4.4907665550708762 5.4101793244481078 5.6361854001879692
leaf_count=20 30 32 26 34
internal_value=0 -0.00464288 -0.0127239 0.0077245
internal_weight=0 18.9059 14.4152 9.005
internal_count=142 112 80 54
is_linear=0
shrinkage=0.1


Tree=50
num_leaves=6
num_cat=0
split_feature=9 7 12 7 9
split_gain=0.210462 0.272348 1.04366 0.758762 1.05851
threshold=30.500000000000004 600.83333333333951 1.0000000180025095e-35 268.83333333332854 72.500000000000014
decision_type=2 2 2 2 2
left_child=-1 2 -2 -4 -5
right_child=1 -3 3 4 -6
leaf_value=0.016954274181476589 0.049425413696964987 -0.029241975002566829 -0.056088779543261261 -0.040055928957728457 0.034817559718539247
leaf_weight=5.6571895107626942 3.4033036753535315 3.7232937589287749 3.0751508995890582 3.3092038035392761 4.3969447389245033
leaf_count=30 21 26 19 19 27
internal_value=0 -0.00517149 0.00114673 -0.0140933 0.0026651
internal_weight=0 17.9079 14.1846 10.7813 7.70615
internal_count=142 112 86 65 46
is_linear=0
shrinkage=0.1


Tree=51
num_leaves=5
num_cat=0
split_feature=7 6 9 6
split_gain=0.242242 0.729539 1.01356 0.57791
threshold=348.50000000000489 2.4000000000000008 51.500000000000007 0.75000000000000011
decision_type=2 2 2 2
left_child=-1 2 -2 -4
right_child=1 -3 3 -5
leaf_value=0.018576546709205399 0.042062465555297537 -0.040950960919271473 0.0060564789749775532 -0.04668906789424173
leaf_weight=5.4719304293394115 4.9532350599765804 4.3817037120461455 5.3093154504895193 3.4123008698225021
leaf_count=35 26 24 37 20
internal_value=0 -0.0054413 0.00593673 -0.01458
internal_weight=0 18.0566 13.6749 8.72162
internal_count=142 107 83 57
is_linear=0
shrinkage=0.1


Tree=52
num_leaves=5
num_cat=0
split_feature=8 14 6 9
split_gain=0.204149 0.712348 0.27825 0.38061
threshold=0.55000000000000016 279.75243147657073 0.75000000000000011 105.50000000000001
decision_type=2 2 2 2
left_child=2 -2 3 -1
right_child=1 -3 -4 -5
leaf_value=0.025778894307608265 -0.011287199196894861 0.040584178746713606 -0.031141950673823533 -0.016408440202311129
leaf_weight=3.6768917441368121 6.4059479609131795 4.5124490112066269 3.800638645887374 5.1113857254385948
leaf_count=21 37 25 22 37
internal_value=0 0.0101507 -0.00853473 0.00124215
internal_weight=0 10.9184 12.5889 8.78828
internal_count=142 62 80 58
is_linear=0
shrinkage=0.1


Tree=53
num_leaves=6
num_cat=0
split_feature=8 8 15 7 9
split_gain=0.213387 0.489326 0.813036 0.426117 0.756689
threshold=2.6500000000000017 1.0500000000000003 771.16666666667118 446.00000000000006 96.500000000000014
decision_type=2 2 2 2 2
left_child=1 2 3 4 -1
right_child=-2 -3 -4 -5 -6
leaf_value=-0.048873656020702809 0.022519168477009546 -0.03427040706896773 0.045129699382941812 0.017802896141992729 0.013630513012146003
leaf_weight=4.5071530565619522 3.6062382832169524 4.1919482871890059 3.7050839364528647 4.0729586184024811 3.3964134380221367
leaf_count=23 21 23 23 30 22
internal_value=0 -0.0039211 0.00419176 -0.00847289 -0.0220136
internal_weight=0 19.8736 15.6816 11.9765 7.90357
internal_count=142 121 98 75 45
is_linear=0
shrinkage=0.1


Tree=54
num_leaves=5
num_cat=0
split_feature=7 6 9 6
split_gain=0.234191 0.553736 0.78533 0.43547
threshold=348.50000000000489 2.4000000000000008 51.500000000000007 0.75000000000000011
decision_type=2 2 2 2
left_child=-1 2 -2 -4
right_child=1 -3 3 -5
leaf_value=0.018282851045502636 0.036752228369904952 -0.036245081562487284 0.0046915170371763688 -0.041017969203035159
leaf_weight=5.4587992504239109 4.8746200576424625 4.389691397547721 5.2768922224640828 3.444855123758316
leaf_count=35 26 24 37 20
internal_value=0 -0.00536504 0.00460482 -0.0133625
internal_weight=0 17.9861 13.5964 8.72175
internal_count=142 107 83 57
is_linear=0
shrinkage=0.1


Tree=55
num_leaves=6
num_cat=0
split_feature=8 6 9 7 6
split_gain=0.216217 0.538878 0.329923 0.441687 1.09324
threshold=0.65000000000000002 2.4000000000000008 72.500000000000014 510.50000000000006 1.0000000180025095e-35
decision_type=2 2 2 2 2
left_child=2 -2 -1 4 -4
right_child=1 -3 3 -5 -6
leaf_value=-0.034622512381266179 0.036335111673934016 -0.010782432972106909 -0.02026167735203542 -0.029774125773737892 0.059118067221236949
leaf_weight=3.4670089930295971 4.6103585362434369 5.1262033730745316 3.8953047692775709 3.1905895099043846 3.1283993273973465
leaf_count=17 27 29 23 24 22
internal_value=0 0.0115282 -0.00796811 0.00107913 0.0150945
internal_weight=0 9.73656 13.6813 10.2143 7.0237
internal_count=142 56 86 69 45
is_linear=0
shrinkage=0.1


Tree=56
num_leaves=6
num_cat=0
split_feature=8 9 9 8 6
split_gain=0.209556 0.408088 0.495189 0.564925 0.191177
threshold=2.6500000000000017 30.500000000000004 63.500000000000007 0.15000000000000005 0.55000000000000004
decision_type=2 2 2 2 2
left_child=1 -1 -3 4 -4
right_child=-2 2 3 -5 -6
leaf_value=0.028730599327248842 0.022354995780310704 -0.038325219206156717 -0.031026800309266096 0.029055776254169219 0.00070094302595867367
leaf_weight=3.2103217691183152 3.5937131568789473 4.5483777746558216 4.0162286013364774 4.3768872506916523 3.6027558818459511
leaf_count=17 21 25 25 32 22
internal_value=0 -0.00389756 -0.0102289 0.000424184 -0.0160238
internal_weight=0 19.7546 16.5442 11.9959 7.61898
internal_count=142 121 104 79 47
is_linear=0
shrinkage=0.1


Tree=57
num_leaves=6
num_cat=0
split_feature=7 9 13 6 9
split_gain=0.21762 0.756995 0.812087 0.563802 0.00899896
threshold=379.83333333333582 36.500000000000007 1.0000000180025095e-35 1.5000000000000002 102.50000000000001
decision_type=2 2 2 2 2
left_child=3 -2 4 -1 -3
right_child=1 2 -4 -5 -6
leaf_value=-0.0057755892472193936 -0.039048712315131184 -0.0097305300245247341 0.047555294369996289 0.046594578798230847 -0.017683111232392822
leaf_weight=5.9969064220786112 4.9724131599068633 2.768073841929434 3.4688953422009945 3.1279245615005493 2.9280411750078201
leaf_count=36 26 16 20 20 24
internal_value=0 -0.00763319 0.00941108 0.0121765 -0.0138185
internal_weight=0 14.1374 9.16501 9.12483 5.69612
internal_count=142 86 60 56 40
is_linear=0
shrinkage=0.1


Tree=58
num_leaves=5
num_cat=0
split_feature=7 12 15 7
split_gain=0.204588 0.535872 0.810509 0.618502
threshold=348.50000000000489 1.0000000180025095e-35 771.16666666667118 446.00000000000006
decision_type=2 2 2 2
left_child=-1 -2 3 -3
right_child=1 2 -4 -5
leaf_value=0.017252144668807423 -0.036745727037966684 -0.032277324564993097 0.040796022813059052 0.019857504606062736
leaf_weight=5.3703536503016975 4.0993273854255721 5.7777916714549011 4.2431124635040769 3.754056379199028
leaf_count=35 25 29 27 26
internal_value=0 -0.00500586 0.0044397 -0.0117444
internal_weight=0 17.8743 13.775 9.53185
internal_count=142 107 82 55
is_linear=0
shrinkage=0.1


Tree=59
num_leaves=5
num_cat=0
split_feature=14 9 9 7
split_gain=0.186499 1.15026 1.02947 0.202255
threshold=150.81410825199643 51.500000000000007 36.500000000000007 446.00000000000006
decision_type=2 2 2 2
left_child=1 -1 -2 -3
right_child=2 3 -4 -5
leaf_value=0.059323755564112284 -0.044074593091698103 -0.019950163621281353 0.020435461907656688 0.0094456873307858426
leaf_weight=3.2748048454523113 4.7165204584598523 6.261068366467951 5.2023505009710789 3.7379731386899948
leaf_count=17 24 38 35 28
internal_value=0 0.00788559 -0.0102397 -0.00896102
internal_weight=0 13.2738 9.91887 9.99904
internal_count=142 83 59 66
is_linear=0
shrinkage=0.1


Tree=60
num_leaves=6
num_cat=0
split_feature=9 7 9 8 7
split_gain=0.203911 0.263847 0.957902 0.496785 0.124231
threshold=30.500000000000004 600.83333333333951 57.500000000000007 0.15000000000000005 268.83333333332854
decision_type=2 2 2 2 2
left_child=-1 2 -2 4 -4
right_child=1 -3 3 -5 -6
leaf_value=0.016829789733799158 -0.043169413782737927 -0.029034622593310001 -0.013295517103056043 0.04798800411467892 0.013588343350758258
leaf_weight=5.5602596700191524 3.6141148060560253 3.6596385017037383 3.1679932177066785 3.3949594385921955 3.7577561587095261
leaf_count=30 21 26 19 25 21
internal_value=0 -0.00513892 0.0011367 0.0166519 0.00129106
internal_weight=0 17.5945 13.9348 10.3207 6.92575
internal_count=142 112 86 65 40
is_linear=0
shrinkage=0.1


Tree=61
num_leaves=5
num_cat=0
split_feature=7 6 9 6
split_gain=0.185049 0.46569 0.798891 0.486446
threshold=348.50000000000489 2.4000000000000008 51.500000000000007 0.75000000000000011
decision_type=2 2 2 2
left_child=-1 2 -2 -4
right_child=1 -3 3 -5
leaf_value=0.016469257697041918 0.037370723584050997 -0.03300389209542564 0.0055733940826077988 -0.04305587176099368
leaf_weight=5.3324774205684689 4.7630048766732243 4.3965531326830378 5.1956149712204915 3.4051857329905033
leaf_count=35 26 24 37 20
internal_value=0 -0.00477256 0.00451525 -0.0136797
internal_weight=0 17.7604 13.3638 8.6008
internal_count=142 107 83 57
is_linear=0
shrinkage=0.1


Tree=62
num_leaves=5
num_cat=0
split_feature=9 12 6 9
split_gain=0.182702 0.623427 0.701936 0.59263
threshold=105.50000000000001 1.0000000180025095e-35 1.0000000180025095e-35 30.500000000000004
decision_type=2 2 2 2
left_child=1 -1 -3 -4
right_child=-2 2 3 -5
leaf_value=-0.031408491496155773 -0.016746747720699718 0.0530128471727256 0.029569664177404833 -0.018086059380744535
leaf_weight=3.7599458210170313 5.0190276056528083 3.5351401641964921 4.4539249688386899 6.3012870475649834
leaf_count=22 37 20 24 39
internal_value=0 0.00482259 0.0143554 0.00164903
internal_weight=0 18.0503 14.2904 10.7552
internal_count=142 105 83 63
is_linear=0
shrinkage=0.1


Tree=63
num_leaves=5
num_cat=0
split_feature=9 8 8 6
split_gain=0.18876 0.558349 0.769775 0.196156
threshold=36.500000000000007 0.15000000000000005 1.0500000000000003 0.55000000000000004
decision_type=2 2 2 2
left_child=-1 3 -3 -2
right_child=1 2 -4 -5
leaf_value=-0.013842812671750729 -0.029055424048623629 0.052336515278701728 -0.0074888619362001533 0.0031128272327530823
leaf_weight=6.807735517621043 3.9855766743421581 4.4515072107315046 4.1613307893276215 3.6149040088057518
leaf_count=36 25 33 26 22
internal_value=0 0.00599894 0.0234316 -0.0137557
internal_weight=0 16.2133 8.61284 7.60048
internal_count=142 106 59 47
is_linear=0
shrinkage=0.1


Tree=64
num_leaves=5
num_cat=0
split_feature=8 14 9 9
split_gain=0.205235 0.605854 0.358728 0.285982
threshold=0.55000000000000016 279.75243147657073 78.500000000000014 105.50000000000001
decision_type=2 2 2 2
left_child=2 -2 -1 -4
right_child=1 -3 3 -5
leaf_value=-0.037774369512379322 -0.0096858315156087282 0.038791874853546127 0.020735496047423072 -0.014725640554359001
leaf_weight=3.1489610895514515 6.250910282135008 4.387497678399086 4.1583689562976343 5.0192918926477432
leaf_count=17 37 25 26 37
internal_value=0 0.0103074 -0.00865091 0.00134169
internal_weight=0 10.6384 12.3266 9.17766
internal_count=142 62 80 63
is_linear=0
shrinkage=0.1


Tree=65
num_leaves=6
num_cat=0
split_feature=8 8 15 7 9
split_gain=0.19676 0.374127 0.626932 0.356643 0.760777
threshold=2.6500000000000017 1.0500000000000003 771.16666666667118 446.00000000000006 96.500000000000014
decision_type=2 2 2 2 2
left_child=1 2 3 4 -1
right_child=-2 -3 -4 -5 -6
leaf_value=-0.047289856670432506 0.021811802609636052 -0.030725001422229472 0.04001312890623953 0.016684168490055558 0.015850466450069416
leaf_weight=4.4519747197628075 3.5386833995580664 4.0830792598426333 3.5739321000874034 3.9425003305077553 3.3398941643536091
leaf_count=23 21 23 23 30 22
internal_value=0 -0.00382982 0.00334375 -0.00782462 -0.0202255
internal_weight=0 19.3914 15.3083 11.7344 7.79187
internal_count=142 121 98 75 45
is_linear=0
shrinkage=0.1


Tree=66
num_leaves=5
num_cat=0
split_feature=7 9 7 14
split_gain=0.226691 0.57107 0.765225 0.513703
threshold=379.83333333333582 36.500000000000007 631.49999999999693 102.95752895752945
decision_type=2 2 2 2
left_child=3 -2 -3 -1
right_child=1 2 -4 -5
leaf_value=-0.0057209769956050628 -0.035146263448512259 0.028025166831171185 -0.033816453445186932 0.043850632256499301
leaf_weight=5.6874059215188044 4.9465666115283957 5.9381688535213453 3.0177682042121887 3.305432453751564
leaf_count=36 26 38 22 20
internal_value=0 -0.00787523 0.00718718 0.0124997
internal_weight=0 13.9025 8.95594 8.99284
internal_count=142 86 60 56
is_linear=0
shrinkage=0.1


Tree=67
num_leaves=5
num_cat=0
split_feature=7 12 8 14
split_gain=0.202122 0.363882 0.720626 1.34334
threshold=348.50000000000489 1.0000000180025095e-35 0.15000000000000005 157.42200328407236
decision_type=2 2 2 2
left_child=-1 -2 -3 -4
right_child=1 2 3 -5
leaf_value=0.017196499462357361 -0.031183883878372589 -0.036586779877105881 0.064398283301454695 -0.011514305813940823
leaf_weight=5.3216984868049648 4.0874549373984381 3.4427809715270969 3.690234422683714 6.329109400510788
leaf_count=35 25 21 24 37
internal_value=0 -0.0050516 0.00288284 0.0164451
internal_weight=0 17.5496 13.4621 10.0193
internal_count=142 107 82 61
is_linear=0
shrinkage=0.1


Tree=68
num_leaves=5
num_cat=0
split_feature=8 14 9 9
split_gain=0.169728 0.632583 0.267621 0.278574
threshold=0.55000000000000016 279.75243147657073 78.500000000000014 105.50000000000001
decision_type=2 2 2 2
left_child=2 -2 -1 -4
right_child=1 -3 3 -5
leaf_value=-0.032917303344653689 -0.011085705857099719 0.038614533410503915 0.020142515894450957 -0.015069751889092986
leaf_weight=3.1669036671519306 6.2100145146250707 4.3582428172230721 4.1003087498247606 4.970061719417572
leaf_count=17 37 25 26 37
internal_value=0 0.00941017 -0.00789007 0.000848139
internal_weight=0 10.5683 12.2373 9.07037
internal_count=142 62 80 63
is_linear=0
shrinkage=0.1


Tree=69
num_leaves=5
num_cat=0
split_feature=7 6 9 7
split_gain=0.178609 0.348004 0.68717 0.542633
threshold=348.50000000000489 2.4000000000000008 51.500000000000007 399.00000000000369
decision_type=2 2 2 2
left_child=-1 2 -2 -4
right_child=1 -3 3 -5
leaf_value=0.01621702156503791 0.034258991044479624 -0.029141804643213389 0.021493984893564518 -0.031919670784195782
leaf_weight=5.2925967350602177 4.6547615900635746 4.3828096911311141 2.8948557637631875 5.5453032180666924
leaf_count=35 26 24 18 39
internal_value=0 -0.00475106 0.0034124 -0.0135995
internal_weight=0 17.4777 13.0949 8.44016
internal_count=142 107 83 57
is_linear=0
shrinkage=0.1


Tree=70
num_leaves=7
num_cat=0
split_feature=8 9 7 9 7 9
split_gain=0.186525 0.364729 0.54277 0.79108 0.455487 0.233555
threshold=2.6500000000000017 30.500000000000004 446.00000000000006 66.500000000000014 624.49999999999829 96.500000000000014
decision_type=2 2 2 2 2 2
left_child=1 -1 3 -3 -4 -5
right_child=-2 2 4 5 -6 -7
leaf_value=0.02742112404733096 0.021376339864469476 -0.061209410827729217 0.043709379003078391 -0.02250186456573083 -0.01193117081070111 0.015281781885903867
leaf_weight=3.1420886740088525 3.4932702928781501 3.6366513371467608 2.7831761389970771 3.1769792027771473 3.1212678030133247 3.3728467747569084
leaf_count=17 21 21 18 19 23 23
internal_value=0 -0.00374211 -0.00982738 -0.0238102 0.0142961 -0.0030451
internal_weight=0 19.233 16.0909 10.1865 5.90444 6.54983
internal_count=142 121 104 63 41 42
is_linear=0
shrinkage=0.1


Tree=71
num_leaves=5
num_cat=0
split_feature=9 8 8 6
split_gain=0.177291 0.521736 0.645318 0.175414
threshold=36.500000000000007 0.15000000000000005 1.0500000000000003 0.55000000000000004
decision_type=2 2 2 2
left_child=-1 3 -3 -2
right_child=1 2 -4 -5
leaf_value=-0.013475373529975385 -0.027789787800861832 0.049950855569969525 -0.0055708928209864507 0.0028258565213836622
leaf_weight=6.7409463003277805 3.9461653046309939 4.3171873837709409 4.0639757066965103 3.5595445334911346
leaf_count=36 25 33 26 22
internal_value=0 0.00587925 0.0230287 -0.0132705
internal_weight=0 15.8869 8.38116 7.50571
internal_count=142 106 59 47
is_linear=0
shrinkage=0.1


Tree=72
num_leaves=5
num_cat=0
split_feature=7 7 7 15
split_gain=0.174842 0.298081 0.670618 0.617335
threshold=348.50000000000489 446.00000000000006 600.83333333333951 699.33333333333223
decision_type=2 2 2 2
left_child=-1 3 -3 -2
right_child=1 2 -4 -5
leaf_value=0.016084430029791905 -0.040696989067740115 0.050699006930323566 -0.01243473665476128 0.0088080794309683581
leaf_weight=5.2583512514829662 5.0203605480492133 2.6582699194550505 4.5835211239755154 5.0556173920631409
leaf_count=35 26 18 33 30
internal_value=0 -0.0047354 0.01074 -0.0158578
internal_weight=0 17.3178 7.24179 10.076
internal_count=142 107 51 56
is_linear=0
shrinkage=0.1


Tree=73
num_leaves=5
num_cat=0
split_feature=8 14 9 6
split_gain=0.216659 0.422237 0.243019 0.501156
threshold=0.55000000000000016 279.75243147657073 90.500000000000014 0.55000000000000004
decision_type=2 2 2 2
left_child=2 -2 -1 -4
right_child=1 -3 3 -5
leaf_value=-0.025561202215185781 -0.0060385784206875666 0.034863239276876498 -0.02228469793719055 0.031503108841638872
leaf_weight=5.1153306178748625 6.1851220913231355 4.2637544348835945 3.6620660349726677 3.2870836853981018
leaf_count=29 37 25 26 25
internal_value=0 0.0106518 -0.00901893 0.00315799
internal_weight=0 10.4489 12.0645 6.94915
internal_count=142 62 80 51
is_linear=0
shrinkage=0.1


Tree=74
num_leaves=6
num_cat=0
split_feature=14 15 9 6 9
split_gain=0.196168 0.868001 0.48814 0.34502 0.568637
threshold=228.64923747276717 412.50000000000119 36.500000000000007 0.75000000000000011 105.50000000000001
decision_type=2 2 2 2 2
left_child=1 3 -2 4 -1
right_child=2 -3 -4 -5 -6
leaf_value=0.036853573699104122 -0.03863380254911819 0.051086244225806099 0.01140066980454966 -0.034488766741052966 -0.017206203949780459
leaf_weight=3.2475667521357554 3.7612235993146887 3.414787456393241 4.0488569289445877 3.1610838472843161 4.8539431542158127
leaf_count=19 20 19 27 20 37
internal_value=0 0.00692176 -0.0126952 -0.00646879 0.00446417
internal_weight=0 14.6774 7.81008 11.2626 8.10151
internal_count=142 95 47 76 56
is_linear=0
shrinkage=0.1


Tree=75
num_leaves=5
num_cat=0
split_feature=6 14 14 9
split_gain=0.179668 0.519283 0.479705 0.32285
threshold=1.0500000000000003 279.75243147657073 781.33333333333405 105.50000000000001
decision_type=2 2 2 2
left_child=2 -2 3 -1
right_child=1 -3 -4 -5
leaf_value=0.019825799611714198 -0.0078155451731191615 0.042286051899593502 -0.040724061667357349 -0.015434671385565594
leaf_weight=5.5640469714999217 5.4271496161818487 3.3430016376078129 3.2314544320106497 4.8691094927489758
leaf_count=32 33 24 16 37
internal_value=0 0.0112822 -0.0070576 0.00336989
internal_weight=0 8.77015 13.6646 10.4332
internal_count=142 57 85 69
is_linear=0
shrinkage=0.1


Tree=76
num_leaves=6
num_cat=0
split_feature=8 9 9 7 6
split_gain=0.170413 0.358759 0.386574 0.266151 0.714543
threshold=2.6500000000000017 30.500000000000004 72.500000000000014 510.50000000000006 1.0000000180025095e-35
decision_type=2 2 2 2 2
left_child=1 -1 -3 4 -4
right_child=-2 2 3 -5 -6
leaf_value=0.027363732559436568 0.020448878695189104 -0.029886555509150627 -0.014601958149587483 -0.021605618975989452 0.051406617483181954
leaf_weight=3.1179597824811998 3.4791709929704657 5.9461305141448966 3.8283306770026666 3.1413394398987293 2.8688772469758987
leaf_count=17 21 34 23 25 22
internal_value=0 -0.0036335 -0.00975641 0.00240966 0.0136741
internal_weight=0 18.9026 15.7847 9.83855 6.69721
internal_count=142 121 104 70 45
is_linear=0
shrinkage=0.1


Tree=77
num_leaves=6
num_cat=0
split_feature=7 9 13 7 14
split_gain=0.156554 0.529345 0.645519 1.02445 0.49808
threshold=379.83333333333582 36.500000000000007 1.0000000180025095e-35 519.00000000000011 102.95752895752945
decision_type=2 2 2 2 2
left_child=4 -2 3 -3 -1
right_child=1 2 -4 -5 -6
leaf_value=-0.0075339772458552657 -0.033001228257844122 -0.058483716769420782 0.042581447357465239 0.029122439330207524 0.042093581023721002
leaf_weight=5.5473158806562441 4.8710198774933806 2.5939102657139284 3.3512972109019756 2.7498942725360394 3.182581003755331
leaf_count=36 26 17 20 23 20
internal_value=0 -0.00660944 0.00817532 -0.013402 0.0105583
internal_weight=0 13.5661 8.6951 5.3438 8.7299
internal_count=142 86 60 40 56
is_linear=0
shrinkage=0.1


Tree=78
num_leaves=6
num_cat=0
split_feature=14 15 6 9 9
split_gain=0.159748 0.649951 0.34362 0.439944 0.330074
threshold=228.64923747276717 412.50000000000119 0.75000000000000011 105.50000000000001 36.500000000000007
decision_type=2 2 2 2 2
left_child=1 2 3 -1 -2
right_child=4 -3 -4 -5 -6
leaf_value=0.034563028787686974 -0.032796608865386691 0.045031932921115805 -0.033289573600629598 -0.013224544361382437 0.0085105497015665957
leaf_weight=3.1890676990151423 3.749392867088317 3.3371301293373099 3.1432527527213088 4.8660284578800201 3.9963415898382664
leaf_count=19 20 19 20 37 27
internal_value=0 0.00629582 -0.00524762 0.00569488 -0.0114846
internal_weight=0 14.5355 11.1983 8.0551 7.74573
internal_count=142 95 76 56 47
is_linear=0
shrinkage=0.1


Tree=79
num_leaves=5
num_cat=0
split_feature=7 9 8 8
split_gain=0.156421 0.320769 0.512342 0.450633
threshold=348.50000000000489 45.500000000000007 0.84999999999999998 0.15000000000000005
decision_type=2 2 2 2
left_child=-1 -2 3 -3
right_child=1 2 -4 -5
leaf_value=0.015335866211385014 0.011267641821112628 -0.025251973061035216 -0.051575462967150126 0.026368623192349779
leaf_weight=5.1786028482019928 7.3403892219066647 3.6630630046129209 2.9067366607487202 3.1414470411837101
leaf_count=35 39 24 18 26
internal_value=0 -0.00450815 -0.0164325 -0.00142022
internal_weight=0 17.0516 9.71125 6.80451
internal_count=142 107 68 50
is_linear=0
shrinkage=0.1


Tree=80
num_leaves=6
num_cat=0
split_feature=14 15 7 9 9
split_gain=0.141691 0.548089 0.35402 0.578985 0.285288
threshold=228.64923747276717 412.50000000000119 446.00000000000006 96.500000000000014 36.500000000000007
decision_type=2 2 2 2 2
left_child=1 2 3 -1 -2
right_child=4 -3 -4 -5 -6
leaf_value=-0.042293552132386891 -0.030556174152909184 0.041897767355472126 0.020006831620671094 0.014481254866539365 0.0078909282552969695
leaf_weight=4.1182774305343646 3.7597663551568976 3.2790266945958129 3.8297805301845074 3.1856371089816093 3.9657093621790409
leaf_count=25 20 19 30 21 27
internal_value=0 0.00596425 -0.00461866 -0.0175309 -0.0108202
internal_weight=0 14.4127 11.1337 7.30391 7.72548
internal_count=142 95 76 46 47
is_linear=0
shrinkage=0.1


Tree=81
num_leaves=6
num_cat=0
split_feature=9 7 12 9 9
split_gain=0.15071 0.256176 1.54127 0.890485 0.996705
threshold=30.500000000000004 631.49999999999693 1.0000000180025095e-35 72.500000000000014 105.50000000000001
decision_type=2 2 2 2 2
left_child=-1 2 -2 -4 -5
right_child=1 -3 3 4 -6
leaf_value=0.014610369165821761 0.059683696130556324 -0.031495762230521522 -0.057447020324422754 0.03871570211079306 -0.038814765694912268
leaf_weight=5.4105781316757229 3.3874593675136611 2.92059526965022 3.6890120506286586 3.6754316911101341 3.0210798010230064
leaf_count=30 23 22 23 23 21
internal_value=0 -0.0045945 0.00110998 -0.0179951 0.00373843
internal_weight=0 16.6936 13.773 10.3855 6.69651
internal_count=142 112 90 67 44
is_linear=0
shrinkage=0.1


Tree=82
num_leaves=6
num_cat=0
split_feature=15 14 8 8 9
split_gain=0.144446 0.339603 0.265151 1.02834 0.156769
threshold=832.3333333333386 346.36363636363666 1.9500000000000008 0.25000000000000006 108.50000000000001
decision_type=2 2 2 2 2
left_child=1 2 3 4 -1
right_child=-2 -3 -4 -5 -6
leaf_value=-0.02263039730596637 0.019764413576836462 -0.031063651575954983 -0.019023115645690109 0.059510214969414166 0.0051905157338738737
leaf_weight=3.7799758911132866 3.1971145272254935 3.5544351600110522 3.9558009728789321 3.1568040400743476 4.3635993376374245
leaf_count=21 22 20 24 22 33
internal_value=0 -0.00322671 0.00325884 0.0110588 -0.00772302
internal_weight=0 18.8106 15.2562 11.3004 8.14358
internal_count=142 120 100 76 54
is_linear=0
shrinkage=0.1


Tree=83
num_leaves=5
num_cat=0
split_feature=7 6 9 7
split_gain=0.143144 0.340437 0.788921 0.460056
threshold=348.50000000000489 2.4000000000000008 51.500000000000007 399.00000000000369
decision_type=2 2 2 2
left_child=-1 2 -2 -4
right_child=1 -3 3 -5
leaf_value=0.014692500405547225 0.037749925748846738 -0.028717304397397621 0.018879217665552062 -0.031601619881339083
leaf_weight=5.1545399129390743 4.4544247388839748 4.2774605378508559 2.7180616408586484 5.3762010931968689
leaf_count=35 26 24 18 39
internal_value=0 -0.00435422 0.00395041 -0.0146501
internal_weight=0 16.8261 12.5487 8.09426
internal_count=142 107 83 57
is_linear=0
shrinkage=0.1


Tree=84
num_leaves=5
num_cat=0
split_feature=7 6 8 13
split_gain=0.147471 0.502349 0.540235 0.45631
threshold=446.00000000000006 0.55000000000000004 1.6500000000000006 1.0000000180025095e-35
decision_type=2 2 2 2
left_child=1 -1 -3 -2
right_child=3 2 -4 -5
leaf_value=-0.029505929700367778 0.032515482941701146 0.031422366311829424 -0.016680907548422986 -0.019454439569248718
leaf_weight=5.5081994943320778 4.2794472537934771 4.9111858978867513 4.4503563046455383 2.7915826886892319
leaf_count=32 34 32 27 17
internal_value=0 -0.00554411 0.00855469 0.0119982
internal_weight=0 14.8697 9.36154 7.07103
internal_count=142 91 59 51
is_linear=0
shrinkage=0.1


Tree=85
num_leaves=6
num_cat=0
split_feature=8 8 15 7 9
split_gain=0.161265 0.346727 0.581445 0.305136 0.598155
threshold=2.6500000000000017 1.0500000000000003 771.16666666667118 446.00000000000006 96.500000000000014
decision_type=2 2 2 2 2
left_child=1 2 3 4 -1
right_child=-2 -3 -4 -5 -6
leaf_value=-0.042924617477772528 0.02009459971245724 -0.030160929984176479 0.039776124137264765 0.016036269043007687 0.014105289644077763
leaf_weight=4.3835388198494964 3.4094228222966185 3.8775150738656512 3.3899080902338019 3.7061143554747105 3.1684225089848042
leaf_count=23 21 23 23 30 22
internal_value=0 -0.00357076 0.00346802 -0.00746468 -0.0189977
internal_weight=0 18.5255 14.648 11.2581 7.55196
internal_count=142 121 98 75 45
is_linear=0
shrinkage=0.1


Tree=86
num_leaves=5
num_cat=0
split_feature=8 14 9 6
split_gain=0.167964 0.425576 0.217543 0.371547
threshold=0.55000000000000016 279.75243147657073 90.500000000000014 0.55000000000000004
decision_type=2 2 2 2
left_child=2 -2 -1 -4
right_child=1 -3 3 -5
leaf_value=-0.023734385512180999 -0.0074413878206607874 0.034305074513329641 -0.018314806822753802 0.028702856663151668
leaf_weight=5.0359280332922953 5.9961014911532384 4.1197564825415611 3.5845701433718204 3.1644027046859264
leaf_count=29 37 25 26 25
internal_value=0 0.00956016 -0.00800583 0.00373045
internal_weight=0 10.1159 11.7849 6.74897
internal_count=142 62 80 51
is_linear=0
shrinkage=0.1


Tree=87
num_leaves=6
num_cat=0
split_feature=7 14 8 8 7
split_gain=0.175712 0.640728 1.17922 0.824015 0.308396
threshold=366.50000000000733 150.81410825199643 0.15000000000000005 1.2500000000000002 268.83333333332854
decision_type=2 2 2 2 2
left_child=4 2 -2 -3 -1
right_child=1 3 -4 -5 -6
leaf_value=-0.007775103976455873 -0.023819937268796679 0.0026938964439427587 0.06626960680241524 -0.061948668045836243 0.031521503230991739
leaf_weight=3.9843567088246372 3.0892688147723666 4.6079559251666051 2.74302152171731 3.4471598006784916 4.0040597021579742
leaf_count=26 21 28 20 20 27
internal_value=0 -0.00669245 0.0185506 -0.0249697 0.0119217
internal_weight=0 13.8874 5.83229 8.05512 7.98842
internal_count=142 89 41 48 53
is_linear=0
shrinkage=0.1


Tree=88
num_leaves=5
num_cat=0
split_feature=7 12 15 15
split_gain=0.167868 0.305422 0.651831 0.429189
threshold=348.50000000000489 1.0000000180025095e-35 771.16666666667118 412.50000000000119
decision_type=2 2 2 2
left_child=-1 -2 3 -3
right_child=1 2 -4 -5
leaf_value=0.015899501254239074 -0.029391886594935926 0.0077756140450392407 0.036934048734549155 -0.036230037225460511
leaf_weight=5.1461728289723423 3.8671385496854827 4.8895902484655327 3.8742869943380365 4.0537762269377708
leaf_count=35 25 35 27 20
internal_value=0 -0.00475992 0.00267164 -0.0121709
internal_weight=0 16.6848 12.8177 8.94337
internal_count=142 107 82 55
is_linear=0
shrinkage=0.1


Tree=89
num_leaves=5
num_cat=0
split_feature=6 14 14 9
split_gain=0.187736 0.399993 0.348357 0.282231
threshold=1.0500000000000003 279.75243147657073 781.33333333333405 105.50000000000001
decision_type=2 2 2 2
left_child=2 -2 3 -1
right_child=1 -3 -4 -5
leaf_value=0.017411152907089996 -0.0050821163250604935 0.03983757503350558 -0.036151633097254492 -0.016020881813118459
leaf_weight=5.3966348245739955 5.2876241169869882 3.1712537612766027 3.1829706206917754 4.7455670796334743
leaf_count=32 33 24 16 37
internal_value=0 0.0117584 -0.00728967 0.0017682
internal_weight=0 8.45888 13.3252 10.1422
internal_count=142 57 85 69
is_linear=0
shrinkage=0.1


Tree=90
num_leaves=7
num_cat=0
split_feature=8 9 7 9 7 9
split_gain=0.184174 0.362121 0.359269 1.03726 0.706949 0.121466
threshold=2.6500000000000017 30.500000000000004 446.00000000000006 63.500000000000007 631.49999999999693 96.500000000000014
decision_type=2 2 2 2 2 2
left_child=1 -1 3 -3 -4 -5
right_child=-2 2 4 5 -6 -7
leaf_value=0.027661888573981819 0.021564435535685697 -0.069664105339349788 0.04491545572540237 -0.012505984377713556 -0.026122951123106444 0.01458746494812139
leaf_weight=3.0433069206774297 3.3775170221924773 3.0826961137354356 2.8545739538967601 3.4342531114816666 2.7508730888366699 3.1934189759194851
leaf_count=17 21 19 20 21 21 23
internal_value=0 -0.00384446 -0.0101049 -0.0217415 0.0100534 0.000548484
internal_weight=0 18.3591 15.3158 9.71037 5.60545 6.62767
internal_count=142 121 104 63 41 44
is_linear=0
shrinkage=0.1


Tree=91
num_leaves=5
num_cat=0
split_feature=8 14 6 9
split_gain=0.195109 0.407577 0.198758 0.301995
threshold=0.55000000000000016 279.75243147657073 0.75000000000000011 105.50000000000001
decision_type=2 2 2 2
left_child=2 -2 3 -1
right_child=1 -3 -4 -5
leaf_value=0.022913153477311096 -0.0063734231043308266 0.034814123089251553 -0.0282721456894625 -0.016304481764836048
leaf_weight=3.3632947430014628 5.9061989262700063 4.0501298531889915 3.5854324661195269 4.7178760468959808
leaf_count=21 37 25 22 37
internal_value=0 0.0103812 -0.00867662 1.74683e-05
internal_weight=0 9.95633 11.6666 8.08117
internal_count=142 62 80 58
is_linear=0
shrinkage=0.1


Tree=92
num_leaves=5
num_cat=0
split_feature=8 15 9 6
split_gain=0.158288 0.34586 0.176051 0.656963
threshold=0.55000000000000016 765.00000000000193 96.500000000000014 0.55000000000000004
decision_type=2 2 2 2
left_child=2 -2 -1 -4
right_child=1 -3 3 -5
leaf_value=-0.019427459132809691 0.024332124197815455 -0.013937355379524558 -0.027299457269579209 0.04179438447143536
leaf_weight=6.1539440825581568 6.0458104982972127 3.8752280920743942 2.9289086423814297 2.5957368351519108
leaf_count=35 35 27 23 22
internal_value=0 0.00938379 -0.00779425 0.00516406
internal_weight=0 9.92104 11.6786 5.52465
internal_count=142 62 80 45
is_linear=0
shrinkage=0.1


Tree=93
num_leaves=5
num_cat=0
split_feature=7 12 15 8
split_gain=0.162376 0.244067 0.635699 0.437051
threshold=348.50000000000489 1.0000000180025095e-35 771.16666666667118 0.65000000000000002
decision_type=2 2 2 2
left_child=-1 -2 3 -3
right_child=1 2 -4 -5
leaf_value=0.015694650260502572 -0.026902079092776521 -0.030186096783140451 0.036183902492038005 0.015490147240733896
leaf_weight=5.0963621754199293 3.8151978850364729 5.4754248373210377 3.7977565228939065 3.3929493576288223
leaf_count=35 25 36 27 19
internal_value=0 -0.0047292 0.00194955 -0.0127108
internal_weight=0 16.4813 12.6661 8.86837
internal_count=142 107 82 55
is_linear=0
shrinkage=0.1


Tree=94
num_leaves=5
num_cat=0
split_feature=9 14 7 9
split_gain=0.159162 0.402526 0.258048 0.346129
threshold=36.500000000000007 135.79242636746184 446.00000000000006 99.500000000000014
decision_type=2 2 2 2
left_child=-1 2 3 -2
right_child=1 -3 -4 -5
leaf_value=-0.013033613603146466 -0.039898113043157567 0.028393290808498058 0.015404482937997422 0.0069810237378452218
leaf_weight=6.4642445072531727 3.4009124711155874 5.1536708064377299 3.5786359831690788 2.9335482344031334
leaf_count=36 20 37 29 20
internal_value=0 0.00572425 -0.00606105 -0.0181879
internal_weight=0 15.0668 9.9131 6.33446
internal_count=142 106 69 40
is_linear=0
shrinkage=0.1


Tree=95
num_leaves=6
num_cat=0
split_feature=14 15 9 7 7
split_gain=0.156234 0.63741 0.54117 0.237416 0.504609
threshold=240.90773809523799 491.66666666666703 36.500000000000007 446.00000000000006 348.50000000000489
decision_type=2 2 2 2 2
left_child=1 3 -2 4 -1
right_child=2 -3 -4 -5 -6
leaf_value=0.0060795631381950462 -0.040329406441893631 0.047272263636636988 0.014918871810915833 0.016339523159087672 -0.046001419685347857
leaf_weight=4.6976168528199214 3.4647150486707678 2.9786562249064437 3.6309756673872471 3.6601949334144592 3.0801753848791122
leaf_count=31 19 19 25 30 18
internal_value=0 0.00606803 -0.012058 -0.00466228 -0.0145456
internal_weight=0 14.4166 7.09569 11.438 7.77779
internal_count=142 98 44 79 49
is_linear=0
shrinkage=0.1


Tree=96
num_leaves=5
num_cat=0
split_feature=9 6 9 9
split_gain=0.164622 0.385741 0.544701 0.526907
threshold=105.50000000000001 1.0000000180025095e-35 66.500000000000014 36.500000000000007
decision_type=2 2 2 2
left_child=1 -1 3 -3
right_child=-2 2 -4 -5
leaf_value=0.03454808527015462 -0.016529843196314623 -0.0096478438399795856 -0.036732106018053365 0.037721654721185514
leaf_weight=3.442963056266314 4.6650735326111308 5.9308136738836748 3.5222373995929948 3.8873254843056202
leaf_count=21 37 33 24 27
internal_value=0 0.00470618 -0.0029956 0.0091073
internal_weight=0 16.7833 13.3404 9.81814
internal_count=142 105 84 60
is_linear=0
shrinkage=0.1


Tree=97
num_leaves=5
num_cat=0
split_feature=9 6 13 9
split_gain=0.148348 0.252218 0.813495 0.355007
threshold=30.500000000000004 1.5000000000000002 1.0000000180025095e-35 105.50000000000001
decision_type=2 2 2 2
left_child=-1 2 3 -2
right_child=1 -3 -4 -5
leaf_value=0.014684263680489352 0.024372132660186431 0.019508585701993333 -0.051834481217974508 -0.014830891385134326
leaf_weight=5.2568853870034244 4.5623892471194285 3.4113658834248772 3.5431611984968177 4.6787702031433582
leaf_count=30 28 28 19 37
internal_value=0 -0.00464952 -0.0110959 0.00452376
internal_weight=0 16.1957 12.7843 9.24116
internal_count=142 112 84 65
is_linear=0
shrinkage=0.1


Tree=98
num_leaves=5
num_cat=0
split_feature=7 8 8 9
split_gain=0.129528 0.29262 0.576931 0.192094
threshold=348.50000000000489 1.2500000000000002 0.55000000000000016 87.500000000000014
decision_type=2 2 2 2
left_child=-1 2 3 -2
right_child=1 -3 -4 -5
leaf_value=0.014095260708972882 -0.029405471312248417 -0.022345052116150909 0.040353897741298446 0.0035784738115205448
leaf_weight=5.0427805986255434 3.0122054032981413 5.7730116769671431 3.2965928465127945 4.2666471675038338
leaf_count=35 18 34 21 34
internal_value=0 -0.00423741 0.00564734 -0.0100713
internal_weight=0 16.3485 10.5754 7.27885
internal_count=142 107 73 52
is_linear=0
shrinkage=0.1


Tree=99
num_leaves=5
num_cat=0
split_feature=8 8 15 7
split_gain=0.125774 0.354794 0.516647 0.203385
threshold=2.6500000000000017 1.0500000000000003 771.16666666667118 379.83333333333582
decision_type=2 2 2 2
left_child=1 2 3 -1
right_child=-2 -3 -4 -5
leaf_value=0.0072096307845139346 0.017985771143386314 -0.030502073348905062 0.038841090720594634 -0.019975942858974152
leaf_weight=5.503547448664909 3.3150469511747351 3.7678959108889094 3.2782771736383429 5.5042889416217804
leaf_count=36 21 23 23 39
internal_value=0 -0.00320547 0.00399388 -0.00638407
internal_weight=0 18.054 14.2861 11.0078
internal_count=142 121 98 75
is_linear=0
shrinkage=0.1


end of trees

feature_importances:
taskNum=126
s_view_position=90
response_time=75
scroll_time=64
s_scroll_speed=28
scroll_length=28
predicted_isAnswerCorrect=13
s_choice_left=9
event_scroll=7

parameters:
[boosting: gbdt]
[objective: binary]
[metric: binary_error]
[tree_learner: serial]
[device_type: cpu]
[data_sample_strategy: bagging]
[data: ]
[valid: ]
[num_iterations: 100]
[learning_rate: 0.1]
[num_leaves: 31]
[num_threads: 0]
[seed: 0]
[deterministic: 0]
[force_col_wise: 0]
[force_row_wise: 0]
[histogram_pool_size: -1]
[max_depth: -1]
[min_data_in_leaf: 20]
[min_sum_hessian_in_leaf: 0.001]
[bagging_fraction: 1]
[pos_bagging_fraction: 1]
[neg_bagging_fraction: 1]
[bagging_freq: 0]
[bagging_seed: 3]
[feature_fraction: 1]
[feature_fraction_bynode: 1]
[feature_fraction_seed: 2]
[extra_trees: 0]
[extra_seed: 6]
[early_stopping_round: 0]
[first_metric_only: 0]
[max_delta_step: 0]
[lambda_l1: 0]
[lambda_l2: 0]
[linear_lambda: 0]
[min_gain_to_split: 0]
[drop_rate: 0.1]
[max_drop: 50]
[skip_drop: 0.5]
[xgboost_dart_mode: 0]
[uniform_drop: 0]
[drop_seed: 4]
[top_rate: 0.2]
[other_rate: 0.1]
[min_data_per_group: 100]
[max_cat_threshold: 32]
[cat_l2: 10]
[cat_smooth: 10]
[max_cat_to_onehot: 4]
[top_k: 20]
[monotone_constraints: ]
[monotone_constraints_method: basic]
[monotone_penalty: 0]
[feature_contri: ]
[forcedsplits_filename: ]
[refit_decay_rate: 0.9]
[cegb_tradeoff: 1]
[cegb_penalty_split: 0]
[cegb_penalty_feature_lazy: ]
[cegb_penalty_feature_coupled: ]
[path_smooth: 0]
[interaction_constraints: ]
[verbosity: -1]
[saved_feature_importance_type: 0]
[use_quantized_grad: 0]
[num_grad_quant_bins: 4]
[quant_train_renew_leaf: 0]
[stochastic_rounding: 1]
[linear_tree: 0]
[max_bin: 255]
[max_bin_by_feature: ]
[min_data_in_bin: 3]
[bin_construct_sample_cnt: 200000]
[data_random_seed: 1]
[is_enable_sparse: 1]
[enable_bundle: 1]
[use_missing: 1]
[zero_as_missing: 0]
[feature_pre_filter: 0]
[pre_partition: 0]
[two_round: 0]
[header: 0]
[label_column: ]
[weight_column: ]
[group_column: ]
[ignore_column: ]
[categorical_feature: ]
[forcedbins_filename: ]
[precise_float_parser: 0]
[parser_config_file: ]
[objective_seed: 5]
[num_class: 1]
[is_unbalance: 0]
[scale_pos_weight: 1]
[sigmoid: 1]
[boost_from_average: 1]
[reg_sqrt: 0]
[alpha: 0.9]
[fair_c: 1]
[poisson_max_delta_step: 0.7]
[tweedie_variance_power: 1.5]
[lambdarank_truncation_level: 30]
[lambdarank_norm: 1]
[label_gain: ]
[lambdarank_position_bias_regularization: 0]
[eval_at: ]
[multi_error_top_k: 1]
[auc_mu_weights: ]
[num_machines: 1]
[local_listen_port: 12400]
[time_out: 120]
[machine_list_filename: ]
[machines: ]
[gpu_platform_id: -1]
[gpu_device_id: -1]
[gpu_use_dp: 0]
[num_gpu: 1]

end of parameters

pandas_categorical:[]
