tree
version=v4
num_class=1
num_tree_per_iteration=1
label_index=0
max_feature_idx=15
objective=binary sigmoid:1
feature_names=ratio_tap_position_y screen_height tap_position_x tap_position_y predicted_isAnswerCorrect s_tap_count scroll_time s_view_position response_time taskNum screen_width ratio_tap_position_x s_choice_left event_scroll s_scroll_speed scroll_length
feature_infos=none [844:844] none none [0:1] [1:1] [-0.10000000000000009:10.999999999999993] [-343.99999999999989:756.66666666666788] [0.10000000000000001:7.6999999999999869] [1:54] [390:390] none [0:1] [0:6] [-1719.9999999999984:1911.6666666666704] [0:1530]
tree_sizes=343 341 341 341 340 338 340 339 342 339 343 342 344 339 343 342 344 341 344 342 342 344 343 343 343 342 343 344 344 343 344 343 343 343 343 342 341 341 342 342 344 344 343 342 343 344 343 343 341 343 343 342 339 342 344 343 342 343 343 344 343 340 343 341 343 342 343 344 344 344 343 343 343 344 344 342 339 344 342 341 343 343 343 341 344 342 341 343 344 344 343 341 342 341 342 343 343 344 344 342

Tree=0
num_leaves=2
num_cat=0
split_feature=9
split_gain=3.11294
threshold=30.500000000000004
decision_type=2
left_child=-1
right_child=-2
leaf_value=0.57509883843043352 0.47504001578684685
leaf_weight=6.9958846271038055 5.5967077016830444
leaf_count=30 24
internal_value=0.530628
internal_weight=0
internal_count=54
is_linear=0
shrinkage=1


Tree=1
num_leaves=2
num_cat=0
split_feature=9
split_gain=2.51529
threshold=30.500000000000004
decision_type=2
left_child=-1
right_child=-2
leaf_value=0.040532780410257208 -0.049310913627994835
leaf_weight=6.9125135242938995 5.6738412380218506
leaf_count=30 24
internal_value=0
internal_weight=0
internal_count=54
is_linear=0
shrinkage=0.1


Tree=2
num_leaves=2
num_cat=0
split_feature=9
split_gain=2.03592
threshold=30.500000000000004
decision_type=2
left_child=-1
right_child=-2
leaf_value=0.036933290287238456 -0.043870633363853995
leaf_weight=6.8319627642631531 5.7361385822296143
leaf_count=30 24
internal_value=0
internal_weight=0
internal_count=54
is_linear=0
shrinkage=0.1


Tree=3
num_leaves=2
num_cat=0
split_feature=9
split_gain=1.64998
threshold=30.500000000000004
decision_type=2
left_child=-1
right_child=-2
leaf_value=0.033639683213758577 -0.039120647715829154
leaf_weight=6.7549784481525421 5.7864840030670166
leaf_count=30 24
internal_value=0
internal_weight=0
internal_count=54
is_linear=0
shrinkage=0.1


Tree=4
num_leaves=2
num_cat=0
split_feature=9
split_gain=1.33841
threshold=30.500000000000004
decision_type=2
left_child=-1
right_child=-2
leaf_value=0.030624435579028567 -0.034948753845203039
leaf_weight=6.6820406913757324 5.827189564704895
leaf_count=30 24
internal_value=0
internal_weight=0
internal_count=54
is_linear=0
shrinkage=0.1


Tree=5
num_leaves=2
num_cat=0
split_feature=7
split_gain=1.26201
threshold=399.333333333334
decision_type=2
left_child=-1
right_child=-2
leaf_value=-0.025459762691087257 0.03969269389202474
leaf_weight=7.5831779688596725 4.8903601318597794
leaf_count=33 21
internal_value=0
internal_weight=0
internal_count=54
is_linear=0
shrinkage=0.1


Tree=6
num_leaves=2
num_cat=0
split_feature=9
split_gain=1.11674
threshold=30.500000000000004
decision_type=2
left_child=-1
right_child=-2
leaf_value=0.028222518973723538 -0.031728224213365547
leaf_weight=6.620919406414032 5.8547178506851196
leaf_count=30 24
internal_value=0
internal_weight=0
internal_count=54
is_linear=0
shrinkage=0.1


Tree=7
num_leaves=2
num_cat=0
split_feature=6
split_gain=1.07464
threshold=2.4000000000000008
decision_type=2
left_child=-1
right_child=-2
leaf_value=0.025072513987052999 -0.03449335625396887
leaf_weight=7.221615806221962 5.2166487276554108
leaf_count=31 23
internal_value=0
internal_weight=0
internal_count=54
is_linear=0
shrinkage=0.1


Tree=8
num_leaves=2
num_cat=0
split_feature=14
split_gain=1.03513
threshold=154.43562610229279
decision_type=2
left_child=-1
right_child=-2
leaf_value=0.036289547790107748 -0.022886573929761924
leaf_weight=4.8325385749340057 7.6122955083847046
leaf_count=21 33
internal_value=0
internal_weight=0
internal_count=54
is_linear=0
shrinkage=0.1


Tree=9
num_leaves=2
num_cat=0
split_feature=7
split_gain=1.07612
threshold=399.333333333334
decision_type=2
left_child=-1
right_child=-2
leaf_value=-0.023371411349162846 0.036953873603778491
leaf_weight=7.6021274924278259 4.8395716845989227
leaf_count=33 21
internal_value=0
internal_weight=0
internal_count=54
is_linear=0
shrinkage=0.1


Tree=10
num_leaves=2
num_cat=0
split_feature=9
split_gain=0.962393
threshold=30.500000000000004
decision_type=2
left_child=-1
right_child=-2
leaf_value=0.026386631711496734 -0.029330804580132264
leaf_weight=6.5698078274726868 5.8698273450136185
leaf_count=30 24
internal_value=0
internal_weight=0
internal_count=54
is_linear=0
shrinkage=0.1


Tree=11
num_leaves=2
num_cat=0
split_feature=6
split_gain=0.96347
threshold=2.4000000000000008
decision_type=2
left_child=-1
right_child=-2
leaf_value=0.023881994525844774 -0.032565510187229314
leaf_weight=7.1757046729326248 5.2259230613708496
leaf_count=31 23
internal_value=0
internal_weight=0
internal_count=54
is_linear=0
shrinkage=0.1


Tree=12
num_leaves=2
num_cat=0
split_feature=14
split_gain=0.946193
threshold=154.43562610229279
decision_type=2
left_child=-1
right_child=-2
leaf_value=0.034891151770237529 -0.021824350265296714
leaf_weight=4.7946617752313614 7.6108300089836121
leaf_count=21 33
internal_value=0
internal_weight=0
internal_count=54
is_linear=0
shrinkage=0.1


Tree=13
num_leaves=2
num_cat=0
split_feature=7
split_gain=0.920719
threshold=399.333333333334
decision_type=2
left_child=-1
right_child=-2
leaf_value=-0.02151238446328228 0.034456682830459377
leaf_weight=7.612965002655983 4.7876171618700027
leaf_count=33 21
internal_value=0
internal_weight=0
internal_count=54
is_linear=0
shrinkage=0.1


Tree=14
num_leaves=2
num_cat=0
split_feature=9
split_gain=0.831395
threshold=30.500000000000004
decision_type=2
left_child=-1
right_child=-2
leaf_value=0.024689329513198771 -0.027176718678167122
leaf_weight=6.5179179906845093 5.8775148242712021
leaf_count=30 24
internal_value=0
internal_weight=0
internal_count=54
is_linear=0
shrinkage=0.1


Tree=15
num_leaves=2
num_cat=0
split_feature=6
split_gain=0.866149
threshold=2.4000000000000008
decision_type=2
left_child=-1
right_child=-2
leaf_value=0.022775395596870932 -0.03080904270799489
leaf_weight=7.1268889009952545 5.2304781228303909
leaf_count=31 23
internal_value=0
internal_weight=0
internal_count=54
is_linear=0
shrinkage=0.1


Tree=16
num_leaves=2
num_cat=0
split_feature=14
split_gain=0.865034
threshold=154.43562610229279
decision_type=2
left_child=-1
right_child=-2
leaf_value=0.033554846713685693 -0.020823547242695147
leaf_weight=4.7541407644748688 7.6048931032419205
leaf_count=21 33
internal_value=0
internal_weight=0
internal_count=54
is_linear=0
shrinkage=0.1


Tree=17
num_leaves=2
num_cat=0
split_feature=7
split_gain=0.790397
threshold=399.333333333334
decision_type=2
left_child=-1
right_child=-2
leaf_value=-0.019851095082054186 0.032175145462130732
leaf_weight=7.6171239465475082 4.7355464994907379
leaf_count=33 21
internal_value=0
internal_weight=0
internal_count=54
is_linear=0
shrinkage=0.1


Tree=18
num_leaves=2
num_cat=0
split_feature=14
split_gain=0.742718
threshold=154.43562610229279
decision_type=2
left_child=-1
right_child=-2
leaf_value=0.031289041410307417 -0.019192266757189474
leaf_weight=4.7161864638328552 7.6290964037179947
leaf_count=21 33
internal_value=0
internal_weight=0
internal_count=54
is_linear=0
shrinkage=0.1


Tree=19
num_leaves=2
num_cat=0
split_feature=6
split_gain=0.801796
threshold=2.4000000000000008
decision_type=2
left_child=-1
right_child=-2
leaf_value=0.021994847188738838 -0.029580426411985369
leaf_weight=7.097579225897789 5.2393561154603958
leaf_count=31 23
internal_value=0
internal_weight=0
internal_count=54
is_linear=0
shrinkage=0.1


Tree=20
num_leaves=2
num_cat=0
split_feature=9
split_gain=0.744538
threshold=30.500000000000004
decision_type=2
left_child=-1
right_child=-2
leaf_value=0.023488817320445343 -0.025701376756913582
leaf_weight=6.468766376376152 5.8685007691383362
leaf_count=30 24
internal_value=0
internal_weight=0
internal_count=54
is_linear=0
shrinkage=0.1


Tree=21
num_leaves=2
num_cat=0
split_feature=15
split_gain=0.721044
threshold=771.16666666667118
decision_type=2
left_child=-1
right_child=-2
leaf_value=-0.020682716013595129 0.028311864035574331
leaf_weight=7.0851074308156967 5.2144607156515121
leaf_count=31 23
internal_value=0
internal_weight=0
internal_count=54
is_linear=0
shrinkage=0.1


Tree=22
num_leaves=2
num_cat=0
split_feature=14
split_gain=0.723852
threshold=154.43562610229279
decision_type=2
left_child=-1
right_child=-2
leaf_value=0.030990384583790873 -0.018960168338433572
leaf_weight=4.689281553030014 7.6080722361803055
leaf_count=21 33
internal_value=0
internal_weight=0
internal_count=54
is_linear=0
shrinkage=0.1


Tree=23
num_leaves=2
num_cat=0
split_feature=6
split_gain=0.712966
threshold=2.4000000000000008
decision_type=2
left_child=-1
right_child=-2
leaf_value=0.020860765598486451 -0.027840954348658131
leaf_weight=7.0468080937862396 5.2420133799314499
leaf_count=31 23
internal_value=0
internal_weight=0
internal_count=54
is_linear=0
shrinkage=0.1


Tree=24
num_leaves=2
num_cat=0
split_feature=6
split_gain=0.771458
threshold=1.5500000000000003
decision_type=2
left_child=-1
right_child=-2
leaf_value=-0.031744642320360235 0.019810078435536647
leaf_weight=4.7012790143489838 7.5861067473888397
leaf_count=21 33
internal_value=0
internal_weight=0
internal_count=54
is_linear=0
shrinkage=0.1


Tree=25
num_leaves=2
num_cat=0
split_feature=6
split_gain=0.671985
threshold=2.4000000000000008
decision_type=2
left_child=-1
right_child=-2
leaf_value=0.020282184512267518 -0.026983797617371533
leaf_weight=7.038860559463501 5.2523632943630219
leaf_count=31 23
internal_value=0
internal_weight=0
internal_count=54
is_linear=0
shrinkage=0.1


Tree=26
num_leaves=2
num_cat=0
split_feature=6
split_gain=0.715833
threshold=1.5500000000000003
decision_type=2
left_child=-1
right_child=-2
leaf_value=-0.030503138615476912 0.019127398097346926
leaf_weight=4.7156891077756882 7.5732737630605698
leaf_count=21 33
internal_value=0
internal_weight=0
internal_count=54
is_linear=0
shrinkage=0.1


Tree=27
num_leaves=2
num_cat=0
split_feature=14
split_gain=0.642287
threshold=154.43562610229279
decision_type=2
left_child=-1
right_child=-2
leaf_value=0.029308424506910086 -0.017797331124647858
leaf_weight=4.6652272045612335 7.6263070702552795
leaf_count=21 33
internal_value=0
internal_weight=0
internal_count=54
is_linear=0
shrinkage=0.1


Tree=28
num_leaves=2
num_cat=0
split_feature=15
split_gain=0.695739
threshold=771.16666666667118
decision_type=2
left_child=-1
right_child=-2
leaf_value=-0.020302383504588774 0.027872463451567988
leaf_weight=7.0853850394487381 5.1964178532361984
leaf_count=31 23
internal_value=0
internal_weight=0
internal_count=54
is_linear=0
shrinkage=0.1


Tree=29
num_leaves=2
num_cat=0
split_feature=6
split_gain=0.656526
threshold=2.4000000000000008
decision_type=2
left_child=-1
right_child=-2
leaf_value=0.020070439785201594 -0.026665775456141572
leaf_weight=7.0268793404102325 5.2523520588874817
leaf_count=31 23
internal_value=0
internal_weight=0
internal_count=54
is_linear=0
shrinkage=0.1


Tree=30
num_leaves=2
num_cat=0
split_feature=13
split_gain=0.669903
threshold=1.5000000000000002
decision_type=2
left_child=-1
right_child=-2
leaf_value=-0.017356116709714858 0.031377035398036719
leaf_weight=7.8847526162862778 4.3919373750686646
leaf_count=35 19
internal_value=0
internal_weight=0
internal_count=54
is_linear=0
shrinkage=0.1


Tree=31
num_leaves=2
num_cat=0
split_feature=9
split_gain=0.667134
threshold=30.500000000000004
decision_type=2
left_child=-1
right_child=-2
leaf_value=0.022352096613922123 -0.024306735299311325
leaf_weight=6.4187370389699936 5.8639226853847504
leaf_count=30 24
internal_value=0
internal_weight=0
internal_count=54
is_linear=0
shrinkage=0.1


Tree=32
num_leaves=2
num_cat=0
split_feature=6
split_gain=0.631994
threshold=2.4000000000000008
decision_type=2
left_child=-1
right_child=-2
leaf_value=0.019735665903070007 -0.026175438821030524
leaf_weight=7.0017550587654114 5.2438622415065765
leaf_count=31 23
internal_value=0
internal_weight=0
internal_count=54
is_linear=0
shrinkage=0.1


Tree=33
num_leaves=2
num_cat=0
split_feature=6
split_gain=0.658393
threshold=1.5500000000000003
decision_type=2
left_child=-1
right_child=-2
leaf_value=-0.029252876315116218 0.018411687349999047
leaf_weight=4.7100008279085159 7.5326754152774811
leaf_count=21 33
internal_value=0
internal_weight=0
internal_count=54
is_linear=0
shrinkage=0.1


Tree=34
num_leaves=2
num_cat=0
split_feature=14
split_gain=0.616082
threshold=154.43562610229279
decision_type=2
left_child=-1
right_child=-2
leaf_value=0.028788247052593113 -0.01744996538369651
leaf_weight=4.6401457488536835 7.6036107093095779
leaf_count=21 33
internal_value=0
internal_weight=0
internal_count=54
is_linear=0
shrinkage=0.1


Tree=35
num_leaves=2
num_cat=0
split_feature=6
split_gain=0.64444
threshold=2.4000000000000008
decision_type=2
left_child=-1
right_child=-2
leaf_value=0.019925425431704835 -0.026461362565830315
leaf_weight=6.9979135394096375 5.2358068376779556
leaf_count=31 23
internal_value=0
internal_weight=0
internal_count=54
is_linear=0
shrinkage=0.1


Tree=36
num_leaves=2
num_cat=0
split_feature=7
split_gain=0.626547
threshold=399.333333333334
decision_type=2
left_child=-1
right_child=-2
leaf_value=-0.017593818107507386 0.029069353951953859
leaf_weight=7.6006210595369339 4.6304055154323578
leaf_count=33 21
internal_value=0
internal_weight=0
internal_count=54
is_linear=0
shrinkage=0.1


Tree=37
num_leaves=2
num_cat=0
split_feature=6
split_gain=0.61163
threshold=1.5500000000000003
decision_type=2
left_child=-1
right_child=-2
leaf_value=-0.02816585408681473 0.017794283167730535
leaf_weight=4.7128642797470093 7.5088421851396561
leaf_count=21 33
internal_value=0
internal_weight=0
internal_count=54
is_linear=0
shrinkage=0.1


Tree=38
num_leaves=2
num_cat=0
split_feature=6
split_gain=0.585828
threshold=2.4000000000000008
decision_type=2
left_child=-1
right_child=-2
leaf_value=0.019067116062761489 -0.025162066511631505
leaf_weight=6.9723981320858002 5.249299168586731
leaf_count=31 23
internal_value=0
internal_weight=0
internal_count=54
is_linear=0
shrinkage=0.1


Tree=39
num_leaves=2
num_cat=0
split_feature=9
split_gain=0.607337
threshold=30.500000000000004
decision_type=2
left_child=-1
right_child=-2
leaf_value=0.021417454039880421 -0.023215312433614479
leaf_weight=6.3740021288394928 5.843991294503212
leaf_count=30 24
internal_value=0
internal_weight=0
internal_count=54
is_linear=0
shrinkage=0.1


Tree=40
num_leaves=2
num_cat=0
split_feature=14
split_gain=0.593123
threshold=154.43562610229279
decision_type=2
left_child=-1
right_child=-2
leaf_value=0.028361005181912598 -0.017141173798284181
leaf_weight=4.6071964055299759 7.5743761658668518
leaf_count=21 33
internal_value=0
internal_weight=0
internal_count=54
is_linear=0
shrinkage=0.1


Tree=41
num_leaves=2
num_cat=0
split_feature=15
split_gain=0.603011
threshold=771.16666666667118
decision_type=2
left_child=-1
right_child=-2
leaf_value=-0.018864029559572268 0.026237172988240146
leaf_weight=7.0622766613960266 5.1090957671403885
leaf_count=31 23
internal_value=0
internal_weight=0
internal_count=54
is_linear=0
shrinkage=0.1


Tree=42
num_leaves=2
num_cat=0
split_feature=6
split_gain=0.546414
threshold=1.5500000000000003
decision_type=2
left_child=-1
right_child=-2
leaf_value=-0.026597011942646961 0.016909226527442429
leaf_weight=4.7102374583482742 7.4571837931871414
leaf_count=21 33
internal_value=0
internal_weight=0
internal_count=54
is_linear=0
shrinkage=0.1


Tree=43
num_leaves=2
num_cat=0
split_feature=6
split_gain=0.602433
threshold=2.4000000000000008
decision_type=2
left_child=-1
right_child=-2
leaf_value=0.019367033220889205 -0.025589466114277339
leaf_weight=6.942762166261673 5.2232330739498138
leaf_count=31 23
internal_value=0
internal_weight=0
internal_count=54
is_linear=0
shrinkage=0.1


Tree=44
num_leaves=2
num_cat=0
split_feature=14
split_gain=0.567067
threshold=154.43562610229279
decision_type=2
left_child=-1
right_child=-2
leaf_value=0.02778390135156051 -0.016755015393793895
leaf_weight=4.5932627767324448 7.5694295018911362
leaf_count=21 33
internal_value=0
internal_weight=0
internal_count=54
is_linear=0
shrinkage=0.1


Tree=45
num_leaves=2
num_cat=0
split_feature=15
split_gain=0.534506
threshold=771.16666666667118
decision_type=2
left_child=-1
right_child=-2
leaf_value=-0.017708985215879564 0.024811500665872076
leaf_weight=7.0725168883800507 5.0796874314546585
leaf_count=31 23
internal_value=0
internal_weight=0
internal_count=54
is_linear=0
shrinkage=0.1


Tree=46
num_leaves=2
num_cat=0
split_feature=13
split_gain=0.590551
threshold=1.5000000000000002
decision_type=2
left_child=-1
right_child=-2
leaf_value=-0.016342756401781067 0.029696014181019487
leaf_weight=7.8183709532022476 4.328818678855896
leaf_count=35 19
internal_value=0
internal_weight=0
internal_count=54
is_linear=0
shrinkage=0.1


Tree=47
num_leaves=2
num_cat=0
split_feature=6
split_gain=0.569521
threshold=2.4000000000000008
decision_type=2
left_child=-1
right_child=-2
leaf_value=0.018873486304274229 -0.024854350250006447
leaf_weight=6.9239257574081421 5.2269659638404846
leaf_count=31 23
internal_value=0
internal_weight=0
internal_count=54
is_linear=0
shrinkage=0.1


Tree=48
num_leaves=2
num_cat=0
split_feature=9
split_gain=0.53882
threshold=30.500000000000004
decision_type=2
left_child=-1
right_child=-2
leaf_value=0.020301747926314406 -0.021854401840628625
leaf_weight=6.315160945057869 5.8318640142679214
leaf_count=30 24
internal_value=0
internal_weight=0
internal_count=54
is_linear=0
shrinkage=0.1


Tree=49
num_leaves=2
num_cat=0
split_feature=14
split_gain=0.518035
threshold=154.43562610229279
decision_type=2
left_child=-1
right_child=-2
leaf_value=0.026674953729561596 -0.016009921559130384
leaf_weight=4.5601726472377777 7.551514744758606
leaf_count=21 33
internal_value=0
internal_weight=0
internal_count=54
is_linear=0
shrinkage=0.1


Tree=50
num_leaves=2
num_cat=0
split_feature=6
split_gain=0.530112
threshold=2.4000000000000008
decision_type=2
left_child=-1
right_child=-2
leaf_value=0.018274718281276098 -0.023991268334118278
leaf_weight=6.8861255794763565 5.2146230041980743
leaf_count=31 23
internal_value=0
internal_weight=0
internal_count=54
is_linear=0
shrinkage=0.1


Tree=51
num_leaves=2
num_cat=0
split_feature=6
split_gain=0.565398
threshold=1.5500000000000003
decision_type=2
left_child=-1
right_child=-2
leaf_value=-0.027172317022885563 0.01722389998307362
leaf_weight=4.6765348166227341 7.4197774827480316
leaf_count=21 33
internal_value=0
internal_weight=0
internal_count=54
is_linear=0
shrinkage=0.1


Tree=52
num_leaves=2
num_cat=0
split_feature=7
split_gain=0.50447
threshold=399.333333333334
decision_type=2
left_child=-1
right_child=-2
leaf_value=-0.015746101522970013 0.02644822660943327
leaf_weight=7.5643217712640762 4.5306808203458786
leaf_count=33 21
internal_value=0
internal_weight=0
internal_count=54
is_linear=0
shrinkage=0.1


Tree=53
num_leaves=2
num_cat=0
split_feature=6
split_gain=0.487218
threshold=2.4000000000000008
decision_type=2
left_child=-1
right_child=-2
leaf_value=0.017581747812687645 -0.022949256525879827
leaf_weight=6.8601668775081635 5.224584087729454
leaf_count=31 23
internal_value=0
internal_weight=0
internal_count=54
is_linear=0
shrinkage=0.1


Tree=54
num_leaves=2
num_cat=0
split_feature=13
split_gain=0.570611
threshold=1.5000000000000002
decision_type=2
left_child=-1
right_child=-2
leaf_value=-0.016111287006812969 0.029272186997977762
leaf_weight=7.7759775519371033 4.3037441372871399
leaf_count=35 19
internal_value=0
internal_weight=0
internal_count=54
is_linear=0
shrinkage=0.1


Tree=55
num_leaves=2
num_cat=0
split_feature=9
split_gain=0.485728
threshold=30.500000000000004
decision_type=2
left_child=-1
right_child=-2
leaf_value=0.019370035998942131 -0.020758015428972414
leaf_weight=6.2676663845777512 5.8151081502437592
leaf_count=30 24
internal_value=0
internal_weight=0
internal_count=54
is_linear=0
shrinkage=0.1


Tree=56
num_leaves=2
num_cat=0
split_feature=6
split_gain=0.473103
threshold=2.4000000000000008
decision_type=2
left_child=-1
right_child=-2
leaf_value=0.017357340030668453 -0.02264002454353899
leaf_weight=6.8368633389472961 5.2115215957164764
leaf_count=31 23
internal_value=0
internal_weight=0
internal_count=54
is_linear=0
shrinkage=0.1


Tree=57
num_leaves=2
num_cat=0
split_feature=6
split_gain=0.538979
threshold=1.5500000000000003
decision_type=2
left_child=-1
right_child=-2
leaf_value=-0.026562709798661873 0.016868702855752534
leaf_weight=4.6621914803981781 7.3810067623853683
leaf_count=21 33
internal_value=0
internal_weight=0
internal_count=54
is_linear=0
shrinkage=0.1


Tree=58
num_leaves=2
num_cat=0
split_feature=14
split_gain=0.484658
threshold=154.43562610229279
decision_type=2
left_child=-1
right_child=-2
leaf_value=0.02590246814784369 -0.015517019442807083
leaf_weight=4.5270487517118454 7.5141814798116684
leaf_count=21 33
internal_value=0
internal_weight=0
internal_count=54
is_linear=0
shrinkage=0.1


Tree=59
num_leaves=2
num_cat=0
split_feature=15
split_gain=0.498132
threshold=771.16666666667118
decision_type=2
left_child=-1
right_child=-2
leaf_value=-0.017095861966094378 0.024198063640230118
leaf_weight=7.0335472077131271 4.9964822381734848
leaf_count=31 23
internal_value=0
internal_weight=0
internal_count=54
is_linear=0
shrinkage=0.1


Tree=60
num_leaves=2
num_cat=0
split_feature=6
split_gain=0.467764
threshold=2.4000000000000008
decision_type=2
left_child=-1
right_child=-2
leaf_value=0.017290699771420455 -0.022513989448852093
leaf_weight=6.8178978264331818 5.2070319354534149
leaf_count=31 23
internal_value=0
internal_weight=0
internal_count=54
is_linear=0
shrinkage=0.1


Tree=61
num_leaves=2
num_cat=0
split_feature=6
split_gain=0.4923
threshold=1.5500000000000003
decision_type=2
left_child=-1
right_child=-2
leaf_value=-0.02534737502348805 0.016178029920536432
leaf_weight=4.6673082560300827 7.3524198532104492
leaf_count=21 33
internal_value=0
internal_weight=0
internal_count=54
is_linear=0
shrinkage=0.1


Tree=62
num_leaves=2
num_cat=0
split_feature=14
split_gain=0.461583
threshold=154.43562610229279
decision_type=2
left_child=-1
right_child=-2
leaf_value=0.02532423329666951 -0.015146522262655804
leaf_weight=4.5131669193506241 7.5037796944379807
leaf_count=21 33
internal_value=0
internal_weight=0
internal_count=54
is_linear=0
shrinkage=0.1


Tree=63
num_leaves=2
num_cat=0
split_feature=6
split_gain=0.479133
threshold=2.4000000000000008
decision_type=2
left_child=-1
right_child=-2
leaf_value=0.0175070606820272 -0.022812233412666565
leaf_weight=6.8083075881004333 5.1972434818744659
leaf_count=31 23
internal_value=0
internal_weight=0
internal_count=54
is_linear=0
shrinkage=0.1


Tree=64
num_leaves=2
num_cat=0
split_feature=6
split_gain=0.444682
threshold=1.5500000000000003
decision_type=2
left_child=-1
right_child=-2
leaf_value=-0.024047538213502556 0.015427871207287972
leaf_weight=4.6742668300867081 7.3263062089681625
leaf_count=21 33
internal_value=0
internal_weight=0
internal_count=54
is_linear=0
shrinkage=0.1


Tree=65
num_leaves=2
num_cat=0
split_feature=6
split_gain=0.448678
threshold=2.4000000000000008
decision_type=2
left_child=-1
right_child=-2
leaf_value=0.016982054446727519 -0.022038166769558137
leaf_weight=6.7914641946554184 5.205507904291153
leaf_count=31 23
internal_value=0
internal_weight=0
internal_count=54
is_linear=0
shrinkage=0.1


Tree=66
num_leaves=2
num_cat=0
split_feature=9
split_gain=0.442302
threshold=30.500000000000004
decision_type=2
left_child=-1
right_child=-2
leaf_value=0.018572247864532734 -0.019863507035893416
leaf_weight=6.2129357010126114 5.7786777913570404
leaf_count=30 24
internal_value=0
internal_weight=0
internal_count=54
is_linear=0
shrinkage=0.1


Tree=67
num_leaves=2
num_cat=0
split_feature=15
split_gain=0.423857
threshold=771.16666666667118
decision_type=2
left_child=-1
right_child=-2
leaf_value=-0.015731686669978675 0.022509655375328858
leaf_weight=7.0233573168516159 4.9348628520965576
leaf_count=31 23
internal_value=0
internal_weight=0
internal_count=54
is_linear=0
shrinkage=0.1


Tree=68
num_leaves=2
num_cat=0
split_feature=13
split_gain=0.518868
threshold=1.5000000000000002
decision_type=2
left_child=-1
right_child=-2
leaf_value=-0.015420146865912613 0.028112306905059083
leaf_weight=7.7051202207803726 4.2472151964902878
leaf_count=35 19
internal_value=0
internal_weight=0
internal_count=54
is_linear=0
shrinkage=0.1


Tree=69
num_leaves=2
num_cat=0
split_feature=14
split_gain=0.438779
threshold=154.43562610229279
decision_type=2
left_child=-1
right_child=-2
leaf_value=0.024764050951712548 -0.014802606796562668
leaf_weight=4.4869932979345322 7.4669526815414429
leaf_count=21 33
internal_value=0
internal_weight=0
internal_count=54
is_linear=0
shrinkage=0.1


Tree=70
num_leaves=2
num_cat=0
split_feature=6
split_gain=0.453383
threshold=2.4000000000000008
decision_type=2
left_child=-1
right_child=-2
leaf_value=0.017102383524303363 -0.022212890089770967
leaf_weight=6.7622417956590652 5.1801682263612747
leaf_count=31 23
internal_value=0
internal_weight=0
internal_count=54
is_linear=0
shrinkage=0.1


Tree=71
num_leaves=2
num_cat=0
split_feature=6
split_gain=0.410898
threshold=1.5500000000000003
decision_type=2
left_child=-1
right_child=-2
leaf_value=-0.023136633533432278 0.014894884972597212
leaf_weight=4.6599698066711426 7.2772097885608673
leaf_count=21 33
internal_value=0
internal_weight=0
internal_count=54
is_linear=0
shrinkage=0.1


Tree=72
num_leaves=2
num_cat=0
split_feature=6
split_gain=0.424093
threshold=2.4000000000000008
decision_type=2
left_child=-1
right_child=-2
leaf_value=0.016581449300567361 -0.021447438834402213
leaf_weight=6.7447936534881592 5.1881595402956009
leaf_count=31 23
internal_value=0
internal_weight=0
internal_count=54
is_linear=0
shrinkage=0.1


Tree=73
num_leaves=2
num_cat=0
split_feature=14
split_gain=0.405841
threshold=154.43562610229279
decision_type=2
left_child=-1
right_child=-2
leaf_value=0.023876498138022489 -0.014232047360414394
leaf_weight=4.4690338671207428 7.4583535492420197
leaf_count=21 33
internal_value=0
internal_weight=0
internal_count=54
is_linear=0
shrinkage=0.1


Tree=74
num_leaves=2
num_cat=0
split_feature=15
split_gain=0.430229
threshold=771.16666666667118
decision_type=2
left_child=-1
right_child=-2
leaf_value=-0.015868728996502386 0.022733093937145805
leaf_weight=7.0029160231351852 4.9127309024333954
leaf_count=31 23
internal_value=0
internal_weight=0
internal_count=54
is_linear=0
shrinkage=0.1


Tree=75
num_leaves=2
num_cat=0
split_feature=9
split_gain=0.39801
threshold=30.500000000000004
decision_type=2
left_child=-1
right_child=-2
leaf_value=0.017728201439888677 -0.018853236778185813
leaf_weight=6.1532148122787476 5.7568329721689224
leaf_count=30 24
internal_value=0
internal_weight=0
internal_count=54
is_linear=0
shrinkage=0.1


Tree=76
num_leaves=2
num_cat=0
split_feature=7
split_gain=0.384011
threshold=399.333333333334
decision_type=2
left_child=-1
right_child=-2
leaf_value=-0.013725366936701927 0.02352247476581221
leaf_weight=7.4865779429674149 4.391363263130188
leaf_count=33 21
internal_value=0
internal_weight=0
internal_count=54
is_linear=0
shrinkage=0.1


Tree=77
num_leaves=2
num_cat=0
split_feature=14
split_gain=0.388646
threshold=154.43562610229279
decision_type=2
left_child=-1
right_child=-2
leaf_value=0.023459745851640207 -0.013941294956622602
leaf_weight=4.4379526823759079 7.4296056032180786
leaf_count=21 33
internal_value=0
internal_weight=0
internal_count=54
is_linear=0
shrinkage=0.1


Tree=78
num_leaves=2
num_cat=0
split_feature=6
split_gain=0.401231
threshold=2.4000000000000008
decision_type=2
left_child=-1
right_child=-2
leaf_value=0.01620252048070665 -0.020900159640892178
leaf_weight=6.6928369849920273 5.1630872189998627
leaf_count=31 23
internal_value=0
internal_weight=0
internal_count=54
is_linear=0
shrinkage=0.1


Tree=79
num_leaves=2
num_cat=0
split_feature=13
split_gain=0.471602
threshold=1.5000000000000002
decision_type=2
left_child=-1
right_child=-2
leaf_value=-0.0147438984656462 0.026955670815008961
leaf_weight=7.647742860019207 4.2024823725223541
leaf_count=35 19
internal_value=0
internal_weight=0
internal_count=54
is_linear=0
shrinkage=0.1


Tree=80
num_leaves=2
num_cat=0
split_feature=6
split_gain=0.375566
threshold=1.5500000000000003
decision_type=2
left_child=-1
right_child=-2
leaf_value=-0.022172253856949972 0.014309074043933079
leaf_weight=4.6338252648711205 7.2168769240379333
leaf_count=21 33
internal_value=0
internal_weight=0
internal_count=54
is_linear=0
shrinkage=0.1


Tree=81
num_leaves=2
num_cat=0
split_feature=6
split_gain=0.422803
threshold=2.4000000000000008
decision_type=2
left_child=-1
right_child=-2
leaf_value=0.016627437738666425 -0.021478612799027495
leaf_weight=6.6903946027159691 5.1553955525159836
leaf_count=31 23
internal_value=0
internal_weight=0
internal_count=54
is_linear=0
shrinkage=0.1


Tree=82
num_leaves=2
num_cat=0
split_feature=9
split_gain=0.363756
threshold=30.500000000000004
decision_type=2
left_child=-1
right_child=-2
leaf_value=0.017023656267675578 -0.018049148991855123
leaf_weight=6.1078136190772057 5.7325715571641922
leaf_count=30 24
internal_value=0
internal_weight=0
internal_count=54
is_linear=0
shrinkage=0.1


Tree=83
num_leaves=2
num_cat=0
split_feature=15
split_gain=0.36404
threshold=771.16666666667118
decision_type=2
left_child=-1
right_child=-2
leaf_value=-0.01457381026827919 0.021133160793741716
leaf_weight=6.9753657728433609 4.833921417593956
leaf_count=31 23
internal_value=0
internal_weight=0
internal_count=54
is_linear=0
shrinkage=0.1


Tree=84
num_leaves=2
num_cat=0
split_feature=14
split_gain=0.370838
threshold=154.43562610229279
decision_type=2
left_child=-1
right_child=-2
leaf_value=0.022977074534261684 -0.013656926997600061
leaf_weight=4.4136011302471161 7.3896354287862778
leaf_count=21 33
internal_value=0
internal_weight=0
internal_count=54
is_linear=0
shrinkage=0.1


Tree=85
num_leaves=2
num_cat=0
split_feature=6
split_gain=0.377725
threshold=2.4000000000000008
decision_type=2
left_child=-1
right_child=-2
leaf_value=0.015788622051278272 -0.020300979535707503
leaf_weight=6.6465280205011368 5.145036593079567
leaf_count=31 23
internal_value=0
internal_weight=0
internal_count=54
is_linear=0
shrinkage=0.1


Tree=86
num_leaves=2
num_cat=0
split_feature=6
split_gain=0.393201
threshold=1.5500000000000003
decision_type=2
left_child=-1
right_child=-2
leaf_value=-0.02275488141624658 0.014676315947642963
leaf_weight=4.608133427798748 7.1775784641504288
leaf_count=21 33
internal_value=0
internal_weight=0
internal_count=54
is_linear=0
shrinkage=0.1


Tree=87
num_leaves=2
num_cat=0
split_feature=6
split_gain=0.357237
threshold=2.4000000000000008
decision_type=2
left_child=-1
right_child=-2
leaf_value=0.015388791177622433 -0.019716130000716703
leaf_weight=6.6302309706807137 5.1507950127124786
leaf_count=31 23
internal_value=0
internal_weight=0
internal_count=54
is_linear=0
shrinkage=0.1


Tree=88
num_leaves=2
num_cat=0
split_feature=13
split_gain=0.428535
threshold=1.5000000000000002
decision_type=2
left_child=-1
right_child=-2
leaf_value=-0.014077902189900968 0.025818480681715241
leaf_weight=7.6083050593733788 4.1667060554027557
leaf_count=35 19
internal_value=0
internal_weight=0
internal_count=54
is_linear=0
shrinkage=0.1


Tree=89
num_leaves=2
num_cat=0
split_feature=15
split_gain=0.332401
threshold=771.16666666667118
decision_type=2
left_child=-1
right_child=-2
leaf_value=-0.013902262993537135 0.020288258569800544
leaf_weight=6.9730620831251144 4.8014073744416237
leaf_count=31 23
internal_value=0
internal_weight=0
internal_count=54
is_linear=0
shrinkage=0.1


Tree=90
num_leaves=2
num_cat=0
split_feature=14
split_gain=0.544467
threshold=145.01700680272111
decision_type=2
left_child=-1
right_child=-2
leaf_value=0.03099310305822256 -0.014907341192677254
leaf_weight=3.8321445509791374 7.9361412227153778
leaf_count=18 36
internal_value=0
internal_weight=0
internal_count=54
is_linear=0
shrinkage=0.1


Tree=91
num_leaves=2
num_cat=0
split_feature=6
split_gain=0.340284
threshold=2.4000000000000008
decision_type=2
left_child=-1
right_child=-2
leaf_value=0.01505834387064608 -0.01922959321322755
leaf_weight=6.6087028831243515 5.1498787254095078
leaf_count=31 23
internal_value=0
internal_weight=0
internal_count=54
is_linear=0
shrinkage=0.1


Tree=92
num_leaves=2
num_cat=0
split_feature=6
split_gain=0.37205
threshold=1.5500000000000003
decision_type=2
left_child=-1
right_child=-2
leaf_value=-0.022141680482141921 0.014311906981889985
leaf_weight=4.6010673567652702 7.1513903737068176
leaf_count=21 33
internal_value=0
internal_weight=0
internal_count=54
is_linear=0
shrinkage=0.1


Tree=93
num_leaves=2
num_cat=0
split_feature=9
split_gain=0.343964
threshold=30.500000000000004
decision_type=2
left_child=-1
right_child=-2
leaf_value=0.016638539723724446 -0.01760005591731471
leaf_weight=6.052318774163723 5.6951178312301636
leaf_count=30 24
internal_value=0
internal_weight=0
internal_count=54
is_linear=0
shrinkage=0.1


Tree=94
num_leaves=2
num_cat=0
split_feature=6
split_gain=0.34247
threshold=2.4000000000000008
decision_type=2
left_child=-1
right_child=-2
leaf_value=0.015136103823926475 -0.019320873808369901
leaf_weight=6.5834543332457542 5.1338227540254593
leaf_count=31 23
internal_value=0
internal_weight=0
internal_count=54
is_linear=0
shrinkage=0.1


Tree=95
num_leaves=2
num_cat=0
split_feature=6
split_gain=0.339338
threshold=1.5500000000000003
decision_type=2
left_child=-1
right_child=-2
leaf_value=-0.021134500502132229 0.013723448639526041
leaf_weight=4.5978081896901131 7.1135003566741943
leaf_count=21 33
internal_value=0
internal_weight=0
internal_count=54
is_linear=0
shrinkage=0.1


Tree=96
num_leaves=2
num_cat=0
split_feature=6
split_gain=0.323063
threshold=2.4000000000000008
decision_type=2
left_child=-1
right_child=-2
leaf_value=0.014734682430713537 -0.018740498315735998
leaf_weight=6.5665049105882645 5.1393914371728897
leaf_count=31 23
internal_value=0
internal_weight=0
internal_count=54
is_linear=0
shrinkage=0.1


Tree=97
num_leaves=2
num_cat=0
split_feature=14
split_gain=0.327155
threshold=154.43562610229279
decision_type=2
left_child=-1
right_child=-2
leaf_value=0.021672287496540071 -0.012887513876190734
leaf_weight=4.3754011616110802 7.3244063854217529
leaf_count=21 33
internal_value=0
internal_weight=0
internal_count=54
is_linear=0
shrinkage=0.1


Tree=98
num_leaves=2
num_cat=0
split_feature=15
split_gain=0.329662
threshold=771.16666666667118
decision_type=2
left_child=-1
right_child=-2
leaf_value=-0.013881896511606144 0.020301086572249258
leaf_weight=6.9288330227136612 4.7591274455189705
leaf_count=31 23
internal_value=0
internal_weight=0
internal_count=54
is_linear=0
shrinkage=0.1


Tree=99
num_leaves=2
num_cat=0
split_feature=6
split_gain=0.312559
threshold=1.5500000000000003
decision_type=2
left_child=-1
right_child=-2
leaf_value=-0.02027117442628644 0.013211581650630043
leaf_weight=4.5967570766806602 7.0852534770965576
leaf_count=21 33
internal_value=0
internal_weight=0
internal_count=54
is_linear=0
shrinkage=0.1


end of trees

feature_importances:
scroll_time=42
s_scroll_speed=18
taskNum=17
scroll_length=10
s_view_position=7
event_scroll=6

parameters:
[boosting: gbdt]
[objective: binary]
[metric: binary_error]
[tree_learner: serial]
[device_type: cpu]
[data_sample_strategy: bagging]
[data: ]
[valid: ]
[num_iterations: 100]
[learning_rate: 0.1]
[num_leaves: 31]
[num_threads: 0]
[seed: 0]
[deterministic: 0]
[force_col_wise: 0]
[force_row_wise: 0]
[histogram_pool_size: -1]
[max_depth: -1]
[min_data_in_leaf: 20]
[min_sum_hessian_in_leaf: 0.001]
[bagging_fraction: 1]
[pos_bagging_fraction: 1]
[neg_bagging_fraction: 1]
[bagging_freq: 0]
[bagging_seed: 3]
[feature_fraction: 1]
[feature_fraction_bynode: 1]
[feature_fraction_seed: 2]
[extra_trees: 0]
[extra_seed: 6]
[early_stopping_round: 0]
[first_metric_only: 0]
[max_delta_step: 0]
[lambda_l1: 0]
[lambda_l2: 0]
[linear_lambda: 0]
[min_gain_to_split: 0]
[drop_rate: 0.1]
[max_drop: 50]
[skip_drop: 0.5]
[xgboost_dart_mode: 0]
[uniform_drop: 0]
[drop_seed: 4]
[top_rate: 0.2]
[other_rate: 0.1]
[min_data_per_group: 100]
[max_cat_threshold: 32]
[cat_l2: 10]
[cat_smooth: 10]
[max_cat_to_onehot: 4]
[top_k: 20]
[monotone_constraints: ]
[monotone_constraints_method: basic]
[monotone_penalty: 0]
[feature_contri: ]
[forcedsplits_filename: ]
[refit_decay_rate: 0.9]
[cegb_tradeoff: 1]
[cegb_penalty_split: 0]
[cegb_penalty_feature_lazy: ]
[cegb_penalty_feature_coupled: ]
[path_smooth: 0]
[interaction_constraints: ]
[verbosity: -1]
[saved_feature_importance_type: 0]
[use_quantized_grad: 0]
[num_grad_quant_bins: 4]
[quant_train_renew_leaf: 0]
[stochastic_rounding: 1]
[linear_tree: 0]
[max_bin: 255]
[max_bin_by_feature: ]
[min_data_in_bin: 3]
[bin_construct_sample_cnt: 200000]
[data_random_seed: 1]
[is_enable_sparse: 1]
[enable_bundle: 1]
[use_missing: 1]
[zero_as_missing: 0]
[feature_pre_filter: 0]
[pre_partition: 0]
[two_round: 0]
[header: 0]
[label_column: ]
[weight_column: ]
[group_column: ]
[ignore_column: ]
[categorical_feature: ]
[forcedbins_filename: ]
[precise_float_parser: 0]
[parser_config_file: ]
[objective_seed: 5]
[num_class: 1]
[is_unbalance: 0]
[scale_pos_weight: 1]
[sigmoid: 1]
[boost_from_average: 1]
[reg_sqrt: 0]
[alpha: 0.9]
[fair_c: 1]
[poisson_max_delta_step: 0.7]
[tweedie_variance_power: 1.5]
[lambdarank_truncation_level: 30]
[lambdarank_norm: 1]
[label_gain: ]
[lambdarank_position_bias_regularization: 0]
[eval_at: ]
[multi_error_top_k: 1]
[auc_mu_weights: ]
[num_machines: 1]
[local_listen_port: 12400]
[time_out: 120]
[machine_list_filename: ]
[machines: ]
[gpu_platform_id: -1]
[gpu_device_id: -1]
[gpu_use_dp: 0]
[num_gpu: 1]

end of parameters

pandas_categorical:[]
