tree
version=v4
num_class=1
num_tree_per_iteration=1
label_index=0
max_feature_idx=15
objective=binary sigmoid:1
feature_names=response_time s_tap_count ratio_tap_position_y scroll_length event_scroll s_scroll_speed tap_position_x taskNum tap_position_y screen_width s_view_position predicted_isAnswerCorrect scroll_time ratio_tap_position_x s_choice_left screen_height
feature_infos=[0:10.399999999999981] [1:1] none [0:14300.666666666672] [0:6] [-3503.3333333333576:6900.0000000000018] none [1:138] none [390:390] [-343.99999999999989:1145.6666666666642] [0:1] [-0.5:18.799999999999962] none [0:1] [844:844]
tree_sizes=728 736 649 740 649 646 652 646 648 754 656 649 651 750 754 655 742 752 653 756 652 651 653 656 652 753 747 655 752 651 651 757 653 654 760 652 653 655 652 643 652 656 652 651 653 649 653 754 756 653 653 756 660 758 649 655 649 656 648 654 757 650 655 655 655 754 652 650 653 756 654 656 652 653 753 653 756 655 756 651 756 756 654 654 654 653 652 651 660 656 656 654 756 653 759 755 751 655 655 759

Tree=0
num_leaves=6
num_cat=0
split_feature=11 7 12 12 7
split_gain=47.0824 2.67126 0.951475 1.63508 1.40203
threshold=1.0000000180025095e-35 93.500000000000014 1.25 2.7499999999999996 69.500000000000014
decision_type=2 2 2 2 2
left_child=-1 2 4 -4 -2
right_child=1 -3 3 -5 -6
leaf_value=0.26349423333009753 0.50875648806381268 0.63905206089109878 0.63138761543067012 0.54963353051943176 0.58540094266809861
leaf_weight=5.3586955517530432 4.8927220255136543 7.4555764198303214 4.8927220255136472 4.892722025513649 4.6597352623939514
leaf_count=23 21 32 21 21 20
internal_value=0.534082 0.5882 0.568595 0.590511 0.546144
internal_weight=0 26.7935 19.3379 9.78544 9.55246
internal_count=138 115 83 42 41
is_linear=0
shrinkage=1


Tree=1
num_leaves=6
num_cat=0
split_feature=11 7 12 12 0
split_gain=36.4072 2.29391 0.794858 1.39434 1.19692
threshold=1.0000000180025095e-35 93.500000000000014 1.25 2.7499999999999996 0.45000000000000007
decision_type=2 2 2 2 2
left_child=-1 2 4 -4 -2
right_child=1 -3 3 -5 -6
leaf_value=-0.23014698096577027 0.047549668929038294 0.097498294671870225 0.090155738782858638 0.014056818206144206 -0.023406316467376159
leaf_weight=5.6513392627239218 4.6044575870037132 7.2357649803161612 4.7596693933010084 4.8726394772529602 4.9149206876754761
leaf_count=23 20 32 21 21 21
internal_value=0 0.0495304 0.0314074 0.05166 0.0109146
internal_weight=0 26.3875 19.1517 9.63231 9.51938
internal_count=138 115 83 42 41
is_linear=0
shrinkage=0.1


Tree=2
num_leaves=5
num_cat=0
split_feature=11 7 10 10
split_gain=29.1255 1.97845 0.708221 1.45498
threshold=1.0000000180025095e-35 93.500000000000014 350.33333333333945 450.00000000000006
decision_type=2 2 2 2
left_child=-1 2 -2 -4
right_child=1 -3 3 -5
leaf_value=-0.20339095664208054 0.059808988053717593 0.090782762714192319 -0.011845285160826204 0.053910843472019188
leaf_weight=5.7484018653631237 5.2543700337410035 7.0060510635375968 7.7711057513952237 5.9348859637975693
leaf_count=23 23 32 34 26
internal_value=0 0.0453737 0.0285945 0.016628
internal_weight=0 25.9664 18.9604 13.706
internal_count=138 115 83 60
is_linear=0
shrinkage=0.1


Tree=3
num_leaves=6
num_cat=0
split_feature=11 7 12 12 0
split_gain=23.8139 1.71419 0.665297 1.25793 0.923059
threshold=1.0000000180025095e-35 93.500000000000014 1.25 2.7499999999999996 0.45000000000000007
decision_type=2 2 2 2 2
left_child=-1 2 4 -4 -2
right_child=1 -3 3 -5 -6
leaf_value=-0.18436279607024747 0.040011446477293232 0.084666066370876494 0.082266426616183441 0.0090416195429346546 -0.022708521413433526
leaf_weight=5.708634257316592 4.4844818860292488 6.7733116149902335 4.5878227204084379 4.8012938648462296 4.9217922389507294
leaf_count=23 20 32 21 21 21
internal_value=0 0.0415339 0.0259904 0.0448216 0.00719349
internal_weight=0 25.5687 18.7954 9.38912 9.40627
internal_count=138 115 83 42 41
is_linear=0
shrinkage=0.1


Tree=4
num_leaves=5
num_cat=0
split_feature=11 7 10 10
split_gain=19.7805 1.48443 0.59173 1.20908
threshold=1.0000000180025095e-35 93.500000000000014 350.33333333333945 450.00000000000006
decision_type=2 2 2 2
left_child=-1 2 -2 -4
right_child=1 -3 3 -5
leaf_value=-0.17015897321420326 0.052651574528447015 0.079034344305833004 -0.013190232359329574 0.047282032385238017
leaf_weight=5.5731578171253231 5.1078663021326127 6.5426101684570304 7.7244261503219587 5.7805470079183578
leaf_count=23 23 32 34 26
internal_value=0 0.0380616 0.0236593 0.0126938
internal_weight=0 25.1554 18.6128 13.505
internal_count=138 115 83 60
is_linear=0
shrinkage=0.1


Tree=5
num_leaves=5
num_cat=0
split_feature=11 7 10 7
split_gain=16.6177 1.2879 0.593147 1.5107
threshold=1.0000000180025095e-35 93.500000000000014 399.00000000000369 54.500000000000007
decision_type=2 2 2 2
left_child=-1 2 3 -2
right_child=1 -3 -4 -5
leaf_value=-0.15918123839759468 0.0048013632356518647 0.073804160682872252 0.00096608738034971258 0.08173722369259874
leaf_weight=5.3719028681516674 6.0707002282142692 6.31760549545288 7.9858434349298468 4.4036012291908264
leaf_count=23 27 32 36 20
internal_value=0 0.0348323 0.021495 0.0371467
internal_weight=0 24.7778 18.4601 10.4743
internal_count=138 115 83 47
is_linear=0
shrinkage=0.1


Tree=6
num_leaves=5
num_cat=0
split_feature=11 10 12 0
split_gain=14.0872 1.24511 2.81946 1.44702
threshold=1.0000000180025095e-35 470.00000000000006 0.55000000000000004 1.6500000000000006
decision_type=2 2 2 2
left_child=-1 2 -2 -4
right_child=1 -3 3 -5
leaf_value=-0.15047223887820446 -0.038842914733902285 0.065551278866934501 0.079410981411806206 0.0062055188219499709
leaf_weight=5.1270510256290462 5.9222215861082139 7.5686747729778281 6.0668297260999662 4.8657384514808655
leaf_count=23 28 36 29 22
internal_value=0 0.0318574 0.0167271 0.0468296
internal_weight=0 24.4235 16.8548 10.9326
internal_count=138 115 79 51
is_linear=0
shrinkage=0.1


Tree=7
num_leaves=5
num_cat=0
split_feature=11 7 7 10
split_gain=12.0295 1.1305 0.701108 1.46726
threshold=1.0000000180025095e-35 93.500000000000014 30.500000000000004 399.00000000000369
decision_type=2 2 2 2
left_child=-1 2 -2 -4
right_child=1 -3 3 -5
leaf_value=-0.14342135013210594 0.04309331172239491 0.0667342658769806 0.035074822397786171 -0.036044426937244092
leaf_weight=4.8551601022481945 6.4527983218431535 5.9982209652662268 6.2397499084472638 5.4213001132011414
leaf_count=23 29 32 29 25
internal_value=0 0.0291062 0.016646 0.00201101
internal_weight=0 24.1121 18.1138 11.6611
internal_count=138 115 83 54
is_linear=0
shrinkage=0.1


Tree=8
num_leaves=5
num_cat=0
split_feature=11 10 10 10
split_gain=10.3343 1.18271 2.44304 0.823103
threshold=1.0000000180025095e-35 470.00000000000006 366.50000000000733 259.16666666667157
decision_type=2 2 2 2
left_child=-1 2 3 -2
right_child=1 -3 -4 -5
leaf_value=-0.13761977282893909 0.01583948526820805 0.060013427040689397 -0.028745839723649375 0.077617087302861307
leaf_weight=4.5685919076204327 4.0981654822826439 7.324907884001731 7.83079670369625 4.5525441914796829
leaf_count=23 21 36 36 22
internal_value=0 0.0265793 0.0117201 0.0483507
internal_weight=0 23.8064 16.4815 8.65071
internal_count=138 115 79 43
is_linear=0
shrinkage=0.1


Tree=9
num_leaves=6
num_cat=0
split_feature=11 10 7 12 7
split_gain=8.92477 1.01241 2.4038 2.07491 0.346477
threshold=1.0000000180025095e-35 616.50000000000011 57.500000000000007 1.0000000180025095e-35 27.500000000000004
decision_type=2 2 2 2 2
left_child=-1 2 4 -4 -2
right_child=1 -3 3 -5 -6
leaf_value=-0.13278300036360097 -0.00278365608322091 0.068753651970554511 -0.0059397870519956293 0.086286871587834935 -0.041501126191206716
leaf_weight=4.276530489325526 4.6009753942489677 4.2010841369628897 4.1421655714511854 5.9342384785413742 4.6445292085409164
leaf_count=23 21 21 21 31 21
internal_value=0 0.0242623 0.0145888 0.0483747 -0.0222336
internal_weight=0 23.523 19.3219 10.0764 9.2455
internal_count=138 115 94 52 42
is_linear=0
shrinkage=0.1


Tree=10
num_leaves=5
num_cat=0
split_feature=11 10 12 0
split_gain=7.74538 0.879257 2.27968 1.27448
threshold=1.0000000180025095e-35 470.00000000000006 0.55000000000000004 1.6500000000000006
decision_type=2 2 2 2
left_child=-1 2 -2 -4
right_child=1 -3 3 -5
leaf_value=-0.12870659745286814 -0.040410312452862023 0.051876729747020005 0.069682613230951915 -0.00063416118940343613
leaf_weight=3.9857309907674816 5.8646851629018846 6.9763193875551215 5.6448533833026868 4.7437232285737991
leaf_count=23 28 36 29 22
internal_value=0 0.022181 0.00943479 0.0375739
internal_weight=0 23.2296 16.2533 10.3886
internal_count=138 115 79 51
is_linear=0
shrinkage=0.1


Tree=11
num_leaves=5
num_cat=0
split_feature=10 12 0 5
split_gain=1.03583 2.32491 2.26858 1.39582
threshold=348.83333333333337 2.4000000000000008 0.15000000000000005 346.36363636363666
decision_type=2 2 2 2
left_child=-1 2 -2 -4
right_child=1 -3 3 -5
leaf_value=0.034634584035538526 -0.060380889960031082 -0.07330393991376688 0.072615729154553041 0.0017805310461937026
leaf_weight=6.5387237221002605 3.744503483176234 4.6364071667194358 4.5172083824872953 7.2411200106143951
leaf_count=35 21 23 23 36
internal_value=0 -0.0111747 0.00740619 0.0289934
internal_weight=0 20.1392 15.5028 11.7583
internal_count=138 103 80 59
is_linear=0
shrinkage=0.1


Tree=12
num_leaves=5
num_cat=0
split_feature=3 10 12 0
split_gain=0.97601 1.44586 1.72369 1.46285
threshold=832.3333333333386 348.83333333333337 2.0500000000000003 0.15000000000000005
decision_type=2 2 2 2
left_child=1 -1 3 -3
right_child=-2 2 -4 -5
leaf_value=0.031592417213726666 0.043883949674087076 -0.053989183718609168 -0.07556911147800674 0.022521046738952635
leaf_weight=6.4560504108667436 4.2693585455417624 3.7677190005779249 4.6706205755472174 7.4210271388292313
leaf_count=35 22 21 23 37
internal_value=0 -0.00830274 -0.0245433 -0.00324315
internal_weight=0 22.3154 15.8594 11.1887
internal_count=138 116 81 58
is_linear=0
shrinkage=0.1


Tree=13
num_leaves=6
num_cat=0
split_feature=0 0 12 7 7
split_gain=0.953531 1.74545 1.47179 1.74603 1.63966
threshold=2.6500000000000017 1.0500000000000003 0.55000000000000004 99.500000000000014 96.500000000000014
decision_type=2 2 2 2 2
left_child=1 2 3 -1 -4
right_child=-2 -3 4 -5 -6
leaf_value=0.015035602327298331 0.042270049925945428 -0.06387490220714033 0.0021260098096305045 -0.07965827032427919 0.089229346897207101
leaf_weight=4.4972636252641776 4.4568924605846396 4.5159300565719596 6.2321099638938886 3.434007316827774 3.3084166795015335
leaf_count=21 21 23 32 20 21
internal_value=0 -0.00845586 0.00586828 -0.0259641 0.0323313
internal_weight=0 21.9877 17.4718 7.93127 9.54053
internal_count=138 117 94 41 53
is_linear=0
shrinkage=0.1


Tree=14
num_leaves=6
num_cat=0
split_feature=7 7 0 0 10
split_gain=0.89158 1.13802 3.25097 1.25444 0.309478
threshold=30.500000000000004 72.500000000000014 0.15000000000000005 1.3500000000000003 348.83333333333337
decision_type=2 2 2 2 2
left_child=-1 3 4 -2 -3
right_child=1 2 -4 -5 -6
leaf_value=0.032576483046584212 -0.075766111893162832 -0.0082400551102670243 0.083346101605345696 0.0014913817681839105 -0.048802733206922105
leaf_weight=6.4040566682815578 4.3296673595905322 3.7663982808589918 3.9704073071479797 4.0842270106077194 3.7574077993631363
leaf_count=30 21 22 23 21 21
internal_value=0 -0.0103194 0.0101365 -0.0382642 -0.0284972
internal_weight=0 19.9081 11.4942 8.41389 7.52381
internal_count=138 108 66 42 43
is_linear=0
shrinkage=0.1


Tree=15
num_leaves=5
num_cat=0
split_feature=7 7 0 10
split_gain=0.727703 0.993337 1.46773 0.249188
threshold=30.500000000000004 57.500000000000007 0.15000000000000005 348.83333333333337
decision_type=2 2 2 2
left_child=-1 -2 3 -3
right_child=1 2 -4 -5
leaf_value=0.029658407446515614 -0.045067431711207313 -0.0073908023400681942 0.038692852739006668 -0.043719336168955104
leaf_weight=6.3345344662666347 5.5745822638273266 3.7785849273204786 6.7234419584274292 3.7739333957433701
leaf_count=30 27 22 38 21
internal_value=0 -0.00926945 0.00470921 -0.0255439
internal_weight=0 19.8505 14.276 7.55252
internal_count=138 108 81 43
is_linear=0
shrinkage=0.1


Tree=16
num_leaves=6
num_cat=0
split_feature=10 12 12 3 10
split_gain=0.696823 1.85571 1.51158 1.06045 1.49186e-05
threshold=348.83333333333337 2.4000000000000008 1.25 730.3333333333286 513.33333333333405
decision_type=2 2 2 2 2
left_child=-1 2 3 4 -2
right_child=1 -3 -4 -5 -6
leaf_value=0.029180878469484611 0.012587844407897814 -0.064632092150663706 0.061786893250150049 -0.051131932681089648 0.012299919015009248
leaf_weight=6.2787949740886715 3.8637599945068377 4.6094582080841056 3.8672099262475959 4.1153175532817841 3.3684153705835342
leaf_count=35 20 23 21 19 20
internal_value=0 -0.00904616 0.0077942 -0.0106064 0.0124537
internal_weight=0 19.8242 15.2147 11.3475 7.23218
internal_count=138 103 80 59 40
is_linear=0
shrinkage=0.1


Tree=17
num_leaves=6
num_cat=0
split_feature=0 0 12 7 7
split_gain=0.764202 1.30866 1.26507 1.42866 1.28618
threshold=2.6500000000000017 1.0500000000000003 0.55000000000000004 99.500000000000014 96.500000000000014
decision_type=2 2 2 2 2
left_child=1 2 3 -1 -4
right_child=-2 -3 4 -5 -6
leaf_value=0.012979988237305513 0.038213107848851915 -0.055362102697225947 0.0036370650802729047 -0.073114287132049469 0.082523456412042118
leaf_weight=4.4314465671777823 4.3882752358913413 4.5276719629764548 6.1607463806867582 3.4110516160726547 3.1101879477500916
leaf_count=21 21 23 32 20 21
internal_value=0 -0.00755356 0.00509506 -0.0244662 0.0301017
internal_weight=0 21.6411 17.1134 7.8425 9.27093
internal_count=138 117 94 41 53
is_linear=0
shrinkage=0.1


Tree=18
num_leaves=5
num_cat=0
split_feature=3 10 0 0
split_gain=0.665704 0.952321 1.4805 0.959234
threshold=832.3333333333386 348.83333333333337 1.6500000000000006 0.15000000000000005
decision_type=2 2 2 2
left_child=1 -1 3 -3
right_child=-2 2 -4 -5
leaf_value=0.026681763136042848 0.037410325559068161 -0.040954511341546394 -0.067136099022308937 0.021226340772020819
leaf_weight=6.1360618546605172 4.0507752746343604 3.7556790113449079 4.6476959288120261 7.3091797307133675
leaf_count=35 22 21 23 37
internal_value=0 -0.00672684 -0.0197736 0.000120665
internal_weight=0 21.8486 15.7126 11.0649
internal_count=138 116 81 58
is_linear=0
shrinkage=0.1


Tree=19
num_leaves=6
num_cat=0
split_feature=0 0 12 7 7
split_gain=0.746513 0.968809 1.02393 0.886251 0.444255
threshold=2.6500000000000017 1.0500000000000003 0.55000000000000004 90.500000000000014 93.500000000000014
decision_type=2 2 2 2 2
left_child=1 2 4 -4 -1
right_child=-2 -3 3 -5 -6
leaf_value=5.3921642810007413e-05 0.037928326195757235 -0.048465261914168861 0.0017843100494140561 0.066101524790246502 -0.047699169896584709
leaf_weight=4.032199904322634 4.3530412018299094 4.5468521714210501 5.5994637310504896 3.4701022580265999 3.7693724259734154
leaf_count=19 21 23 29 24 22
internal_value=0 -0.00749709 0.00354402 0.0263927 -0.0230182
internal_weight=0 21.418 16.8711 9.06957 7.80157
internal_count=138 117 94 53 41
is_linear=0
shrinkage=0.1


Tree=20
num_leaves=5
num_cat=0
split_feature=7 12 0 7
split_gain=0.620722 0.698875 2.26497 1.13609
threshold=30.500000000000004 1.5000000000000002 0.45000000000000007 105.50000000000001
decision_type=2 2 2 2
left_child=-1 2 3 -2
right_child=1 -3 -4 -5
leaf_value=0.027588540537526469 0.038164147400490338 0.02358776930652616 -0.082713885605537801 -0.028122419671969108
leaf_weight=6.2512112259864834 5.1891350075602549 4.9993494972586623 4.0976206660270682 5.1534210741519928
leaf_count=30 28 28 19 33
internal_value=0 -0.00863675 -0.0197932 0.00513531
internal_weight=0 19.4395 14.4402 10.3426
internal_count=138 108 80 61
is_linear=0
shrinkage=0.1


Tree=21
num_leaves=5
num_cat=0
split_feature=3 10 12 10
split_gain=0.549503 0.775877 1.36436 1.10606
threshold=832.3333333333386 348.83333333333337 2.0500000000000003 470.00000000000006
decision_type=2 2 2 2
left_child=1 -1 3 -3
right_child=-2 2 -4 -5
leaf_value=0.024552536738923554 0.034475246706813498 -0.024134511457242089 -0.063178798540829639 0.040663379555012917
leaf_weight=5.9880786985158982 3.9522101804614058 6.687260724604128 4.6522631645202628 4.3463961109519005
leaf_count=35 22 32 23 26
internal_value=0 -0.00606978 -0.0177598 0.00139078
internal_weight=0 21.674 15.6859 11.0337
internal_count=138 116 81 58
is_linear=0
shrinkage=0.1


Tree=22
num_leaves=5
num_cat=0
split_feature=0 3 10 10
split_gain=0.627205 0.694787 1.38695 1.34921
threshold=2.6500000000000017 771.16666666667118 470.00000000000006 348.83333333333337
decision_type=2 2 2 2
left_child=1 2 3 -1
right_child=-2 -3 -4 -5
leaf_value=0.0030147424431170742 0.035106019376943916 0.022990852409998121 0.031998020598083252 -0.066191095573472011
leaf_weight=5.0325461104512268 4.2800562232732764 5.7060387134551993 4.1118552908301345 6.3989891111850739
leaf_count=30 21 31 25 31
internal_value=0 -0.00685319 -0.0178091 -0.0357244
internal_weight=0 21.2494 15.5434 11.4315
internal_count=138 117 86 61
is_linear=0
shrinkage=0.1


Tree=23
num_leaves=5
num_cat=0
split_feature=10 10 12 0
split_gain=0.604479 1.04516 1.27448 0.608787
threshold=639.66666666666799 470.00000000000006 0.55000000000000004 1.6500000000000006
decision_type=2 2 2 2
left_child=1 2 -1 -4
right_child=-2 -3 3 -5
leaf_value=-0.039619261780827239 -0.039004225120802823 0.050250594031385314 0.038377207614106734 -0.0082964521698055405
leaf_weight=6.5347928553819754 3.4101275801658621 4.3348204120993605 5.8176108673214895 5.3780902475118637
leaf_count=32 20 25 34 27
internal_value=0 0.00623459 -0.00452661 0.0159565
internal_weight=0 22.0653 17.7305 11.1957
internal_count=138 118 93 61
is_linear=0
shrinkage=0.1


Tree=24
num_leaves=5
num_cat=0
split_feature=7 12 0 7
split_gain=0.52864 0.637218 1.73546 1.01428
threshold=30.500000000000004 1.5000000000000002 0.45000000000000007 105.50000000000001
decision_type=2 2 2 2
left_child=-1 2 3 -2
right_child=1 -3 -4 -5
leaf_value=0.025717690832043946 0.035227518956058163 0.023171847384951517 -0.072979176592161174 -0.027866296154613591
leaf_weight=6.1459178328514126 5.0880812257528323 4.8995988592505446 4.1652362942695609 5.1036056876182556
leaf_count=30 28 28 19 33
internal_value=0 -0.00796722 -0.0185941 0.00363256
internal_weight=0 19.2565 14.3569 10.1917
internal_count=138 108 80 61
is_linear=0
shrinkage=0.1


Tree=25
num_leaves=6
num_cat=0
split_feature=0 7 0 7 10
split_gain=0.516281 1.62901 0.721176 1.43084 0.447712
threshold=0.15000000000000005 72.500000000000014 2.6500000000000017 45.500000000000007 357.33333333333218
decision_type=2 2 2 2 2
left_child=4 2 3 -2 -1
right_child=1 -3 -4 -5 -6
leaf_value=5.800503174691516e-05 0.010063493865131945 0.070385136106168922 0.029299392460600461 -0.067007567161151721 -0.049144861390299228
leaf_weight=4.1518997550010708 6.1761212944984454 3.5195494890213004 4.1982519179582587 3.9490977674722672 3.3346865251660347
leaf_count=25 30 23 21 20 19
internal_value=0 0.00943025 -0.00554753 -0.0199962 -0.021858
internal_weight=0 17.843 14.3235 10.1252 7.48659
internal_count=138 94 71 50 44
is_linear=0
shrinkage=0.1


Tree=26
num_leaves=6
num_cat=0
split_feature=10 5 12 5 7
split_gain=0.457064 1.27618 0.926912 1.12921 1.71196
threshold=379.83333333333582 123.42174432497008 2.0500000000000003 781.33333333333405 90.500000000000014
decision_type=2 2 2 2 2
left_child=1 -1 3 4 -2
right_child=2 -3 -4 -5 -6
leaf_value=-0.0094546695846912023 0.070187401462430729 0.066475984752067008 -0.053778477491212 -0.040705569110107358 -0.0234469826133855
leaf_weight=6.3106823191046733 4.068157806992529 3.4093123227357864 3.7482256516814223 3.8857991024851799 3.7549689039587975
leaf_count=37 20 18 20 20 23
internal_value=0 0.0171782 -0.0104972 0.00335787 0.0252445
internal_weight=0 9.71999 15.4572 11.7089 7.82313
internal_count=138 55 83 63 43
is_linear=0
shrinkage=0.1


Tree=27
num_leaves=5
num_cat=0
split_feature=10 10 12 0
split_gain=0.461961 0.903086 0.971935 0.587724
threshold=639.66666666666799 470.00000000000006 0.55000000000000004 1.6500000000000006
decision_type=2 2 2 2
left_child=1 2 -1 -4
right_child=-2 -3 3 -5
leaf_value=-0.034972915497706196 -0.034253670295135319 0.04702423136507515 0.035884854831371958 -0.010369456878867081
leaf_weight=6.5465935021638968 3.3702178522944441 4.2272744700312606 5.7240063920617086 5.2820121943950653
leaf_count=32 20 25 34 27
internal_value=0 0.00553099 -0.00446201 0.0136865
internal_weight=0 21.7799 17.5526 11.006
internal_count=138 118 93 61
is_linear=0
shrinkage=0.1


Tree=28
num_leaves=6
num_cat=0
split_feature=10 5 12 5 7
split_gain=0.424691 1.01797 0.75104 0.964763 1.42235
threshold=379.83333333333582 123.42174432497008 2.0500000000000003 781.33333333333405 90.500000000000014
decision_type=2 2 2 2 2
left_child=1 -1 3 4 -2
right_child=2 -3 -4 -5 -6
leaf_value=-0.0069597697353401215 0.064721655251251065 0.061194818597524736 -0.048804755777037169 -0.037901918403014934 -0.021361028703862275
leaf_weight=6.3403034806251544 3.9675241410732252 3.3491498455405235 3.7856263518333426 3.9169381335377693 3.7183047905564308
leaf_count=37 20 18 20 20 23
internal_value=0 0.0165978 -0.0101283 0.00249065 0.023076
internal_weight=0 9.68945 15.3884 11.6028 7.68583
internal_count=138 55 83 63 43
is_linear=0
shrinkage=0.1


Tree=29
num_leaves=5
num_cat=0
split_feature=7 7 0 12
split_gain=0.423207 0.60555 1.1111 0.620423
threshold=30.500000000000004 57.500000000000007 0.25000000000000006 0.55000000000000004
decision_type=2 2 2 2
left_child=-1 -2 3 -3
right_child=1 2 -4 -5
leaf_value=0.023268447069711765 -0.035277609500739555 -0.043808045294686015 0.038980360326044267 0.01204588040809468
leaf_weight=6.0378692150115993 5.4487867802381542 4.5451912954449636 5.4741838052868834 3.5358809381723404
leaf_count=30 27 25 32 24
internal_value=0 -0.00712257 0.00419487 -0.0193691
internal_weight=0 19.004 13.5553 8.08107
internal_count=138 108 81 49
is_linear=0
shrinkage=0.1


Tree=30
num_leaves=5
num_cat=0
split_feature=10 12 0 5
split_gain=0.407931 1.36222 1.14364 0.601597
threshold=348.83333333333337 2.4000000000000008 0.65000000000000002 346.36363636363666
decision_type=2 2 2 2
left_child=-1 2 3 -2
right_child=1 -3 -4 -5
leaf_value=0.023369338203515343 0.0086140895959653189 -0.055065753764589526 0.046798633482447831 -0.042146276550293647
leaf_weight=5.8244146928191212 5.702027268707754 4.4866153299808493 4.9875165224075309 3.9538296088576317
leaf_count=35 34 23 25 21
internal_value=0 -0.00685684 0.00791399 -0.012171
internal_weight=0 19.13 14.6434 9.65586
internal_count=138 103 80 55
is_linear=0
shrinkage=0.1


Tree=31
num_leaves=6
num_cat=0
split_feature=0 0 0 12 7
split_gain=0.455547 0.822385 1.07472 0.583466 0.74453
threshold=2.6500000000000017 1.0500000000000003 0.55000000000000016 0.75000000000000011 105.50000000000001
decision_type=2 2 2 2 2
left_child=1 2 3 4 -1
right_child=-2 -3 -4 -5 -6
leaf_value=0.036283979365425122 0.030441443048917789 -0.044137421138147837 0.053815516652749223 -0.042180628737022184 -0.021041465821628129
leaf_weight=4.1190272420644849 4.1505813598632804 4.416618585586547 3.4782351106405249 3.7273366749286643 5.0351319685578346
leaf_count=21 21 23 18 22 33
internal_value=0 -0.00584647 0.00449089 -0.00882764 0.00475283
internal_weight=0 20.7763 16.3597 12.8815 9.15416
internal_count=138 117 94 76 54
is_linear=0
shrinkage=0.1


Tree=32
num_leaves=5
num_cat=0
split_feature=3 5 0 12
split_gain=0.395136 0.568707 0.894739 0.430059
threshold=832.3333333333386 150.81410825199643 0.25000000000000006 0.55000000000000004
decision_type=2 2 2 2
left_child=1 2 3 -1
right_child=-2 -3 -4 -5
leaf_value=-0.033711797453645553 0.02998812918223159 -0.027677507343540127 0.038001128870291723 0.012404749844549867
leaf_weight=4.7308335602283531 3.7762426808476439 7.3123672977089873 5.518960364162921 3.5317855253815651
leaf_count=26 22 38 28 24
internal_value=0 -0.00513585 0.00682453 -0.0139997
internal_weight=0 21.0939 13.7816 8.26262
internal_count=138 116 78 50
is_linear=0
shrinkage=0.1


Tree=33
num_leaves=5
num_cat=0
split_feature=10 12 0 5
split_gain=0.374342 1.17387 0.902033 0.481062
threshold=348.83333333333337 2.4000000000000008 0.65000000000000002 346.36363636363666
decision_type=2 2 2 2
left_child=-1 2 3 -2
right_child=1 -3 -4 -5
leaf_value=0.022503058103199528 0.0082676736190381173 -0.051371678806873856 0.0421178099064205 -0.037035935698830048
leaf_weight=5.7696136012673405 5.6430431604385394 4.4742918759584418 4.9042119383811942 4.0090791434049606
leaf_count=35 34 23 25 21
internal_value=0 -0.00657479 0.00719477 -0.0105495
internal_weight=0 19.0306 14.5563 9.65212
internal_count=138 103 80 55
is_linear=0
shrinkage=0.1


Tree=34
num_leaves=6
num_cat=0
split_feature=0 0 0 10 12
split_gain=0.424014 0.719893 0.871324 0.557892 0.697388
threshold=2.6500000000000017 1.0500000000000003 0.55000000000000016 589.99999999999648 0.55000000000000004
decision_type=2 2 2 2 2
left_child=1 2 3 4 -1
right_child=-2 -3 -4 -5 -6
leaf_value=-0.018427670123278256 0.029525745231110491 -0.041544474360104666 0.049046829187079151 -0.044923095734704231 0.03589012430647423
leaf_weight=5.7621401622891515 4.1084537506103507 4.3978306651115409 3.4038904830813399 3.0853879973292342 4.0076833367347717
leaf_count=30 21 23 18 19 27
internal_value=0 -0.00564979 0.00405916 -0.00785298 0.00385405
internal_weight=0 20.6569 16.2591 12.8552 9.76982
internal_count=138 117 94 76 57
is_linear=0
shrinkage=0.1


Tree=35
num_leaves=5
num_cat=0
split_feature=3 10 0 10
split_gain=0.377511 0.517469 1.09746 0.706751
threshold=832.3333333333386 348.83333333333337 1.9500000000000008 470.00000000000006
decision_type=2 2 2 2
left_child=1 -1 3 -3
right_child=-2 2 -4 -5
leaf_value=0.020691611506957811 0.029429966532296011 -0.017265148259829388 -0.061100717477407376 0.035005842365735479
leaf_weight=5.68732567876578 3.7439431846141806 7.4627434909343702 3.8141226693987837 3.9589029401540756
leaf_count=35 22 36 19 26
internal_value=0 -0.00504831 -0.0146567 0.000852711
internal_weight=0 20.9231 15.2358 11.4216
internal_count=138 116 81 62
is_linear=0
shrinkage=0.1


Tree=36
num_leaves=5
num_cat=0
split_feature=0 0 3 10
split_gain=0.441189 0.526048 0.684677 0.541557
threshold=2.6500000000000017 1.0500000000000003 771.16666666667118 379.83333333333582
decision_type=2 2 2 2
left_child=1 2 3 -1
right_child=-2 -3 -4 -5
leaf_value=0.012588779180904905 0.030194667309496825 -0.036489016431724162 0.037922658498513596 -0.029908201991179734
leaf_weight=5.7782899141311734 4.0828069597482672 4.3899642154574385 4.0861375555396071 6.2336220741271973
leaf_count=35 21 23 23 36
internal_value=0 -0.00580452 0.00256319 -0.00946517
internal_weight=0 20.488 16.098 12.0119
internal_count=138 117 94 71
is_linear=0
shrinkage=0.1


Tree=37
num_leaves=5
num_cat=0
split_feature=10 10 12 5
split_gain=0.40234 0.760696 0.896416 0.412963
threshold=639.66666666666799 470.00000000000006 0.55000000000000004 150.81410825199643
decision_type=2 2 2 2
left_child=1 2 -1 -4
right_child=-2 -3 3 -5
leaf_value=-0.033190816778607933 -0.03242420997089672 0.044295721713576736 0.037518869010761714 -0.0024815563170805907
leaf_weight=6.5157038345933058 3.2800463140010825 4.0328955873846999 4.3665919229388219 6.3115034475922585
leaf_count=32 20 25 26 35
internal_value=0 0.00520786 -0.0039604 0.0138758
internal_weight=0 21.2267 17.1938 10.6781
internal_count=138 118 93 61
is_linear=0
shrinkage=0.1


Tree=38
num_leaves=5
num_cat=0
split_feature=7 7 0 10
split_gain=0.347962 0.560731 1.02615 0.217032
threshold=30.500000000000004 57.500000000000007 0.15000000000000005 357.33333333333218
decision_type=2 2 2 2
left_child=-1 -2 3 -3
right_child=1 2 -4 -5
leaf_value=0.021397975952534121 -0.033888570730698307 -0.0055724431034223521 0.034348146137846203 -0.040759330554233121
leaf_weight=5.867963224649432 5.3401673510670689 3.8787371218204481 6.1586058884859085 3.198365218937397
leaf_count=30 27 24 38 19
internal_value=0 -0.00653596 0.0044999 -0.0214745
internal_weight=0 18.5759 13.2357 7.0771
internal_count=138 108 81 43
is_linear=0
shrinkage=0.1


Tree=39
num_leaves=5
num_cat=0
split_feature=10 7 12 12
split_gain=0.349361 0.735501 1.15089 1.51367
threshold=639.66666666666799 36.500000000000007 1.0000000180025095e-35 1.25
decision_type=2 2 2 2
left_child=1 -1 -3 -4
right_child=-2 2 3 -5
leaf_value=-0.022292942470720108 -0.030305643158213675 -0.017958652494426349 0.085755895972771112 0.0023997041300000115
leaf_weight=6.7720433548092904 3.2599317282438269 5.5498320907354346 3.9866075590252859 4.8032435327768326
leaf_count=34 20 29 26 29
internal_value=0 0.00486768 0.0176945 0.0402056
internal_weight=0 21.1117 14.3397 8.78985
internal_count=138 118 84 55
is_linear=0
shrinkage=0.1


Tree=40
num_leaves=5
num_cat=0
split_feature=7 12 0 7
split_gain=0.352749 0.573184 1.57886 0.616277
threshold=30.500000000000004 1.5000000000000002 0.45000000000000007 105.50000000000001
decision_type=2 2 2 2
left_child=-1 2 3 -2
right_child=1 -3 -4 -5
leaf_value=0.021522967528282352 0.030291602941221536 0.024025239952296509 -0.068289146118815466 -0.020174035421190423
leaf_weight=5.8712572455406216 4.8997528553009051 4.583786502480506 4.160933554172515 4.7810140326619148
leaf_count=30 28 28 19 33
internal_value=0 -0.00662403 -0.0167738 0.00536828
internal_weight=0 18.4255 13.8417 9.68077
internal_count=138 108 80 61
is_linear=0
shrinkage=0.1


Tree=41
num_leaves=5
num_cat=0
split_feature=0 4 5 10
split_gain=0.287979 1.06006 1.033 0.274878
threshold=0.15000000000000005 1.0000000180025095e-35 228.64923747276717 357.33333333333218
decision_type=2 2 2 2
left_child=3 -2 -3 -1
right_child=1 2 -4 -5
leaf_value=0.00062710403103895154 0.051734398221520664 0.023514960645620819 -0.033049571733148896 -0.038829327545540415
leaf_weight=4.0359467938542393 4.0757383182644871 6.0386578366160375 6.9380129799246788 3.1388302892446518
leaf_count=25 27 31 36 19
internal_value=0 0.00724568 -0.00672742 -0.0166343
internal_weight=0 17.0524 12.9767 7.17478
internal_count=138 94 67 44
is_linear=0
shrinkage=0.1


Tree=42
num_leaves=5
num_cat=0
split_feature=7 12 0 7
split_gain=0.30162 0.422587 1.26928 0.502874
threshold=30.500000000000004 1.5000000000000002 0.45000000000000007 105.50000000000001
decision_type=2 2 2 2
left_child=-1 2 3 -2
right_child=1 -3 -4 -5
leaf_value=0.019986885625811728 0.027993509229762032 0.020356072784916735 -0.060695052028283181 -0.017768210656286126
leaf_weight=5.8291602060198811 4.8252636715769786 4.5354436859488478 4.1982707679271689 4.7803334966301918
leaf_count=30 28 28 19 33
internal_value=0 -0.00612631 -0.0148275 0.00521967
internal_weight=0 18.3393 13.8039 9.6056
internal_count=138 108 80 61
is_linear=0
shrinkage=0.1


Tree=43
num_leaves=5
num_cat=0
split_feature=3 5 0 7
split_gain=0.278967 0.42806 0.754065 0.179198
threshold=832.3333333333386 150.81410825199643 0.25000000000000006 108.50000000000001
decision_type=2 2 2 2
left_child=1 2 3 -1
right_child=-2 -3 -4 -5
leaf_value=-0.028965383651828637 0.025887002598285282 -0.023881145684147266 0.0355027895490862 0.0011059260249263888
leaf_weight=3.7692378461360985 3.5885603725910178 7.2459906414151183 5.3146103471517563 4.1784377545118332
leaf_count=21 22 38 28 29
internal_value=0 -0.00433559 0.00634333 -0.0131556
internal_weight=0 20.5083 13.2623 7.94768
internal_count=138 116 78 50
is_linear=0
shrinkage=0.1


Tree=44
num_leaves=5
num_cat=0
split_feature=12 0 7 7
split_gain=0.275998 0.900584 0.653178 0.423991
threshold=2.4000000000000008 0.65000000000000002 72.500000000000014 105.50000000000001
decision_type=2 2 2 2
left_child=1 2 -1 -4
right_child=-2 -3 3 -5
leaf_value=-0.043982575064983126 -0.019901150046821022 0.041724758930613774 0.025330613767673968 -0.01587888060983806
leaf_weight=3.61390038579703 5.3372095450758925 5.0992719978094092 5.2193588837981206 4.7860969603061676
leaf_count=17 29 27 32 33
internal_value=0 0.00587805 -0.00754345 0.00561811
internal_weight=0 18.7186 13.6194 10.0055
internal_count=138 109 82 65
is_linear=0
shrinkage=0.1


Tree=45
num_leaves=5
num_cat=0
split_feature=7 7 12 7
split_gain=0.281365 0.371009 0.80348 1.47422
threshold=30.500000000000004 57.500000000000007 0.75000000000000011 105.50000000000001
decision_type=2 2 2 2
left_child=-1 -2 3 -3
right_child=1 2 -4 -5
leaf_value=0.019349353540692782 -0.028235703045700625 0.071032963645013256 -0.030268249960973517 -0.014254928139073211
leaf_weight=5.7941240221262005 5.2977985963225391 3.5090521797537786 4.614697813987731 4.797567181289196
leaf_count=30 27 19 29 33
internal_value=0 -0.0059496 0.0031878 0.0217741
internal_weight=0 18.2191 12.9213 8.30662
internal_count=138 108 81 52
is_linear=0
shrinkage=0.1


Tree=46
num_leaves=5
num_cat=0
split_feature=3 10 0 0
split_gain=0.235276 0.363797 1.25598 0.679165
threshold=832.3333333333386 348.83333333333337 1.9500000000000008 0.45000000000000007
decision_type=2 2 2 2
left_child=1 -1 3 -3
right_child=-2 2 -4 -5
leaf_value=0.018189326124751416 0.023975885263490249 -0.018174485951288035 -0.061800889681281092 0.031215257480868078
leaf_weight=5.4374098777771058 3.5355679094791403 5.9762027785181981 3.7855122163891783 5.2127336263656616
leaf_count=35 22 37 19 25
internal_value=0 -0.00396548 -0.0120102 0.00483535
internal_weight=0 20.4119 14.9744 11.1889
internal_count=138 116 81 62
is_linear=0
shrinkage=0.1


Tree=47
num_leaves=6
num_cat=0
split_feature=0 0 3 10 7
split_gain=0.306182 0.486684 0.614121 0.600443 0.770082
threshold=2.6500000000000017 1.0500000000000003 771.16666666667118 450.00000000000006 93.500000000000014
decision_type=2 2 2 2 2
left_child=1 2 3 4 -1
right_child=-2 -3 -4 -5 -6
leaf_value=-0.053927810323317275 0.025617310353195439 -0.034393027108898994 0.037639810531829243 0.02319482161574055 0.00978872411572425
leaf_weight=4.1192922294139915 3.942057140171527 4.3649728074669829 3.9177982434630385 4.0116669908165932 3.5158013328909874
leaf_count=21 21 23 23 27 23
internal_value=0 -0.00488415 0.00339142 -0.00812924 -0.0245877
internal_weight=0 19.9295 15.5646 11.6468 7.63509
internal_count=138 117 94 71 44
is_linear=0
shrinkage=0.1


Tree=48
num_leaves=6
num_cat=0
split_feature=0 0 3 10 7
split_gain=0.249586 0.393288 0.50372 0.484203 0.610095
threshold=2.6500000000000017 1.0500000000000003 771.16666666667118 450.00000000000006 93.500000000000014
decision_type=2 2 2 2 2
left_child=1 2 3 4 -1
right_child=-2 -3 -4 -5 -6
leaf_value=-0.047707448582726408 0.023252070041432468 -0.030853683003216566 0.034376964809994769 0.020989370923399624 0.0088337597657505047
leaf_weight=4.1869013160467201 3.9104804322123519 4.378367491066455 3.8636441901326171 3.9910136312246323 3.5067861005663872
leaf_count=21 21 23 23 27 23
internal_value=0 -0.00437944 0.00307563 -0.00727442 -0.0219359
internal_weight=0 19.9267 15.5483 11.6847 7.69369
internal_count=138 117 94 71 44
is_linear=0
shrinkage=0.1


Tree=49
num_leaves=5
num_cat=0
split_feature=10 5 7 10
split_gain=0.292883 0.936277 0.61202 0.638667
threshold=379.83333333333582 123.42174432497008 36.500000000000007 631.49999999999693
decision_type=2 2 2 2
left_child=1 -1 -2 -4
right_child=2 -3 3 -5
leaf_value=-0.0090246743306818932 -0.036858016141780824 0.058336133405803119 0.024888082588443119 -0.029246639289587817
leaf_weight=5.982241131365301 5.0345413386821738 3.1499175131320953 6.3012203052639943 3.3315849527716637
leaf_count=37 26 18 36 21
internal_value=0 0.0142098 -0.00860248 0.00616514
internal_weight=0 9.13216 14.6673 9.63281
internal_count=138 55 83 57
is_linear=0
shrinkage=0.1


Tree=50
num_leaves=5
num_cat=0
split_feature=7 12 0 7
split_gain=0.297051 0.452396 1.06166 0.352875
threshold=30.500000000000004 1.5000000000000002 0.45000000000000007 105.50000000000001
decision_type=2 2 2 2
left_child=-1 2 3 -2
right_child=1 -3 -4 -5
leaf_value=0.019993359393218432 0.022991289750793877 0.021605872365308684 -0.057069710691998676 -0.015716375462362753
leaf_weight=5.7262128964066532 4.6625528484582919 4.430589720606803 4.1888714879751197 4.7592080533504486
leaf_count=30 28 28 19 33
internal_value=0 -0.00614871 -0.0151835 0.00343891
internal_weight=0 18.0412 13.6106 9.42176
internal_count=138 108 80 61
is_linear=0
shrinkage=0.1


Tree=51
num_leaves=6
num_cat=0
split_feature=0 10 7 0 10
split_gain=0.243388 0.762274 1.5197 0.755447 0.258116
threshold=0.15000000000000005 616.50000000000011 57.500000000000007 1.3500000000000003 357.33333333333218
decision_type=2 2 2 2 2
left_child=4 2 3 -2 -1
right_child=1 -3 -4 -5 -6
leaf_value=0.0013182186418409525 -0.058664595945909871 0.047467578415446632 0.048310533916269077 -0.00084885374267386219 -0.03712046065897899
leaf_weight=4.0339168757200268 4.085143059492113 3.6040870249271384 3.8362032398581496 5.0585475713014603 3.0813700333237648
leaf_count=25 19 23 25 27 19
internal_value=0 0.00678119 -0.00451608 -0.0266793 -0.0153282
internal_weight=0 16.584 12.9799 9.14369 7.11529
internal_count=138 94 71 46 44
is_linear=0
shrinkage=0.1


Tree=52
num_leaves=5
num_cat=0
split_feature=7 12 4 12
split_gain=0.283265 0.328146 0.930365 0.677149
threshold=30.500000000000004 1.5000000000000002 1.0000000180025095e-35 1.0000000180025095e-35
decision_type=2 2 2 2
left_child=-1 2 3 -2
right_child=1 -3 -4 -5
leaf_value=0.019566157172141746 -0.020348554464119484 0.017729060252410167 -0.053952610263142721 0.033468685729231
leaf_weight=5.6977315172553089 5.3053486645221728 4.3878291398286811 4.0366425886750212 4.1800769567489624
leaf_count=30 31 28 19 30
internal_value=0 -0.00603297 -0.0137436 0.00336785
internal_weight=0 17.9099 13.5221 9.48543
internal_count=138 108 80 61
is_linear=0
shrinkage=0.1


Tree=53
num_leaves=6
num_cat=0
split_feature=12 0 10 10 7
split_gain=0.2926 0.817836 0.396401 0.416259 0.345327
threshold=2.4000000000000008 0.65000000000000002 589.99999999999648 259.16666666667157 84.500000000000014
decision_type=2 2 2 2 2
left_child=1 2 3 -1 -5
right_child=-2 -3 -4 4 -6
leaf_value=-0.027653058654848559 -0.020749822077652465 0.040728824278812241 -0.039097906166587704 -0.0091677142754801998 0.035008618274224891
leaf_weight=3.1929601132869774 5.2180595099925986 4.967898614704608 2.9579144269227973 3.1394149288535118 4.0551550686359406
leaf_count=20 29 27 20 16 26
internal_value=0 0.00609268 -0.00680077 0.00239605 0.0157319
internal_weight=0 18.3133 13.3454 10.3875 7.19457
internal_count=138 109 82 62 42
is_linear=0
shrinkage=0.1


Tree=54
num_leaves=5
num_cat=0
split_feature=7 7 7 0
split_gain=0.254325 0.273953 0.586045 0.44807
threshold=30.500000000000004 96.500000000000014 117.50000000000001 0.65000000000000002
decision_type=2 2 2 2
left_child=-1 3 -3 -2
right_child=1 2 -4 -5
leaf_value=0.018569838497659988 -0.033625299174402247 0.045795912636555719 -0.01782734714882037 0.0049575349515200194
leaf_weight=5.6792009696364429 6.0195170789957064 2.7340229675173751 3.077337421476841 6.020249105989933
leaf_count=30 33 21 21 33
internal_value=0 -0.00572603 0.012105 -0.0143327
internal_weight=0 17.8511 5.81136 12.0398
internal_count=138 108 42 66
is_linear=0
shrinkage=0.1


Tree=55
num_leaves=5
num_cat=0
split_feature=12 3 10 10
split_gain=0.273737 0.715612 0.687035 0.931589
threshold=2.4000000000000008 771.16666666667118 450.00000000000006 357.33333333333218
decision_type=2 2 2 2
left_child=1 2 3 -1
right_child=-2 -3 -4 -5
leaf_value=0.0061562905523922335 -0.020070385135894365 0.039318718750931854 0.028318388686455087 -0.057458021144828279
leaf_weight=5.4600531458854729 5.217521905899047 4.7448053210973731 4.1101579293608657 3.9801455140113831
leaf_count=34 29 28 28 19
internal_value=0 0.00589637 -0.00580683 -0.0206646
internal_weight=0 18.2952 13.5504 9.4402
internal_count=138 109 81 53
is_linear=0
shrinkage=0.1


Tree=56
num_leaves=5
num_cat=0
split_feature=10 7 3 7
split_gain=0.278153 1.4896 0.583866 0.211239
threshold=399.00000000000369 45.500000000000007 412.50000000000119 93.500000000000014
decision_type=2 2 2 2
left_child=2 -2 3 -1
right_child=1 -3 -4 -5
leaf_value=-0.02788610294826251 0.036649282791461221 -0.043762598115901337 0.030353096462021084 0.0068602091737713228
leaf_weight=3.5806237608194369 3.7460251525044423 5.9832969903945923 6.7219177596271038 3.4216800481081009
leaf_count=21 21 38 36 22
internal_value=0 -0.0128021 0.00930142 -0.0109073
internal_weight=0 9.72932 13.7242 7.0023
internal_count=138 59 79 43
is_linear=0
shrinkage=0.1


Tree=57
num_leaves=5
num_cat=0
split_feature=10 12 7 12
split_gain=0.260993 1.13745 0.729199 0.396567
threshold=348.83333333333337 2.4000000000000008 51.500000000000007 0.75000000000000011
decision_type=2 2 2 2
left_child=-1 2 -2 -4
right_child=1 -3 3 -5
leaf_value=0.019430337694427674 0.039738883017690518 -0.050442719565079036 0.0083946580063404847 -0.03483332032098168
leaf_weight=5.3952138386666801 4.8254200667142895 4.3120353296399108 5.420991972088812 3.4874745085835457
leaf_count=35 26 23 34 20
internal_value=0 -0.00563711 0.00843052 -0.00852817
internal_weight=0 18.0459 13.7339 8.90847
internal_count=138 103 80 54
is_linear=0
shrinkage=0.1


Tree=58
num_leaves=5
num_cat=0
split_feature=10 7 7 7
split_gain=0.223074 1.12885 0.523403 0.999945
threshold=399.00000000000369 45.500000000000007 84.500000000000014 48.500000000000007
decision_type=2 2 2 2
left_child=2 -2 3 -1
right_child=1 -3 -4 -5
leaf_value=-0.007951064199938105 0.03228503452122377 -0.037939013882436617 -0.02132488038370222 0.057188108842328528
leaf_weight=5.2531521543860453 3.6770894527435285 6.0642700418829918 4.137417644262313 4.2740076407790184
leaf_count=26 21 38 27 26
internal_value=0 -0.0114314 0.00837379 0.0212712
internal_weight=0 9.74136 13.6646 9.52716
internal_count=138 59 79 52
is_linear=0
shrinkage=0.1


Tree=59
num_leaves=5
num_cat=0
split_feature=5 7 0 12
split_gain=0.253485 1.19385 0.658758 0.172882
threshold=150.81410825199643 36.500000000000007 0.25000000000000006 0.55000000000000004
decision_type=2 2 2 2
left_child=2 -2 3 -1
right_child=1 -3 -4 -5
leaf_value=-0.021284823494118615 -0.049384972570597416 0.019168790907189644 0.036844038454098366 0.0088078835542122619
leaf_weight=4.6439267992973345 4.6133027821779233 5.6533297151327133 5.2348714098334312 3.2417710199952126
leaf_count=26 24 35 29 24
internal_value=0 -0.0116358 0.00934272 -0.00891386
internal_weight=0 10.2666 13.1206 7.8857
internal_count=138 59 79 50
is_linear=0
shrinkage=0.1


Tree=60
num_leaves=6
num_cat=0
split_feature=7 7 0 0 7
split_gain=0.236667 0.384825 1.14042 0.531346 0.254794
threshold=30.500000000000004 72.500000000000014 0.15000000000000005 1.2500000000000002 111.50000000000001
decision_type=2 2 2 2 2
left_child=-1 3 4 -2 -3
right_child=1 2 -4 -5 -6
leaf_value=0.018041764835725574 -0.048452041037973369 -0.033068656527240135 0.059877093299585737 0.0034517508014787601 0.0053429397995790025
leaf_weight=5.6065296307206181 3.8672274723649052 3.5748927742242795 2.9355433061718941 4.0252468138933182 3.3406018763780594
leaf_count=30 19 20 23 23 23
internal_value=0 -0.00552751 0.00765437 -0.0219805 -0.0145135
internal_weight=0 17.7435 9.85104 7.89247 6.91549
internal_count=138 108 66 42 43
is_linear=0
shrinkage=0.1


Tree=61
num_leaves=5
num_cat=0
split_feature=10 12 7 7
split_gain=0.252641 1.02428 0.638569 0.45317
threshold=348.83333333333337 2.4000000000000008 51.500000000000007 87.500000000000014
decision_type=2 2 2 2
left_child=-1 2 -2 -4
right_child=1 -3 3 -5
leaf_value=0.019208960782919754 0.037608768397455597 -0.047792913257366093 -0.031140262977377695 0.014186775626002249
leaf_weight=5.3474637009203461 4.73488222062588 4.3485032543539992 4.303800053894518 4.5245285034179688
leaf_count=35 26 23 23 31
internal_value=0 -0.00555991 0.00798042 -0.0079101
internal_weight=0 17.9117 13.5632 8.82833
internal_count=138 103 80 54
is_linear=0
shrinkage=0.1


Tree=62
num_leaves=5
num_cat=0
split_feature=10 12 7 7
split_gain=0.205759 0.824935 0.522677 0.364348
threshold=348.83333333333337 2.4000000000000008 51.500000000000007 87.500000000000014
decision_type=2 2 2 2
left_child=-1 2 -2 -4
right_child=1 -3 3 -5
leaf_value=0.017427227142526154 0.034202205716577824 -0.042745983494874976 -0.027781967031506285 0.012793820645871524
leaf_weight=5.3069926202297237 4.6883766204118755 4.3742652535438529 4.3396247550845128 4.5159095898270607
leaf_count=35 26 23 23 31
internal_value=0 -0.0049903 0.00720362 -0.00709021
internal_weight=0 17.9182 13.5439 8.85553
internal_count=138 103 80 54
is_linear=0
shrinkage=0.1


Tree=63
num_leaves=5
num_cat=0
split_feature=7 7 10 10
split_gain=0.214744 0.339432 0.632222 0.691829
threshold=30.500000000000004 57.500000000000007 589.99999999999648 350.33333333333036
decision_type=2 2 2 2
left_child=-1 -2 3 -3
right_child=1 2 -4 -5
leaf_value=0.017245161920872696 -0.027215607261346555 -0.013674904466602179 -0.037087965660591686 0.040159075252337334
leaf_weight=5.5689191520214107 5.0382679551839855 4.3481722138822061 2.9406945928931227 5.2931894361972809
leaf_count=30 27 30 20 31
internal_value=0 -0.00528226 0.00350057 0.0158804
internal_weight=0 17.6203 12.5821 9.64136
internal_count=138 108 81 61
is_linear=0
shrinkage=0.1


Tree=64
num_leaves=5
num_cat=0
split_feature=10 12 0 5
split_gain=0.191512 0.667936 0.546948 0.427583
threshold=348.83333333333337 2.4000000000000008 0.65000000000000002 346.36363636363666
decision_type=2 2 2 2
left_child=-1 2 3 -2
right_child=1 -3 -4 -5
leaf_value=0.016842703628512919 0.010608289101155209 -0.038766555786771413 0.034758958791943274 -0.03353400299870922
leaf_weight=5.2864528931677368 5.2014215290546435 4.3767476305365554 4.4771357327699652 3.7956972569227219
leaf_count=35 34 23 25 21
internal_value=0 -0.00482649 0.00619803 -0.00801443
internal_weight=0 17.851 13.4743 8.99712
internal_count=138 103 80 55
is_linear=0
shrinkage=0.1


Tree=65
num_leaves=6
num_cat=0
split_feature=0 0 3 10 7
split_gain=0.222988 0.415401 0.469691 0.432301 0.422718
threshold=2.6500000000000017 1.0500000000000003 771.16666666667118 450.00000000000006 93.500000000000014
decision_type=2 2 2 2 2
left_child=1 2 3 4 -1
right_child=-2 -3 -4 -5 -6
leaf_value=-0.041893143841970092 0.022267599996748821 -0.032183972771760938 0.034275808476573404 0.020802074584407377 0.0055547685901374023
leaf_weight=4.1526692509651237 3.7986470460891715 4.169890370219945 3.7282352596521369 3.8238767236471176 3.4273598231375217
leaf_count=21 21 23 23 27 23
internal_value=0 -0.00423795 0.003463 -0.00661051 -0.0204393
internal_weight=0 19.302 15.1321 11.4039 7.58003
internal_count=138 117 94 71 44
is_linear=0
shrinkage=0.1


Tree=66
num_leaves=5
num_cat=0
split_feature=10 7 7 7
split_gain=0.225836 0.969649 0.538262 0.831137
threshold=399.00000000000369 45.500000000000007 84.500000000000014 42.500000000000007
decision_type=2 2 2 2
left_child=2 -2 3 -1
right_child=1 -3 -4 -5
leaf_value=-0.0083646680916778706 0.029641191831970948 -0.036069209504402511 -0.021583245249081093 0.051344688026060264
leaf_weight=4.616294629871847 3.5787955746054632 6.0285465940833092 4.1278993077576152 4.7096176780760288
leaf_count=23 21 38 27 29
internal_value=0 -0.0115917 0.00848136 0.0217888
internal_weight=0 9.60734 13.4538 9.32591
internal_count=138 59 79 52
is_linear=0
shrinkage=0.1


Tree=67
num_leaves=5
num_cat=0
split_feature=7 7 12 7
split_gain=0.215753 0.324244 0.598098 1.38639
threshold=30.500000000000004 57.500000000000007 0.75000000000000011 105.50000000000001
decision_type=2 2 2 2
left_child=-1 -2 3 -3
right_child=1 2 -4 -5
leaf_value=0.017346295738318779 -0.026901347741663046 0.068374583049876175 -0.025825340747469477 -0.015853708946413726
leaf_weight=5.526960231363776 4.9800068922340897 3.379410006105898 4.5198514834046355 4.6337151974439621
leaf_count=30 27 19 29 33
internal_value=0 -0.00531557 0.00326159 0.0196683
internal_weight=0 17.513 12.533 8.01313
internal_count=138 108 81 52
is_linear=0
shrinkage=0.1


Tree=68
num_leaves=5
num_cat=0
split_feature=10 12 7 7
split_gain=0.187949 0.600862 0.455997 0.317553
threshold=348.83333333333337 2.4000000000000008 51.500000000000007 87.500000000000014
decision_type=2 2 2 2
left_child=-1 2 -2 -4
right_child=1 -3 3 -5
leaf_value=0.016742873936943153 0.031226531505486339 -0.037032568735746042 -0.02699803566334882 0.011080498759590132
leaf_weight=5.2512514181435135 4.5976773425936726 4.3597556836903086 4.3125589415431005 4.449836477637291
leaf_count=35 26 23 23 31
internal_value=0 -0.00479732 0.00572192 -0.00766049
internal_weight=0 17.7198 13.3601 8.7624
internal_count=138 103 80 54
is_linear=0
shrinkage=0.1


Tree=69
num_leaves=6
num_cat=0
split_feature=0 10 3 7 10
split_gain=0.190993 0.335048 0.782819 0.852579 0.742014
threshold=2.6500000000000017 450.00000000000006 699.33333333333223 93.500000000000014 639.66666666666799
decision_type=2 2 2 2 2
left_child=1 2 3 -1 -3
right_child=-2 4 -4 -5 -6
leaf_value=-0.060243578530687604 0.020735320050562604 0.046205026423861553 0.019547102318002524 0.0056646148817730904 -0.021139256243274354
leaf_weight=4.6230235248804146 3.7581647187471381 3.464611440896987 4.5784481465816489 3.4107440151274204 3.1000470072031021
leaf_count=25 21 23 26 23 20
internal_value=0 -0.00391835 -0.0134545 -0.0322622 0.0144028
internal_weight=0 19.1769 12.6122 8.03377 6.56466
internal_count=138 117 74 48 43
is_linear=0
shrinkage=0.1


Tree=70
num_leaves=5
num_cat=0
split_feature=10 7 0 12
split_gain=0.222447 0.738163 0.61019 0.576585
threshold=379.83333333333582 36.500000000000007 0.25000000000000006 1.5000000000000002
decision_type=2 2 2 2
left_child=3 -2 -3 -1
right_child=1 2 -4 -5
leaf_value=-0.006153883396631487 -0.039338792917605774 -0.022882319623029029 0.029569764185573388 0.047716699274188777
leaf_weight=5.6895452439785021 4.8316709473729125 3.6650412976741773 5.6170013621449471 3.0529308803379536
leaf_count=35 26 24 33 20
internal_value=0 -0.00764103 0.00885891 0.0126581
internal_weight=0 14.1137 9.28204 8.74248
internal_count=138 83 57 55
is_linear=0
shrinkage=0.1


Tree=71
num_leaves=5
num_cat=0
split_feature=7 7 0 12
split_gain=0.201093 0.319314 0.584552 0.292846
threshold=30.500000000000004 57.500000000000007 0.25000000000000006 0.55000000000000004
decision_type=2 2 2 2
left_child=-1 -2 3 -3
right_child=1 2 -4 -5
leaf_value=0.016800470015462504 -0.026730981283688362 -0.030663381636601594 0.030533964182615982 0.0091752996178333344
leaf_weight=5.4904977902770069 4.9161458946764496 4.4001766145229322 4.8385709188878536 3.1776183918118477
leaf_count=30 27 25 32 24
internal_value=0 -0.00516032 0.00338038 -0.0139577
internal_weight=0 17.3325 12.4164 7.5778
internal_count=138 108 81 49
is_linear=0
shrinkage=0.1


Tree=72
num_leaves=5
num_cat=0
split_feature=5 7 0 12
split_gain=0.231043 1.0741 0.606047 0.14682
threshold=150.81410825199643 36.500000000000007 0.25000000000000006 0.55000000000000004
decision_type=2 2 2 2
left_child=2 -2 3 -1
right_child=1 -3 -4 -5
leaf_value=-0.019657755392393245 -0.046970571135224154 0.018738680057813314 0.036480365919243959 0.0082851533535060334
leaf_weight=4.6270282194018382 4.5742840766906721 5.4534789212048054 4.9354024901986122 3.1676669046282768
leaf_count=26 24 35 29 24
internal_value=0 -0.0112354 0.00905986 -0.00830211
internal_weight=0 10.0278 12.7301 7.7947
internal_count=138 59 79 50
is_linear=0
shrinkage=0.1


Tree=73
num_leaves=5
num_cat=0
split_feature=10 12 7 7
split_gain=0.214981 0.546087 0.408626 0.361319
threshold=348.83333333333337 2.7499999999999996 51.500000000000007 87.500000000000014
decision_type=2 2 2 2
left_child=-1 2 -2 -4
right_child=1 -3 3 -5
leaf_value=0.017943542901377705 0.026853838153705956 -0.038337607381376579 -0.029783124424960533 0.011204902269187224
leaf_weight=5.2121433503925827 5.032177239656451 3.8714677654206744 4.245644595474003 4.358589231967926
leaf_count=35 28 21 23 31
internal_value=0 -0.00519198 0.00421829 -0.00902009
internal_weight=0 17.5079 13.6364 8.60423
internal_count=138 103 82 54
is_linear=0
shrinkage=0.1


Tree=74
num_leaves=6
num_cat=0
split_feature=7 10 10 7 0
split_gain=0.211476 0.435087 0.573807 1.07138 0.0214989
threshold=30.500000000000004 259.16666666667157 399.00000000000369 87.500000000000014 1.0500000000000003
decision_type=2 2 2 2 2
left_child=-1 -2 4 -4 -3
right_child=1 2 3 -5 -6
leaf_value=0.01722835752798434 -0.039321379558367828 0.030070823613549454 -0.050511693141494209 0.023586822034094953 0.018342692213934846
leaf_weight=5.4757014289498356 3.0903363749384907 3.3623600453138334 4.182441733777523 3.6578852944076061 2.9206704273819923
leaf_count=30 20 22 21 27 18
internal_value=0 -0.00533405 0.00210273 -0.0159412 0.024619
internal_weight=0 17.2137 14.1234 7.84033 6.28303
internal_count=138 108 88 48 40
is_linear=0
shrinkage=0.1


Tree=75
num_leaves=5
num_cat=0
split_feature=10 12 3 10
split_gain=0.206361 0.463737 0.427025 0.92582
threshold=348.83333333333337 2.7499999999999996 771.16666666667118 450.00000000000006
decision_type=2 2 2 2
left_child=-1 2 3 -2
right_child=1 -3 -4 -5
leaf_value=0.017595146624231818 -0.036004265761442181 -0.035616729623464106 0.029273053647886751 0.0279583713919767
leaf_weight=5.2040687836706665 5.283151790499689 3.8739841952919951 4.3895029649138442 3.9584985822439194
leaf_count=35 26 21 28 28
internal_value=0 -0.00508578 0.00359114 -0.00860699
internal_weight=0 17.5051 13.6312 9.24165
internal_count=138 103 82 54
is_linear=0
shrinkage=0.1


Tree=76
num_leaves=6
num_cat=0
split_feature=7 10 10 7 0
split_gain=0.21311 0.377226 0.552146 0.843997 0.0130378
threshold=30.500000000000004 259.16666666667157 399.00000000000369 87.500000000000014 1.0500000000000003
decision_type=2 2 2 2 2
left_child=-1 -2 4 -4 -3
right_child=1 2 3 -5 -6
leaf_value=0.017348397283715178 -0.036836992776652554 0.028056607758422628 -0.046600636486952007 0.019268948430973779 0.018894526945573899
leaf_weight=5.4451176151633289 3.1157411262393024 3.3406122624874097 4.1982149034738541 3.6247494667768478 2.9027385711669922
leaf_count=30 20 22 21 27 18
internal_value=0 -0.00535424 0.00161931 -0.0160801 0.0237969
internal_weight=0 17.1821 14.0663 7.82296 6.24335
internal_count=138 108 88 48 40
is_linear=0
shrinkage=0.1


Tree=77
num_leaves=5
num_cat=0
split_feature=10 12 0 5
split_gain=0.196963 0.397819 0.463405 0.267491
threshold=348.83333333333337 2.7499999999999996 0.65000000000000002 346.36363636363666
decision_type=2 2 2 2
left_child=-1 2 3 -2
right_child=1 -3 -4 -5
leaf_value=0.017202644898812822 0.00448683823040182 -0.033239226788458268 0.027990313424284735 -0.030844460436759532
leaf_weight=5.1941423825919655 5.0111944302916545 3.8752820566296569 4.8194069042801848 3.7436866536736488
leaf_count=35 34 21 27 21
internal_value=0 -0.00498019 0.00308739 -0.0106212
internal_weight=0 17.4496 13.5743 8.75488
internal_count=138 103 82 55
is_linear=0
shrinkage=0.1


Tree=78
num_leaves=6
num_cat=0
split_feature=7 10 10 7 0
split_gain=0.201993 0.331955 0.444612 0.67314 0.00967481
threshold=30.500000000000004 259.16666666667157 399.00000000000369 87.500000000000014 1.0500000000000003
decision_type=2 2 2 2 2
left_child=-1 -2 4 -4 -3
right_child=1 2 3 -5 -6
leaf_value=0.016913297726186077 -0.034612007918652078 0.025055356668523709 -0.041555156214428263 0.017216297168880436 0.017131945783708347
leaf_weight=5.4312172085046795 3.1386359184980419 3.3233510591089708 4.2266812175512314 3.6161407940089703 2.8735232464969158
leaf_count=30 20 22 21 27 18
internal_value=0 -0.00521131 0.00136135 -0.014457 0.0213812
internal_weight=0 17.1783 14.0397 7.84282 6.19687
internal_count=138 108 88 48 40
is_linear=0
shrinkage=0.1


Tree=79
num_leaves=5
num_cat=0
split_feature=3 10 0 0
split_gain=0.205181 0.301418 0.725344 0.72512
threshold=832.3333333333386 348.83333333333337 1.9500000000000008 0.45000000000000007
decision_type=2 2 2 2
left_child=1 -1 3 -3
right_child=-2 2 -4 -5
leaf_value=0.016818659297060785 0.023267960124427698 -0.022469360420892679 -0.049546475636261161 0.030255951698201347
leaf_weight=5.1837624013423982 3.2703702338039866 5.6099794432520849 3.6820561401545993 4.8750686943531036
leaf_count=35 22 37 19 25
internal_value=0 -0.00381387 -0.0113633 0.0020455
internal_weight=0 19.3509 14.1671 10.485
internal_count=138 116 81 62
is_linear=0
shrinkage=0.1


Tree=80
num_leaves=6
num_cat=0
split_feature=0 0 0 12 7
split_gain=0.22756 0.357244 0.7066 0.390382 0.486095
threshold=2.6500000000000017 1.0500000000000003 0.55000000000000016 0.75000000000000011 105.50000000000001
decision_type=2 2 2 2 2
left_child=1 2 3 4 -1
right_child=-2 -3 -4 -5 -6
leaf_value=0.030416870753899997 0.023010643298428675 -0.030753744618833956 0.045954919025432195 -0.036000210990669759 -0.018154557876280324
leaf_weight=3.7392894551158005 3.6355580762028685 4.0215824134647837 3.0276915058493605 3.5372401028871527 4.5891991034150124
leaf_count=21 21 23 18 22 33
internal_value=0 -0.00430664 0.00283471 -0.00816796 0.00365284
internal_weight=0 18.915 14.8934 11.8657 8.32849
internal_count=138 117 94 76 54
is_linear=0
shrinkage=0.1


Tree=81
num_leaves=6
num_cat=0
split_feature=0 10 10 3 7
split_gain=0.185268 0.321157 0.624729 0.543823 0.777052
threshold=2.6500000000000017 450.00000000000006 639.66666666666799 699.33333333333223 93.500000000000014
decision_type=2 2 2 2 2
left_child=1 3 -3 4 -1
right_child=-2 2 -4 -5 -6
leaf_value=-0.055709713609524605 0.020847562342726732 0.04412222022465398 -0.018133697862963448 0.014886666723498383 0.0072684665077866334
leaf_weight=4.5872632712125831 3.6127511933445922 3.3560346476733676 3.1014842018485069 4.4197840318083754 3.4196460507810116
leaf_count=25 21 23 20 26 23
internal_value=0 -0.00386934 0.0142213 -0.0132701 -0.0288126
internal_weight=0 18.8842 6.45752 12.4267 8.00691
internal_count=138 117 43 74 48
is_linear=0
shrinkage=0.1


Tree=82
num_leaves=5
num_cat=0
split_feature=7 0 0 12
split_gain=0.205027 0.625627 1.2089 0.242413
threshold=36.500000000000007 0.25000000000000006 0.84999999999999998 0.55000000000000004
decision_type=2 2 2 2
left_child=-1 3 -3 -2
right_child=1 2 -4 -5
leaf_value=-0.014748193826168057 -0.029675344904729159 0.068540904028225214 -0.0084352333383712428 0.006650508682646542
leaf_weight=6.572296109050515 4.4112594649195662 3.6260115057229978 4.6650761924684048 3.1480816826224327
leaf_count=36 25 25 28 24
internal_value=0 0.00625912 0.0252294 -0.0145475
internal_weight=0 15.8504 8.29109 7.55934
internal_count=138 102 53 49
is_linear=0
shrinkage=0.1


Tree=83
num_leaves=5
num_cat=0
split_feature=10 10 3 10
split_gain=0.227363 0.273277 0.589813 0.422794
threshold=348.83333333333337 450.00000000000006 699.33333333333223 639.66666666666799
decision_type=2 2 2 2
left_child=-1 2 -2 -3
right_child=1 3 -4 -5
leaf_value=0.01846411046453407 -0.041198946813398807 0.030853634126017316 0.0072862965691498057 -0.018385787094674946
leaf_weight=5.1837962456047562 4.8365013673901576 4.0352619215846053 5.2135239616036415 3.0709060207009315
leaf_count=35 25 28 30 20
internal_value=0 -0.00543419 -0.0160469 0.00957499
internal_weight=0 17.1562 10.05 7.10617
internal_count=138 103 55 48
is_linear=0
shrinkage=0.1


Tree=84
num_leaves=5
num_cat=0
split_feature=10 7 0 5
split_gain=0.224448 0.631447 0.641766 0.445251
threshold=379.83333333333582 36.500000000000007 0.25000000000000006 102.95752895752945
decision_type=2 2 2 2
left_child=3 -2 -3 -1
right_child=1 2 -4 -5
leaf_value=-0.0047453439195417786 -0.037112066575251255 -0.025139661256490937 0.029568077143734297 0.042585345659042588
leaf_weight=5.3390112370252627 4.7876960374414912 3.5534924641251546 5.406967468559742 3.1662611477077007
leaf_count=35 26 24 33 20
internal_value=0 -0.00779314 0.00787237 0.0128745
internal_weight=0 13.7482 8.96046 8.50527
internal_count=138 83 57 55
is_linear=0
shrinkage=0.1


Tree=85
num_leaves=5
num_cat=0
split_feature=5 7 7 10
split_gain=0.219453 0.912058 0.631555 0.111135
threshold=150.81410825199643 36.500000000000007 54.500000000000007 450.00000000000006
decision_type=2 2 2 2
left_child=2 -2 -1 -4
right_child=1 -3 3 -5
leaf_value=0.044539303963481033 -0.043817155048335346 0.017333184046935398 -0.014057355722374857 0.0090584410324878375
leaf_weight=3.5556015297770527 4.5555970482528192 5.2498523034155369 5.5226245000958425 3.336333230137825
leaf_count=19 24 35 35 25
internal_value=0 -0.0110772 0.00893729 -0.00535182
internal_weight=0 9.80545 12.4146 8.85896
internal_count=138 59 79 60
is_linear=0
shrinkage=0.1


Tree=86
num_leaves=5
num_cat=0
split_feature=7 3 10 7
split_gain=0.22796 0.287216 0.445789 0.496191
threshold=30.500000000000004 730.3333333333286 259.16666666667157 102.50000000000001
decision_type=2 2 2 2
left_child=-1 2 -2 -4
right_child=1 -3 3 -5
leaf_value=0.018069336762017229 -0.029739910979552947 -0.026822588985211518 0.030396323394953746 -0.019272660898129578
leaf_weight=5.3580284714698818 3.1852118298411396 4.6294673457741728 6.0085901506245118 3.0233340784907341
leaf_count=30 20 29 35 24
internal_value=0 -0.00561127 0.00242638 0.0137702
internal_weight=0 16.8466 12.2171 9.03192
internal_count=138 108 79 59
is_linear=0
shrinkage=0.1


Tree=87
num_leaves=5
num_cat=0
split_feature=10 12 7 7
split_gain=0.215182 0.295248 0.41676 0.26814
threshold=348.83333333333337 2.7499999999999996 51.500000000000007 87.500000000000014
decision_type=2 2 2 2
left_child=-1 2 -2 -4
right_child=1 -3 3 -5
leaf_value=0.018009559058116003 0.024861436831591591 -0.029818527942927567 -0.029877476347353289 0.006015884809489544
leaf_weight=5.1520268432796028 4.909805420786145 3.8157606981694689 4.1492613442242128 4.176007404923439
leaf_count=35 28 21 23 31
internal_value=0 -0.00531133 0.00175426 -0.0118731
internal_weight=0 17.0508 13.2351 8.32527
internal_count=138 103 82 54
is_linear=0
shrinkage=0.1


Tree=88
num_leaves=5
num_cat=0
split_feature=7 12 4 12
split_gain=0.18141 0.27112 0.900825 0.51485
threshold=30.500000000000004 1.5000000000000002 1.0000000180025095e-35 1.0000000180025095e-35
decision_type=2 2 2 2
left_child=-1 2 3 -2
right_child=1 -3 -4 -5
leaf_value=0.016193631737745098 -0.015621921443686069 0.018298936027798317 -0.052116882172820948 0.032338026757348398
leaf_weight=5.3206538446247604 5.1216510534286517 3.8560366928577414 3.8981574848294249 3.9759419187903404
leaf_count=30 31 28 19 30
internal_value=0 -0.00498667 -0.0118959 0.00533812
internal_weight=0 16.8518 12.9958 9.09759
internal_count=138 108 80 61
is_linear=0
shrinkage=0.1


Tree=89
num_leaves=5
num_cat=0
split_feature=10 12 3 10
split_gain=0.176374 0.277333 0.432525 0.750517
threshold=348.83333333333337 2.7499999999999996 771.16666666667118 450.00000000000006
decision_type=2 2 2 2
left_child=-1 2 3 -2
right_child=1 -3 -4 -5
leaf_value=0.016446825838927332 -0.035042128848471112 -0.028515444263666208 0.028468782265295325 0.023489584992793237
leaf_weight=5.0795900337398079 5.1893951818346995 3.8199995160102835 4.2239955849945536 3.7910430729389191
leaf_count=35 26 21 28 28
internal_value=0 -0.00478573 0.00207919 -0.0103333
internal_weight=0 17.0244 13.2044 8.98044
internal_count=138 103 82 54
is_linear=0
shrinkage=0.1


Tree=90
num_leaves=5
num_cat=0
split_feature=7 14 7 7
split_gain=0.181572 0.269785 1.14377 1.00534
threshold=30.500000000000004 1.0000000180025095e-35 63.500000000000007 105.50000000000001
decision_type=2 2 2 2
left_child=-1 -2 -3 -4
right_child=1 2 3 -5
leaf_value=0.016240128903146196 0.017260889866408804 -0.057822716364290427 0.034335251538068011 -0.035148106503285446
leaf_weight=5.2901877090334919 4.1043524183332964 3.8352455571293804 5.4150876700878126 3.3833903633058071
leaf_count=30 28 23 34 23
internal_value=0 -0.00501318 -0.0122494 0.00761593
internal_weight=0 16.7381 12.6337 8.79848
internal_count=138 108 80 57
is_linear=0
shrinkage=0.1


Tree=91
num_leaves=5
num_cat=0
split_feature=0 5 12 7
split_gain=0.181417 0.675819 0.473093 0.366362
threshold=0.55000000000000016 279.75243147657073 0.75000000000000011 105.50000000000001
decision_type=2 2 2 2
left_child=2 -2 3 -1
right_child=1 -3 -4 -5
leaf_value=0.028274696601931007 -0.011047687549842157 0.041098042332317515 -0.039648133138749729 -0.014437653564341922
leaf_weight=3.626838758587839 6.2494902424514276 4.1264357641339302 3.4333528988063327 4.4996479153633118
leaf_count=21 37 25 22 33
internal_value=0 0.00969032 -0.00852457 0.0046248
internal_weight=0 10.3759 11.5598 8.12649
internal_count=138 62 76 54
is_linear=0
shrinkage=0.1


Tree=92
num_leaves=6
num_cat=0
split_feature=0 7 7 0 7
split_gain=0.17838 0.310612 0.532675 0.521667 0.263342
threshold=2.6500000000000017 30.500000000000004 63.500000000000007 0.25000000000000006 108.50000000000001
decision_type=2 2 2 2 2
left_child=1 -1 -3 4 -4
right_child=-2 2 3 -5 -6
leaf_value=0.025536249613542505 0.020655548585477478 -0.039596103482636931 -0.033295430487025039 0.032935685394019351 0.0044084439806631251
leaf_weight=3.0049727633595529 3.537543073296546 4.2771801911294451 3.4821477234363538 3.645930327475071 3.9581308886408806
leaf_count=17 21 25 20 26 29
internal_value=0 -0.00386715 -0.00961825 0.00194754 -0.0132375
internal_weight=0 18.3684 15.3634 11.0862 7.44028
internal_count=138 117 100 75 49
is_linear=0
shrinkage=0.1


Tree=93
num_leaves=5
num_cat=0
split_feature=5 7 0 10
split_gain=0.207693 0.900419 0.593204 0.191858
threshold=150.81410825199643 36.500000000000007 0.25000000000000006 357.33333333333218
decision_type=2 2 2 2
left_child=2 -2 3 -1
right_child=1 -3 -4 -5
leaf_value=0.0065645326550547896 -0.043799637180860163 0.017550249534734528 0.037269111497317903 -0.025165648610033054
leaf_weight=4.0752746835351008 4.4609620273113233 5.1589111350476742 4.5663079470396042 3.5793272964656353
leaf_count=25 24 35 29 25
internal_value=0 -0.0108991 0.0087439 -0.00827265
internal_weight=0 9.61987 12.2209 7.6546
internal_count=138 59 79 50
is_linear=0
shrinkage=0.1


Tree=94
num_leaves=6
num_cat=0
split_feature=5 5 12 7 0
split_gain=0.171261 0.460401 0.326652 0.469997 0.247768
threshold=912.78571428571411 279.75243147657073 0.75000000000000011 105.50000000000001 2.4500000000000015
decision_type=2 2 2 2 2
left_child=1 2 3 -1 -4
right_child=-2 -3 4 -5 -6
leaf_value=0.035241310518229145 -0.020452979321250456 0.038064426418159963 -0.039830977191652191 -0.012256891780344057 -0.0014731546231987881
leaf_weight=3.8846876695752197 3.4209325127303591 3.2498404942452899 3.2234906964004031 4.4923865348100662 3.5260073691606522
leaf_count=23 20 21 21 33 20
internal_value=0 0.00391551 -0.00342116 0.00976938 -0.0197925
internal_weight=0 18.3764 15.1266 8.37707 6.7495
internal_count=138 118 97 56 41
is_linear=0
shrinkage=0.1


Tree=95
num_leaves=6
num_cat=0
split_feature=5 7 7 7 10
split_gain=0.170569 1.28652 0.718184 0.463366 0.239999
threshold=150.81410825199643 51.500000000000007 36.500000000000007 90.500000000000014 382.33333333333491
decision_type=2 2 2 2 2
left_child=1 -1 -2 -3 -5
right_child=2 3 -4 4 -6
leaf_value=0.064682278602360865 -0.039019138311774802 -0.043199555051273202 0.015774491549238687 0.024658560054232406 -0.014777552602126287
leaf_weight=3.0088284164667156 4.4957530051469785 2.9650364816188794 5.1121099703013897 3.0798283815383911 3.0929870456457138
leaf_count=17 24 18 35 21 23
internal_value=0 0.00796654 -0.00986478 -0.0107083 0.00489847
internal_weight=0 12.1467 9.60786 9.13785 6.17282
internal_count=138 79 59 62 44
is_linear=0
shrinkage=0.1


Tree=96
num_leaves=6
num_cat=0
split_feature=3 5 10 3 7
split_gain=0.173675 0.350121 0.337393 1.13701 0.232629
threshold=832.3333333333386 346.36363636363666 399.00000000000369 412.50000000000119 96.500000000000014
decision_type=2 2 2 2 2
left_child=1 2 3 4 -1
right_child=-2 -3 -4 -5 -6
leaf_value=-0.026663570665148618 0.021893390460486484 -0.031475245704851919 -0.01732538453956451 0.063587819186837646 0.011066253922083049
leaf_weight=3.5824055299162918 3.1293250173330298 3.6205103993415824 5.2223760597407809 3.1506192721426487 3.004872877150774
leaf_count=23 22 20 35 18 20
internal_value=0 -0.00357155 0.00318138 0.014179 -0.00945262
internal_weight=0 18.5808 14.9603 9.7379 6.58728
internal_count=138 116 96 61 43
is_linear=0
shrinkage=0.1


Tree=97
num_leaves=5
num_cat=0
split_feature=10 10 10 10
split_gain=0.146235 0.464817 0.349256 0.317431
threshold=450.00000000000006 639.66666666666799 379.83333333333582 259.16666666667157
decision_type=2 2 2 2
left_child=2 -2 3 -1
right_child=1 -3 -4 -5
leaf_value=-0.014771603865868982 0.034330757225813996 -0.017942399656902114 -0.022879539743149706 0.024992969388827016
leaf_weight=3.4833003133535403 3.9907743334770194 2.9648586213588715 6.4946417026221743 4.7382977493107319
leaf_count=23 28 20 35 32
internal_value=0 0.0120492 -0.00554654 0.00814564
internal_weight=0 6.95563 14.7162 8.2216
internal_count=138 48 90 55
is_linear=0
shrinkage=0.1


Tree=98
num_leaves=5
num_cat=0
split_feature=10 0 0 7
split_gain=0.138326 0.37405 0.544334 0.287997
threshold=348.83333333333337 1.2500000000000002 0.55000000000000016 87.500000000000014
decision_type=2 2 2 2
left_child=-1 2 3 -2
right_child=1 -3 -4 -5
leaf_value=0.014669911311295112 -0.031083274399038543 -0.024641893164238152 0.039372555370131727 0.0089131797938545535
leaf_weight=5.0066557750105884 3.2213964462280291 5.8519822955131522 3.4703475832939148 4.0810010358691216
leaf_count=35 18 33 21 31
internal_value=0 -0.00429026 0.00676518 -0.00873095
internal_weight=0 16.6247 10.7727 7.3024
internal_count=138 103 70 49
is_linear=0
shrinkage=0.1


Tree=99
num_leaves=6
num_cat=0
split_feature=3 4 10 12 0
split_gain=0.146385 0.271968 0.462868 0.676906 0.0661513
threshold=832.3333333333386 1.5000000000000002 470.00000000000006 0.55000000000000004 0.65000000000000002
decision_type=2 2 2 2 2
left_child=1 2 3 -1 -5
right_child=-2 -3 -4 4 -6
leaf_value=-0.030695612355428465 0.020234609454104366 -0.030356921522533289 0.035758457780967444 0.0062802304251174876 0.02695654353836225
leaf_weight=6.0041423626244121 3.0926136001944533 3.0882843174040309 3.2385027706623069 3.1526566445827484 3.0388859659433365
leaf_count=32 22 18 26 21 19
internal_value=0 -0.00326795 0.00215238 -0.00677154 0.0164284
internal_weight=0 18.5225 15.4342 12.1957 6.19154
internal_count=138 116 98 72 40
is_linear=0
shrinkage=0.1


end of trees

feature_importances:
taskNum=120
s_view_position=97
response_time=85
scroll_time=64
scroll_length=25
s_scroll_speed=24
predicted_isAnswerCorrect=11
event_scroll=4
s_choice_left=1

parameters:
[boosting: gbdt]
[objective: binary]
[metric: binary_error]
[tree_learner: serial]
[device_type: cpu]
[data_sample_strategy: bagging]
[data: ]
[valid: ]
[num_iterations: 100]
[learning_rate: 0.1]
[num_leaves: 31]
[num_threads: 0]
[seed: 0]
[deterministic: 0]
[force_col_wise: 0]
[force_row_wise: 0]
[histogram_pool_size: -1]
[max_depth: -1]
[min_data_in_leaf: 20]
[min_sum_hessian_in_leaf: 0.001]
[bagging_fraction: 1]
[pos_bagging_fraction: 1]
[neg_bagging_fraction: 1]
[bagging_freq: 0]
[bagging_seed: 3]
[feature_fraction: 1]
[feature_fraction_bynode: 1]
[feature_fraction_seed: 2]
[extra_trees: 0]
[extra_seed: 6]
[early_stopping_round: 0]
[first_metric_only: 0]
[max_delta_step: 0]
[lambda_l1: 0]
[lambda_l2: 0]
[linear_lambda: 0]
[min_gain_to_split: 0]
[drop_rate: 0.1]
[max_drop: 50]
[skip_drop: 0.5]
[xgboost_dart_mode: 0]
[uniform_drop: 0]
[drop_seed: 4]
[top_rate: 0.2]
[other_rate: 0.1]
[min_data_per_group: 100]
[max_cat_threshold: 32]
[cat_l2: 10]
[cat_smooth: 10]
[max_cat_to_onehot: 4]
[top_k: 20]
[monotone_constraints: ]
[monotone_constraints_method: basic]
[monotone_penalty: 0]
[feature_contri: ]
[forcedsplits_filename: ]
[refit_decay_rate: 0.9]
[cegb_tradeoff: 1]
[cegb_penalty_split: 0]
[cegb_penalty_feature_lazy: ]
[cegb_penalty_feature_coupled: ]
[path_smooth: 0]
[interaction_constraints: ]
[verbosity: -1]
[saved_feature_importance_type: 0]
[use_quantized_grad: 0]
[num_grad_quant_bins: 4]
[quant_train_renew_leaf: 0]
[stochastic_rounding: 1]
[linear_tree: 0]
[max_bin: 255]
[max_bin_by_feature: ]
[min_data_in_bin: 3]
[bin_construct_sample_cnt: 200000]
[data_random_seed: 1]
[is_enable_sparse: 1]
[enable_bundle: 1]
[use_missing: 1]
[zero_as_missing: 0]
[feature_pre_filter: 0]
[pre_partition: 0]
[two_round: 0]
[header: 0]
[label_column: ]
[weight_column: ]
[group_column: ]
[ignore_column: ]
[categorical_feature: ]
[forcedbins_filename: ]
[precise_float_parser: 0]
[parser_config_file: ]
[objective_seed: 5]
[num_class: 1]
[is_unbalance: 0]
[scale_pos_weight: 1]
[sigmoid: 1]
[boost_from_average: 1]
[reg_sqrt: 0]
[alpha: 0.9]
[fair_c: 1]
[poisson_max_delta_step: 0.7]
[tweedie_variance_power: 1.5]
[lambdarank_truncation_level: 30]
[lambdarank_norm: 1]
[label_gain: ]
[lambdarank_position_bias_regularization: 0]
[eval_at: ]
[multi_error_top_k: 1]
[auc_mu_weights: ]
[num_machines: 1]
[local_listen_port: 12400]
[time_out: 120]
[machine_list_filename: ]
[machines: ]
[gpu_platform_id: -1]
[gpu_device_id: -1]
[gpu_use_dp: 0]
[num_gpu: 1]

end of parameters

pandas_categorical:[]
