tree
version=v4
num_class=1
num_tree_per_iteration=1
label_index=0
max_feature_idx=15
objective=binary sigmoid:1
feature_names=ratio_tap_position_y screen_height tap_position_x tap_position_y predicted_isAnswerCorrect s_tap_count scroll_time s_view_position response_time taskNum screen_width ratio_tap_position_x s_choice_left event_scroll s_scroll_speed scroll_length
feature_infos=none [844:844] none none [0:1] [1:1] [-0.5:18.799999999999962] [-343.99999999999989:914] [0.10000000000000001:10.399999999999981] [1:93] [390:390] none [0:1] [0:6] [-3503.3333333333576:6900.0000000000018] [0:1950]
tree_sizes=838 851 942 941 853 953 849 847 958 835 848 842 854 856 948 852 751 850 855 954 965 954 754 858 940 955 954 853 752 938 940 934 853 751 751 1038 839 961 854 851 1053 855 958 953 956 752 753 751 856 857 958 759 956 837 850 960 852 755 756 953 757 757 855 937 855 754 758 855 952 853 758 856 960 958 958 961 957 861 1054 852 752 954 962 757 961 842 945 961 960 750 756 855 756 854 851 760 851 750 860 964

Tree=0
num_leaves=7
num_cat=0
split_feature=4 15 14 7 7 15
split_gain=21.6489 2.35584 2.60234 0.948836 1.44856 2.84534
threshold=1.0000000180025095e-35 1234.3333333333323 560.68627450980637 450.00000000000006 348.83333333333337 700.66666666666799
decision_type=2 2 2 2 2 2
left_child=-1 2 3 4 -2 -6
right_child=1 -3 -4 -5 5 -7
leaf_value=0.2776475069579642 0.62796219359578465 0.67287433290832588 0.49322577565816128 0.64247226937368263 0.49322577565816128 0.63041194664919598
leaf_weight=2.5512775629758861 3.7109491825103813 2.7832118868827811 3.2470805346965781 3.0151462107896796 3.710949182510376 2.5512775629758835
leaf_count=11 16 12 14 13 16 11
internal_value=0.551177 0.58787 0.573298 0.593316 0.578454 0.549116
internal_weight=0 19.0186 16.2354 12.9883 9.97318 6.26223
internal_count=93 82 70 56 43 27
is_linear=0
shrinkage=1


Tree=1
num_leaves=7
num_cat=0
split_feature=4 15 14 15 8 15
split_gain=16.6295 2.01838 2.11573 0.830537 1.46198 1.68654
threshold=1.0000000180025095e-35 1234.3333333333323 560.68627450980637 759.33333333333223 2.6500000000000017 196.00000000000003
decision_type=2 2 2 2 2 2
left_child=-1 2 3 4 5 -2
right_child=1 -3 -4 -5 -6 -7
leaf_value=-0.23200207753144128 0.039426447077916836 0.11377312952980756 -0.051346847716275568 0.085106107887662971 0.086040542228672745 -0.060529100486881329
leaf_weight=2.6976754367351559 4.3368047922849708 2.6845023036003104 3.2954795062541953 2.9439788311719886 2.7821783423423767 2.763822928071022
leaf_count=11 19 12 14 13 12 12
internal_value=0 0.0334898 0.0201219 0.0384838 0.0245956 0.000520107
internal_weight=0 18.8068 16.1223 12.8268 9.88281 7.10063
internal_count=93 82 70 56 43 31
is_linear=0
shrinkage=0.1


Tree=2
num_leaves=8
num_cat=0
split_feature=4 15 9 9 9 7 7
split_gain=13.2519 1.73912 2.01204 3.66468 1.21689 2.06603 1.02345
threshold=1.0000000180025095e-35 1234.3333333333323 36.500000000000007 12.500000000000002 51.500000000000007 399.1666666666643 350.33333333333945
decision_type=2 2 2 2 2 2 2
left_child=-1 2 3 -2 -4 6 -6
right_child=1 -3 4 -5 5 -7 -8
leaf_value=-0.20467033386448838 0.072477233904356328 0.10677529844964653 0.11166426415941411 -0.08097640381079374 0.019828388473942964 -0.045304472758976838 0.11453565258744747
leaf_weight=2.7485680580139187 2.4822411835193696 2.5798736214637747 2.2839694917201978 4.1717814207077026 2.2555178552865982 2.5033604055643082 2.3092877119779587
leaf_count=11 11 12 10 18 10 11 10
internal_value=0 0.0305821 0.0183013 -0.0237315 0.0482075 0.0277025 0.0677398
internal_weight=0 18.586 16.0062 6.65402 9.35214 7.06817 4.56481
internal_count=93 82 70 29 41 31 20
is_linear=0
shrinkage=0.1


Tree=3
num_leaves=8
num_cat=0
split_feature=4 15 9 9 9 7 7
split_gain=10.8187 1.50292 1.65272 2.95157 1.0486 1.70123 0.883129
threshold=1.0000000180025095e-35 1234.3333333333323 36.500000000000007 12.500000000000002 51.500000000000007 399.1666666666643 350.33333333333945
decision_type=2 2 2 2 2 2 2
left_child=-1 2 3 -2 -4 6 -6
right_child=1 -3 4 -5 5 -7 -8
leaf_value=-0.18529751687781204 0.066866066758244413 0.10048582971457294 0.1042739407006012 -0.071374478132761349 0.017963237216364471 -0.040219841479800601 0.10682101659992237
leaf_weight=2.7326868772506741 2.4245737493038204 2.4728341698646537 2.2053801417350751 4.2548855245113373 2.2415105253458023 2.5359973460435867 2.232479065656662
leaf_count=11 11 12 10 18 10 11 10
internal_value=0 0.0279634 0.0166808 -0.0211946 0.0441335 0.025213 0.0623024
internal_weight=0 18.3677 15.8948 6.67946 9.21537 7.00999 4.47399
internal_count=93 82 70 29 41 31 20
is_linear=0
shrinkage=0.1


Tree=4
num_leaves=7
num_cat=0
split_feature=4 12 7 14 7 14
split_gain=8.98423 1.1791 1.61442 1.78467 0.865833 0.500345
threshold=1.0000000180025095e-35 1.0000000180025095e-35 617.00000000000011 240.90773809523799 350.33333333333036 847.77777777777794
decision_type=2 2 2 2 2 2
left_child=-1 -2 3 4 -3 -5
right_child=1 2 -4 5 -6 -7
leaf_value=-0.17087004717301085 -0.027114499260401305 0.021370135355668684 0.10758930423943816 -0.058615892179021058 0.091200125177737748 0.0058090691778283424
leaf_weight=2.6700753122568157 3.4365512877702757 3.8053681999444908 2.7140459120273599 2.2926550954580307 3.328930526971817 2.5421575903892517
leaf_count=11 16 17 13 10 15 11
internal_value=0 0.0256143 0.0379553 0.0221655 0.0539535 -0.0247411
internal_weight=0 18.1197 14.6832 11.9691 7.1343 4.83481
internal_count=93 82 66 53 32 21
is_linear=0
shrinkage=0.1


Tree=5
num_leaves=8
num_cat=0
split_feature=4 15 9 14 14 7 15
split_gain=7.54965 1.23261 1.29085 3.04078 1.56859 0.382677 0.228946
threshold=1.0000000180025095e-35 1234.3333333333323 36.500000000000007 150.81410825199643 135.79242636746184 386.83333333333127 700.66666666666799
decision_type=2 2 2 2 2 2 2
left_child=-1 2 3 -2 5 -4 -6
right_child=1 -3 4 -5 6 -7 -8
leaf_value=-0.15973856703358458 0.069139569902848377 0.091664686980239288 -0.032857462801891002 -0.071279924098046676 0.10367086910557051 0.024859373052731171 0.057908085039602965
leaf_weight=2.5753004550933865 2.4273449033498791 2.3027069717645636 2.1982343047857267 4.2288996130228043 2.2001738101243973 2.4061823487281799 2.1728903204202652
leaf_count=11 11 12 10 18 10 11 10
internal_value=0 0.023359 0.0132981 -0.0200729 0.0380407 -0.00269572 0.0809322
internal_weight=0 17.9364 15.6337 6.65624 8.97748 4.60442 4.37306
internal_count=93 82 70 29 41 21 20
is_linear=0
shrinkage=0.1


Tree=6
num_leaves=7
num_cat=0
split_feature=4 12 9 9 15 6
split_gain=6.4098 1.10186 1.41749 2.41562 1.74625 1.04835
threshold=1.0000000180025095e-35 1.0000000180025095e-35 15.500000000000002 36.500000000000007 772.66666666666754 0.75000000000000011
decision_type=2 2 2 2 2 2
left_child=-1 -2 -3 -4 5 -5
right_child=1 2 3 4 -6 -7
leaf_value=-0.1509191516970729 -0.029797604428442009 0.10263465317955472 -0.041010766127951334 0.071642040555430067 0.13562123466309536 -0.014568721190783229
leaf_weight=2.4591507166624096 3.4008565843105361 2.4581640511751148 4.2662475258111936 2.6172297596931458 1.9145116358995435 3.0593210458755493
leaf_count=11 16 12 18 12 10 14
internal_value=0 0.0213687 0.033524 0.0191966 0.0530336 0.0251796
internal_weight=0 17.7163 14.3155 11.8573 7.59106 5.67655
internal_count=93 82 66 54 36 26
is_linear=0
shrinkage=0.1


Tree=7
num_leaves=7
num_cat=0
split_feature=4 14 15 7 8 8
split_gain=5.48638 1.085 1.00081 1.35808 2.10449 0.618465
threshold=1.0000000180025095e-35 1007.0833333333335 759.33333333333223 348.83333333333337 1.0500000000000003 0.84999999999999998
decision_type=2 2 2 2 2 2
left_child=-1 2 3 -2 -5 -4
right_child=1 -3 5 4 -6 -7
leaf_value=-0.14378625401641923 0.059630026980131423 -0.041232195083916533 0.10636982123796389 0.042650390040909654 -0.076824994679492109 0.037730665905390766
leaf_weight=2.3296771645545986 3.4409805834293383 2.5134958624839774 2.0790384113788596 2.8385797739028931 3.0675397366285324 3.5614113509654999
leaf_count=11 16 12 10 13 14 17
internal_value=0 0.0195687 0.0297654 0.00969162 -0.0194031 0.0630307
internal_weight=0 17.501 14.9875 9.3471 5.90612 5.64045
internal_count=93 82 70 43 27 27
is_linear=0
shrinkage=0.1


Tree=8
num_leaves=8
num_cat=0
split_feature=4 15 8 14 6 7 13
split_gain=4.72247 0.975878 1.13123 0.880667 1.14071 1.64174 0.358864
threshold=1.0000000180025095e-35 1234.3333333333323 2.6500000000000017 798.33333333333405 2.0500000000000003 450.00000000000006 1.0000000180025095e-35
decision_type=2 2 2 2 2 2 2
left_child=-1 2 3 4 5 6 -2
right_child=1 -3 -4 -5 -6 -7 -8
leaf_value=-0.13792209522073939 -0.034336364296903732 0.08184880554683821 0.058660995267394572 -0.05712153652403016 -0.049768857454240603 0.099028586443681205 0.022722278563716083
leaf_weight=2.1928921192884472 2.1816656887531298 2.0933091342449179 3.531784623861312 2.6093648076057425 2.4401655942201614 2.2786892354488373 2.2278858125209808
leaf_count=11 10 12 17 11 11 11 10
internal_value=0 0.0178188 0.00904089 -0.00588933 0.00875545 0.0301077 -0.005508
internal_weight=0 17.3629 15.2696 11.7378 9.12841 6.68824 4.40955
internal_count=93 82 70 53 42 31 20
is_linear=0
shrinkage=0.1


Tree=9
num_leaves=7
num_cat=0
split_feature=4 12 9 9 8 6
split_gain=4.08979 0.856449 1.17623 1.8323 1.70944 1.19957
threshold=1.0000000180025095e-35 1.0000000180025095e-35 15.500000000000002 36.500000000000007 0.20000000000000004 1.25
decision_type=2 2 2 2 2 2
left_child=-1 -2 -3 -4 -5 -6
right_child=1 2 3 4 5 -7
leaf_value=-0.13303645492599106 -0.028689646558959055 0.093193873093398494 -0.03761110830779054 -0.025053257865963102 0.13621875139327191 0.036039186961024511
leaf_weight=2.0532640069723156 3.3943530172109648 2.2689082026481602 4.2615861147642118 2.3496779650449753 2.0832019001245499 2.8042897582054138
leaf_count=11 16 12 18 11 11 14
internal_value=0 0.0163006 0.0273927 0.014409 0.0450409 0.0787389
internal_weight=0 17.162 13.7677 11.4988 7.23717 4.88749
internal_count=93 82 66 54 36 25
is_linear=0
shrinkage=0.1


Tree=10
num_leaves=7
num_cat=0
split_feature=15 7 6 9 9 8
split_gain=1.19879 1.25712 3.33675 0.852916 0.853843 1.90827
threshold=1234.3333333333323 348.83333333333337 2.8500000000000001 30.500000000000004 72.500000000000014 1.2500000000000002
decision_type=2 2 2 2 2 2
left_child=1 -1 3 -3 5 -5
right_child=-2 2 -4 4 -6 -7
leaf_value=0.045123104542641519 0.07483207061568424 0.051873227753756891 -0.10728265706958587 -0.084524511706012301 0.042612507749269474 0.041835112675811491
leaf_weight=3.508762910962111 1.9389726817607869 2.981998994946478 3.4256182610988608 3.0028780549764633 2.0360991209745407 1.9853057265281675
leaf_count=17 12 13 17 14 10 10
internal_value=0 -0.00817532 -0.0220983 0.00706435 -0.0119582 -0.0342332
internal_weight=0 16.9407 13.4319 10.0063 7.02428 4.98818
internal_count=93 81 64 47 34 24
is_linear=0
shrinkage=0.1


Tree=11
num_leaves=7
num_cat=0
split_feature=9 6 6 9 6 6
split_gain=0.995198 1.69412 0.748536 3.08951 2.2371 1.20589
threshold=30.500000000000004 2.0500000000000003 1.5000000000000002 63.500000000000007 3.0000000000000013 0.55000000000000004
decision_type=2 2 2 2 2 2
left_child=1 -1 3 -2 -4 -5
right_child=2 -3 4 5 -6 -7
leaf_value=0.090484439862658 -0.11971933621797731 -0.014546794177740836 0.07214437720609175 0.060196681359165061 -0.067811296954764608 -0.038310818959219894
leaf_weight=2.8120775967836407 2.7689792215824109 3.383411169052124 2.8171335905790329 2.5438518673181534 1.9208289682865141 2.4296032041311264
leaf_count=13 13 17 15 13 10 12
internal_value=0 0.033126 -0.0159019 -0.0350599 0.0154046 0.0120744
internal_weight=0 6.19549 12.4804 7.74243 4.73796 4.97346
internal_count=93 30 63 38 25 25
is_linear=0
shrinkage=0.1


Tree=12
num_leaves=7
num_cat=0
split_feature=9 14 13 14 6 8
split_gain=0.812841 1.44769 0.624519 2.35336 2.04839 0.758782
threshold=30.500000000000004 150.81410825199643 1.0000000180025095e-35 433.75000000000097 2.8500000000000001 0.20000000000000004
decision_type=2 2 2 2 2 2
left_child=1 -1 5 4 -4 -2
right_child=2 -3 3 -5 -6 -7
leaf_value=0.096464091942250474 -0.028763986838324946 -0.005411020713099614 0.068424037217892267 -0.10752720107154519 -0.063998071199614412 0.04952112693650846
leaf_weight=2.142449930310252 2.3179633021354658 3.9976357817649841 2.6332843899726868 2.68484927713871 2.0994502007961273 2.6576622128486633
leaf_count=11 11 19 14 13 11 14
internal_value=0 0.0301361 -0.0143577 -0.0327432 0.00968133 0.0130509
internal_weight=0 6.14009 12.3932 7.41758 4.73273 4.97563
internal_count=93 30 63 38 25 25
is_linear=0
shrinkage=0.1


Tree=13
num_leaves=7
num_cat=0
split_feature=9 8 13 14 14 8
split_gain=0.666365 1.54487 0.507535 1.85911 2.08865 0.622934
threshold=30.500000000000004 1.2500000000000002 1.0000000180025095e-35 433.75000000000097 135.79242636746184 0.20000000000000004
decision_type=2 2 2 2 2 2
left_child=1 -1 5 4 -4 -2
right_child=2 -3 3 -5 -6 -7
leaf_value=0.083864615175257562 -0.025585741450019458 -0.017738834460951185 -0.072156055446236544 -0.095040785798070182 0.064264163961356743 0.045444350995073962
leaf_weight=2.70073074102402 2.3438494950532895 3.3561660349369049 1.8890762627124784 2.7311191409826279 2.7649412006139755 2.6091071665287018
leaf_count=13 11 17 10 13 15 14
internal_value=0 0.0275655 -0.0129347 -0.0295444 0.00889089 0.0118313
internal_weight=0 6.0569 12.3381 7.38514 4.65402 4.95296
internal_count=93 30 63 38 25 25
is_linear=0
shrinkage=0.1


Tree=14
num_leaves=8
num_cat=0
split_feature=9 6 6 9 9 6 7
split_gain=1.1235 1.41008 1.32247 1.04103 2.21101 0.87589 0.625688
threshold=9.5000000000000018 2.5000000000000009 1.5000000000000002 30.500000000000004 63.500000000000007 0.55000000000000004 382.33333333333036
decision_type=2 2 2 2 2 2 2
left_child=-1 2 3 -2 -5 -6 -3
right_child=1 6 -4 4 5 -7 -8
leaf_value=0.077638128806756995 0.056035948971722649 -0.021948165881002939 0.067202397549106827 -0.09617957045785655 0.05659161122634139 -0.027428046162158073 -0.10185810617844993
leaf_weight=1.7079617828130746 1.9592648595571533 2.0641030520200725 2.9600042328238478 2.8225414305925369 2.4869257807731628 2.4761395752429962 1.8653230965137479
leaf_count=9 9 10 17 13 13 12 10
internal_value=0 -0.00752904 0.00866292 -0.00911845 -0.0255147 0.0146731 -0.0598819
internal_weight=0 16.6343 12.7049 9.74487 7.78561 4.96307 3.92943
internal_count=93 84 64 47 38 25 20
is_linear=0
shrinkage=0.1


Tree=15
num_leaves=7
num_cat=0
split_feature=15 7 7 14 9 6
split_gain=0.599062 1.46261 2.11184 1.3239 1.25143 0.308636
threshold=772.66666666666754 450.00000000000006 379.83333333333582 135.79242636746184 30.500000000000004 1.0500000000000003
decision_type=2 2 2 2 2 2
left_child=1 2 3 -1 -2 -6
right_child=4 -3 -4 -5 5 -7
leaf_value=-0.026954710420973412 0.091358873788007874 0.066945792400724555 -0.082868151496474238 0.068475655595613111 -0.031371368515276866 0.024890220102409377
leaf_weight=3.7796296179294604 1.9806155338883389 1.9581039696931828 4.1088625341653824 2.3623248934745789 2.1690267026424412 1.7712859064340589
leaf_count=19 11 10 19 12 11 11
internal_value=0 -0.0122471 -0.0273745 0.00974982 0.0265143 -0.00608014
internal_weight=0 12.2089 10.2508 6.14195 5.92093 3.94031
internal_count=93 60 50 31 33 22
is_linear=0
shrinkage=0.1


Tree=16
num_leaves=6
num_cat=0
split_feature=7 6 12 7 9
split_gain=0.543757 2.1201 1.00382 1.18577 0.796371
threshold=348.83333333333337 2.8500000000000001 1.0000000180025095e-35 450.00000000000006 30.500000000000004
decision_type=2 2 2 2 2
left_child=-1 2 -2 4 -4
right_child=1 -3 3 -5 -6
leaf_value=0.036888446884749897 -0.043001507533443332 -0.074218137553166183 0.04795763701043209 0.078309343134562212 -0.029738866354191887
leaf_weight=3.3346523642540005 2.4254005402326593 3.6257444322109214 2.2104249298572505 3.1846863478422165 3.2719312980771065
leaf_count=17 12 19 10 18 17
internal_value=0 -0.00783371 0.0138651 0.0297788 0.0015875
internal_weight=0 14.7182 11.0924 8.66704 5.48236
internal_count=93 76 57 45 27
is_linear=0
shrinkage=0.1


Tree=17
num_leaves=7
num_cat=0
split_feature=14 9 8 14 8 9
split_gain=0.571624 0.808524 2.90465 0.571811 1.24374 1.13681
threshold=1007.0833333333335 33.500000000000007 1.2500000000000002 135.79242636746184 2.2000000000000011 72.500000000000014
decision_type=2 2 2 2 2 2
left_child=1 2 -1 5 -5 -3
right_child=-2 3 -4 4 -6 -7
leaf_value=0.14229820414217162 -0.043411174060255027 -0.092659812332267902 -0.01520639477569471 -0.022584088924018919 0.077855803205107821 0.0057069344554652665
leaf_weight=1.8037279769778276 2.5510119646787635 1.9413826614618281 3.33709916472435 3.3672434538602829 1.945003345608711 2.9756678640842438
leaf_count=10 13 10 17 17 11 15
internal_value=0 0.00770322 0.0400562 -0.00855607 0.0141905 -0.0331309
internal_weight=0 15.3701 5.14083 10.2293 5.31225 4.91705
internal_count=93 80 27 53 28 25
is_linear=0
shrinkage=0.1


Tree=18
num_leaves=7
num_cat=0
split_feature=9 6 6 13 9 7
split_gain=0.605287 1.69206 1.4233 0.723289 1.48896 1.30459
threshold=12.500000000000002 2.8500000000000001 1.5000000000000002 1.0000000180025095e-35 81.500000000000014 382.833333333334
decision_type=2 2 2 2 2 2
left_child=-1 2 3 4 -2 -5
right_child=1 -3 -4 5 -6 -7
leaf_value=0.049009351946882884 0.088983850960356936 -0.073445009640789746 0.069539983151880411 -0.093282689863066315 -0.031783284826247954 0.0070533349906805988
leaf_weight=2.2431537508964565 1.8459207564592341 3.0426095873117438 3.0168799906969062 2.1726507097482681 2.2841986566781998 3.2111552581191063
leaf_count=12 10 16 18 10 11 16
internal_value=0 -0.00655182 0.00969054 -0.00928781 0.0221925 -0.0334376
internal_weight=0 15.5734 12.5308 9.51393 4.13012 5.38381
internal_count=93 81 65 47 21 26
is_linear=0
shrinkage=0.1


Tree=19
num_leaves=8
num_cat=0
split_feature=9 6 6 9 9 7 7
split_gain=0.902474 0.826083 0.879379 0.664108 1.53581 0.756739 0.0991128
threshold=9.5000000000000018 2.5000000000000009 1.5000000000000002 30.500000000000004 63.500000000000007 401.50000000000006 379.83333333333582
decision_type=2 2 2 2 2 2 2
left_child=-1 2 3 -2 -5 -6 -3
right_child=1 6 -4 4 5 -7 -8
leaf_value=0.071543430527352236 0.045954632870653128 -0.029895574358420225 0.05633548655170182 -0.080366251698244739 0.050292635662270602 -0.028738452866817751 -0.062139487361649461
leaf_weight=1.6212076097726846 1.8189579844474808 1.7735861688852304 2.7004813998937598 2.7924243807792664 2.5471464395523071 2.3106631338596344 2.0612316131591797
leaf_count=9 9 9 17 13 13 12 11
internal_value=0 -0.00675452 0.00599882 -0.0083565 -0.0212698 0.0127007 -0.0472268
internal_weight=0 16.0045 12.1697 9.46919 7.65023 4.85781 3.83482
internal_count=93 84 64 47 38 25 20
is_linear=0
shrinkage=0.1


Tree=20
num_leaves=8
num_cat=0
split_feature=9 6 6 7 7 14 15
split_gain=0.759299 0.669442 0.730405 0.611136 0.583625 0.366551 0.488639
threshold=9.5000000000000018 2.5000000000000009 1.5000000000000002 382.33333333333491 382.33333333333036 847.77777777777794 1.0000000180025095e-35
decision_type=2 2 2 2 2 2 2
left_child=-1 2 3 -2 -3 6 -5
right_child=1 4 -4 5 -6 -7 -8
leaf_value=0.066969832122971557 -0.042427330008838346 -0.0052926831620799652 0.052007595972297482 -0.0067276594675692155 -0.083380912496461138 -0.022038903435984084 0.063426805107699977
leaf_weight=1.5618953257799173 3.2752333879470807 2.0099378675222392 2.6361694112420073 1.9438179880380633 1.8272095173597334 2.164932556450367 2.0293714553117752
leaf_count=9 16 10 17 10 10 11 10
internal_value=0 -0.00610099 0.00548303 -0.00754598 -0.0424775 0.0110663 0.0291049
internal_weight=0 15.8867 12.0495 9.41336 3.83715 6.13812 3.97319
internal_count=93 84 64 47 20 31 20
is_linear=0
shrinkage=0.1


Tree=21
num_leaves=8
num_cat=0
split_feature=9 8 8 14 8 9 7
split_gain=0.638269 0.56483 1.52303 0.912713 0.643802 1.04911 0.509736
threshold=9.5000000000000018 1.0500000000000003 0.65000000000000002 1007.0833333333335 2.6500000000000017 51.500000000000007 265.00000000000006
decision_type=2 2 2 2 2 2 2
left_child=-1 2 3 6 5 -3 -2
right_child=1 4 -4 -5 -6 -7 -8
leaf_value=0.062636738180205029 -0.034195594646761585 -0.0051840863675537288 0.087836457831481737 -0.065576150585129847 0.013194001505646742 -0.10611137113494387 0.033393172690321105
leaf_weight=1.5059388130903268 1.6320980042219142 2.2261478155851355 1.9929919466376302 2.1469844877719879 2.4019854813814163 1.9166453704237936 3.5274761095643044
leaf_count=9 8 12 11 11 13 10 19
internal_value=0 -0.00548948 0.0103499 -0.0107859 -0.0279958 -0.0518777 0.0120132
internal_weight=0 15.8443 9.29955 7.30656 6.54478 4.14279 5.15957
internal_count=93 84 49 38 35 22 27
is_linear=0
shrinkage=0.1


Tree=22
num_leaves=6
num_cat=0
split_feature=7 6 12 7 14
split_gain=0.427293 1.35888 0.702049 1.08903 1.12904
threshold=348.83333333333337 2.8500000000000001 1.0000000180025095e-35 450.00000000000006 346.36363636363666
decision_type=2 2 2 2 2
left_child=-1 2 -2 4 -4
right_child=1 -3 3 -5 -6
leaf_value=0.033622533854305615 -0.037283340579122991 -0.061736000966413629 0.061935810134233084 0.073073412820533895 -0.035807935184033191
leaf_weight=3.1617386937141445 2.3734548017382631 3.4347432106733313 1.785606235265728 2.9535239115357399 3.494539275765419
leaf_count=17 12 19 10 18 17
internal_value=0 -0.00706835 0.0106338 0.0244465 -0.00275357
internal_weight=0 14.0419 10.6071 8.23367 5.28015
internal_count=93 76 57 45 27
is_linear=0
shrinkage=0.1


Tree=23
num_leaves=7
num_cat=0
split_feature=15 7 6 14 13 15
split_gain=0.94608 0.5728 1.30699 0.590364 1.12009 0.968535
threshold=1234.3333333333323 348.83333333333337 2.8500000000000001 346.36363636363666 1.0000000180025095e-35 772.66666666666754
decision_type=2 2 2 2 2 2
left_child=1 -1 3 4 -3 -5
right_child=-2 2 -4 5 -6 -7
leaf_value=0.030682252429594489 0.070179718956448853 -0.024192574250603283 -0.073030353221526539 -0.068407652817977421 0.078854673150972096 0.021251367962547126
leaf_weight=3.1205095797777203 1.7446561083197583 2.0349171459674817 3.1307266801595679 2.3261996060609818 2.1900917440652847 2.4993488043546677
leaf_count=17 12 11 17 11 12 13
internal_value=0 -0.00754421 -0.0173368 0.00192848 0.0292234 -0.0219696
internal_weight=0 15.3018 12.1813 9.05056 4.22501 4.82555
internal_count=93 81 64 47 23 24
is_linear=0
shrinkage=0.1


Tree=24
num_leaves=8
num_cat=0
split_feature=8 8 6 6 8 14 8
split_gain=0.380312 2.35076 1.11241 0.832335 0.54939 1.02153 1.23654
threshold=2.6500000000000017 4.75 3.0000000000000013 1.5000000000000002 0.84999999999999998 1007.0833333333335 0.20000000000000004
decision_type=2 2 2 2 2 2 2
left_child=2 -2 3 4 5 6 -1
right_child=1 -3 -4 -5 -6 -7 -8
leaf_value=-0.021673701155255874 0.10329076900366407 -0.057852001323684898 -0.078803197642443784 0.06101227904822995 -0.054293084196982672 -0.052862465288535082 0.077648842232135501
leaf_weight=2.4467536658048648 1.9640137776732438 1.6793688386678693 1.8762361481785763 2.1084350347518912 2.0493892580270767 2.1736757904291153 2.5701525881886482
leaf_count=12 12 9 11 14 10 11 14
internal_value=0 0.0290141 -0.00747448 0.00431832 -0.00861846 0.00439927 0.0292091
internal_weight=0 3.64338 13.2246 11.3484 9.23997 7.19058 5.01691
internal_count=93 21 72 61 47 37 26
is_linear=0
shrinkage=0.1


Tree=25
num_leaves=8
num_cat=0
split_feature=15 9 9 14 9 7 7
split_gain=0.847595 0.701202 1.1023 0.592331 0.973387 0.286999 0.23614
threshold=1234.3333333333323 9.5000000000000018 36.500000000000007 135.79242636746184 60.500000000000007 382.33333333333491 382.66666666666248
decision_type=2 2 2 2 2 2 2
left_child=1 -1 6 5 -5 -4 -3
right_child=-2 2 3 4 -6 -7 -8
leaf_value=0.059309261333098245 0.067669220474991271 -0.03298661011374527 -0.047628441300730483 0.073606878220780936 -0.018495882668786035 0.0035399225593392585 -0.078609788877533518
leaf_weight=1.4370139017701173 1.6853190660476673 2.4372174590826026 2.0386322885751706 2.4879989549517632 2.1296758502721786 2.3711078017950058 2.1224565282464027
leaf_count=9 12 11 11 16 11 13 10
internal_value=0 -0.00712009 -0.0141459 0.00609701 0.031129 -0.0201153 -0.0542235
internal_weight=0 15.0241 13.5871 9.02741 4.61767 4.40974 4.55967
internal_count=93 81 72 51 27 24 21
is_linear=0
shrinkage=0.1


Tree=26
num_leaves=8
num_cat=0
split_feature=8 8 9 9 14 8 6
split_gain=0.335941 1.02754 0.732908 0.68871 0.486143 1.12216 0.271224
threshold=0.55000000000000016 1.0500000000000003 72.500000000000014 9.5000000000000018 279.75243147657073 2.6500000000000017 0.75000000000000011
decision_type=2 2 2 2 2 2 2
left_child=2 -2 -1 -3 5 -5 -4
right_child=1 3 6 4 -6 -7 -8
leaf_value=-0.065103947793852687 0.060912862250989276 0.055326652279897963 0.033504846912029269 -0.085280081108730421 0.021586097809649298 0.015751702402054875 -0.019707391467547224
leaf_weight=2.1591900363564518 2.9793029353022558 1.3889848366379736 1.9778168797492983 2.4649415984749794 1.7824473083019254 1.9843963310122488 1.8574315980076788
leaf_count=11 17 9 11 14 10 11 10
internal_value=0 0.0111178 -0.0185022 -0.0083494 -0.022542 -0.0402201 0.00773387
internal_weight=0 10.6001 5.99444 7.62077 6.23179 4.44934 3.83525
internal_count=93 61 32 44 35 25 21
is_linear=0
shrinkage=0.1


Tree=27
num_leaves=7
num_cat=0
split_feature=6 6 9 9 8 14
split_gain=0.340398 0.833861 0.64661 0.698223 0.4523 0.825348
threshold=3.7500000000000009 2.5000000000000009 30.500000000000004 39.500000000000007 0.20000000000000004 346.36363636363666
decision_type=2 2 2 2 2 2
left_child=1 2 -1 -4 -5 -6
right_child=-2 -3 3 4 5 -7
leaf_value=0.051210051616369504 0.033761234781996947 -0.061794923558500962 -0.060862217600525625 -0.029821110564832901 0.065534330706013527 -0.015476777715898574
leaf_weight=2.3970977291464832 2.5781730711460105 2.2321683019399634 1.9136986434459666 2.2954407930374146 2.4375878795981407 2.5979840978980064
leaf_count=14 16 12 9 11 15 16
internal_value=0 -0.00580716 0.00492778 -0.00707294 0.0069683 0.0237386
internal_weight=0 13.874 11.6418 9.24471 7.33101 5.03557
internal_count=93 77 65 51 42 31
is_linear=0
shrinkage=0.1


Tree=28
num_leaves=6
num_cat=0
split_feature=7 14 6 6 14
split_gain=0.367829 1.22876 0.752704 1.08028 0.472076
threshold=379.83333333333582 135.79242636746184 2.0500000000000003 1.0500000000000003 847.77777777777794
decision_type=2 2 2 2 2
left_child=1 -1 3 4 -2
right_child=2 -3 -4 -5 -6
leaf_value=-0.017837646760271605 0.0067976195373720995 0.076128372688457346 -0.051288094763636487 0.070828724569597226 -0.053827107013136227
leaf_weight=3.3892229124903706 3.4270754978060705 2.3611232936382294 3.1896073296666145 1.9446220099925993 2.0544092953205109
leaf_count=19 18 14 18 14 10
internal_value=0 0.0207453 -0.0106579 0.00679335 -0.015924
internal_weight=0 5.75035 10.6157 7.42611 5.48148
internal_count=93 33 60 42 28
is_linear=0
shrinkage=0.1


Tree=29
num_leaves=8
num_cat=0
split_feature=8 9 9 7 14 15 14
split_gain=0.504068 1.09994 0.496095 1.08327 0.976294 0.542106 0.192263
threshold=4.75 30.500000000000004 39.500000000000007 399.1666666666643 135.79242636746184 651.8333333333336 240.90773809523799
decision_type=2 2 2 2 2 2 2
left_child=1 6 -3 4 -4 -5 -1
right_child=-2 2 3 5 -6 -7 -8
leaf_value=0.079973075561190099 -0.051856579104535588 -0.05596055086591302 -0.020119207041891355 -0.0046225999226883674 0.066469023920064915 -0.081127066473316592 0.033874714498102976
leaf_weight=1.5671256631612807 1.6597522869706143 1.9106661826372136 2.2903569340705854 1.9311158657073977 3.0180061534047127 1.7798978239297865 2.14052714407444
leaf_count=10 9 9 13 10 19 11 12
internal_value=0 0.00629298 -0.00967268 0.000132946 0.0291095 -0.0413161 0.0533593
internal_weight=0 14.6377 10.93 9.01938 5.30836 3.71101 3.70765
internal_count=93 84 62 53 32 21 22
is_linear=0
shrinkage=0.1


Tree=30
num_leaves=8
num_cat=0
split_feature=8 9 9 7 14 15 6
split_gain=0.40433 0.911178 0.404903 0.877883 0.808565 0.431398 0.12437
threshold=4.75 30.500000000000004 39.500000000000007 399.1666666666643 135.79242636746184 651.8333333333336 0.90000000000000013
decision_type=2 2 2 2 2 2 2
left_child=1 6 -3 4 -4 -5 -1
right_child=-2 2 3 5 -6 -7 -8
leaf_value=0.026097227553222468 -0.046072183088434519 -0.050649608052439635 -0.018031091417304818 -0.0041525484697288702 0.060995115890388175 -0.072177376560593878 0.064017198159218594
leaf_weight=1.4229460507631331 1.6801657453179348 1.9004582911729802 2.2995225042104703 1.934548616409302 2.9629610627889633 1.7994325160980222 2.2055827789008617
leaf_count=7 9 9 13 10 19 11 15
internal_value=0 0.00574332 -0.00870942 0.00015024 0.0264634 -0.0369342 0.0491467
internal_weight=0 14.5255 10.8969 8.99646 5.26248 3.73398 3.62853
internal_count=93 84 62 53 32 21 22
is_linear=0
shrinkage=0.1


Tree=31
num_leaves=8
num_cat=0
split_feature=15 7 7 8 15 9 6
split_gain=0.423208 0.915791 2.42803 0.918131 0.700552 0.516239 0.209065
threshold=772.66666666666754 450.00000000000006 382.66666666666248 2.6500000000000017 651.8333333333336 45.500000000000007 1.25
decision_type=2 2 2 2 2 2 2
left_child=1 2 3 4 -1 6 -2
right_child=5 -3 -4 -5 -6 -7 -8
leaf_value=-0.045676262251176603 0.024004035456270532 0.056481414732619639 -0.12099478741457306 0.06349881706993725 0.028190196062402553 -0.016491113502527393 0.07548500709467082
leaf_weight=3.3457024544477481 1.6160559207200997 1.7162775844335545 1.9889643937349317 1.8961431533098219 2.0835065692663193 1.9324588924646375 1.5410841591656206
leaf_count=18 8 10 9 12 11 13 12
internal_value=0 -0.010643 -0.0230115 0.00359275 -0.0173294 0.0242165 0.0491333
internal_weight=0 11.0306 9.31432 7.32535 5.42921 5.0896 3.15714
internal_count=93 60 50 41 29 33 20
is_linear=0
shrinkage=0.1


Tree=32
num_leaves=7
num_cat=0
split_feature=9 9 9 7 15 15
split_gain=0.346349 0.466093 0.693721 1.20167 0.852197 0.301171
threshold=9.5000000000000018 36.500000000000007 51.500000000000007 399.1666666666643 651.8333333333336 772.66666666666754
decision_type=2 2 2 2 2 2
left_child=-1 5 -3 4 -4 -2
right_child=1 2 3 -5 -6 -7
leaf_value=0.050408535532226822 -0.048852782183477335 0.056252267289134072 -0.0047742579624600948 -0.056076292714986625 0.08804262492741316 0.00073300103306643452
leaf_weight=1.2736512348055864 2.9880267381668082 2.3457340225577337 2.9211058765649796 2.9137282371520996 1.4957120642066 2.0758665576577187
leaf_count=9 14 15 16 15 11 13
internal_value=0 -0.00394498 0.00891893 -0.00622747 0.0266573 -0.0285258
internal_weight=0 14.7402 9.67628 7.33055 4.41682 5.06389
internal_count=93 84 57 42 27 27
is_linear=0
shrinkage=0.1


Tree=33
num_leaves=6
num_cat=0
split_feature=7 6 12 7 14
split_gain=0.323691 0.851235 0.591577 1.00944 0.732953
threshold=348.83333333333337 2.8500000000000001 1.0000000180025095e-35 450.00000000000006 346.36363636363666
decision_type=2 2 2 2 2
left_child=-1 2 -2 4 -4
right_child=1 -3 3 -5 -6
leaf_value=0.030340209655268 -0.036678095971151813 -0.051488869440587774 0.04986727131224792 0.07018830709009341 -0.033009956028658034
leaf_weight=2.940243288874627 2.2688518017530415 3.1673841848969451 1.586886070668698 2.7280017547309399 3.2578325718641281
leaf_count=17 12 19 10 18 17
internal_value=0 -0.00639833 0.00811348 0.0215334 -0.00586355
internal_weight=0 13.009 9.84157 7.57272 4.84472
internal_count=93 76 57 45 27
is_linear=0
shrinkage=0.1


Tree=34
num_leaves=6
num_cat=0
split_feature=15 7 6 9 7
split_gain=0.785799 0.439955 0.920493 0.445116 0.720864
threshold=1234.3333333333323 348.83333333333337 3.0000000000000013 36.500000000000007 399.1666666666643
decision_type=2 2 2 2 2
left_child=1 -1 3 -3 -5
right_child=-2 2 -4 4 -6
leaf_value=0.027632328705641515 0.067252608443031492 -0.029483673022975221 -0.072509688125557442 0.059277734651478703 -0.014154831813516204
leaf_weight=2.9073431789875022 1.5809168405830867 3.5000763610005361 2.296013005077838 2.2738630995154381 3.2440299689769745
leaf_count=17 12 18 14 14 18
internal_value=0 -0.0070648 -0.0159809 -0.00158842 0.0161059
internal_weight=0 14.2213 11.314 9.01797 5.51789
internal_count=93 81 64 50 32
is_linear=0
shrinkage=0.1


Tree=35
num_leaves=9
num_cat=0
split_feature=15 7 7 9 15 15 6 6
split_gain=0.301799 0.71909 1.71192 0.46904 0.434397 0.790094 0.582237 0.199754
threshold=772.66666666666754 450.00000000000006 382.66666666666248 45.500000000000007 412.50000000000119 196.00000000000003 2.2500000000000013 1.25
decision_type=2 2 2 2 2 2 2 2
left_child=1 2 4 7 5 -1 -6 -2
right_child=3 -3 -4 -5 6 -7 -8 -9
leaf_value=0.025404296796889506 0.020741023840053798 0.051472761888553077 -0.10146776229810915 -0.018723518802976975 -0.012935707435566239 -0.070800797526676451 0.066350582508421047 0.072180229265825152
leaf_weight=1.707058466970919 1.5847277268767368 1.6649385020136822 2.0107104629278183 1.844965800642967 1.8509437069296839 1.7075617685914037 1.8538496866822241 1.4417556822299955
leaf_count=9 8 10 9 13 10 11 11 12
internal_value=0 -0.00896638 -0.0199879 0.0210186 0.00302421 -0.0227053 0.0267385 0.0452456
internal_weight=0 10.7951 9.13012 4.87145 7.11941 3.41462 3.70479 3.02648
internal_count=93 60 50 33 41 20 21 20
is_linear=0
shrinkage=0.1


Tree=36
num_leaves=7
num_cat=0
split_feature=8 8 8 8 9 7
split_gain=0.261008 1.10232 0.589963 0.971229 0.728921 0.599718
threshold=2.6500000000000017 4.75 1.0500000000000003 0.55000000000000016 51.500000000000007 399.1666666666643
decision_type=2 2 2 2 2 2
left_child=2 -2 3 5 -4 -1
right_child=1 -3 4 -5 -6 -7
leaf_value=0.01490515651696141 0.086973758322318004 -0.030497924918902627 0.00036229479459159774 0.057885769959802151 -0.088715582727590142 -0.048946797050398345
leaf_weight=3.1901014149188978 1.5340071320533764 1.6667266860604284 2.049706175923347 2.6945992633700371 1.6647182814776895 2.7295400053262711
leaf_count=18 12 9 13 17 10 14
internal_value=0 0.0258024 -0.00624708 0.00811745 -0.0395603 -0.0145369
internal_weight=0 3.20073 12.3287 8.61424 3.71442 5.91964
internal_count=93 21 72 49 23 32
is_linear=0
shrinkage=0.1


Tree=37
num_leaves=8
num_cat=0
split_feature=15 14 15 9 9 9 9
split_gain=0.241503 0.676892 0.415651 0.298994 1.06041 0.270875 0.136964
threshold=772.66666666666754 346.36363636363666 1234.3333333333323 81.500000000000014 57.500000000000007 36.500000000000007 33.500000000000007
decision_type=2 2 2 2 2 2 2
left_child=1 3 5 4 6 -2 -1
right_child=2 -3 -4 -5 -6 -7 -8
leaf_value=0.0073033128070740978 -0.029612767740681407 -0.056883504659998751 0.062729035932386421 -0.025620266597714089 0.084946079125784321 0.027738942598625079 -0.027947992704672592
leaf_weight=2.4027328938245756 1.6420927643775951 2.2405724525451651 1.4948521405458448 2.3150577694177628 1.6537647582590578 1.6520328298211095 2.0362835302948952
leaf_count=14 9 11 12 11 12 12 12
internal_value=0 -0.00804301 0.0189956 0.0049723 0.0165965 -0.000850383 -0.00886731
internal_weight=0 10.6484 4.78898 8.40784 6.09278 3.29413 4.43902
internal_count=93 60 33 49 38 21 26
is_linear=0
shrinkage=0.1


Tree=38
num_leaves=7
num_cat=0
split_feature=9 8 8 7 14 7
split_gain=0.231172 0.336797 0.842572 0.478435 0.470795 0.616417
threshold=12.500000000000002 1.0500000000000003 0.55000000000000016 399.1666666666643 135.79242636746184 386.83333333333127
decision_type=2 2 2 2 2 2
left_child=-1 2 3 -2 -3 -6
right_child=1 4 -4 -5 5 -7
leaf_value=0.033877566522018059 0.013527735257342625 -0.07645040733728764 0.054698112178747441 -0.04364825654120208 0.030437130101371231 -0.051573033256580803
leaf_weight=1.8124757111072547 3.1326024010777456 1.3027381375432003 2.6538560390472412 2.7467617243528366 2.0320343002676968 1.6695228219032285
leaf_count=12 18 8 17 14 13 11
internal_value=0 -0.00415153 0.00792744 -0.0131841 -0.0247483 -0.00655212
internal_weight=0 13.5375 8.53322 5.87936 5.0043 3.70156
internal_count=93 81 49 32 32 24
is_linear=0
shrinkage=0.1


Tree=39
num_leaves=7
num_cat=0
split_feature=14 9 14 8 7 8
split_gain=0.242998 1.00886 0.845799 0.842265 0.404123 0.263219
threshold=150.81410825199643 33.500000000000007 279.75243147657073 0.55000000000000016 365.1666666666643 1.2500000000000002
decision_type=2 2 2 2 2 2
left_child=1 -1 -2 -4 -3 -5
right_child=2 4 3 5 -6 -7
leaf_value=0.083024526128330278 -0.057784900179098132 -0.03828187427619234 -0.037078500417089551 0.059881584946950353 0.019785462069378604 0.006056678676535204
leaf_weight=1.6318666785955436 2.644759424030779 2.2970665097236633 2.3669627532362938 2.3253313601017003 2.5061620846390724 1.4911891296505926
leaf_count=11 18 13 13 14 14 10
internal_value=0 0.0150945 -0.0104567 0.00978619 -0.0079843 0.0388511
internal_weight=0 6.4351 8.82824 6.18348 4.80323 3.81652
internal_count=93 38 55 37 27 24
is_linear=0
shrinkage=0.1


Tree=40
num_leaves=9
num_cat=0
split_feature=15 7 7 15 15 15 6 9
split_gain=0.227289 0.6888 1.20649 0.352985 0.307373 0.627339 0.479059 0.218863
threshold=772.66666666666754 450.00000000000006 382.66666666666248 1234.3333333333323 412.50000000000119 196.00000000000003 2.2500000000000013 36.500000000000007
decision_type=2 2 2 2 2 2 2 2
left_child=1 2 4 7 5 -1 -6 -2
right_child=3 -3 -4 -5 6 -7 -8 -9
leaf_value=0.022280584199446486 -0.025574475236285133 0.051468132475136034 -0.08736893292243772 0.059927414309772165 -0.014380014259785027 -0.064966351464856867 0.05920930593563193 0.026293621414195979
leaf_weight=1.6630129963159546 1.6249142512679111 1.6484315171837796 1.9950387626886366 1.4351718258112667 1.8156283199787142 1.6338140666484831 1.725181460380554 1.6291901245713232
leaf_count=9 9 10 9 12 10 11 11 12
internal_value=0 -0.00787271 -0.0189474 0.0186142 0.00101614 -0.0209565 0.0214748 0.00039365
internal_weight=0 10.4811 8.83268 4.68928 6.83764 3.29683 3.54081 3.2541
internal_count=93 60 50 33 41 20 21 21
is_linear=0
shrinkage=0.1


Tree=41
num_leaves=7
num_cat=0
split_feature=9 9 9 7 15 14
split_gain=0.206287 0.408003 0.558876 0.862721 0.68159 0.189727
threshold=12.500000000000002 36.500000000000007 51.500000000000007 399.1666666666643 651.8333333333336 279.75243147657073
decision_type=2 2 2 2 2 2
left_child=-1 5 -3 4 -4 -2
right_child=1 2 3 -5 -6 -7
leaf_value=0.032605080276055118 -0.059438880050551604 0.052533559299443658 -0.0045690946040397298 -0.04807443313824844 0.082684279693139337 -0.014497867917158475
leaf_weight=1.7479737251997001 1.4229436442255963 2.1479266732931119 2.7773113548755646 2.8508897572755814 1.3211621120572088 2.7642833963036537
leaf_count=12 8 15 16 15 11 16
internal_value=0 -0.00393853 0.00795103 -0.00582864 0.0235574 -0.0297702
internal_weight=0 13.2845 9.09729 6.94936 4.09847 4.18723
internal_count=93 81 57 42 27 24
is_linear=0
shrinkage=0.1


Tree=42
num_leaves=8
num_cat=0
split_feature=14 8 15 7 7 7 7
split_gain=0.202231 0.915356 0.395166 0.42134 0.381185 0.278257 0.0921579
threshold=150.81410825199643 3.5000000000000022 700.66666666666799 386.83333333333127 365.1666666666643 617.00000000000011 265.00000000000006
decision_type=2 2 2 2 2 2 2
left_child=4 2 -2 -4 6 -5 -1
right_child=1 -3 3 5 -6 -7 -8
leaf_value=-0.026712054578987388 0.041356370176801646 -0.086762216671209189 0.028001777094696451 -0.055858296019063225 0.039477590056766591 0.0013120601312628431 0.0069302518289521362
leaf_weight=1.6188831217587005 2.0522085651755315 1.3056821525096891 1.8670990169048307 1.9529096186161043 3.0323251634836197 1.5093010459095237 1.6382565908133981
leaf_count=9 13 8 12 11 18 11 11
internal_value=0 -0.00958143 0.00407072 -0.0102872 0.0139628 -0.0309357 -0.00979085
internal_weight=0 8.6872 7.38152 5.32931 6.28946 3.46221 3.25714
internal_count=93 55 47 34 38 22 20
is_linear=0
shrinkage=0.1


Tree=43
num_leaves=8
num_cat=0
split_feature=15 14 8 14 7 8 6
split_gain=0.22774 0.645876 0.316155 0.497635 0.172148 0.512235 0.424778
threshold=772.66666666666754 346.36363636363666 1.3500000000000003 944.95833333333405 265.00000000000006 1.9500000000000008 3.7500000000000009
decision_type=2 2 2 2 2 2 2
left_child=1 4 3 -2 -1 -6 -7
right_child=2 -3 -4 -5 5 6 -8
leaf_value=-0.021164786921833444 -0.034505634363501757 -0.056096363101967521 0.062483938807510533 0.042271705730182345 0.041569075982524573 -0.04903470076920384 0.025968695229877672
leaf_weight=1.9136484228074531 1.72581121698022 2.1947837918996802 1.2176283523440359 1.6525722593069074 3.1341601759195328 1.7111132964491846 1.3514859825372694
leaf_count=11 12 11 11 10 18 11 9
internal_value=0 -0.00797121 0.0187965 0.00305082 0.0050521 0.0131482 -0.0159367
internal_weight=0 10.3052 4.59601 3.37838 8.11041 6.19676 3.0626
internal_count=93 60 33 22 49 38 20
is_linear=0
shrinkage=0.1


Tree=44
num_leaves=8
num_cat=0
split_feature=9 8 9 7 15 14 15
split_gain=0.236035 0.693723 0.384372 0.565043 0.568097 0.447385 0.30163
threshold=30.500000000000004 1.2500000000000002 39.500000000000007 399.1666666666643 700.66666666666799 135.79242636746184 651.8333333333336
decision_type=2 2 2 2 2 2 2
left_child=1 -1 -2 4 5 -4 -5
right_child=2 -3 3 6 -6 -7 -8
leaf_value=0.063412406522285455 -0.050947306440889621 -0.01461810352709262 -0.030933175858117608 -0.0012955018267726754 0.081650625671259691 0.039417148619013624 -0.059550176000226489
leaf_weight=1.9989676959812648 1.7472078651189793 2.6494591236114502 1.8799361847341045 1.8252217397093775 1.2260120213031767 1.741214647889137 1.7324736565351484
leaf_count=13 9 17 11 10 11 11 11
internal_value=0 0.0189374 -0.00827056 0.000601114 0.0228146 0.00289447 -0.0296635
internal_weight=0 4.64843 10.1521 8.40486 4.84716 3.62115 3.5577
internal_count=93 30 63 54 33 22 21
is_linear=0
shrinkage=0.1


Tree=45
num_leaves=6
num_cat=0
split_feature=8 8 8 7 7
split_gain=0.239725 0.476266 0.613268 0.489505 0.378328
threshold=2.9500000000000015 1.0500000000000003 0.55000000000000016 382.33333333333036 399.1666666666643
decision_type=2 2 2 2 2
left_child=1 2 4 -3 -1
right_child=-2 3 -4 -5 -6
leaf_value=0.013721164625107286 0.027589283808068701 -0.072422334362567883 0.04873462999820527 -0.00050324524020395106 -0.037719730484461381
leaf_weight=3.057997561991213 2.636539153754712 1.8210864886641496 2.5334261506795883 1.9703341126441953 2.6850996762514114
leaf_count=18 18 13 17 13 14
internal_value=0 -0.00569569 0.00775007 -0.0350473 -0.0103293
internal_weight=0 12.0679 8.27652 3.79142 5.7431
internal_count=93 75 49 26 32
is_linear=0
shrinkage=0.1


Tree=46
num_leaves=6
num_cat=0
split_feature=7 6 12 7 9
split_gain=0.234152 0.543205 0.44789 0.89379 0.691049
threshold=348.83333333333337 2.8500000000000001 1.0000000180025095e-35 450.00000000000006 30.500000000000004
decision_type=2 2 2 2 2
left_child=-1 2 -2 4 -4
right_child=1 -3 3 -5 -6
leaf_value=0.026551469623821745 -0.034210079044806323 -0.044102741049051458 0.03737572100933842 0.066195604134177452 -0.042247739912085198
leaf_weight=2.7504498437047014 2.1146066375076744 2.8266354091465464 1.8926257565617568 2.5008928626775742 2.5702687278389931
leaf_count=17 12 19 10 18 17
internal_value=0 -0.00582148 0.00609772 0.0183375 -0.008481
internal_weight=0 11.905 9.07839 6.96379 4.46289
internal_count=93 76 57 45 27
is_linear=0
shrinkage=0.1


Tree=47
num_leaves=6
num_cat=0
split_feature=8 6 9 7 9
split_gain=0.227594 0.724891 0.649835 0.356211 0.490688
threshold=2.9500000000000015 2.8500000000000001 30.500000000000004 450.00000000000006 63.500000000000007
decision_type=2 2 2 2 2
left_child=1 2 -1 4 -4
right_child=-2 -3 3 -5 -6
leaf_value=0.055887896881643667 0.026935049007640901 -0.066370660514238719 -0.05898588467124042 0.020986513823628001 0.0020885717893013461
leaf_weight=1.9774057827889908 2.620861418545247 1.6858761273324478 2.2239436060190183 2.8087746948003769 3.220370214432478
leaf_count=13 18 13 13 17 19
internal_value=0 -0.00561317 0.00439902 -0.0079375 -0.0228597
internal_weight=0 11.9164 10.2305 8.25309 5.44431
internal_count=93 75 62 49 32
is_linear=0
shrinkage=0.1


Tree=48
num_leaves=7
num_cat=0
split_feature=14 14 14 9 9 7
split_gain=0.261491 0.346767 0.624605 0.817086 0.265656 0.205864
threshold=1007.0833333333335 279.75243147657073 150.81410825199643 33.500000000000007 54.500000000000007 365.1666666666643
decision_type=2 2 2 2 2 2
left_child=1 2 3 -1 -3 -5
right_child=-2 4 -4 5 -6 -7
leaf_value=0.077536303787352642 -0.030457258706883029 0.057178045186060726 -0.046189515982645736 -0.02996427894057855 0.0017944221777966764 0.012577235551065586
leaf_weight=1.4752257540822009 2.3277248069643983 1.9536175653338426 2.5489363372325897 2.2129737287759781 1.5557952001690862 2.3406470790505409
leaf_count=11 13 15 18 13 9 14
internal_value=0 0.00614484 -0.00468908 0.0128569 0.0326253 -0.00809714
internal_weight=0 12.0872 8.57778 6.02885 3.50941 4.55362
internal_count=93 80 56 38 24 27
is_linear=0
shrinkage=0.1


Tree=49
num_leaves=7
num_cat=0
split_feature=7 6 9 7 6 8
split_gain=0.229764 0.390828 0.336359 0.755857 0.432856 0.080512
threshold=348.83333333333337 3.0000000000000013 36.500000000000007 625.33333333333223 0.75000000000000011 0.65000000000000002
decision_type=2 2 2 2 2 2
left_child=-1 2 5 4 -4 -2
right_child=1 -3 3 -5 -6 -7
leaf_value=0.026413491058939049 -0.037055860891243783 -0.043390569215869694 -0.0014134721702797194 -0.040545997644124789 0.063792136944210917 -0.0062750353915949552
leaf_weight=2.7171107716858396 1.7395212594419702 2.2424359247088423 1.633272163569927 1.6356472074985502 2.7027629353106022 1.6613464411348102
leaf_count=17 10 16 11 10 17 12
internal_value=0 -0.00588873 0.0030838 0.0173799 0.0392309 -0.0220192
internal_weight=0 11.615 9.37255 5.97168 4.33604 3.40087
internal_count=93 76 60 38 28 22
is_linear=0
shrinkage=0.1


Tree=50
num_leaves=8
num_cat=0
split_feature=15 14 9 9 9 9 7
split_gain=0.231658 0.642936 0.387493 0.317797 0.870401 0.128136 1.42507e-06
threshold=772.66666666666754 346.36363636363666 45.500000000000007 81.500000000000014 57.500000000000007 18.500000000000004 505.16666666666612
decision_type=2 2 2 2 2 2 2
left_child=1 3 6 4 5 -1 -2
right_child=2 -3 -4 -5 -6 -7 -8
leaf_value=-0.026803877328689087 0.043656372467686097 -0.056573163227691653 -0.017437895615665704 -0.026118530693036147 0.0829518997091927 0.0094584178211556038 0.043508956475080116
leaf_weight=1.7245457842946037 1.2366502769291412 2.1524166762828827 1.7213354185223577 2.2856741547584534 1.5076775178313253 2.2403869554400444 1.3960578273981807
leaf_count=11 8 11 13 11 12 15 12
internal_value=0 -0.00821705 0.019456 0.00519861 0.0182784 -0.00631385 0.0435782
internal_weight=0 9.9107 4.35404 7.75828 5.47261 3.96493 2.63271
internal_count=93 60 33 49 38 26 20
is_linear=0
shrinkage=0.1


Tree=51
num_leaves=6
num_cat=0
split_feature=15 7 6 9 13
split_gain=0.487344 0.304861 0.452916 0.361562 0.502028
threshold=1234.3333333333323 348.83333333333337 3.0000000000000013 36.500000000000007 1.0000000180025095e-35
decision_type=2 2 2 2 2
left_child=1 -1 3 -3 -5
right_child=-2 2 -4 4 -6
leaf_value=0.02421359274304772 0.057511117767132663 -0.029812886066534545 -0.056054268074905135 -0.019660868618859944 0.043638900680739584
leaf_weight=2.6851576231420031 1.3446672242134816 3.1355338841676694 2.0203868634998789 2.3941841125488281 2.6284255236387253
leaf_count=17 12 18 14 14 18
internal_value=0 -0.00575911 -0.0136661 -0.00316855 0.0134651
internal_weight=0 12.8637 10.1785 8.15814 5.02261
internal_count=93 81 64 50 32
is_linear=0
shrinkage=0.1


Tree=52
num_leaves=8
num_cat=0
split_feature=6 9 7 7 8 6 14
split_gain=0.236652 0.390781 0.44851 0.50165 0.252546 0.225111 0.0889494
threshold=3.7500000000000009 36.500000000000007 625.33333333333223 399.333333333334 1.2500000000000002 0.55000000000000004 380.29365079364965
decision_type=2 2 2 2 2 2 2
left_child=1 6 3 4 5 -3 -1
right_child=-2 2 -4 -5 -6 -7 -8
leaf_value=-0.048264918214409147 0.031427214572358642 0.013338236792804201 -0.039019500303902693 0.067289645422124914 0.035690316112980673 -0.039950057525690481 -0.01803554369103029
leaf_weight=1.6753277182579034 2.0730011388659486 1.5924585908651336 1.6446292847394941 1.6366286575794218 1.5855471342802046 1.5785780772566793 2.3231809847056866
leaf_count=10 16 10 10 10 12 10 15
internal_value=0 -0.00515429 0.00755433 0.0195353 0.00310412 -0.0131893 -0.0307013
internal_weight=0 12.0364 8.03784 6.39321 4.75658 3.17104 3.99851
internal_count=93 77 52 42 32 20 25
is_linear=0
shrinkage=0.1


Tree=53
num_leaves=7
num_cat=0
split_feature=8 8 8 9 8 7
split_gain=0.22923 0.780871 0.375092 0.623979 0.596029 0.332761
threshold=2.6500000000000017 4.75 1.0500000000000003 51.500000000000007 0.55000000000000016 399.1666666666643
decision_type=2 2 2 2 2 2
left_child=2 -2 4 -4 5 -1
right_child=1 -3 3 -5 -6 -7
leaf_value=0.010488165272062797 0.08166816007989372 -0.024622103829746039 0.0049048674430591547 -0.082830092158464819 0.046846725002509776 -0.038448939823742562
leaf_weight=2.9621723182499391 1.319430559873582 1.4516018256545065 1.7990984693169587 1.4754274971783159 2.4329194575548172 2.6171288043260574
leaf_count=18 12 9 13 10 17 14
internal_value=0 0.0259881 -0.00611064 -0.0346265 0.00554356 -0.0124672
internal_weight=0 2.77103 11.2867 3.27453 8.01222 5.5793
internal_count=93 21 72 23 49 32
is_linear=0
shrinkage=0.1


Tree=54
num_leaves=7
num_cat=0
split_feature=9 6 9 9 7 7
split_gain=0.218078 0.408612 0.395131 0.374449 0.384249 0.449966
threshold=12.500000000000002 2.8500000000000001 30.500000000000004 39.500000000000007 399.1666666666643 265.00000000000006
decision_type=2 2 2 2 2 2
left_child=-1 2 -2 -4 5 -5
right_child=1 -3 3 4 -6 -7
leaf_value=0.034708223859376955 0.043277531649241058 -0.044749408036396432 -0.048366777294250485 -0.021357994323111293 -0.019880816346318862 0.055393316623628279
leaf_weight=1.6198077909648425 2.0389685407280913 2.0786635875701895 1.657751664519308 1.1760624945163729 3.2162091434001923 2.1792953945696354
leaf_count=12 14 16 9 6 19 17
internal_value=0 -0.00431672 0.00386828 -0.0058961 0.0048176 0.0284918
internal_weight=0 12.347 10.2683 8.22932 6.57157 3.35536
internal_count=93 81 65 51 42 23
is_linear=0
shrinkage=0.1


Tree=55
num_leaves=8
num_cat=0
split_feature=15 14 8 9 7 9 12
split_gain=0.481432 0.279897 0.520192 0.368162 0.30462 0.771999 0.170591
threshold=1234.3333333333323 193.60504920838693 2.6500000000000017 36.500000000000007 399.333333333334 66.500000000000014 1.0000000180025095e-35
decision_type=2 2 2 2 2 2 2
left_child=1 2 4 -3 5 -1 -5
right_child=-2 3 -4 6 -6 -7 -8
leaf_value=-0.072202343651452214 0.057632894196794876 -0.047779804611522168 0.057234300622461057 0.027786482851383909 0.025766579105818282 0.022974706892832521 -0.020824063337483472
leaf_weight=1.72361722961068 1.3206698205322034 2.8318939805030823 1.6242126040160654 1.4134681299328804 1.7936670705676077 1.6856907680630682 1.4755860045552254
leaf_count=12 12 15 13 9 11 10 11
internal_value=0 -0.00584177 0.00782993 -0.0221571 -0.00759263 -0.0251432 0.00295862
internal_weight=0 12.5481 6.82719 5.72095 5.20298 3.40931 2.88905
internal_count=93 81 46 35 33 22 20
is_linear=0
shrinkage=0.1


Tree=56
num_leaves=7
num_cat=0
split_feature=6 9 9 7 7 7
split_gain=0.211716 0.322166 0.435429 0.639015 0.25867 0.0860279
threshold=3.7500000000000009 36.500000000000007 48.500000000000007 399.1666666666643 350.33333333333036 382.66666666666248
decision_type=2 2 2 2 2 2
left_child=1 5 -3 4 -4 -1
right_child=-2 2 3 -5 -6 -7
leaf_value=-0.012800413263151803 0.030712328334731011 0.053641655608532096 -0.0062656369012921839 -0.041068651167033149 0.048202409712735539 -0.0425021688347774
leaf_weight=1.8659662455320343 1.9501793086528785 1.5848629921674726 1.6086410470306876 2.7563211023807526 1.9037120677530763 2.042654637247324
leaf_count=10 16 12 10 15 15 15
internal_value=0 -0.0048632 0.0068123 -0.00502723 0.0232563 -0.0283226
internal_weight=0 11.7622 7.85354 6.26867 3.51235 3.90862
internal_count=93 77 52 40 25 25
is_linear=0
shrinkage=0.1


Tree=57
num_leaves=6
num_cat=0
split_feature=12 15 9 9 6
split_gain=0.22281 0.445568 0.574099 0.955495 0.121925
threshold=1.0000000180025095e-35 832.3333333333386 30.500000000000004 63.500000000000007 0.75000000000000011
decision_type=2 2 2 2 2
left_child=-1 2 -2 -4 -5
right_child=1 -3 3 4 -6
leaf_value=-0.023643901826680504 0.034648351911338991 0.05596885571308538 -0.067615556443315725 0.030966317724793465 -0.0055641377950356027
leaf_weight=3.0477341897785655 2.9529169574379903 1.5831003021448857 2.4348588027060032 1.8821273222565653 1.7756104245781896
leaf_count=19 19 15 19 12 9
internal_value=0 0.00702693 -0.00153864 -0.0190775 0.013233
internal_weight=0 10.6286 9.04551 6.0926 3.65774
internal_count=93 74 59 40 21
is_linear=0
shrinkage=0.1


Tree=58
num_leaves=6
num_cat=0
split_feature=12 7 9 7 6
split_gain=0.180853 0.542415 0.673937 0.585806 0.351079
threshold=1.0000000180025095e-35 450.00000000000006 30.500000000000004 365.1666666666643 1.0500000000000003
decision_type=2 2 2 2 2
left_child=-1 2 -2 -4 -3
right_child=1 4 3 -5 -6
leaf_value=-0.021247776240785932 0.029837162890355751 0.071495920117899001 0.00031451629111845349 -0.071638214025399855 0.0032771480105861835
leaf_weight=3.0520450323820105 2.8654993660748005 1.7319155931472781 2.5183493904769421 2.0547097064554691 1.3365837372839449
leaf_count=19 18 11 18 14 13
internal_value=0 0.0064052 -0.00818778 -0.0320144 0.041781
internal_weight=0 10.5071 7.43856 4.57306 3.0685
internal_count=93 74 50 32 24
is_linear=0
shrinkage=0.1


Tree=59
num_leaves=8
num_cat=0
split_feature=15 14 9 9 9 9 14
split_gain=0.191977 0.455 0.33165 0.308669 0.650372 0.166656 0.0666232
threshold=772.66666666666754 346.36363636363666 45.500000000000007 81.500000000000014 57.500000000000007 18.500000000000004 798.33333333333405
decision_type=2 2 2 2 2 2 2
left_child=1 3 6 4 5 -1 -2
right_child=2 -3 -4 -5 -6 -7 -8
leaf_value=-0.027951802247678105 0.025145792361539215 -0.048752154614231831 -0.016632129039029799 -0.026590856095609874 0.076852623316934598 0.014693391416650096 0.058440734918124154
leaf_weight=1.6213340014219269 1.1856491677463066 2.0918872803449631 1.6091271080076692 2.2675802111625671 1.363877799361944 2.1076618880033493 1.2187781725078819
leaf_count=11 11 11 13 11 12 15 9
internal_value=0 -0.00759746 0.0185066 0.00409896 0.0177635 -0.00384836 0.0420226
internal_weight=0 9.45234 4.01355 7.36045 5.09287 3.729 2.40443
internal_count=93 60 33 49 38 26 20
is_linear=0
shrinkage=0.1


Tree=60
num_leaves=6
num_cat=0
split_feature=12 7 9 9 6
split_gain=0.173548 0.425021 0.58701 0.512825 0.328924
threshold=1.0000000180025095e-35 450.00000000000006 30.500000000000004 66.500000000000014 1.0500000000000003
decision_type=2 2 2 2 2
left_child=-1 2 -2 -4 -3
right_child=1 4 3 -5 -6
leaf_value=-0.020889267068825788 0.029129657822193119 0.067707567159747059 -0.066364090838080411 0.0011847937274632465 0.0010702144077251916
leaf_weight=3.0264122374355784 2.8383442834019661 1.6654559299349787 2.0218520909547806 2.530669629573822 1.3340723011642692
leaf_count=19 18 11 16 16 13
internal_value=0 0.00632234 -0.00656216 -0.0288148 0.0380699
internal_weight=0 10.3904 7.39087 4.55252 2.99953
internal_count=93 74 50 32 24
is_linear=0
shrinkage=0.1


Tree=61
num_leaves=6
num_cat=0
split_feature=8 8 14 14 7
split_gain=0.179851 0.593191 0.428065 0.513366 0.287163
threshold=0.55000000000000016 0.84999999999999998 150.81410825199643 279.75243147657073 399.1666666666643
decision_type=2 2 2 2 2
left_child=4 -2 -3 -4 -1
right_child=1 2 3 -5 -6
leaf_value=0.0076283701471805288 0.066971118067422425 0.030273329251019263 -0.055659396336127959 0.015206498055260724 -0.038938079142811145
leaf_weight=2.8432533890008926 1.4733064807951448 2.3991293031722307 2.2099747061729431 1.9020434394478796 2.4788539856672287
leaf_count=18 11 19 17 14 14
internal_value=0 0.00967081 -0.00329478 -0.0228799 -0.0140607
internal_weight=0 7.98445 6.51115 4.11202 5.32211
internal_count=93 61 50 31 32
is_linear=0
shrinkage=0.1


Tree=62
num_leaves=7
num_cat=0
split_feature=14 14 14 9 8 7
split_gain=0.183228 0.3209 0.43792 0.667946 0.28793 0.0827253
threshold=1007.0833333333335 279.75243147657073 150.81410825199643 51.500000000000007 0.84999999999999998 399.1666666666643
decision_type=2 2 2 2 2 2
left_child=1 2 3 -1 -3 -5
right_child=-2 4 -4 5 -6 -7
leaf_value=0.051266789334260834 -0.026123688135218766 0.065513494303158101 -0.041951970958176862 -0.0041887935330438839 0.0050543620782883643 -0.036072227210788586
leaf_weight=2.2869282998144609 2.2086170539259919 1.4301827065646651 2.3149860948324203 1.728336285799742 1.7534571215510366 1.5378975942730901
leaf_count=17 13 11 18 12 13 9
internal_value=0 0.00542619 -0.00541294 0.00981935 0.0322143 -0.019201
internal_weight=0 11.0518 7.86815 5.55316 3.18364 3.26623
internal_count=93 80 56 38 24 21
is_linear=0
shrinkage=0.1


Tree=63
num_leaves=8
num_cat=0
split_feature=15 14 9 9 9 9 6
split_gain=0.17665 0.460828 0.249876 0.621774 0.247063 0.14012 0.11377
threshold=772.66666666666754 346.36363636363666 81.500000000000014 57.500000000000007 45.500000000000007 18.500000000000004 1.25
decision_type=2 2 2 2 2 2 2
left_child=1 2 3 5 6 -1 -2
right_child=4 -3 -4 -5 -6 -7 -8
leaf_value=-0.026713161074902732 0.01912569851630317 -0.049154105230123514 -0.022800618598283841 0.075588077727124101 -0.012583481919816687 0.012905610879276431 0.063685913635216723
leaf_weight=1.5775892473757251 1.3009946048259751 2.0518945679068565 2.290699765086174 1.3313762806355951 1.5711428709328172 2.056195680052042 1.0239155925810335
leaf_count=11 8 11 11 12 13 15 12
internal_value=0 -0.00731199 0.0045206 0.0171254 0.0180493 -0.00429468 0.0387505
internal_weight=0 9.30776 7.25586 4.96516 3.89605 3.63378 2.32491
internal_count=93 60 49 38 33 26 20
is_linear=0
shrinkage=0.1


Tree=64
num_leaves=7
num_cat=0
split_feature=9 9 9 7 7 9
split_gain=0.171047 0.356712 0.456644 0.419684 0.299906 0.0857734
threshold=12.500000000000002 36.500000000000007 51.500000000000007 399.1666666666643 350.33333333333036 24.500000000000004
decision_type=2 2 2 2 2 2
left_child=-1 5 -3 4 -4 -2
right_child=1 2 3 -5 -6 -7
leaf_value=0.032365335137821444 -0.047659147878061109 0.052472003367861224 -0.010585520053158349 -0.034786272217556598 0.04720288738918138 -0.016549239982618588
leaf_weight=1.4666186086833484 1.5596327427774661 1.7844610512256602 1.849163454025984 2.6827341243624687 1.7460258752107618 2.0526443794369698
leaf_count=12 12 15 13 15 14 12
internal_value=0 -0.00386696 0.00783329 -0.00485498 0.0174798 -0.0299812
internal_weight=0 11.6747 8.06238 6.27792 3.59519 3.61228
internal_count=93 81 57 42 27 24
is_linear=0
shrinkage=0.1


Tree=65
num_leaves=6
num_cat=0
split_feature=12 7 9 9 6
split_gain=0.183535 0.448165 0.515735 0.48597 0.340512
threshold=1.0000000180025095e-35 450.00000000000006 30.500000000000004 66.500000000000014 1.0500000000000003
decision_type=2 2 2 2 2
left_child=-1 2 -2 -4 -3
right_child=1 4 3 -5 -6
leaf_value=-0.021790975667696753 0.02719956483246478 0.069164261022041443 -0.065029032450383661 0.0014911604285140832 0.00057777021386287144
leaf_weight=2.9477030150592318 2.7450931705534458 1.6682570092380049 1.9680902995169161 2.484905518591404 1.2786881579086182
leaf_count=19 18 11 16 16 13
internal_value=0 0.00655594 -0.00689242 -0.0279088 0.0394044
internal_weight=0 10.145 7.19809 4.453 2.94695
internal_count=93 74 50 32 24
is_linear=0
shrinkage=0.1


Tree=66
num_leaves=6
num_cat=0
split_feature=7 6 12 7 7
split_gain=0.183944 0.360075 0.387444 0.548603 0.362568
threshold=348.83333333333337 2.8500000000000001 1.0000000180025095e-35 450.00000000000006 382.66666666666248
decision_type=2 2 2 2 2
left_child=-1 2 -2 4 -4
right_child=1 -3 3 -5 -6
leaf_value=0.024332488429582182 -0.034986421997567095 -0.039624211113341953 0.025463032984041852 0.056841084452802032 -0.035124605991256143
leaf_weight=2.5355641469359407 1.9011378288269023 2.4069854058325282 1.9286859631538393 2.1886031338945031 2.0243938826024532
leaf_count=17 12 19 14 18 13
internal_value=0 -0.00569218 0.0044627 0.0166741 -0.00556423
internal_weight=0 10.4498 8.04282 6.14168 3.95308
internal_count=93 76 57 45 27
is_linear=0
shrinkage=0.1


Tree=67
num_leaves=7
num_cat=0
split_feature=15 14 9 9 7 9
split_gain=0.180687 0.364789 0.254813 0.520503 0.221549 0.122943
threshold=772.66666666666754 346.36363636363666 81.500000000000014 57.500000000000007 450.00000000000006 18.500000000000004
decision_type=2 2 2 2 2 2
left_child=1 2 3 5 -2 -1
right_child=4 -3 -4 -5 -6 -7
leaf_value=-0.02465895290365596 0.044123578976813412 -0.045008674579086971 -0.024494844872050371 0.071171773381121406 -0.0043541949647554192 0.012853553227757501
leaf_weight=1.5436063744127735 1.7864159867167484 2.0148807615041733 2.2604225873947144 1.269047839567065 1.9961077235639093 2.013065330684185
leaf_count=11 16 11 11 12 17 15
internal_value=0 -0.00746335 0.00321233 0.0161907 0.018541 -0.00342699
internal_weight=0 9.10102 7.08614 4.82572 3.78252 3.55667
internal_count=93 60 49 38 33 26
is_linear=0
shrinkage=0.1


Tree=68
num_leaves=8
num_cat=0
split_feature=9 9 8 8 8 9 7
split_gain=0.175121 0.27 0.271639 0.755529 0.40973 0.26895 0.131117
threshold=12.500000000000002 24.500000000000004 0.55000000000000016 1.0500000000000003 2.2000000000000011 72.500000000000014 401.50000000000006
decision_type=2 2 2 2 2 2 2
left_child=-1 -2 5 -4 -5 -3 -7
right_child=1 2 3 4 -6 6 -8
leaf_value=0.033009804978258214 -0.043018238492380241 -0.045533302851591614 0.072684472974574491 -0.048234281544279091 0.025915396235454337 0.022750023074619471 -0.016361225815564671
leaf_weight=1.4415226094424731 1.5335738845169533 1.7543224468827228 1.7026360444724558 1.4766164720058443 1.5044844523072241 1.6636944562196734 1.7680639028549192
leaf_count=12 12 11 11 12 14 11 10
internal_value=0 -0.00398209 0.00208335 0.0195402 -0.0108129 -0.0136825 0.00259966
internal_weight=0 11.4034 9.86982 4.68374 2.9811 5.18608 3.43176
internal_count=93 81 69 37 26 32 21
is_linear=0
shrinkage=0.1


Tree=69
num_leaves=7
num_cat=0
split_feature=6 15 9 7 7 7
split_gain=0.159228 0.271721 0.45593 0.234176 0.220716 0.197951
threshold=3.7500000000000009 772.66666666666754 27.500000000000004 265.00000000000006 450.00000000000006 399.1666666666643
decision_type=2 2 2 2 2 2
left_child=1 2 -1 -4 -3 -5
right_child=-2 4 3 5 -6 -7
leaf_value=-0.059519895692581017 0.027465921231511314 0.044554131930021834 -0.034280724844659188 0.031014501512160925 -0.0079662566382991372 -0.011460363720407048
leaf_weight=1.746051874011753 1.8302363306283957 1.7139264084398749 1.5937836989760397 2.2680698670446873 1.5008452245965598 2.1254455521702766
leaf_count=10 16 15 9 17 13 13
internal_value=0 -0.00439982 -0.0145572 -0.00144496 0.0200345 0.0104665
internal_weight=0 10.9481 7.73335 5.9873 3.21477 4.39352
internal_count=93 77 49 39 28 30
is_linear=0
shrinkage=0.1


Tree=70
num_leaves=6
num_cat=0
split_feature=7 6 12 7 9
split_gain=0.159368 0.334058 0.371254 0.515542 0.475319
threshold=348.83333333333337 2.8500000000000001 1.0000000180025095e-35 450.00000000000006 30.500000000000004
decision_type=2 2 2 2 2
left_child=-1 2 -2 4 -4
right_child=1 -3 3 -5 -6
leaf_value=0.022898795943317174 -0.034713171609851268 -0.038218113522511636 0.034305444718805707 0.055698022425797994 -0.036224279219835454
leaf_weight=2.4808145388960847 1.8440837264060963 2.3755817338824272 1.7036375775933259 2.1605770345777273 2.175950363278389
leaf_count=17 12 19 10 18 17
internal_value=0 -0.00534537 0.00455943 0.0165495 -0.00525267
internal_weight=0 10.2598 7.88425 6.04016 3.87959
internal_count=93 76 57 45 27
is_linear=0
shrinkage=0.1


Tree=71
num_leaves=7
num_cat=0
split_feature=8 6 9 7 9 6
split_gain=0.177573 0.407366 0.509116 0.282831 0.359402 0.253577
threshold=2.6500000000000017 3.0000000000000013 30.500000000000004 450.00000000000006 63.500000000000007 3.0000000000000013
decision_type=2 2 2 2 2 2
left_child=1 2 -1 4 -4 -2
right_child=5 -3 3 -5 -6 -7
leaf_value=0.050576547386089021 -0.0096971555777292402 -0.058186175504345176 -0.059618847394847088 0.017269728924311858 -0.0025709195661724055 0.055294758332211681
leaf_weight=1.7368738353252391 1.138102374970914 1.2874838523566712 1.7821111828088758 2.5213324651122093 2.9036806300282478 1.2705046422779558
leaf_count=13 10 11 12 17 19 11
internal_value=0 -0.00559435 0.00197622 -0.00973617 -0.0242675 0.0245851
internal_weight=0 10.2315 8.944 7.20712 4.68579 2.40861
internal_count=93 72 61 48 31 21
is_linear=0
shrinkage=0.1


Tree=72
num_leaves=8
num_cat=0
split_feature=8 8 6 6 15 9 6
split_gain=0.173246 0.447461 0.336342 0.282189 0.680603 0.218726 0.180849
threshold=0.55000000000000016 0.84999999999999998 1.9000000000000001 2.8500000000000001 697.66666666666674 72.500000000000014 0.75000000000000011
decision_type=2 2 2 2 2 2 2
left_child=5 -2 -3 -4 -5 -1 -7
right_child=1 2 3 4 -6 6 -8
leaf_value=-0.04304842599048421 0.06176172830896412 -0.037648206967761617 0.051869964372479108 0.043543569484594494 -0.053094198054898026 0.024101421409663464 -0.022165219253730807
leaf_weight=1.722120054066181 1.3588630612939594 1.8231321871280668 1.3302867673337457 1.4905266724526884 1.4260426126420496 1.6730753630399706 1.706669934093952
leaf_count=11 11 13 12 14 11 11 10
internal_value=0 0.00989093 -0.00172117 0.0137019 -0.00370701 -0.0140419 0.000738157
internal_weight=0 7.42885 6.06999 4.24686 2.91657 5.10187 3.37975
internal_count=93 61 50 37 25 32 21
is_linear=0
shrinkage=0.1


Tree=73
num_leaves=8
num_cat=0
split_feature=15 14 9 9 9 9 14
split_gain=0.177283 0.35667 0.253775 0.447652 0.200625 0.118736 0.0302445
threshold=772.66666666666754 346.36363636363666 81.500000000000014 57.500000000000007 45.500000000000007 18.500000000000004 798.33333333333405
decision_type=2 2 2 2 2 2 2
left_child=1 2 3 5 6 -1 -2
right_child=4 -3 -4 -5 -6 -7 -8
leaf_value=-0.023541062048202097 0.026031791910196275 -0.045696291287786565 -0.024476379679017311 0.068633407804965768 -0.0097973305943312612 0.014194300436370197 0.049563860034263912
leaf_weight=1.4680333733558639 1.0849492782726899 1.9173749983310697 2.2457243055105209 1.2141568958759306 1.4810187108814714 1.9302137456834314 1.0998212806880472
leaf_count=11 11 11 11 12 13 15 9
internal_value=0 -0.00756805 0.00309173 0.0165143 0.0186166 -0.00210727 0.0378779
internal_weight=0 8.7755 6.85813 4.6124 3.66579 3.39825 2.18477
internal_count=93 60 49 38 33 26 20
is_linear=0
shrinkage=0.1


Tree=74
num_leaves=8
num_cat=0
split_feature=6 9 8 8 6 9 15
split_gain=0.170765 0.293957 0.2764 0.495425 0.409631 0.0638362 0.00683634
threshold=3.7500000000000009 36.500000000000007 0.20000000000000004 1.0500000000000003 1.9000000000000001 24.500000000000004 772.66666666666754
decision_type=2 2 2 2 2 2 2
left_child=1 5 -3 6 -5 -1 -4
right_child=-2 2 3 4 -6 -7 -8
leaf_value=-0.043652185545296887 0.028944315149757288 -0.021837147584705223 0.057453524729979603 -0.054133606448296602 0.028754251748148604 -0.016443656486311728 0.046916418069978025
leaf_weight=1.5336188804358228 1.7658864110708243 2.2643792629241943 1.1428695395588877 1.1748775467276575 1.2105588763952253 1.9698955062776802 1.3348760083317754
leaf_count=13 16 11 10 8 13 12 10
internal_value=0 -0.0046362 0.00702207 0.0204594 -0.0120698 -0.0283538 0.0517767
internal_weight=0 10.6311 7.12756 4.86318 2.38544 3.50351 2.47775
internal_count=93 77 52 41 21 25 20
is_linear=0
shrinkage=0.1


Tree=75
num_leaves=8
num_cat=0
split_feature=7 8 8 15 9 14 15
split_gain=0.212352 0.320279 0.408714 0.372691 0.228577 0.644426 0.210116
threshold=150.33333333333215 0.55000000000000016 0.84999999999999998 772.66666666666754 51.500000000000007 150.81410825199643 772.66666666666754
decision_type=2 2 2 2 2 2 2
left_child=-1 3 -3 -2 5 -4 -7
right_child=1 2 4 -5 -6 6 -8
leaf_value=0.045595433220478494 -0.046906633558051164 0.059515294987708883 0.059524480423003859 0.01474595509252229 -0.032221983241264976 -0.052640474418989613 0.0067805609679015893
leaf_weight=0.94889837503433305 2.7829686030745489 1.324169718660414 1.6296859085559843 1.5138606764376161 1.7525154985487459 1.1570853888988497 1.2252032011747358
leaf_count=8 16 11 12 11 15 8 12
internal_value=0 -0.00364264 0.00941547 -0.0251852 -0.00209303 0.0110679 -0.0220804
internal_weight=0 11.3855 7.08866 4.29683 5.76449 4.01197 2.38229
internal_count=93 85 58 27 47 32 20
is_linear=0
shrinkage=0.1


Tree=76
num_leaves=8
num_cat=0
split_feature=7 8 8 15 9 14 15
split_gain=0.17404 0.258928 0.337733 0.297962 0.186505 0.534654 0.172053
threshold=150.33333333333215 0.55000000000000016 0.84999999999999998 772.66666666666754 51.500000000000007 150.81410825199643 772.66666666666754
decision_type=2 2 2 2 2 2 2
left_child=-1 3 -3 -2 5 -4 -7
right_child=1 2 4 -5 -6 6 -8
leaf_value=0.041553768057099275 -0.041774479598152267 0.054572001445619633 0.054967508147644999 0.013329388197883688 -0.02912224890539444 -0.047789985378864946 0.0061104198573491636
leaf_weight=0.93768908642232496 2.8108067363500577 1.300968289375305 1.5904431715607645 1.5076158717274664 1.7455343604087827 1.1475958973169329 1.2236999310553072
leaf_count=8 16 11 12 11 15 8 12
internal_value=0 -0.00327593 0.0085926 -0.022537 -0.00188837 0.0101108 -0.0199748
internal_weight=0 11.3267 7.00824 4.31842 5.70727 3.96174 2.3713
internal_count=93 85 58 27 47 32 20
is_linear=0
shrinkage=0.1


Tree=77
num_leaves=7
num_cat=0
split_feature=14 14 12 9 15 8
split_gain=0.187999 0.285288 0.291718 0.24336 0.355726 0.143114
threshold=1007.0833333333335 279.75243147657073 1.0000000180025095e-35 18.500000000000004 196.00000000000003 0.84999999999999998
decision_type=2 2 2 2 2 2
left_child=1 2 -1 -4 -5 -3
right_child=-2 5 3 4 -6 -7
leaf_value=-0.044379282154221503 -0.027296191343651965 0.058371812367081916 0.044544674883621183 0.015206970912424848 -0.043204817779346177 0.012983757038188177
leaf_weight=1.4762497097253788 2.0713717080652723 1.2304652156308296 1.2473906893283118 2.9726204201579094 1.605796445161104 1.5955082252621648
leaf_count=10 13 11 12 18 16 13
internal_value=0 0.00576778 -0.00467319 0.00538827 -0.0052799 0.0327463
internal_weight=0 10.128 7.30206 5.82581 4.57842 2.82597
internal_count=93 80 56 46 34 24
is_linear=0
shrinkage=0.1


Tree=78
num_leaves=9
num_cat=0
split_feature=8 8 7 14 7 9 7 6
split_gain=0.162454 0.270359 0.28929 0.392286 0.577767 0.434307 0.184598 0.0677784
threshold=2.6500000000000017 1.6500000000000006 637.83333333333042 1007.0833333333335 265.00000000000006 72.500000000000014 382.833333333334 1.6500000000000001
decision_type=2 2 2 2 2 2 2 2
left_child=1 2 3 4 -1 7 -2 -6
right_child=6 -3 -4 -5 5 -7 -8 -9
leaf_value=-0.031070853488559643 0.050869464855308279 -0.045605005123605137 -0.04185602694685521 -0.037759899165635109 0.029092950380355788 0.081644704053296185 -0.0070279091028289404 -0.0035005779565211743
leaf_weight=1.5564148500561694 1.2130326852202427 1.4269928447902192 1.3051467835903166 1.4187100194394586 1.4996460145339372 1.5807689875364301 1.0085567310452459 1.1104375626891849
leaf_count=9 12 13 9 9 11 11 9 10
internal_value=0 -0.00533762 0.00144557 0.00933214 0.0209568 0.040279 0.0245852 0.0152263
internal_weight=0 9.89812 8.47112 7.16598 5.74727 4.19085 2.22159 2.61008
internal_count=93 72 59 50 41 32 21 21
is_linear=0
shrinkage=0.1


Tree=79
num_leaves=7
num_cat=0
split_feature=7 6 7 9 15 14
split_gain=0.151591 0.297797 0.196921 0.61741 0.249329 0.407533
threshold=348.83333333333337 3.0000000000000013 637.83333333333042 72.500000000000014 772.66666666666754 346.36363636363666
decision_type=2 2 2 2 2 2
left_child=-1 2 3 4 5 -2
right_child=1 -3 -4 -5 -6 -7
leaf_value=0.022776324534194772 0.013708224868664324 -0.04178853594641594 -0.031218194816975738 0.069590079737141972 0.024904567066610823 -0.056187998200155055
leaf_weight=2.3790359888225803 1.6440178304910644 1.8247234076261518 1.3808040507137773 1.3842051886022089 1.7432818999513982 1.6933979615569112
leaf_count=17 12 16 10 11 17 10
internal_value=0 -0.00540081 0.0030621 0.0103838 -0.00574653 -0.021757
internal_weight=0 9.67043 7.84571 6.4649 5.0807 3.33742
internal_count=93 76 60 50 39 22
is_linear=0
shrinkage=0.1


Tree=80
num_leaves=6
num_cat=0
split_feature=8 14 8 6 7
split_gain=0.151726 0.326888 0.398724 0.371563 0.202638
threshold=0.55000000000000016 279.75243147657073 2.6500000000000017 1.0500000000000003 399.1666666666643
decision_type=2 2 2 2 2
left_child=4 2 -2 -3 -1
right_child=1 3 -4 -5 -6
leaf_value=0.0063204708551889456 -0.03851746168324393 -0.0024434396070914261 0.024362034213530094 0.06866689665701084 -0.034098473474282624
leaf_weight=2.5678774006664753 2.1337677389383316 1.3960668817162516 1.9121724553406236 1.5512895034626124 2.3993122912943363
leaf_count=18 19 8 18 16 14
internal_value=0 0.00965326 -0.00879966 0.0349842 -0.0132032
internal_weight=0 6.9933 4.04594 2.94736 4.96719
internal_count=93 61 37 24 32
is_linear=0
shrinkage=0.1


Tree=81
num_leaves=8
num_cat=0
split_feature=6 9 7 7 9 9 7
split_gain=0.141141 0.289621 0.348787 0.342113 0.43279 0.21786 0.125205
threshold=3.7500000000000009 36.500000000000007 625.33333333333223 265.00000000000006 72.500000000000014 60.500000000000007 382.66666666666248
decision_type=2 2 2 2 2 2 2
left_child=1 6 3 -3 5 -5 -1
right_child=-2 2 -4 4 -6 -7 -8
leaf_value=-0.0083013067545274592 0.027291472008487267 -0.027307650434825022 -0.035765055321719051 0.033678582280812032 0.075084461911956821 -0.024146085032907032 -0.046771362817726342
leaf_weight=1.6407558433711513 1.651399418711663 1.2189804911613462 1.4604091569781301 1.4895264841616156 1.5378372259438036 1.1581665202975271 1.7465872783213852
leaf_count=10 16 7 10 14 12 9 15
internal_value=0 -0.00421001 0.00759638 0.0193135 0.0328913 0.00838464 -0.0281373
internal_weight=0 10.2523 6.86492 5.40451 4.18553 2.64769 3.38734
internal_count=93 77 52 42 35 23 25
is_linear=0
shrinkage=0.1


Tree=82
num_leaves=8
num_cat=0
split_feature=8 8 6 6 8 9 6
split_gain=0.13002 0.348057 0.201478 0.243088 0.547686 0.156655 0.0937699
threshold=0.55000000000000016 0.84999999999999998 1.9000000000000001 2.8500000000000001 2.9500000000000015 72.500000000000014 0.75000000000000011
decision_type=2 2 2 2 2 2 2
left_child=5 -2 -3 -4 -5 -1 -7
right_child=1 2 3 4 -6 6 -8
leaf_value=-0.037402059540959591 0.056459509269375242 -0.029904754001117279 0.048101341948113767 -0.049474309350001133 0.040830465236668757 0.017763693724540838 -0.016034889792813548
leaf_weight=1.6470943540334699 1.2638143030926583 1.7395524978637693 1.2165930494666102 1.3876848649233582 1.3014767263084648 1.5963753163814547 1.6896936595439909
leaf_count=11 11 13 12 13 12 11 10
internal_value=0 0.00902262 -0.00159708 0.0110107 -0.0057694 -0.0122318 0.000384493
internal_weight=0 6.90912 5.64531 3.90575 2.68916 4.93316 3.28607
internal_count=93 61 50 37 25 32 21
is_linear=0
shrinkage=0.1


Tree=83
num_leaves=6
num_cat=0
split_feature=7 6 12 7 7
split_gain=0.135556 0.257771 0.244549 0.489927 0.392496
threshold=348.83333333333337 2.8500000000000001 1.0000000180025095e-35 450.00000000000006 382.66666666666248
decision_type=2 2 2 2 2
left_child=-1 2 -2 4 -4
right_child=1 -3 3 -5 -6
leaf_value=0.02169687938799816 -0.029729825849086303 -0.035835352095632489 0.026045563236832325 0.052792261963541171 -0.040366906493095517
leaf_weight=2.3412184212356815 1.679798275232314 2.1253624316304922 1.7053723409771913 2.0444086929783225 1.8609740622341631
leaf_count=17 12 19 14 18 13
internal_value=0 -0.00519107 0.00374244 0.0137637 -0.00860948
internal_weight=0 9.41592 7.29055 5.61076 3.56635
internal_count=93 76 57 45 27
is_linear=0
shrinkage=0.1


Tree=84
num_leaves=8
num_cat=0
split_feature=15 14 14 7 14 9 9
split_gain=0.384477 0.341744 0.250372 0.301057 0.51372 0.320183 0.0112125
threshold=1234.3333333333323 1007.0833333333335 279.75243147657073 348.83333333333337 150.81410825199643 51.500000000000007 39.500000000000007
decision_type=2 2 2 2 2 2 2
left_child=1 2 3 -1 5 -5 -4
right_child=-2 -3 6 4 -6 -7 -8
leaf_value=0.01968513845956095 0.055495111922093436 -0.056254159106397555 0.033795298518826004 0.039005463708103552 -0.073130720326772175 -0.027883350621593025 0.020617098864104132
leaf_weight=2.3234138339757902 1.1337581798434264 1.1904120817780484 1.2745882794260981 1.2016959898173811 1.468394450843334 1.7692780122160909 1.3084205873310564
leaf_count=17 12 7 9 10 12 15 11
internal_value=0 -0.00579178 0.000635817 -0.00947964 -0.0247435 -0.000828243 0.0271199
internal_weight=0 10.5362 9.34579 6.76278 4.43937 2.97097 2.58301
internal_count=93 81 74 54 37 25 20
is_linear=0
shrinkage=0.1


Tree=85
num_leaves=7
num_cat=0
split_feature=8 8 6 8 6 7
split_gain=0.151877 0.284568 0.189976 0.241845 0.72625 0.185661
threshold=0.55000000000000016 0.84999999999999998 1.9000000000000001 4.75 3.0000000000000013 399.1666666666643
decision_type=2 2 2 2 2 2
left_child=5 -2 -3 4 -4 -1
right_child=1 2 3 -5 -6 -7
leaf_value=0.0054683995158261844 0.053579630929719617 -0.027546137312531638 0.096731474341683998 -0.026409130778784758 -0.011262992420952956 -0.033668559463010443
leaf_weight=2.5253633037209511 1.2203553514555094 1.7028693109750745 0.99386408925056535 1.1150516457855699 1.6674443837255237 2.3309016637504101
leaf_count=18 11 13 11 9 17 14
internal_value=0 0.00990937 0.000182965 0.0126868 0.0290675 -0.0133165
internal_weight=0 6.69958 5.47923 3.77636 2.66131 4.85626
internal_count=93 61 50 37 28 32
is_linear=0
shrinkage=0.1


Tree=86
num_leaves=8
num_cat=0
split_feature=15 7 9 9 6 8 9
split_gain=0.349272 0.191741 0.173778 0.288834 0.541569 0.285101 0.128775
threshold=1234.3333333333323 586.33333333333951 36.500000000000007 84.500000000000014 1.25 2.2000000000000011 21.500000000000004
decision_type=2 2 2 2 2 2 2
left_child=1 2 6 4 -4 -6 -1
right_child=-2 -3 3 -5 5 -7 -8
leaf_value=0.0015862122057404828 0.053433956469914369 -0.038903944305892744 0.075282521714151174 -0.023527593466665806 -0.040861147440076268 0.030950979164041988 -0.036048629757522821
leaf_weight=1.8604376278817638 1.1117356941103942 1.4774980954825867 1.4270216636359694 1.6185833811759947 1.0688866656273606 1.1451157107949255 1.7781473025679586
leaf_count=16 12 12 12 8 11 12 10
internal_value=0 -0.00554318 -3.79745e-06 0.0116197 0.0272441 -0.00371882 -0.0168056
internal_weight=0 10.3757 8.89819 5.25961 3.64102 2.214 3.63858
internal_count=93 81 69 43 35 23 26
is_linear=0
shrinkage=0.1


Tree=87
num_leaves=8
num_cat=0
split_feature=6 9 7 7 9 12 9
split_gain=0.158574 0.211653 0.310586 0.331493 0.396444 0.16281 0.0679678
threshold=3.7500000000000009 36.500000000000007 625.33333333333223 265.00000000000006 72.500000000000014 1.0000000180025095e-35 24.500000000000004
decision_type=2 2 2 2 2 2 2
left_child=1 6 3 -3 5 -5 -1
right_child=-2 2 -4 4 -6 -7 -8
leaf_value=-0.042010382457187738 0.029523419838519135 -0.028823194449634527 -0.035652887937895034 0.029845422546137569 0.072413043880191097 -0.021675403150283268 -0.012880558867836301
leaf_weight=1.3991853371262535 1.5849867854267365 1.1998688131570814 1.4175572320818899 1.3733914494514459 1.4667399432510135 1.108353938907386 1.8735279813408849
leaf_count=13 16 7 10 11 12 12 12
internal_value=0 -0.00455957 0.00579546 0.0172079 0.0311959 0.00683609 -0.0253345
internal_weight=0 9.83862 6.56591 5.14835 3.94849 2.48175 3.27271
internal_count=93 77 52 42 35 23 25
is_linear=0
shrinkage=0.1


Tree=88
num_leaves=8
num_cat=0
split_feature=9 6 8 6 8 15 6
split_gain=0.140529 0.249867 0.231111 0.212652 0.445682 0.175079 0.0027934
threshold=12.500000000000002 3.0000000000000013 0.55000000000000016 1.9000000000000001 0.84999999999999998 772.66666666666754 0.55000000000000004
decision_type=2 2 2 2 2 2 2
left_child=-1 2 5 4 -4 6 -2
right_child=1 -3 3 -5 -6 -7 -8
leaf_value=0.032632474813933575 -0.022332283537789557 -0.043942991751328965 0.051634049696279952 0.054926504772626519 -0.028932168437416791 0.016917568294556189 -0.028152392811259232
leaf_weight=1.1939162667840726 1.9280085563659652 1.3358353879302729 1.185603238642216 1.2219574581831691 1.6314634904265402 1.4321520105004308 1.4410006776452062
leaf_count=12 13 13 10 14 12 11 8
internal_value=0 -0.00363236 0.00245896 0.0200874 0.00497529 -0.0123712 -0.0248217
internal_weight=0 10.176 8.84019 4.03902 2.81707 4.80116 3.36901
internal_count=93 81 68 36 22 32 21
is_linear=0
shrinkage=0.1


Tree=89
num_leaves=6
num_cat=0
split_feature=6 9 8 14 7
split_gain=0.14126 0.227662 0.194184 0.369333 0.162827
threshold=3.7500000000000009 24.500000000000004 0.55000000000000016 279.75243147657073 399.1666666666643
decision_type=2 2 2 2 2
left_child=1 -1 4 -4 -3
right_child=-2 2 3 -5 -6
leaf_value=-0.041532250447966407 0.028199902768651305 0.006651313528951321 -0.018021447447976673 0.047353562763997194 -0.030159046172932788
leaf_weight=1.4047954864799965 1.5513781737536199 2.4916500244289619 1.4957868438214066 2.0464583188295364 2.32109135389328
leaf_count=13 16 18 15 17 14
internal_value=0 -0.0042852 0.00197746 0.0197476 -0.0111016
internal_weight=0 9.75978 8.35499 3.54225 4.81274
internal_count=93 77 64 32 32
is_linear=0
shrinkage=0.1


Tree=90
num_leaves=6
num_cat=0
split_feature=7 13 6 9 7
split_gain=0.146668 0.382634 0.280858 0.330816 0.256355
threshold=450.00000000000006 1.0000000180025095e-35 0.75000000000000011 18.500000000000004 382.33333333333036
decision_type=2 2 2 2 2
left_child=2 -2 -1 -4 -5
right_child=1 -3 3 4 -6
leaf_value=-0.032496018730039836 0.057638109794472786 -0.012732943846224365 -0.035366102279167956 -0.0031213401286866761 0.047877841367405277
leaf_weight=2.8097881674766523 1.391637858003379 1.7372255586087701 1.3915596380829809 2.0553688704967503 1.8937764856964348
leaf_count=19 10 17 12 18 17
internal_value=0 0.0185663 -0.00690345 0.006561 0.0213349
internal_weight=0 3.12886 8.15049 5.3407 3.94915
internal_count=93 27 66 47 35
is_linear=0
shrinkage=0.1


Tree=91
num_leaves=7
num_cat=0
split_feature=9 9 9 7 7 15
split_gain=0.142639 0.201326 0.284345 0.328383 0.199139 0.0729315
threshold=12.500000000000002 36.500000000000007 51.500000000000007 399.1666666666643 350.33333333333036 772.66666666666754
decision_type=2 2 2 2 2 2
left_child=-1 5 -3 4 -4 -2
right_child=1 2 3 -5 -6 -7
leaf_value=0.03316538789298968 -0.036803302087113361 0.045103133437429985 -0.0060682142595209175 -0.03287312853732817 0.045433431949219949 -0.0061829884542422241
leaf_weight=1.1728310082107789 1.9051178023219093 1.4634786359965799 1.6727164257317784 2.328816432505846 1.3621927313506601 1.3145893933251498
leaf_count=12 12 15 13 15 14 12
internal_value=0 -0.0036879 0.00603332 -0.00462678 0.0170479 -0.0243012
internal_weight=0 10.0469 6.8272 5.36373 3.03491 3.21971
internal_count=93 81 57 42 27 24
is_linear=0
shrinkage=0.1


Tree=92
num_leaves=6
num_cat=0
split_feature=12 7 9 7 9
split_gain=0.145279 0.355346 0.470344 0.438308 0.0948629
threshold=1.0000000180025095e-35 450.00000000000006 30.500000000000004 365.1666666666643 63.500000000000007
decision_type=2 2 2 2 2
left_child=-1 2 -2 -4 -3
right_child=1 4 3 -5 -6
leaf_value=-0.021830970029952629 0.028224854404051525 0.017244863737361595 0.00076090444294944662 -0.067385495890567068 0.05558947418515741
leaf_weight=2.3677076138555995 2.3653629049658775 1.2378447372466328 2.2041519023478036 1.6506466995924709 1.3475715555250642
leaf_count=19 18 15 18 14 9
internal_value=0 0.00607192 -0.00687932 -0.0284198 0.0372309
internal_weight=0 8.80558 6.22016 3.8548 2.58542
internal_count=93 74 50 32 24
is_linear=0
shrinkage=0.1


Tree=93
num_leaves=7
num_cat=0
split_feature=7 6 15 9 9 8
split_gain=0.128029 0.243621 0.185071 0.343454 0.317339 0.497735
threshold=348.83333333333337 0.40000000000000013 772.66666666666754 30.500000000000004 18.500000000000004 0.65000000000000002
decision_type=2 2 2 2 2 2
left_child=-1 -2 4 -4 -3 -6
right_child=1 2 3 -5 5 -7
leaf_value=0.021271977207479691 0.027353144140829639 -0.073579070859454712 0.063774164789732898 -0.015412037936643148 -0.05895504239625058 0.021587515244816093
leaf_weight=2.28044735826552 1.8136690594255904 1.0816907323896883 0.75795358698815141 1.9748753178864715 1.2858958989381792 1.9023844692856071
leaf_count=17 14 8 10 19 8 17
internal_value=0 -0.00531069 -0.0137704 0.00655036 -0.0267758 -0.0108969
internal_weight=0 8.81647 7.0028 2.73283 4.26997 3.18828
internal_count=93 76 62 29 33 25
is_linear=0
shrinkage=0.1


Tree=94
num_leaves=7
num_cat=0
split_feature=9 6 8 7 6 7
split_gain=0.135858 0.236195 0.163127 0.229568 0.14806 0.135988
threshold=12.500000000000002 3.0000000000000013 0.55000000000000016 399.333333333334 1.0500000000000003 399.1666666666643
decision_type=2 2 2 2 2 2
left_child=-1 2 5 4 -4 -2
right_child=1 -3 3 -5 -6 -7
leaf_value=0.033010839042505034 0.0062716106336377538 -0.043029599170696382 -0.024618021487931959 0.053708493577439398 0.022978114626139787 -0.02765654658876578
leaf_weight=1.1288516744971282 2.4659570660442096 1.3174074795097102 1.2072301879525191 1.2144394200295208 1.4250890761613844 2.267757061868906
leaf_count=12 18 13 8 14 14 14
internal_value=0 -0.00360566 0.00244732 0.0177427 0.00114965 -0.00998218
internal_weight=0 9.89788 8.58047 3.84676 2.63232 4.73371
internal_count=93 81 68 36 22 32
is_linear=0
shrinkage=0.1


Tree=95
num_leaves=6
num_cat=0
split_feature=12 15 9 9 6
split_gain=0.125284 0.286999 0.304169 0.523624 0.0226081
threshold=1.0000000180025095e-35 832.3333333333386 30.500000000000004 63.500000000000007 0.75000000000000011
decision_type=2 2 2 2 2
left_child=-1 2 -2 -4 -5
right_child=1 -3 3 4 -6
leaf_value=-0.020418402922827053 0.027938039587113685 0.050106642360597614 -0.05718186092119279 0.017820858709157273 0.00088838296487880853
leaf_weight=2.3346719127148381 2.3491781409829855 1.2451057001017032 1.8940154109150169 1.5737500861287119 1.5804213955998418
leaf_count=19 19 15 19 12 9
internal_value=0 0.00568886 -0.00178743 -0.0156202 0.00933671
internal_weight=0 8.64247 7.39737 5.04819 3.15417
internal_count=93 74 59 40 21
is_linear=0
shrinkage=0.1


Tree=96
num_leaves=7
num_cat=0
split_feature=6 9 8 8 6 7
split_gain=0.109416 0.194916 0.163505 0.390379 0.214565 0.113298
threshold=3.7500000000000009 24.500000000000004 0.55000000000000016 1.0500000000000003 1.9000000000000001 399.1666666666643
decision_type=2 2 2 2 2 2
left_child=1 -1 5 -4 -5 -3
right_child=-2 2 3 4 -6 -7
leaf_value=-0.039411109998328274 0.025321210453145556 0.0048418532684939963 0.060496266182454565 -0.040839358978618283 0.024096148157227413 -0.026233205887261808
leaf_weight=1.3250293247401703 1.48810762166977 2.4402413051575405 1.3469428271055224 1.0345110371708872 1.001452002674341 2.259768296033144
leaf_count=13 16 18 11 8 13 14
internal_value=0 -0.00386048 0.00196732 0.0187316 -0.0088988 -0.0100991
internal_weight=0 9.40794 8.08292 3.38291 2.03596 4.70001
internal_count=93 77 64 32 21 32
is_linear=0
shrinkage=0.1


Tree=97
num_leaves=6
num_cat=0
split_feature=9 6 6 7 15
split_gain=0.108946 0.215576 0.229262 0.20915 0.197624
threshold=12.500000000000002 2.8500000000000001 1.5000000000000002 450.00000000000006 395.33333333333218
decision_type=2 2 2 2 2
left_child=-1 2 3 4 -2
right_child=1 -3 -4 -5 -6
leaf_value=0.030255899150997335 -0.03985703650656576 -0.036263573697458272 0.041344704442437152 0.020636711508803689 0.0022647027428036935
leaf_weight=1.080253409221769 2.0064466297626478 1.6417960617691267 1.3352557024918494 2.2896408922970295 2.503799170255661
leaf_count=12 12 16 18 17 18
internal_value=0 -0.00320976 0.003461 -0.00397801 -0.0164737
internal_weight=0 9.77694 8.13514 6.79989 4.51025
internal_count=93 81 65 47 30
is_linear=0
shrinkage=0.1


Tree=98
num_leaves=7
num_cat=0
split_feature=7 15 6 14 13 8
split_gain=0.124063 0.357045 0.276797 0.346794 0.234915 0.353926
threshold=348.83333333333337 1234.3333333333323 3.0000000000000013 1007.0833333333335 1.0000000180025095e-35 1.6500000000000006
decision_type=2 2 2 2 2 2
left_child=-1 2 3 4 -2 -6
right_child=1 -3 -4 -5 5 -7
leaf_value=0.021065780992610722 -0.020977729732066033 0.050293482621332278 -0.052087470160987671 -0.054063220219301038 0.051935535720340736 -0.015951380348700198
leaf_weight=2.2405321300029764 1.8134551867842654 1.0159234963357446 1.4522410389035938 1.1100053787231443 1.8752643056213858 1.3005785085260866
leaf_count=17 14 12 14 7 16 13
internal_value=0 -0.0053639 -0.0128516 -0.00350955 0.00773749 0.0241343
internal_weight=0 8.56747 7.55154 6.0993 4.9893 3.17584
internal_count=93 76 64 50 43 29
is_linear=0
shrinkage=0.1


Tree=99
num_leaves=8
num_cat=0
split_feature=6 9 7 7 9 12 15
split_gain=0.113853 0.192153 0.319207 0.289906 0.383149 0.133033 0.0880719
threshold=3.7500000000000009 36.500000000000007 625.33333333333223 265.00000000000006 72.500000000000014 1.0000000180025095e-35 764.66666666666708
decision_type=2 2 2 2 2 2 2
left_child=1 6 3 -3 5 -5 -1
right_child=-2 2 -4 4 -6 -7 -8
leaf_value=-0.0047333642274095785 0.026252707124358926 -0.024336144844043325 -0.036350132970419079 0.028279340071663966 0.073392716528823038 -0.020793944586953935 -0.039088555016003369
leaf_weight=1.2972766309976562 1.4419863019138581 1.2031407356262205 1.3768724240362642 1.254529740661382 1.3970360364764927 0.98705818317830685 1.7565879193134604
leaf_count=10 16 7 10 11 12 12 15
internal_value=0 -0.00395228 0.00613565 0.0182175 0.0322882 0.00667047 -0.0244945
internal_weight=0 9.2725 6.21864 4.84176 3.63862 2.24159 3.05386
internal_count=93 77 52 42 35 23 25
is_linear=0
shrinkage=0.1


end of trees

feature_importances:
taskNum=153
s_view_position=125
scroll_time=88
response_time=83
s_scroll_speed=67
scroll_length=65
s_choice_left=20
predicted_isAnswerCorrect=10
event_scroll=8

parameters:
[boosting: gbdt]
[objective: binary]
[metric: binary_error]
[tree_learner: serial]
[device_type: cpu]
[data_sample_strategy: bagging]
[data: ]
[valid: ]
[num_iterations: 100]
[learning_rate: 0.1]
[num_leaves: 31]
[num_threads: 0]
[seed: 0]
[deterministic: 0]
[force_col_wise: 0]
[force_row_wise: 0]
[histogram_pool_size: -1]
[max_depth: -1]
[min_data_in_leaf: 10]
[min_sum_hessian_in_leaf: 0.001]
[bagging_fraction: 1]
[pos_bagging_fraction: 1]
[neg_bagging_fraction: 1]
[bagging_freq: 0]
[bagging_seed: 3]
[feature_fraction: 0.9]
[feature_fraction_bynode: 1]
[feature_fraction_seed: 2]
[extra_trees: 0]
[extra_seed: 6]
[early_stopping_round: 0]
[first_metric_only: 0]
[max_delta_step: 0]
[lambda_l1: 0]
[lambda_l2: 0]
[linear_lambda: 0]
[min_gain_to_split: 0]
[drop_rate: 0.1]
[max_drop: 50]
[skip_drop: 0.5]
[xgboost_dart_mode: 0]
[uniform_drop: 0]
[drop_seed: 4]
[top_rate: 0.2]
[other_rate: 0.1]
[min_data_per_group: 100]
[max_cat_threshold: 32]
[cat_l2: 10]
[cat_smooth: 10]
[max_cat_to_onehot: 4]
[top_k: 20]
[monotone_constraints: ]
[monotone_constraints_method: basic]
[monotone_penalty: 0]
[feature_contri: ]
[forcedsplits_filename: ]
[refit_decay_rate: 0.9]
[cegb_tradeoff: 1]
[cegb_penalty_split: 0]
[cegb_penalty_feature_lazy: ]
[cegb_penalty_feature_coupled: ]
[path_smooth: 0]
[interaction_constraints: ]
[verbosity: -1]
[saved_feature_importance_type: 0]
[use_quantized_grad: 0]
[num_grad_quant_bins: 4]
[quant_train_renew_leaf: 0]
[stochastic_rounding: 1]
[linear_tree: 0]
[max_bin: 255]
[max_bin_by_feature: ]
[min_data_in_bin: 3]
[bin_construct_sample_cnt: 200000]
[data_random_seed: 1]
[is_enable_sparse: 1]
[enable_bundle: 1]
[use_missing: 1]
[zero_as_missing: 0]
[feature_pre_filter: 0]
[pre_partition: 0]
[two_round: 0]
[header: 0]
[label_column: ]
[weight_column: ]
[group_column: ]
[ignore_column: ]
[categorical_feature: ]
[forcedbins_filename: ]
[precise_float_parser: 0]
[parser_config_file: ]
[objective_seed: 5]
[num_class: 1]
[is_unbalance: 0]
[scale_pos_weight: 1]
[sigmoid: 1]
[boost_from_average: 1]
[reg_sqrt: 0]
[alpha: 0.9]
[fair_c: 1]
[poisson_max_delta_step: 0.7]
[tweedie_variance_power: 1.5]
[lambdarank_truncation_level: 30]
[lambdarank_norm: 1]
[label_gain: ]
[lambdarank_position_bias_regularization: 0]
[eval_at: ]
[multi_error_top_k: 1]
[auc_mu_weights: ]
[num_machines: 1]
[local_listen_port: 12400]
[time_out: 120]
[machine_list_filename: ]
[machines: ]
[gpu_platform_id: -1]
[gpu_device_id: -1]
[gpu_use_dp: 0]
[num_gpu: 1]

end of parameters

pandas_categorical:[]
