tree
version=v4
num_class=1
num_tree_per_iteration=1
label_index=0
max_feature_idx=14
objective=binary sigmoid:1
feature_names=response_time s_tap_count ratio_tap_position_y scroll_length event_scroll s_scroll_speed tap_position_x taskNum tap_position_y screen_width s_view_position scroll_time ratio_tap_position_x s_choice_left screen_height
feature_infos=[0:111.39999999999796] [1:1] none [0:37464.666666666657] [0:6] [-3503.3333333333576:6900.0000000000018] none [1:149] none [390:390] [-343.99999999999989:1145.6666666666642] [-0.5:113.09999999999795] none [0:1] [844:844]
tree_sizes=734 751 743 649 753 643 751 750 750 647 648 753 753 654 757 740 755 651 755 750 748 757 650 759 751 755 753 753 858 758 753 657 753 756 657 758 758 759 760 757 754 657 653 756 755 760 757 754 654 658 753 657 758 754 757 756 755 654 757 761 656 756 759 655 763 654 758 754 655 766 653 760 650 756 756 656 755 655 759 756 758 753 752 757 764 754 752 750 754 751 655 755 649 651 760 743 756 654 652 753

Tree=0
num_leaves=6
num_cat=0
split_feature=7 3 3 0 0
split_gain=5.44824 3.18577 2.45403 1.51222 2.87691
threshold=120.50000000000001 832.3333333333386 730.3333333333286 1.0500000000000003 0.15000000000000005
decision_type=2 2 2 2 2
left_child=1 2 3 4 -1
right_child=-2 -3 -4 -5 -6
leaf_value=0.42357502084729182 0.34273589062329601 0.51180997190243493 0.37041685648853179 0.40386469024235833 0.52511308759997954
leaf_weight=6.6969957351684659 6.9361741542816153 5.2619252204895011 5.9794604778289786 5.9794604778289786 4.7835683822631836
leaf_count=28 29 22 25 25 20
internal_value=0.422272 0.441494 0.425708 0.444644 0.465883
internal_weight=0 28.7014 23.4395 17.46 11.4806
internal_count=149 120 98 73 48
is_linear=0
shrinkage=1


Tree=1
num_leaves=6
num_cat=0
split_feature=10 11 3 7 11
split_gain=5.27726 2.81707 3.84221 2.02095 2.62419
threshold=659.66666666667163 2.4000000000000008 771.16666666667118 72.500000000000014 1.0000000180025095e-35
decision_type=2 2 2 2 2
left_child=1 2 3 -1 -5
right_child=-2 -3 -4 4 -6
leaf_value=-0.044024074291486699 -0.09521413607948094 -0.041601353055023396 0.09957502918587631 -0.012558002628079316 0.079522670463214318
leaf_weight=5.2522138208150961 4.9989648759365073 6.7183729112148276 6.1810264289379111 6.7060119062662107 5.747658759355545
leaf_count=22 21 28 26 28 24
internal_value=0 0.0156056 0.0316955 0.0079991 0.0299394
internal_weight=0 30.6053 23.8869 17.7059 12.4537
internal_count=149 128 100 74 52
is_linear=0
shrinkage=0.1


Tree=2
num_leaves=6
num_cat=0
split_feature=7 3 3 0 0
split_gain=4.35805 2.40507 2.20863 1.07854 2.54141
threshold=120.50000000000001 832.3333333333386 730.3333333333286 1.0500000000000003 0.15000000000000005
decision_type=2 2 2 2 2
left_child=1 2 3 4 -1
right_child=-2 -3 -4 -5 -6
leaf_value=0.00050136180717936022 -0.07041011204716674 0.079707512547233669 -0.04833675240088818 -0.012148627262763596 0.096537794059165724
leaf_weight=6.6807523518800824 7.0338198393583289 5.099600911140441 6.011301949620246 6.0501865893602362 4.6898942142724991
leaf_count=28 29 22 25 25 20
internal_value=0 0.0174721 0.00392765 0.0219622 0.0401122
internal_weight=0 28.5317 23.4321 17.4208 11.3706
internal_count=149 120 98 73 48
is_linear=0
shrinkage=0.1


Tree=3
num_leaves=5
num_cat=0
split_feature=10 10 10 3
split_gain=4.37381 2.26349 3.03539 3.00442
threshold=659.66666666667163 466.00000000000006 348.33333333334127 699.33333333333223
decision_type=2 2 2 2
left_child=1 2 -1 -4
right_child=-2 -3 3 -5
leaf_value=0.047382799149307701 -0.085985117493907207 0.063393099360477434 -0.072687622130372095 0.017320580763010674
leaf_weight=8.371484383940702 5.057801976799964 7.2076948285102835 7.4578480124473554 7.3765363693237305
leaf_count=35 21 31 31 31
internal_value=0 0.0144427 -0.000761143 -0.0279302
internal_weight=0 30.4136 23.2059 14.8344
internal_count=149 128 97 62
is_linear=0
shrinkage=0.1


Tree=4
num_leaves=6
num_cat=0
split_feature=10 11 10 11 11
split_gain=3.50323 1.94686 3.01064 2.07719 0.35895
threshold=659.66666666667163 2.4000000000000008 466.00000000000006 0.55000000000000004 1.0500000000000003
decision_type=2 2 2 2 2
left_child=1 2 3 -1 -5
right_child=-2 -3 -4 4 -6
leaf_value=-0.031229545840275069 -0.076312946232456824 -0.034072339803382562 0.088408575466183359 0.018420035449154194 0.057366224871673567
leaf_weight=8.1008540540933698 5.1250134259462348 6.7900858223438254 5.9183847159147254 4.7675857990980131 4.6988534778356552
leaf_count=34 21 28 26 20 20
internal_value=0 0.0130887 0.0267237 0.00594221 0.0377517
internal_weight=0 30.2758 23.4857 17.5673 9.46644
internal_count=149 128 100 74 40
is_linear=0
shrinkage=0.1


Tree=5
num_leaves=5
num_cat=0
split_feature=7 3 5 10
split_gain=3.3574 1.80111 2.0481 0.787873
threshold=120.50000000000001 832.3333333333386 184.74122807017514 350.33333333333036
decision_type=2 2 2 2
left_child=1 2 3 -1
right_child=-2 -3 -4 -5
leaf_value=0.0011758924249384249 -0.061437306456526043 0.070839180464700405 -0.040331089781729751 0.045375111817615527
leaf_weight=7.869278013706217 7.0737044364213935 4.8828218281269065 7.1924449652433387 8.2727562040090543
leaf_count=33 29 22 30 35
internal_value=0 0.0156091 0.00405201 0.0238279
internal_weight=0 28.2173 23.3345 16.142
internal_count=149 120 98 68
is_linear=0
shrinkage=0.1


Tree=6
num_leaves=6
num_cat=0
split_feature=10 11 3 7 7
split_gain=2.88163 1.63352 2.62831 1.60255 2.11601
threshold=659.66666666667163 2.4000000000000008 771.16666666667118 72.500000000000014 105.50000000000001
decision_type=2 2 2 2 2
left_child=1 2 3 -1 -5
right_child=-2 -3 -4 4 -6
leaf_value=-0.040755736025440525 -0.068990694625568491 -0.031051606351887209 0.083272051299422778 0.076409498744376289 -0.0086087253848436563
leaf_weight=5.2683151662349799 5.1434817016124716 6.8118987232446662 5.7520593404769889 4.8625571727752668 7.3563233017921448
leaf_count=22 21 28 26 21 31
internal_value=0 0.0120118 0.0246346 0.00534694 0.0252247
internal_weight=0 30.0512 23.2393 17.4872 12.2189
internal_count=149 128 100 74 52
is_linear=0
shrinkage=0.1


Tree=7
num_leaves=6
num_cat=0
split_feature=7 7 7 11 7
split_gain=2.67795 1.65536 3.10033 2.53514 0.688831
threshold=30.500000000000004 57.500000000000007 105.50000000000001 0.55000000000000004 78.500000000000014
decision_type=2 2 2 2 2
left_child=-1 -2 4 -4 -3
right_child=1 2 3 -5 -6
leaf_value=0.055137629008266555 -0.058959525238291004 0.008708462319901562 -0.089713106553066455 0.0082122572166408794 0.05876510470908794
leaf_weight=7.0788815766572943 6.2725539952516582 4.9935592561960238 5.141921788454054 5.4413228183984756 6.1162577271461487
leaf_count=30 27 21 21 23 27
internal_value=0 -0.0137144 -0.000631699 -0.0393653 0.036266
internal_weight=0 27.9656 21.6931 10.5832 11.1098
internal_count=149 119 92 44 48
is_linear=0
shrinkage=0.1


Tree=8
num_leaves=6
num_cat=0
split_feature=10 11 11 10 10
split_gain=2.28962 1.42398 2.42658 2.36015 2.08635
threshold=659.66666666667163 2.4000000000000008 1.5000000000000002 466.00000000000006 256.16666666667157
decision_type=2 2 2 2 2
left_child=1 2 3 4 -1
right_child=-2 -3 -4 -5 -6
leaf_value=0.039494455534161581 -0.061310695643971208 -0.029281319911082865 0.089013763716962929 0.0673557113555283 -0.042476300162050042
leaf_weight=4.7380958795547583 5.1582395732402793 6.8188315182924262 4.4557791650295249 4.7791333049535742 9.0090254396200162
leaf_count=20 21 28 20 22 38
internal_value=0 0.0108494 0.0227563 0.00682061 -0.0142242
internal_weight=0 29.8009 22.982 18.5263 13.7471
internal_count=149 128 100 80 58
is_linear=0
shrinkage=0.1


Tree=9
num_leaves=5
num_cat=0
split_feature=7 10 7 7
split_gain=2.30128 1.64135 4.41546 4.0052
threshold=30.500000000000004 348.33333333334127 120.50000000000001 72.500000000000014
decision_type=2 2 2 2
left_child=-1 -2 3 -3
right_child=1 2 -4 -5
leaf_value=0.051504743914672906 0.028100780696602976 -0.046101073286290629 -0.11020785205631244 0.055832541040002272
leaf_weight=6.9913114607334128 7.2851477563381222 8.7600495964288729 4.8790113031864157 6.8837342709302893
leaf_count=30 31 37 20 31
internal_value=0 -0.0126762 -0.0271511 -0.00124722
internal_weight=0 27.8079 20.5228 15.6438
internal_count=149 119 88 68
is_linear=0
shrinkage=0.1


Tree=10
num_leaves=5
num_cat=0
split_feature=7 10 7 7
split_gain=1.88341 1.33277 3.57095 3.2635
threshold=30.500000000000004 348.33333333334127 120.50000000000001 72.500000000000014
decision_type=2 2 2 2
left_child=-1 -2 3 -3
right_child=1 2 -4 -5
leaf_value=0.04693086971773678 0.025459275268892346 -0.041145279991494366 -0.099079608909638239 0.051140311403217044
leaf_weight=6.9098191410303107 7.2394131720066097 8.8296718895435351 4.8837814331054679 6.7699448615312567
leaf_count=30 31 37 20 31
internal_value=0 -0.0114222 -0.0244571 -0.00109504
internal_weight=0 27.7228 20.4834 15.5996
internal_count=149 119 88 68
is_linear=0
shrinkage=0.1


Tree=11
num_leaves=6
num_cat=0
split_feature=10 11 13 10 10
split_gain=1.67249 1.20494 2.30809 2.10878 1.66395
threshold=659.66666666667163 2.4000000000000008 1.0000000180025095e-35 466.00000000000006 366.50000000000733
decision_type=2 2 2 2 2
left_child=1 2 -1 4 -4
right_child=-2 -3 3 -5 -6
leaf_value=0.080934807796379016 -0.052811965384242515 -0.027575644356723307 0.014245942438285137 0.063097925436619476 -0.057521021006298738
leaf_weight=4.9349894225597444 5.0718043297529212 6.78563667833805 7.538537949323656 4.449944093823432 5.6534510850906372
leaf_count=22 21 28 33 21 24
internal_value=0 0.00937512 0.0204809 0.0035701 -0.0165099
internal_weight=0 29.3626 22.5769 17.6419 13.192
internal_count=149 128 100 78 57
is_linear=0
shrinkage=0.1


Tree=12
num_leaves=6
num_cat=0
split_feature=7 7 0 10 11
split_gain=1.71943 1.12152 2.65933 3.68815 0.867817
threshold=30.500000000000004 57.500000000000007 0.15000000000000005 337.83333333333809 0.90000000000000013
decision_type=2 2 2 2 2
left_child=-1 -2 3 -3 -4
right_child=1 2 4 -5 -6
leaf_value=0.045044812470104667 -0.047836038988192373 0.030284558794901318 0.072342636435645077 -0.081762076366560965 0.010955974588724609
leaf_weight=6.8487179130315772 6.3429987430572536 5.3539670556783694 4.4234931170940381 6.509479746222496 4.8039002865552902
leaf_count=30 27 23 20 28 21
internal_value=0 -0.0109672 0.000121025 -0.0311955 0.0403839
internal_weight=0 27.4338 21.0908 11.8634 9.22739
internal_count=149 119 92 51 41
is_linear=0
shrinkage=0.1


Tree=13
num_leaves=5
num_cat=0
split_feature=7 10 7 11
split_gain=1.40645 0.93458 2.1102 1.68594
threshold=30.500000000000004 600.83333333333951 66.500000000000014 1.0000000180025095e-35
decision_type=2 2 2 2
left_child=-1 2 -2 -4
right_child=1 -3 3 -5
leaf_value=0.041037963409133231 -0.043522632447321789 -0.042092336139862074 -0.012786335100246543 0.057856711571277322
leaf_weight=6.7699449956417075 7.0769230872392717 6.7728044092655173 6.5114554464817029 7.0210900455713272
leaf_count=30 29 30 28 32
internal_value=0 -0.00986514 0.00072555 0.0238654
internal_weight=0 27.3823 20.6095 13.5325
internal_count=149 119 89 60
is_linear=0
shrinkage=0.1


Tree=14
num_leaves=6
num_cat=0
split_feature=7 11 4 11 10
split_gain=1.42601 1.71288 1.47103 1.4408 0.0399651
threshold=105.50000000000001 0.55000000000000004 1.0000000180025095e-35 1.5000000000000002 382.33333333333377
decision_type=2 2 2 2 2
left_child=2 -2 -1 -4 -5
right_child=1 -3 3 4 -6
leaf_value=0.047652923482692774 -0.072631589690701964 0.0092348101079122395 -0.041740121727716045 0.026849506203537495 0.013723531302242463
leaf_weight=8.2880978584289569 5.026833161711691 5.1989735960960388 6.2282342463731757 4.7446898519992811 4.5383966863155365
leaf_count=38 21 23 27 20 20
internal_value=0 -0.0310093 0.0136415 -0.00453165 0.0204324
internal_weight=0 10.2258 23.7994 15.5113 9.28309
internal_count=149 44 105 67 40
is_linear=0
shrinkage=0.1


Tree=15
num_leaves=6
num_cat=0
split_feature=10 7 11 11 11
split_gain=1.25465 3.03388 1.55294 1.09274 0.917606
threshold=348.33333333334127 120.50000000000001 2.4000000000000008 1.25 0.55000000000000004
decision_type=2 2 2 2 2
left_child=-1 2 3 4 -2
right_child=1 -3 -4 -5 -6
leaf_value=0.034888587813057863 0.038060145138156642 -0.082790944169106956 -0.037317830756075407 0.064666799663228816 -0.020634564820172022
leaf_weight=7.9799294471740714 4.8133333176374489 4.7387261986732474 6.0083617568016043 4.4111565053462973 5.9635677337646484
leaf_count=35 21 20 25 21 27
internal_value=0 -0.0104548 0.00571686 0.0227413 0.0055805
internal_weight=0 25.9351 21.1964 15.1881 10.7769
internal_count=149 114 94 69 48
is_linear=0
shrinkage=0.1


Tree=16
num_leaves=6
num_cat=0
split_feature=0 0 0 10 4
split_gain=1.18871 1.69417 1.96475 2.87593 1.97345
threshold=2.6500000000000017 1.0500000000000003 0.15000000000000005 337.83333333333809 1.0000000180025095e-35
decision_type=2 2 2 2 2
left_child=1 2 3 -1 -4
right_child=-2 -3 4 -5 -6
leaf_value=0.02917147702385834 0.043199313627692776 -0.057831030875277328 0.081255304628885056 -0.069672996068160326 -0.0039885416980947478
leaf_weight=5.4498653858900123 5.4007599502801886 5.4969535171985617 4.9533675014972669 6.4006735384464264 6.0121337026357651
leaf_count=24 23 23 24 28 27
internal_value=0 -0.00799492 0.00401184 -0.0242161 0.0345181
internal_weight=0 28.313 22.816 11.8505 10.9655
internal_count=149 126 103 52 51
is_linear=0
shrinkage=0.1


Tree=17
num_leaves=5
num_cat=0
split_feature=7 7 0 10
split_gain=1.0602 0.725799 1.74788 1.64851
threshold=30.500000000000004 57.500000000000007 0.25000000000000006 337.83333333333809
decision_type=2 2 2 2
left_child=-1 -2 3 -3
right_child=1 2 -4 -5
leaf_value=0.035971687012556645 -0.038012812402200731 0.021457728384023492 0.038286228600763111 -0.051594021150270578
leaf_weight=6.647660791873931 6.4038439840078381 5.1879116743803042 7.6787264198064795 7.6356645375490189
leaf_count=30 27 23 35 34
internal_value=0 -0.00862526 0.000553871 -0.0220402
internal_weight=0 26.9061 20.5023 12.8236
internal_count=149 119 92 57
is_linear=0
shrinkage=0.1


Tree=18
num_leaves=6
num_cat=0
split_feature=10 10 10 3 10
split_gain=0.91904 1.42155 1.3543 1.68285 0.608773
threshold=659.66666666667163 466.00000000000006 348.33333333334127 412.50000000000119 382.66666666666521
decision_type=2 2 2 2 2
left_child=1 2 -1 -4 -5
right_child=-2 -3 3 4 -6
leaf_value=0.028566029110680971 -0.03994176396122761 0.048469539868704704 -0.074204769226252312 0.022880211146152088 -0.026918829686846252
leaf_weight=7.7986195087432924 4.8718136548995963 6.4225760549306861 4.4591844975948325 5.299300938844679 4.5732342749834061
leaf_count=35 21 31 19 23 20
internal_value=0 0.00705095 -0.00496938 -0.0232177 -0.000188097
internal_weight=0 28.5529 22.1303 14.3317 9.87254
internal_count=149 128 97 62 43
is_linear=0
shrinkage=0.1


Tree=19
num_leaves=6
num_cat=0
split_feature=7 7 0 7 10
split_gain=0.860601 1.22998 1.46999 2.6126 0.142952
threshold=105.50000000000001 72.500000000000014 2.6500000000000017 45.500000000000007 493.83333333332854
decision_type=2 2 2 2 2
left_child=1 2 3 -1 -2
right_child=4 -3 -4 -5 -6
leaf_value=0.01644037092409267 -0.013661692862730772 0.046683104290142781 0.042444386580706865 -0.079424194821621358 -0.037767848410578314
leaf_weight=6.8963943868875557 5.5133573710918409 6.7508756071329108 4.8351107537746421 4.8366726040840149 4.4419395625591278
leaf_count=31 24 33 21 20 20
internal_value=0 0.0107039 -0.00395615 -0.0230775 -0.0244176
internal_weight=0 23.3191 16.5682 11.7331 9.9553
internal_count=149 105 72 51 44
is_linear=0
shrinkage=0.1


Tree=20
num_leaves=6
num_cat=0
split_feature=0 3 10 0 5
split_gain=0.792836 2.15272 1.73099 0.684521 2.9643
threshold=0.15000000000000005 196.00000000000003 337.83333333333809 2.6500000000000017 254.70114942528883
decision_type=2 2 2 2 2
left_child=2 -2 -1 4 -3
right_child=1 3 -4 -5 -6
leaf_value=0.021281398960693532 0.082000630754371195 -0.080305431986525205 -0.056214557200569039 0.028517437490533148 0.020418689042432641
leaf_weight=5.3010239005088788 3.6106037050485638 4.5019880086183575 6.3169374465942383 5.054031401872634 8.324489086866377
leaf_count=24 17 19 28 22 39
internal_value=0 0.0115695 -0.0208548 -0.00265266 -0.0149346
internal_weight=0 21.4911 11.618 17.8805 12.8265
internal_count=149 97 52 80 58
is_linear=0
shrinkage=0.1


Tree=21
num_leaves=6
num_cat=0
split_feature=10 10 10 3 10
split_gain=0.708567 1.14583 0.993739 1.24827 0.462889
threshold=659.66666666667163 466.00000000000006 348.33333333334127 412.50000000000119 382.66666666666521
decision_type=2 2 2 2 2
left_child=1 2 -1 -4 -5
right_child=-2 -3 3 4 -6
leaf_value=0.024511071922494077 -0.0353743366960316 0.043960726561463888 -0.064295119168759685 0.019936065825331459 -0.023611236181682704
leaf_weight=7.651552200317389 4.7875675261020652 6.2615867406129828 4.4209930896759024 5.2532521188259107 4.5594991147518158
leaf_count=35 21 31 19 23 20
internal_value=0 0.00624002 -0.00455222 -0.0201756 -0.000298207
internal_weight=0 28.1469 21.8853 14.2337 9.81275
internal_count=149 128 97 62 43
is_linear=0
shrinkage=0.1


Tree=22
num_leaves=5
num_cat=0
split_feature=7 11 7 5
split_gain=0.72798 1.52376 1.04687 1.41867
threshold=105.50000000000001 0.55000000000000004 72.500000000000014 215.66411238825108
decision_type=2 2 2 2
left_child=2 -2 3 -1
right_child=1 -3 -4 -5
leaf_value=0.026743337588132389 -0.063364641581612619 0.015576625021794362 0.043594718706299482 -0.032100707401852335
leaf_weight=7.9425363689661088 4.7413474023342115 5.0489883273839951 6.5832214057445517 8.4622638672590238
leaf_count=34 21 23 33 38
internal_value=0 -0.0226537 0.00990772 -0.00361082
internal_weight=0 9.79034 22.988 16.4048
internal_count=149 44 105 72
is_linear=0
shrinkage=0.1


Tree=23
num_leaves=6
num_cat=0
split_feature=7 13 7 7 11
split_gain=0.676906 0.782501 2.00728 3.41753 0.374588
threshold=30.500000000000004 1.0000000180025095e-35 63.500000000000007 117.50000000000001 0.40000000000000013
decision_type=2 2 2 2 2
left_child=-1 -2 -3 4 -4
right_child=1 2 3 -5 -6
leaf_value=0.029169948187821693 0.021739878175203245 -0.068653118488380765 0.061191675840831211 -0.062670514967441207 0.019799105892282048
leaf_weight=6.4599095433950415 6.9696036577224758 5.4645172357559231 4.4271713495254499 5.0342059731483451 4.3193495273590088
leaf_count=30 32 23 21 22 21
internal_value=0 -0.00696967 -0.0173667 0.00297002 0.0407505
internal_weight=0 26.2148 19.2452 13.7807 8.74652
internal_count=149 119 87 64 42
is_linear=0
shrinkage=0.1


Tree=24
num_leaves=6
num_cat=0
split_feature=0 3 10 3 7
split_gain=0.654924 1.77753 1.23754 0.654013 1.06305
threshold=0.15000000000000005 196.00000000000003 337.83333333333809 771.16666666667118 48.500000000000007
decision_type=2 2 2 2 2
left_child=2 -2 -1 4 -3
right_child=1 3 -4 -5 -6
leaf_value=0.016770612631048943 0.076061357534253859 -0.052386516824795407 -0.049612775858010306 0.018652352101015037 0.014199086616182664
leaf_weight=5.1757705807685834 3.4643988609313991 4.9187736958265322 6.1393709033727646 8.1039959639310819 4.6780131906270981
leaf_count=24 17 21 28 39 20
internal_value=0 0.0105556 -0.0192477 -0.00226517 -0.019929
internal_weight=0 21.1652 11.3151 17.7008 9.59679
internal_count=149 97 52 80 41
is_linear=0
shrinkage=0.1


Tree=25
num_leaves=6
num_cat=0
split_feature=10 10 10 5 3
split_gain=0.629027 1.05019 0.758738 0.642963 0.52126
threshold=659.66666666667163 466.00000000000006 366.50000000000733 254.70114942528883 302.83333333333582
decision_type=2 2 2 2 2
left_child=1 2 4 -4 -1
right_child=-2 -3 3 -5 -6
leaf_value=-0.0037154391203758417 -0.03376591261718663 0.042527719957483071 -0.049328308803283261 0.0017877167022483404 0.039775404977570011
leaf_weight=7.280911281704908 4.6730341166257849 6.1020449474453917 5.1484763473272306 4.7137816399335861 4.4342645406723022
leaf_count=34 21 31 22 21 20
internal_value=0 0.00589932 -0.0044591 -0.0248968 0.0127461
internal_weight=0 27.6795 21.5774 9.86226 11.7152
internal_count=149 128 97 43 54
is_linear=0
shrinkage=0.1


Tree=26
num_leaves=6
num_cat=0
split_feature=7 7 5 10 10
split_gain=1.15024 1.31259 1.45203 0.601172 1.58727
threshold=15.500000000000002 36.500000000000007 130.65993788819875 337.83333333333809 466.00000000000006
decision_type=2 2 2 2 2
left_child=-1 -2 3 -3 -5
right_child=1 2 -4 4 -6
leaf_value=0.057443542037046394 -0.055098526616704016 0.013566897926703573 0.036282150922852523 -0.071133430828876881 0.0060425232729447494
leaf_weight=3.1617500036954871 4.596688166260722 5.0924578160047558 8.5838991925120336 4.7804906368255597 6.0219413414597511
leaf_count=15 21 24 39 21 29
internal_value=0 -0.00606712 0.00314011 -0.014758 -0.0281108
internal_weight=0 29.0755 24.4788 15.8949 10.8024
internal_count=149 134 113 74 50
is_linear=0
shrinkage=0.1


Tree=27
num_leaves=6
num_cat=0
split_feature=7 7 5 7 11
split_gain=0.95005 1.04622 1.18375 0.299686 0.573047
threshold=15.500000000000002 36.500000000000007 130.65993788819875 96.500000000000014 0.55000000000000004
decision_type=2 2 2 2 2
left_child=-1 -2 3 -3 -5
right_child=1 2 -4 4 -6
leaf_value=0.05277956008417585 -0.048866677805766374 -0.031490023354014594 0.032895302016433314 -0.024953482163254808 0.022852632466187434
leaf_weight=3.100344866514205 4.6609355360269573 5.7696406319737461 8.5241724699735624 5.439665272831915 4.6514966934919357
leaf_count=15 21 27 39 25 22
internal_value=0 -0.00545636 0.00284107 -0.0133112 -0.00291737
internal_weight=0 29.0459 24.385 15.8608 10.0912
internal_count=149 134 113 74 47
is_linear=0
shrinkage=0.1


Tree=28
num_leaves=7
num_cat=0
split_feature=7 7 5 0 7 10
split_gain=0.784243 0.836651 1.01342 0.772337 0.750245 0.043223
threshold=15.500000000000002 36.500000000000007 340.21464646464648 1.0500000000000003 105.50000000000001 466.00000000000006
decision_type=2 2 2 2 2 2
left_child=-1 -2 3 4 -3 -6
right_child=1 2 -4 -5 5 -7
leaf_value=0.048472916799420805 -0.043459717108207035 0.032411873318355891 0.042174349431331012 -0.042443115072098775 -0.021410346489148004 -0.007407734167333398
leaf_weight=3.041407197713851 4.7137295752763775 5.573251321911818 5.1056737750768653 4.8520662784576407 4.4410046488046628 4.3771913349628448
leaf_count=15 21 27 25 20 20 21
internal_value=0 -0.00489747 0.00256775 -0.00794064 0.00369185 -0.0144597
internal_weight=0 29.0629 24.3492 19.2435 14.3914 8.8182
internal_count=149 134 113 88 68 41
is_linear=0
shrinkage=0.1


Tree=29
num_leaves=6
num_cat=0
split_feature=7 11 3 10 10
split_gain=0.647136 1.00097 0.996072 0.585915 1.02137
threshold=15.500000000000002 2.0500000000000003 771.16666666667118 466.00000000000006 337.83333333333809
decision_type=2 2 2 2 2
left_child=-1 2 3 4 -2
right_child=1 -3 -4 -5 -6
leaf_value=0.044490019293694991 0.0079243472546037964 -0.041409672648691775 0.043757403651552035 0.01788747937064886 -0.051776049753120196
leaf_weight=2.9853535741567638 6.1970342993736356 5.8383888676762572 5.1389877423644057 6.4866603463888159 5.3307817727327347
leaf_count=15 29 25 25 31 24
internal_value=0 -0.00440698 0.00492364 -0.00615446 -0.0196828
internal_weight=0 28.9919 23.1535 18.0145 11.5278
internal_count=149 134 109 84 53
is_linear=0
shrinkage=0.1


Tree=30
num_leaves=6
num_cat=0
split_feature=10 11 3 10 10
split_gain=0.699298 1.2122 1.83547 1.30203 0.753977
threshold=659.66666666667163 2.4000000000000008 771.16666666667118 401.50000000000006 256.16666666667157
decision_type=2 2 2 2 2
left_child=1 2 3 4 -1
right_child=-2 -3 -4 -5 -6
leaf_value=0.01630636198460364 -0.03569235301154236 -0.032039895801913541 0.071327355727608718 0.047984990649536076 -0.036165250067461838
leaf_weight=4.4360934495925992 4.6482817083597174 6.3343396782875052 4.9164395183324805 4.3665925338864318 7.1559958308935165
leaf_count=21 21 28 26 21 32
internal_value=0 0.00627701 0.0179039 0.00144555 -0.0160853
internal_weight=0 27.2095 20.8751 15.9587 11.5921
internal_count=149 128 100 74 53
is_linear=0
shrinkage=0.1


Tree=31
num_leaves=5
num_cat=0
split_feature=7 10 7 11
split_gain=0.596564 0.787572 1.09889 1.76179
threshold=30.500000000000004 600.83333333333951 72.500000000000014 1.0000000180025095e-35
decision_type=2 2 2 2
left_child=-1 2 -2 -4
right_child=1 -3 3 -5
leaf_value=0.027705473581950912 -0.024966997344330596 -0.037913281129872224 -0.014709868059691891 0.064506577415208557
leaf_weight=6.3003506138920811 8.0459118187427574 6.1237647309899321 5.8301272541284543 5.4152990430593491
leaf_count=30 34 30 27 28
internal_value=0 -0.00666896 0.00324911 0.0234373
internal_weight=0 25.4151 19.2913 11.2454
internal_count=149 119 89 55
is_linear=0
shrinkage=0.1


Tree=32
num_leaves=6
num_cat=0
split_feature=7 11 11 5 11
split_gain=0.498574 0.918081 1.2191 0.915712 0.84569
threshold=105.50000000000001 0.40000000000000013 1.0500000000000003 254.70114942528883 0.55000000000000004
decision_type=2 2 2 2 2
left_child=1 -1 -3 -4 -2
right_child=4 2 3 -5 -6
leaf_value=0.044750113644760378 -0.050056045035719525 -0.044318281174658677 -0.007959835566463595 0.048788350849619813 0.010068551617412136
leaf_weight=5.27476584166289 4.5572611391544324 5.027544371783736 7.2144971787929517 4.6933331713080406 4.8070544376969337
leaf_count=25 21 23 32 25 23
internal_value=0 0.00831998 -0.0030267 0.0144068 -0.0191918
internal_weight=0 22.2101 16.9354 11.9078 9.36432
internal_count=149 105 80 57 44
is_linear=0
shrinkage=0.1


Tree=33
num_leaves=6
num_cat=0
split_feature=0 4 10 5 11
split_gain=0.433013 1.32803 0.946799 0.850259 1.97822
threshold=0.15000000000000005 1.0000000180025095e-35 337.83333333333809 451.0416666666643 2.7499999999999996
decision_type=2 2 2 2 2
left_child=2 -2 -1 4 -3
right_child=1 3 -4 -5 -6
leaf_value=0.015655869517827867 0.051972636544337585 0.057656723946496624 -0.04323968645189339 -0.041867355430080362 -0.02945489073924051
leaf_weight=5.0991235375404376 5.2763891890645054 4.7108872383832914 5.8738085031509399 4.6525621414184561 5.8368469625711441
leaf_count=24 28 21 28 22 26
internal_value=0 0.0087479 -0.0158709 -0.00625645 0.00945138
internal_weight=0 20.4767 10.9729 15.2003 10.5477
internal_count=149 97 52 69 47
is_linear=0
shrinkage=0.1


Tree=34
num_leaves=5
num_cat=0
split_feature=7 10 7 11
split_gain=0.518227 0.628508 0.997755 1.45778
threshold=30.500000000000004 600.83333333333951 72.500000000000014 1.0000000180025095e-35
decision_type=2 2 2 2
left_child=-1 2 -2 -4
right_child=1 -3 3 -5
leaf_value=0.025914882143501225 -0.024251243609091727 -0.03434156909866784 -0.012558684513868207 0.060250289459051566
leaf_weight=6.2520689889788654 7.9853452146053376 6.0492784827947608 5.7658240050077421 5.2573856040835381
leaf_count=30 34 30 27 28
internal_value=0 -0.00626744 0.00266687 0.0221667
internal_weight=0 25.0578 19.0086 11.0232
internal_count=149 119 89 55
is_linear=0
shrinkage=0.1


Tree=35
num_leaves=6
num_cat=0
split_feature=7 11 11 5 11
split_gain=0.432401 0.71762 0.906177 0.683268 0.59244
threshold=105.50000000000001 0.40000000000000013 1.0500000000000003 254.70114942528883 0.55000000000000004
decision_type=2 2 2 2 2
left_child=1 -1 -3 -4 -2
right_child=4 2 3 -5 -6
leaf_value=0.0403004423652134 -0.044060787331250226 -0.037740747807054359 -0.0062599197798215841 0.043216479921661284 0.0067175027988684273
leaf_weight=5.1838526576757493 4.4852861166000348 5.0391168817877796 7.1897069811820966 4.5625011771917343 4.7109435275197029
leaf_count=25 21 23 32 25 23
internal_value=0 0.00777695 -0.00226378 0.0129481 -0.0180486
internal_weight=0 21.9752 16.7913 11.7522 9.19623
internal_count=149 105 80 57 44
is_linear=0
shrinkage=0.1


Tree=36
num_leaves=6
num_cat=0
split_feature=7 13 7 0 10
split_gain=0.407554 0.642666 1.43453 4.57676 0.32099
threshold=30.500000000000004 1.0000000180025095e-35 63.500000000000007 0.15000000000000005 357.33333333333218
decision_type=2 2 2 2 2
left_child=-1 -2 -3 4 -4
right_child=1 2 3 -5 -6
leaf_value=0.023143001143074715 0.021310064785703211 -0.05891441513452559 -0.019053709291404521 0.089055163832378367 -0.057202465811754415
leaf_weight=6.1767141595482853 6.5560257434845033 5.3201162219047538 4.4241709560155851 4.1706073880195609 4.3983923345804214
leaf_count=30 32 23 21 22 21
internal_value=0 -0.0055572 -0.0151755 0.00273362 -0.0380724
internal_weight=0 24.8693 18.3133 12.9932 8.82256
internal_count=149 119 87 64 42
is_linear=0
shrinkage=0.1


Tree=37
num_leaves=6
num_cat=0
split_feature=10 11 10 11 5
split_gain=0.38417 0.847929 1.59479 0.93519 0.520035
threshold=659.66666666667163 2.4000000000000008 466.00000000000006 0.55000000000000004 215.66411238825108
decision_type=2 2 2 2 2
left_child=1 2 3 -1 -5
right_child=-2 -3 -4 4 -6
leaf_value=-0.026740619020835105 -0.026899842825327709 -0.027379485383056443 0.066102613668460306 0.051109113374506403 0.00030785515481361402
leaf_weight=7.2854122593999007 4.4850337058305731 6.2621171325445166 4.6510291099548331 3.579203397035597 4.6109282374382019
leaf_count=34 21 28 26 17 23
internal_value=0 0.00475676 0.0147555 -0.000676359 0.0225087
internal_weight=0 26.3887 20.1266 15.4755 8.19013
internal_count=149 128 100 74 40
is_linear=0
shrinkage=0.1


Tree=38
num_leaves=6
num_cat=0
split_feature=10 11 0 5 11
split_gain=0.37255 0.724282 0.903527 1.45535 0.629832
threshold=366.50000000000733 2.0500000000000003 0.25000000000000006 560.68627450980637 1.0000000180025095e-35
decision_type=2 2 2 2 2
left_child=4 2 -2 -4 -1
right_child=1 -3 3 -5 -6
leaf_value=-0.013804592979862629 -0.026227407854208115 -0.039512044451691743 0.067414313425273681 -0.016495680554582098 0.034402075837298728
leaf_weight=4.5852913558483142 5.9027702957391766 5.3548585101962081 4.0883819460868818 4.1806366443634033 6.6277864724397659
leaf_count=21 30 24 19 22 33
internal_value=0 -0.00818076 0.00365788 0.0249912 0.0146892
internal_weight=0 19.5266 14.1718 8.26902 11.2131
internal_count=149 95 71 41 54
is_linear=0
shrinkage=0.1


Tree=39
num_leaves=6
num_cat=0
split_feature=7 10 13 7 7
split_gain=0.3968 0.711863 1.26505 1.47479 1.19786
threshold=30.500000000000004 659.66666666667163 1.0000000180025095e-35 66.500000000000014 105.50000000000001
decision_type=2 2 2 2 2
left_child=-1 2 -2 -4 -5
right_child=1 -3 3 4 -6
leaf_value=0.022864216417388682 0.044137890617467368 -0.044231093903203927 -0.055410684857239913 0.044150812207865049 -0.025198560433659752
leaf_weight=6.152592800557616 5.2824981808662494 3.9826240986585608 5.2742779701948139 5.0551342070102674 4.9098031297326088
leaf_count=30 26 19 23 28 23
internal_value=0 -0.00554108 0.00196744 -0.0126505 0.00998183
internal_weight=0 24.5043 20.5217 15.2392 9.96494
internal_count=149 119 100 74 51
is_linear=0
shrinkage=0.1


Tree=40
num_leaves=6
num_cat=0
split_feature=5 7 7 10 7
split_gain=0.334513 1.15043 0.679126 0.531359 0.80927
threshold=215.66411238825108 51.500000000000007 36.500000000000007 337.83333333333809 114.50000000000001
decision_type=2 2 2 2 2
left_child=1 -1 -2 -3 -5
right_child=2 3 -4 4 -6
leaf_value=0.048888570527906197 -0.046323077853020679 0.019689834362128081 0.0067009999288841719 0.0050524569100570795 -0.052062332812447501
leaf_weight=5.053577244281775 4.0646022856235486 5.2555588185787192 5.9534804970026016 5.7705553695559484 4.3516446202993393
leaf_count=23 20 26 30 28 22
internal_value=0 0.00749545 -0.0148123 -0.00610754 -0.0195018
internal_weight=0 20.4313 10.0181 15.3778 10.1222
internal_count=149 99 50 76 50
is_linear=0
shrinkage=0.1


Tree=41
num_leaves=5
num_cat=0
split_feature=7 10 7 11
split_gain=0.319357 0.369991 0.814795 1.01307
threshold=30.500000000000004 600.83333333333951 72.500000000000014 1.0000000180025095e-35
decision_type=2 2 2 2
left_child=-1 2 -2 -4
right_child=1 -3 3 -5
leaf_value=0.020624611408561772 -0.022479178639746009 -0.026956832972369282 -0.0089779324283691623 0.053030969890460716
leaf_weight=6.0874032229185131 7.8403363525867524 5.8271647915244094 5.6269978284835798 4.9545188993215561
leaf_count=30 34 30 27 28
internal_value=0 -0.0049941 0.00195311 0.0200561
internal_weight=0 24.249 18.4219 10.5815
internal_count=149 119 89 55
is_linear=0
shrinkage=0.1


Tree=42
num_leaves=5
num_cat=0
split_feature=11 0 7 11
split_gain=0.31112 0.870605 0.79094 0.303227
threshold=2.4000000000000008 0.55000000000000016 96.500000000000014 0.55000000000000004
decision_type=2 2 2 2
left_child=1 2 -1 -4
right_child=-2 -3 3 -5
leaf_value=-0.033406390520856075 -0.018548950236317009 0.03462226114703789 -0.0048983773539468846 0.031135863335188724
leaf_weight=6.7310826256871321 6.8772863298654547 7.1810474619269362 5.1378546357154828 4.2811393439769745
leaf_count=35 31 34 25 24
internal_value=0 0.00565308 -0.00722791 0.01148
internal_weight=0 23.3311 16.1501 9.41899
internal_count=149 118 84 49
is_linear=0
shrinkage=0.1


Tree=43
num_leaves=6
num_cat=0
split_feature=5 3 3 10 10
split_gain=0.275274 1.00243 0.707027 0.445313 0.691166
threshold=215.66411238825108 412.50000000000119 771.16666666667118 466.00000000000006 256.16666666667157
decision_type=2 2 2 2 2
left_child=1 3 -2 4 -1
right_child=2 -3 -4 -5 -6
leaf_value=0.012366887026087479 -0.046778489802389273 0.048798047872153874 0.0077650346395518044 0.017268919685370757 -0.040618430955849466
leaf_weight=4.3412109613418632 3.8868433088064176 4.4446336776018134 6.1163024753332138 5.7279058992862693 5.6870124042034149
leaf_count=22 17 20 33 30 27
internal_value=0 0.00685588 -0.0134285 -0.00497556 -0.0176811
internal_weight=0 20.2008 10.0031 15.7561 10.0282
internal_count=149 99 50 79 49
is_linear=0
shrinkage=0.1


Tree=44
num_leaves=6
num_cat=0
split_feature=11 3 3 7 7
split_gain=0.298264 0.858853 0.514461 0.429063 0.528265
threshold=2.4000000000000008 771.16666666667118 196.00000000000003 105.50000000000001 126.50000000000001
decision_type=2 2 2 2 2
left_child=1 2 3 -1 -5
right_child=-2 -3 -4 4 -6
leaf_value=0.027492935016108201 -0.018189290940831503 0.041475392264669203 -0.033099952684898994 -0.034060422103107432 0.016921592051691758
leaf_weight=5.2730246633291342 6.8646747618913642 5.171276442706584 4.724742963910102 4.1562096849083883 3.9774763733148575
leaf_count=27 31 29 21 21 20
internal_value=0 0.0055275 -0.00472521 0.00527452 -0.00912957
internal_weight=0 23.3027 18.1315 13.4067 8.13369
internal_count=149 118 89 68 41
is_linear=0
shrinkage=0.1


Tree=45
num_leaves=6
num_cat=0
split_feature=7 10 13 7 7
split_gain=0.283406 0.504586 1.01988 1.18434 0.991867
threshold=30.500000000000004 659.66666666667163 1.0000000180025095e-35 66.500000000000014 105.50000000000001
decision_type=2 2 2 2 2
left_child=-1 2 -2 -4 -5
right_child=1 -3 3 4 -6
leaf_value=0.019537326731884706 0.039910129923768453 -0.037479320830474651 -0.050015321383215121 0.040562486358760884 -0.023215805745061054
leaf_weight=6.0189376920461681 5.1819917187094768 3.9343248531222335 5.2179991751909229 4.9286657422780973 4.826070137321949
leaf_count=30 26 19 23 28 23
internal_value=0 -0.00472181 0.00167265 -0.0115612 0.00900873
internal_weight=0 24.0891 20.1547 14.9727 9.75474
internal_count=149 119 100 74 51
is_linear=0
shrinkage=0.1


Tree=46
num_leaves=6
num_cat=0
split_feature=0 4 11 11 10
split_gain=0.257832 0.947759 0.685335 1.40576 0.500066
threshold=0.15000000000000005 1.0000000180025095e-35 1.5000000000000002 3.0000000000000013 337.83333333333809
decision_type=2 2 2 2 2
left_child=4 -2 -3 -4 -1
right_child=1 2 3 -5 -6
leaf_value=0.010697254740076685 0.044909548760517656 -0.031888889677284066 0.056026571523147432 -0.024746667871131049 -0.033380292027851026
leaf_weight=4.8581306338310259 4.9078422933816936 5.9862477853894225 3.960839204490183 4.724964514374733 5.4742134809494019
leaf_count=24 28 27 20 22 28
internal_value=0 0.00686926 -0.00585533 0.012087 -0.0126556
internal_weight=0 19.5799 14.6721 8.6858 10.3323
internal_count=149 97 69 42 52
is_linear=0
shrinkage=0.1


Tree=47
num_leaves=6
num_cat=0
split_feature=5 7 0 10 7
split_gain=0.253549 0.937384 0.585107 0.577312 0.881351
threshold=215.66411238825108 51.500000000000007 0.84999999999999998 256.16666666667157 120.50000000000001
decision_type=2 2 2 2 2
left_child=1 -1 -2 -3 -5
right_child=2 3 -4 4 -6
leaf_value=0.044390141334869564 0.01099113174442818 0.030305889726511454 -0.037786596494292092 0.0036928680021750433 -0.054199230365472723
leaf_weight=4.9397097080946031 4.9980058670043928 3.413161300122737 4.8412504121661186 7.5425645560026151 4.0373500660061836
leaf_count=23 27 18 23 37 21
internal_value=0 0.0066095 -0.0130092 -0.00583794 -0.0164913
internal_weight=0 19.9328 9.83926 14.9931 11.5799
internal_count=149 99 50 76 58
is_linear=0
shrinkage=0.1


Tree=48
num_leaves=5
num_cat=0
split_feature=11 3 10 7
split_gain=0.271444 0.759595 0.822675 0.803198
threshold=2.4000000000000008 771.16666666667118 466.00000000000006 96.500000000000014
decision_type=2 2 2 2
left_child=1 2 3 -1
right_child=-2 -3 -4 -5
leaf_value=-0.041037957513614713 -0.017435842360172562 0.039608491555227429 0.026316338494068066 0.011708852854704396
leaf_weight=7.0477465763688176 6.790581911802291 5.0399409160017958 5.8605343848466864 4.8898739963769913
leaf_count=33 31 29 31 25
internal_value=0 0.00533678 -0.00436801 -0.0194319
internal_weight=0 22.8381 17.7982 11.9376
internal_count=149 118 89 58
is_linear=0
shrinkage=0.1


Tree=49
num_leaves=5
num_cat=0
split_feature=11 0 10 10
split_gain=0.219912 0.763318 0.720499 0.706014
threshold=2.4000000000000008 0.55000000000000016 600.83333333333951 350.33333333333036
decision_type=2 2 2 2
left_child=1 2 3 -1
right_child=-2 -3 -4 -5
leaf_value=-0.018608590966623508 -0.015667327258585925 0.032359966536549351 -0.044145392364004561 0.030230882588849553
leaf_weight=6.1144596710801178 6.8008113503456107 6.9837292581796637 3.9793045893311492 5.7370108440518379
leaf_count=31 31 34 22 31
internal_value=0 0.00482056 -0.00732842 0.00503342
internal_weight=0 22.8145 15.8308 11.8515
internal_count=149 118 84 62
is_linear=0
shrinkage=0.1


Tree=50
num_leaves=6
num_cat=0
split_feature=5 0 7 7 10
split_gain=0.255097 0.916454 0.585513 0.493209 2.38569
threshold=215.66411238825108 2.2000000000000011 36.500000000000007 108.50000000000001 350.33333333333945
decision_type=2 2 2 2 2
left_child=1 3 -2 4 -1
right_child=2 -3 -4 -5 -6
leaf_value=-0.080824959133586768 -0.042471915410789582 0.047675006264537044 0.0073031835900365704 0.0143422496173022 0.027233350092263728
leaf_weight=3.7135388702154213 4.0068414434790594 4.2680174708366385 5.7613531276583672 7.2729191258549681 4.5421952232718468
leaf_count=19 20 20 30 38 22
internal_value=0 0.00663447 -0.0131142 -0.00464544 -0.0213727
internal_weight=0 19.7967 9.76819 15.5287 8.25573
internal_count=149 99 50 79 41
is_linear=0
shrinkage=0.1


Tree=51
num_leaves=5
num_cat=0
split_feature=10 11 0 11
split_gain=0.304607 0.87721 0.924379 1.97796
threshold=348.33333333334127 2.4000000000000008 0.55000000000000016 1.0000000180025095e-35
decision_type=2 2 2 2
left_child=-1 2 3 -2
right_child=1 -3 -4 -5
leaf_value=0.018404655278818165 0.045776177631620237 -0.038256513995868491 0.035788588332002644 -0.045951843207648529
leaf_weight=6.9661966785788563 3.6983124986290985 6.008950248360633 6.4917439371347418 6.4517602846026421
leaf_count=35 21 27 32 34
internal_value=0 -0.00550652 0.0063187 -0.0125295
internal_weight=0 22.6508 16.6418 10.1501
internal_count=149 114 87 55
is_linear=0
shrinkage=0.1


Tree=52
num_leaves=6
num_cat=0
split_feature=11 7 0 0 7
split_gain=0.282288 0.953035 0.785616 0.966312 0.762462
threshold=3.7500000000000009 36.500000000000007 0.25000000000000006 1.0500000000000003 108.50000000000001
decision_type=2 2 2 2 2
left_child=1 -1 4 -4 -3
right_child=-2 2 3 -5 -6
leaf_value=-0.042885728059522045 0.024587486379903538 -0.046641663987142416 0.060270669144443872 -0.0040329159805995432 0.0076931355509340703
leaf_weight=5.0094490349292817 4.065242111682891 4.0717608630657214 4.5346462801098806 4.8219237178564072 7.061745248734951
leaf_count=25 19 20 26 22 37
internal_value=0 -0.00378677 0.00577221 0.0271317 -0.0121783
internal_weight=0 25.4995 20.4901 9.35657 11.1335
internal_count=149 130 105 48 57
is_linear=0
shrinkage=0.1


Tree=53
num_leaves=6
num_cat=0
split_feature=7 0 7 10 11
split_gain=0.330582 0.397728 1.17349 0.789849 1.1829
threshold=30.500000000000004 1.2500000000000002 75.500000000000014 600.83333333333951 0.55000000000000004
decision_type=2 2 2 2 2
left_child=-1 2 -2 4 -4
right_child=1 -3 3 -5 -6
leaf_value=0.021151723153775309 -0.055762443989229984 0.018438815653713216 -0.013095630693867802 -0.035583110924124459 0.057606273447812752
leaf_weight=5.9653167799115208 4.6312566772103372 5.466876044869422 5.3899778947234136 3.8656884729862204 4.2184487208724022
leaf_count=30 22 25 26 21 25
internal_value=0 -0.00520004 -0.0123377 0.00258798 0.0179451
internal_weight=0 23.5722 18.1054 13.4741 9.60843
internal_count=149 119 94 72 51
is_linear=0
shrinkage=0.1


Tree=54
num_leaves=6
num_cat=0
split_feature=7 5 0 10 10
split_gain=0.269227 0.324846 1.58764 0.608606 0.812176
threshold=30.500000000000004 130.65993788819875 1.2500000000000002 466.00000000000006 337.83333333333809
decision_type=2 2 2 2 2
left_child=-1 3 -3 4 -2
right_child=1 2 -4 -5 -6
leaf_value=0.019178307409554465 -0.0016925629684568354 -0.029486034392835665 0.055448710915161847 0.013306476089402186 -0.060688324075188232
leaf_weight=5.9235226809978512 5.0239462628960627 4.6776089780032617 4.1563579589128494 5.2962678223848334 4.3574268668889999
leaf_count=30 25 25 19 29 21
internal_value=0 -0.00467569 0.0104755 -0.0137947 -0.0290947
internal_weight=0 23.5116 8.83397 14.6776 9.38137
internal_count=149 119 44 75 46
is_linear=0
shrinkage=0.1


Tree=55
num_leaves=6
num_cat=0
split_feature=0 0 10 10 10
split_gain=0.355411 1.26845 0.782289 0.54603 0.500993
threshold=1.0500000000000003 0.55000000000000016 381.83333333332854 600.83333333333951 350.33333333333036
decision_type=2 2 2 2 2
left_child=1 3 -2 4 -1
right_child=2 -3 -4 -5 -6
leaf_value=-0.013578884102239475 0.013230576505826958 0.059299463470127045 -0.043477022439147917 -0.036783694036422204 0.027626715679428156
leaf_weight=6.185149118304258 4.7995382249355298 3.853152133524417 4.9330058917403221 3.9696657806634894 5.6423929482698441
leaf_count=31 22 19 24 22 31
internal_value=0 0.00785554 -0.0155121 -0.00469232 0.00607847
internal_weight=0 19.6504 9.73254 15.7972 11.8275
internal_count=149 103 46 84 62
is_linear=0
shrinkage=0.1


Tree=56
num_leaves=6
num_cat=0
split_feature=0 0 0 7 11
split_gain=0.287389 1.04004 0.72183 0.513173 0.222154
threshold=1.0500000000000003 0.55000000000000016 2.6500000000000017 96.500000000000014 0.55000000000000004
decision_type=2 2 2 2 2
left_child=1 3 -2 -1 -5
right_child=2 -3 -4 4 -6
leaf_value=-0.025152099764037435 -0.039887239562230448 0.053975939876610368 0.014529756579647916 -0.0027317609913864696 0.028780767202007729
leaf_weight=6.7244318984448972 5.103733614087103 3.8120820894837371 4.6663238331675529 5.0186172574758512 4.0363915860652924
leaf_count=35 23 19 23 25 24
internal_value=0 0.00709939 -0.0138969 -0.0042253 0.0113154
internal_weight=0 19.5915 9.77006 15.7794 9.05501
internal_count=149 103 46 84 49
is_linear=0
shrinkage=0.1


Tree=57
num_leaves=5
num_cat=0
split_feature=7 7 5 7
split_gain=0.269736 0.605846 0.816686 0.236004
threshold=105.50000000000001 72.500000000000014 215.66411238825108 126.50000000000001
decision_type=2 2 2 2
left_child=1 2 -1 -2
right_child=3 -3 -4 -5
leaf_value=0.020121339969108868 -0.032403154364602171 0.034173635582939482 -0.026322334745548015 0.00097314155560927285
leaf_weight=7.2373708188533836 4.0420684739947301 5.6543501466512671 7.939896322786808 4.4520030468702316
leaf_count=34 21 33 38 23
internal_value=0 0.00623373 -0.00417539 -0.0149096
internal_weight=0 20.8316 15.1773 8.49407
internal_count=149 105 72 44
is_linear=0
shrinkage=0.1


Tree=58
num_leaves=6
num_cat=0
split_feature=10 11 0 5 11
split_gain=0.287032 0.850981 0.765052 0.860871 0.207052
threshold=348.33333333334127 2.4000000000000008 0.15000000000000005 215.66411238825108 1.0500000000000003
decision_type=2 2 2 2 2
left_child=-1 2 -2 -4 -5
right_child=1 -3 3 4 -6
leaf_value=0.017986284853383907 -0.025746713555739927 -0.037730406255888582 0.059691809355411241 -0.015258963891101936 0.017901927977547787
leaf_weight=6.8710719868540791 5.1126982420682969 5.9653059393167487 3.7953089699149114 3.7739103734493256 3.7577350027859211
leaf_count=35 27 27 20 17 23
internal_value=0 -0.00537716 0.00636257 0.0208559 0.00128587
internal_weight=0 22.405 16.4397 11.327 7.53165
internal_count=149 114 87 60 40
is_linear=0
shrinkage=0.1


Tree=59
num_leaves=6
num_cat=0
split_feature=10 10 7 5 11
split_gain=0.262761 0.702053 1.20416 0.642642 0.339074
threshold=366.50000000000733 446.00000000000006 114.50000000000001 254.70114942528883 1.0000000180025095e-35
decision_type=2 2 2 2 2
left_child=4 3 -3 -2 -1
right_child=1 2 -4 -5 -6
leaf_value=-0.0081578118427565079 -0.05614876943463333 0.036399514567038709 -0.03553565459912033 -0.00078461923755304653 0.027965738898363946
leaf_weight=4.5152765363454836 4.1966685280203837 6.4969378635287267 3.6256401836872101 4.1896713525056839 6.1209026984870434
leaf_count=21 19 36 19 21 33
internal_value=0 -0.00709275 0.0106342 -0.0284898 0.0126305
internal_weight=0 18.5089 10.1226 8.38634 10.6362
internal_count=149 95 55 40 54
is_linear=0
shrinkage=0.1


Tree=60
num_leaves=5
num_cat=0
split_feature=0 0 10 7
split_gain=0.228201 0.657833 0.542671 0.463219
threshold=0.84999999999999998 0.25000000000000006 393.1666666666643 108.50000000000001
decision_type=2 2 2 2
left_child=1 3 -2 -1
right_child=2 -3 -4 -5
leaf_value=-0.033742743672340751 0.0079098538460711174 0.031782007924598767 -0.036609017362495382 0.0082586469569349494
leaf_weight=4.2551665008068138 6.4149533212184888 6.7352869845926753 4.7771037071943283 6.8572725504636765
leaf_count=21 29 38 24 37
internal_value=0 0.00712201 -0.0110921 -0.00782449
internal_weight=0 17.8477 11.1921 11.1124
internal_count=149 96 53 58
is_linear=0
shrinkage=0.1


Tree=61
num_leaves=6
num_cat=0
split_feature=5 0 0 10 7
split_gain=0.224294 0.695699 0.552218 0.339274 0.481907
threshold=215.66411238825108 2.2000000000000011 1.0500000000000003 466.00000000000006 96.500000000000014
decision_type=2 2 2 2 2
left_child=1 3 -2 4 -1
right_child=2 -3 -4 -5 -6
leaf_value=-0.035530430234638387 0.0069085771864100106 0.042529806106857977 -0.042171882718138112 0.01668235178513509 0.0086339530096461344
leaf_weight=5.2034743800759369 5.8273211196064931 4.1605229228734961 3.7790711671113968 5.3539748042821875 4.7044393792748451
leaf_count=25 32 20 18 30 24
internal_value=0 0.00628137 -0.0123992 -0.00360027 -0.0145605
internal_weight=0 19.4224 9.60639 15.2619 9.90791
internal_count=149 99 50 79 49
is_linear=0
shrinkage=0.1


Tree=62
num_leaves=6
num_cat=0
split_feature=7 11 0 0 7
split_gain=0.243098 0.552315 1.17892 0.590132 0.251688
threshold=105.50000000000001 0.40000000000000013 0.55000000000000016 1.6500000000000006 126.50000000000001
decision_type=2 2 2 2 2
left_child=1 -1 -3 -4 -2
right_child=4 2 3 -5 -6
leaf_value=0.035139499759615472 -0.032339515378714996 -0.050137500643748827 0.039210352527484754 -0.0063063622259400603 0.0022877831609776976
leaf_weight=4.9296955615282121 4.0132519304752332 3.9943865686655036 4.9063937589526159 6.7910207733511925 4.4008602350950241
leaf_count=25 21 23 24 33 23
internal_value=0 0.00594105 -0.00323186 0.0127853 -0.0142283
internal_weight=0 20.6215 15.6918 11.6974 8.41411
internal_count=149 105 80 57 44
is_linear=0
shrinkage=0.1


Tree=63
num_leaves=5
num_cat=0
split_feature=10 11 3 10
split_gain=0.241296 0.686715 0.636228 0.9519
threshold=348.33333333334127 2.4000000000000008 771.16666666667118 446.00000000000006
decision_type=2 2 2 2
left_child=-1 2 3 -2
right_child=1 -3 -4 -5
leaf_value=0.016533166026137282 -0.038643080762831322 -0.034070562361907045 0.035962121153624724 0.019375215633185994
leaf_weight=6.8302037417888668 5.2271135523915344 5.9360779970884314 4.8602467104792586 6.1610075309872627
leaf_count=35 24 27 29 34
internal_value=0 -0.00496211 0.00567219 -0.00725501
internal_weight=0 22.1844 16.2484 11.3881
internal_count=149 114 87 58
is_linear=0
shrinkage=0.1


Tree=64
num_leaves=6
num_cat=0
split_feature=10 10 10 5 11
split_gain=0.224078 0.493541 0.646779 0.460527 0.282216
threshold=366.50000000000733 446.00000000000006 600.83333333333951 254.70114942528883 1.0000000180025095e-35
decision_type=2 2 2 2 2
left_child=4 3 -3 -2 -1
right_child=1 2 -4 -5 -6
leaf_value=-0.0072111646502173929 -0.047900610405623302 0.044487798887059567 -0.0095381413565043954 -0.0010224079741261776 0.025808747061313593
leaf_weight=4.5218199491500872 4.1930392533540743 3.3212837129831296 6.658043310046196 4.1894585266709328 6.053632665425539
leaf_count=21 19 18 37 21 33
internal_value=0 -0.00658329 0.00844258 -0.0244715 0.0116902
internal_weight=0 18.3618 9.97933 8.3825 10.5755
internal_count=149 95 55 40 54
is_linear=0
shrinkage=0.1


Tree=65
num_leaves=5
num_cat=0
split_feature=7 7 5 7
split_gain=0.268336 0.467425 0.696762 0.193298
threshold=105.50000000000001 72.500000000000014 215.66411238825108 126.50000000000001
decision_type=2 2 2 2
left_child=1 2 -1 -2
right_child=3 -3 -4 -5
leaf_value=0.019678552265273319 -0.030938898167410384 0.031217710031528675 -0.023443632357612928 -0.00051368504670480002
leaf_weight=7.1632845848798805 3.9848622903227788 5.4906566813588134 7.8566932305693626 4.3870069310069084
leaf_count=34 21 33 38 23
internal_value=0 0.00624941 -0.00287792 -0.0149956
internal_weight=0 20.5106 15.02 8.37187
internal_count=149 105 72 44
is_linear=0
shrinkage=0.1


Tree=66
num_leaves=6
num_cat=0
split_feature=7 0 7 10 11
split_gain=0.227879 0.420727 0.894508 0.665606 0.804501
threshold=30.500000000000004 1.2500000000000002 75.500000000000014 600.83333333333951 0.55000000000000004
decision_type=2 2 2 2 2
left_child=-1 2 -2 4 -4
right_child=1 -3 3 -5 -6
leaf_value=0.017822680268283955 -0.049501419943644563 0.020208254414113867 -0.0096115245265999023 -0.03398774191467873 0.049771951263184427
leaf_weight=5.7905373945832279 4.6416493207216325 5.3487459123134604 5.3027819991111738 3.7451640516519538 4.0039504691958427
leaf_count=30 22 25 26 21 25
internal_value=0 -0.00436816 -0.0117976 0.00161103 0.0159365
internal_weight=0 23.0423 17.6935 13.0519 9.30673
internal_count=149 119 94 72 51
is_linear=0
shrinkage=0.1


Tree=67
num_leaves=6
num_cat=0
split_feature=7 11 0 0 7
split_gain=0.227346 0.461408 1.12597 0.568682 0.148103
threshold=105.50000000000001 0.40000000000000013 0.55000000000000016 1.6500000000000006 126.50000000000001
decision_type=2 2 2 2 2
left_child=1 -1 -3 -4 -2
right_child=4 2 3 -5 -6
leaf_value=0.032721200410692305 -0.027829620534218003 -0.048673942158867389 0.039161558192669581 -0.0056813347624721268 -0.0011019513543143048
leaf_weight=4.843682333827025 3.965053126215933 3.9591789059340945 4.8610065728425962 6.761967770755291 4.3451513573527336
leaf_count=25 21 23 24 33 23
internal_value=0 0.00576377 -0.00261589 0.013073 -0.0138545
internal_weight=0 20.4258 15.5822 11.623 8.3102
internal_count=149 105 80 57 44
is_linear=0
shrinkage=0.1


Tree=68
num_leaves=5
num_cat=0
split_feature=10 7 5 7
split_gain=0.203682 0.845472 1.11468 0.353516
threshold=616.50000000000011 39.500000000000007 130.65993788819875 96.500000000000014
decision_type=2 2 2 2
left_child=1 -1 3 -3
right_child=-2 2 -4 -5
leaf_value=-0.034171355212188385 0.016963175446437603 -0.030718393244697328 0.047706628943363694 0.0052694900048855329
leaf_weight=6.6501328200101915 5.7277739346027365 4.5477991700172442 4.9559376984834662 6.8273424059152603
leaf_count=32 33 23 26 35
internal_value=0 -0.00411368 0.00812602 -0.00911852
internal_weight=0 22.9812 16.3311 11.3751
internal_count=149 116 84 58
is_linear=0
shrinkage=0.1


Tree=69
num_leaves=6
num_cat=0
split_feature=7 10 13 10 11
split_gain=0.222935 0.320208 0.758142 0.933801 1.25063
threshold=30.500000000000004 659.66666666667163 1.0000000180025095e-35 268.83333333332854 0.90000000000000013
decision_type=2 2 2 2 2
left_child=-1 2 -2 -4 -5
right_child=1 -3 3 4 -6
leaf_value=0.017635297900951249 0.034824561928782041 -0.031380812162010864 -0.054021156268967842 0.030811385364066426 -0.039868566108688816
leaf_weight=5.7842165790498283 4.8935481235385021 3.6756115779280654 3.7021399512886974 6.6650799326598626 4.0093571320176125
leaf_count=30 26 19 19 35 20
internal_value=0 -0.00433235 0.000826918 -0.0107453 0.00426374
internal_weight=0 22.9457 19.2701 14.3766 10.6744
internal_count=149 119 100 74 55
is_linear=0
shrinkage=0.1


Tree=70
num_leaves=5
num_cat=0
split_feature=10 7 7 7
split_gain=0.242397 0.809239 1.00362 0.504918
threshold=348.33333333334127 114.50000000000001 72.500000000000014 45.500000000000007
decision_type=2 2 2 2
left_child=-1 2 3 -2
right_child=1 -3 -4 -5
leaf_value=0.016652481209080715 0.0066949496637469146 -0.044663066633067169 0.044837773786707225 -0.033065060846467098
leaf_weight=6.7545724958181408 7.7653754316270405 4.1684546992182723 4.5433073341846457 5.4254861772060394
leaf_count=35 39 23 28 24
internal_value=0 -0.00501627 0.0043028 -0.0096586
internal_weight=0 21.9026 17.7342 13.1909
internal_count=149 114 91 63
is_linear=0
shrinkage=0.1


Tree=71
num_leaves=6
num_cat=0
split_feature=7 13 7 7 7
split_gain=0.177302 0.419717 0.685646 1.43576 0.129074
threshold=105.50000000000001 1.0000000180025095e-35 63.500000000000007 30.500000000000004 126.50000000000001
decision_type=2 2 2 2 2
left_child=1 -1 3 -3 -2
right_child=4 2 -4 -5 -6
leaf_value=-0.02259241477299986 -0.025343280474935937 0.034485484519542441 0.03937533149532587 -0.041342468044121526 -0.00030157285264314181
leaf_weight=4.3058341480791595 3.9439752697944623 4.9920384138822573 5.9776370562613002 4.9960779100656509 4.3050617277622223
leaf_count=22 21 26 34 23 23
internal_value=0 0.00511528 0.0125878 -0.00344383 -0.0122743
internal_weight=0 20.2716 15.9658 9.98812 8.24904
internal_count=149 105 83 49 44
is_linear=0
shrinkage=0.1


Tree=72
num_leaves=5
num_cat=0
split_feature=7 5 7 7
split_gain=0.193279 0.825534 0.428437 0.198956
threshold=36.500000000000007 130.65993788819875 96.500000000000014 120.50000000000001
decision_type=2 2 2 2
left_child=-1 2 -2 -4
right_child=1 -3 3 -5
leaf_value=-0.014413750389334973 -0.032513033340581858 0.03138951705009093 0.020908870900575676 -0.0095194501929634703
leaf_weight=6.9433272816240814 5.164902281016114 7.5537416674196711 3.827264375984667 4.899842381477356
leaf_count=36 27 39 20 27
internal_value=0 0.00478238 -0.00968518 0.00382486
internal_weight=0 21.4458 13.892 8.72711
internal_count=149 113 74 47
is_linear=0
shrinkage=0.1


Tree=73
num_leaves=6
num_cat=0
split_feature=10 7 11 0 11
split_gain=0.209032 1.05946 1.39953 1.66574 0.80964
threshold=219.33333333333943 111.50000000000001 0.40000000000000013 0.65000000000000002 2.4000000000000008
decision_type=2 2 2 2 2
left_child=-1 2 -2 -4 -5
right_child=1 -3 3 4 -6
leaf_value=0.022057162675258868 0.060010473153671411 -0.040872455055772312 -0.055138526736658366 0.049915359602321845 -0.0074559218748754862
leaf_weight=3.7563003078103092 4.0822080411017003 5.7443658038973799 4.7216679342091075 4.2669646069407445 5.8080168664455414
leaf_count=20 21 31 28 22 27
internal_value=0 -0.00326821 0.00817382 -0.00612726 0.016842
internal_weight=0 24.6232 18.8789 14.7966 10.075
internal_count=149 129 98 77 49
is_linear=0
shrinkage=0.1


Tree=74
num_leaves=6
num_cat=0
split_feature=5 3 0 7 10
split_gain=0.208769 0.648921 0.547411 0.501177 0.462711
threshold=215.66411238825108 412.50000000000119 1.0500000000000003 108.50000000000001 349.33333333333337
decision_type=2 2 2 2 2
left_child=1 3 -2 4 -1
right_child=2 -3 -4 -5 -6
leaf_value=-0.046683326762864533 0.0074524745851985378 0.040515530550751022 -0.042000186358956811 0.015693365967538241 0.0023590080386960456
leaf_weight=3.7314313575625473 5.6566930301487428 4.2555789798498145 3.704121895134449 6.9113636240363121 3.9713842235505581
leaf_count=20 32 20 18 38 21
internal_value=0 0.00615018 -0.0121162 -0.00385684 -0.0213983
internal_weight=0 18.8698 9.36081 14.6142 7.70282
internal_count=149 99 50 79 41
is_linear=0
shrinkage=0.1


Tree=75
num_leaves=5
num_cat=0
split_feature=10 7 10 10
split_gain=0.222808 0.702059 0.802967 0.499261
threshold=348.33333333334127 120.50000000000001 446.00000000000006 381.83333333332854
decision_type=2 2 2 2
left_child=-1 2 3 -2
right_child=1 -3 -4 -5
leaf_value=0.016004818940412436 0.011484603883412527 -0.045876302057060447 0.030287596330483019 -0.031160646689133799
leaf_weight=6.7098974362015751 4.7292485311627441 3.4964329972863188 6.7759207375347605 6.5439939498901367
leaf_count=35 23 20 39 32
internal_value=0 -0.00486311 0.00308185 -0.0132705
internal_weight=0 21.5456 18.0492 11.2732
internal_count=149 114 94 55
is_linear=0
shrinkage=0.1


Tree=76
num_leaves=6
num_cat=0
split_feature=0 0 0 7 11
split_gain=0.185539 0.780653 0.600904 0.523579 0.157215
threshold=1.0500000000000003 0.55000000000000016 2.6500000000000017 96.500000000000014 0.55000000000000004
decision_type=2 2 2 2 2
left_child=1 3 -2 -1 -5
right_child=2 -3 -4 4 -6
leaf_value=-0.025394766671468057 -0.03536791831273256 0.04798268262609174 0.015017005658014943 0.0001004625576089979 0.027363589639010345
leaf_weight=6.5288952402770581 4.9554109275341016 3.5623237341642371 4.5316463187336922 4.7683688476681692 3.8013594821095467
leaf_count=35 23 19 23 25 24
internal_value=0 0.00587473 -0.0113007 -0.0040601 0.0121938
internal_weight=0 18.6609 9.48706 15.0986 8.56973
internal_count=149 103 46 84 49
is_linear=0
shrinkage=0.1


Tree=77
num_leaves=5
num_cat=0
split_feature=10 11 3 10
split_gain=0.190656 0.587168 0.583977 0.839432
threshold=348.33333333334127 2.4000000000000008 771.16666666667118 401.50000000000006
decision_type=2 2 2 2
left_child=-1 2 3 -2
right_child=1 -3 -4 -5
leaf_value=0.014846413446810584 -0.039511221748111641 -0.031738173962220208 0.035128180373010374 0.016502391598214605
leaf_weight=6.6723789647221592 4.6181832477450389 5.7835328280925742 4.6794335879385462 6.3600220307707787
leaf_count=35 22 27 29 36
internal_value=0 -0.0045097 0.0055478 -0.00706076
internal_weight=0 21.4412 15.6576 10.9782
internal_count=149 114 87 58
is_linear=0
shrinkage=0.1


Tree=78
num_leaves=6
num_cat=0
split_feature=11 7 0 0 7
split_gain=0.178684 0.830779 0.649207 0.601561 0.583252
threshold=3.7500000000000009 36.500000000000007 0.25000000000000006 1.0500000000000003 108.50000000000001
decision_type=2 2 2 2 2
left_child=1 -1 4 -4 -3
right_child=-2 2 3 -5 -6
leaf_value=-0.040367289145576787 0.020187476396364198 -0.040744789629678473 0.053400938765534339 0.0011671739512897417 0.0076741101056461702
leaf_weight=4.7945663668215337 3.8183473199605933 3.9940345734357852 4.2223184034228307 4.6144329160451889 6.5972743630409241
leaf_count=25 19 20 26 22 37
internal_value=0 -0.00308761 0.00611248 0.0261252 -0.0105849
internal_weight=0 24.2226 19.4281 8.83675 10.5913
internal_count=149 130 105 48 57
is_linear=0
shrinkage=0.1


Tree=79
num_leaves=6
num_cat=0
split_feature=10 10 10 3 10
split_gain=0.190538 0.548892 0.478725 0.429375 0.688824
threshold=399.00000000000369 382.33333333333377 616.50000000000011 412.50000000000119 256.16666666667157
decision_type=2 2 2 2 2
left_child=1 3 -2 4 -1
right_child=2 -3 -4 -5 -6
leaf_value=0.01203079106069084 -0.028276835815578733 0.039934095496458287 0.012169740638253535 0.02287871949274067 -0.046041357965349743
leaf_weight=4.1538573354482704 6.3362271673977357 3.8779815174639216 5.4376440681517124 4.1799213364720336 4.0185829475522041
leaf_count=22 33 20 33 21 20
internal_value=0 0.0071131 -0.00959699 -0.00319093 -0.0165247
internal_weight=0 16.2303 11.7739 12.3524 8.17244
internal_count=149 83 66 63 42
is_linear=0
shrinkage=0.1


Tree=80
num_leaves=6
num_cat=0
split_feature=5 5 0 7 7
split_gain=0.210802 0.445382 0.417973 0.322827 0.354784
threshold=847.77777777777794 254.70114942528883 1.0500000000000003 105.50000000000001 126.50000000000001
decision_type=2 2 2 2 2
left_child=1 2 3 -1 -5
right_child=-2 -3 -4 4 -6
leaf_value=0.025766024248280141 -0.021471599996600421 0.034150658252180208 -0.022520457506280012 -0.026805600095646573 0.016643591019522251
leaf_weight=5.7354953251779168 3.9041509218513957 3.9780323393642893 6.8537326306104651 3.8741601705551147 3.6498157232999802
leaf_count=31 23 21 33 21 20
internal_value=0 0.00357728 -0.00246959 0.00789457 -0.00572877
internal_weight=0 24.0912 20.1132 13.2595 7.52398
internal_count=149 126 105 72 41
is_linear=0
shrinkage=0.1


Tree=81
num_leaves=6
num_cat=0
split_feature=5 0 0 7 10
split_gain=0.216809 0.683389 0.36196 0.353043 0.435551
threshold=215.66411238825108 2.2000000000000011 1.0500000000000003 108.50000000000001 357.33333333333218
decision_type=2 2 2 2 2
left_child=1 3 -2 4 -1
right_child=2 -3 -4 -5 -6
leaf_value=-0.040317046181754732 0.0037012787291883786 0.042684157908823142 -0.036761666963209656 0.012882580373025133 0.0067843240724666833
leaf_weight=4.1759953200817161 5.5276207923889142 4.0396981984376898 3.684341125190258 6.8349957093596458 3.7050731778144836
leaf_count=21 32 20 18 38 20
internal_value=0 0.00625174 -0.012482 -0.0037493 -0.0181736
internal_weight=0 18.7558 9.21196 14.7161 7.88107
internal_count=149 99 50 79 41
is_linear=0
shrinkage=0.1


Tree=82
num_leaves=6
num_cat=0
split_feature=10 7 7 0 7
split_gain=0.21904 0.558855 1.10122 0.305411 0.198734
threshold=366.50000000000733 36.500000000000007 120.50000000000001 0.84999999999999998 84.500000000000014
decision_type=2 2 2 2 2
left_child=4 -2 3 -3 -1
right_child=1 2 -4 -5 -6
leaf_value=0.026428113160797587 -0.035157956491012422 0.038109279039957547 -0.044480303822388205 0.0018574482902438899 -0.0014944269073225178
leaf_weight=4.8455753773450869 4.9528584778308895 5.2297540269792062 3.3887432366609564 4.1825294345617294 5.377982422709465
leaf_count=26 26 31 19 19 28
internal_value=0 -0.00663481 0.0044011 0.0220001 0.0117398
internal_weight=0 17.7539 12.801 9.41228 10.2236
internal_count=149 95 69 50 54
is_linear=0
shrinkage=0.1


Tree=83
num_leaves=6
num_cat=0
split_feature=7 0 7 7 11
split_gain=0.225644 0.391342 1.41522 0.327751 0.167414
threshold=30.500000000000004 1.2500000000000002 72.500000000000014 105.50000000000001 0.55000000000000004
decision_type=2 2 2 2 2
left_child=-1 2 -2 -4 -5
right_child=1 -3 3 4 -6
leaf_value=0.017876355572725374 -0.062714576868868985 0.019630585312623763 0.023865345358452583 -0.022499422429572102 0.007053669688609987
leaf_weight=5.6732588075101402 4.1323174685239854 5.1701173782348624 5.2190313152968866 4.0753898769617081 3.6190456375479698
leaf_count=30 19 25 33 21 21
internal_value=0 -0.00446871 -0.0117782 0.00452145 -0.00859925
internal_weight=0 22.2159 17.0458 12.9135 7.69444
internal_count=149 119 94 75 42
is_linear=0
shrinkage=0.1


Tree=84
num_leaves=6
num_cat=0
split_feature=10 7 13 10 5
split_gain=0.198853 0.587987 0.673227 0.910783 0.141865
threshold=348.33333333334127 120.50000000000001 1.0000000180025095e-35 446.00000000000006 154.43562610229279
decision_type=2 2 2 2 2
left_child=-1 2 -2 4 -4
right_child=1 -3 3 -5 -6
leaf_value=0.015232121420746942 -0.030909283643474596 -0.042471849006402024 0.0070499280892028912 0.046007675523299069 -0.019699215349317262
leaf_weight=6.6009337529540089 4.4660365544259628 3.4420110136270514 3.6700773984193766 5.3215844556689262 4.3123902082443237
leaf_count=35 23 20 18 31 22
internal_value=0 -0.00464234 0.00268512 0.0139624 -0.00740083
internal_weight=0 21.2121 17.7701 13.3041 7.98247
internal_count=149 114 94 71 40
is_linear=0
shrinkage=0.1


Tree=85
num_leaves=6
num_cat=0
split_feature=10 11 10 11 10
split_gain=0.187231 0.419364 1.09107 0.518404 1.99862
threshold=659.66666666667163 2.4000000000000008 466.00000000000006 0.55000000000000004 382.33333333333377
decision_type=2 2 2 2 2
left_child=1 2 3 -1 -5
right_child=-2 -3 -4 4 -6
leaf_value=-0.022002467887915812 -0.020499400187011244 -0.0200841490314678 0.056818051018858444 -0.032872759719610366 0.07241101902598078
leaf_weight=6.841936171054849 3.8148742690682402 5.7833745628595343 4.017174679785966 3.8539494797587395 3.3882080093026161
leaf_count=34 21 28 26 22 18
internal_value=0 0.00335814 0.010848 -0.00226396 0.0163837
internal_weight=0 23.8846 18.1013 14.0841 7.24216
internal_count=149 128 100 74 40
is_linear=0
shrinkage=0.1


Tree=86
num_leaves=6
num_cat=0
split_feature=10 10 7 3 7
split_gain=0.271201 0.754688 0.577083 0.438257 0.628546
threshold=393.1666666666643 446.00000000000006 114.50000000000001 412.50000000000119 96.500000000000014
decision_type=2 2 2 2 2
left_child=3 -2 -3 4 -1
right_child=1 2 -4 -5 -6
leaf_value=-0.031422560263922227 -0.050476849866504872 0.023158333605465896 -0.028535085838104563 0.029440989981407359 0.022634941620597072
leaf_weight=4.4602783843874949 3.460545662790536 5.8955031633377057 3.4079229906201363 6.2434834390878668 4.1542880311608315
leaf_count=23 18 36 19 31 22
internal_value=0 -0.0106074 0.0042226 0.00926723 -0.00535387
internal_weight=0 12.764 9.30343 14.858 8.61457
internal_count=149 73 55 76 45
is_linear=0
shrinkage=0.1


Tree=87
num_leaves=6
num_cat=0
split_feature=10 7 7 7 5
split_gain=0.2302 1.02424 0.983474 0.492119 1.56052
threshold=399.00000000000369 42.500000000000007 96.500000000000014 42.500000000000007 130.65993788819875
decision_type=2 2 2 2 2
left_child=3 -2 -3 -1 -5
right_child=1 2 -4 4 -6
leaf_value=-0.01886527083792662 0.036962783070202808 -0.067558074564713452 0.0018116675144634279 -0.0087463524889834846 0.068808297372182914
leaf_weight=4.8365769907832208 3.2357219681143752 3.7167597711086255 4.5402753129601479 7.1788757145404798 4.062850221991539
leaf_count=23 19 19 28 38 22
internal_value=0 -0.0107259 -0.0294139 0.00780714 0.0192825
internal_weight=0 11.4928 8.25704 16.0783 11.2417
internal_count=149 66 47 83 60
is_linear=0
shrinkage=0.1


Tree=88
num_leaves=6
num_cat=0
split_feature=5 7 10 7 0
split_gain=0.236447 0.535246 0.518288 0.544093 0.324088
threshold=215.66411238825108 51.500000000000007 256.16666666667157 120.50000000000001 1.0500000000000003
decision_type=2 2 2 2 2
left_child=1 -1 -3 -4 -2
right_child=4 2 3 -5 -6
leaf_value=0.036080635277660339 0.0023568260991161227 0.031223304191955521 0.0023624079137672927 -0.045388814060396979 -0.036314459646681625
leaf_weight=4.6105968803167405 5.3891676962375623 3.3208468109369269 6.9370390847325307 3.6373576521873474 3.624752901494503
leaf_count=23 32 18 37 21 18
internal_value=0 0.00655652 -0.00323992 -0.014063 -0.013194
internal_weight=0 18.5058 13.8952 10.5744 9.01392
internal_count=149 99 76 58 50
is_linear=0
shrinkage=0.1


Tree=89
num_leaves=6
num_cat=0
split_feature=5 7 10 7 3
split_gain=0.191888 0.43877 0.424138 0.447497 0.305978
threshold=215.66411238825108 51.500000000000007 256.16666666667157 120.50000000000001 771.16666666667118
decision_type=2 2 2 2 2
left_child=1 -1 -3 -4 -2
right_child=4 2 3 -5 -6
leaf_value=0.032831337352111009 -0.033779007145403335 0.028455161328866177 0.002126920116545293 -0.041343340167142514 0.0036127324355233305
leaf_weight=4.5628255158662858 3.7336980178952199 3.2816562950611106 6.9347089901566488 3.5961957052350044 5.28790532797575
leaf_count=23 17 18 37 21 33
internal_value=0 0.0059457 -0.00293567 -0.0127177 -0.0118623
internal_weight=0 18.3754 13.8126 10.5309 9.0216
internal_count=149 99 76 58 50
is_linear=0
shrinkage=0.1


Tree=90
num_leaves=5
num_cat=0
split_feature=0 10 0 7
split_gain=0.175662 0.446803 0.336466 0.492317
threshold=0.84999999999999998 393.1666666666643 0.25000000000000006 108.50000000000001
decision_type=2 2 2 2
left_child=2 -2 3 -1
right_child=1 -3 -4 -5
leaf_value=-0.030934776494400656 0.0075596987581877818 -0.033960214500091096 0.025118663339090255 0.01324038277248106
leaf_weight=4.1934050619602257 6.1384866312146169 4.4858283773064613 6.1260927803814402 6.3327340632677078
leaf_count=21 29 24 38 37
internal_value=0 -0.00997096 0.00648592 -0.00435812
internal_weight=0 10.6243 16.6522 10.5261
internal_count=149 53 96 58
is_linear=0
shrinkage=0.1


Tree=91
num_leaves=6
num_cat=0
split_feature=3 5 0 7 7
split_gain=0.187961 0.309555 0.987814 0.239079 0.489864
threshold=196.00000000000003 254.70114942528883 0.65000000000000002 105.50000000000001 126.50000000000001
decision_type=2 2 2 2 2
left_child=3 -2 -3 -1 -5
right_child=1 2 -4 4 -6
leaf_value=0.026330910128181076 -0.022011099069055674 -0.031725380021351744 0.040105758314615922 -0.027271003089925541 0.024680690931883742
leaf_weight=4.9201553240418452 7.387513153254984 3.5836759358644485 4.110262542963028 3.7631185278296471 3.5059755370020866
leaf_count=28 36 22 22 21 20
internal_value=0 -0.00739024 0.00664831 0.00930804 -0.00221405
internal_weight=0 15.0815 7.69394 12.1892 7.26909
internal_count=149 80 44 69 41
is_linear=0
shrinkage=0.1


Tree=92
num_leaves=5
num_cat=0
split_feature=5 0 7 3
split_gain=0.174508 0.413331 0.438205 0.280541
threshold=215.66411238825108 2.2000000000000011 108.50000000000001 771.16666666667118
decision_type=2 2 2 2
left_child=1 2 -1 -2
right_child=3 -3 -4 -5
leaf_value=-0.018271955958418018 -0.032330486785141728 0.03445465159251359 0.016808111691683839 0.0035350338633353055
leaf_weight=7.7629121355712467 3.7257367521524412 3.9217987060546866 6.5784242153167725 5.259937796741724
leaf_count=41 17 20 38 33
internal_value=0 0.0056864 -0.0021806 -0.0113359
internal_weight=0 18.2631 14.3413 8.98567
internal_count=149 99 79 50
is_linear=0
shrinkage=0.1


Tree=93
num_leaves=5
num_cat=0
split_feature=7 3 10 7
split_gain=0.160567 0.292913 0.481132 1.40332
threshold=30.500000000000004 730.3333333333286 350.33333333333945 114.50000000000001
decision_type=2 2 2 2
left_child=-1 2 -2 -4
right_child=1 -3 3 -5
leaf_value=0.015290525366528366 -0.016450974898040243 -0.024038499436522379 0.049511358828423238 -0.030830024679153651
leaf_weight=5.5248760879039791 7.2089300155639711 5.3810401707887641 5.5621098540723306 3.5692101269960403
leaf_count=30 37 31 30 21
internal_value=0 -0.0038026 0.00286133 0.0181079
internal_weight=0 21.7213 16.3402 9.13132
internal_count=149 119 88 51
is_linear=0
shrinkage=0.1


Tree=94
num_leaves=6
num_cat=0
split_feature=0 10 0 10 10
split_gain=0.183552 0.350863 0.342391 0.437411 0.197679
threshold=0.84999999999999998 393.1666666666643 0.25000000000000006 256.16666666667157 466.00000000000006
decision_type=2 2 2 2 2
left_child=2 -2 3 -1 -5
right_child=1 -3 -4 4 -6
leaf_value=0.026639564711230912 0.0053555433288669484 -0.03151975669308759 0.025524080385693423 -0.036313314310798664 -0.0032466786100524649
leaf_weight=3.1902165561914497 6.1041162088513357 4.4696481078863144 6.0777283161878577 3.2126262709498405 4.1348461247980595
leaf_count=17 29 24 38 16 25
internal_value=0 -0.0102321 0.00662209 -0.00427984 -0.0177048
internal_weight=0 10.5738 16.6154 10.5377 7.34747
internal_count=149 53 96 58 41
is_linear=0
shrinkage=0.1


Tree=95
num_leaves=6
num_cat=0
split_feature=3 3 11 10 7
split_gain=0.166549 0.331179 0.36619 0.200172 0.484943
threshold=196.00000000000003 611.66666666666754 1.25 256.16666666667157 120.50000000000001
decision_type=2 2 2 2 2
left_child=3 -2 -3 -1 -5
right_child=1 2 -4 4 -6
leaf_value=0.029548012704395884 -0.029756669239225559 -0.018249054172563884 0.019275048410140119 0.019213005667024208 -0.029348613776280633
leaf_weight=3.3584838211536434 4.4764245301485053 4.6569701284170133 5.8898566029965878 5.4306434728205186 3.3096170946955681
leaf_count=19 21 23 36 30 20
internal_value=0 -0.00696664 0.00270621 0.00879784 0.000824496
internal_weight=0 15.0233 10.5468 12.0987 8.74026
internal_count=149 80 59 69 50
is_linear=0
shrinkage=0.1


Tree=96
num_leaves=6
num_cat=0
split_feature=11 3 3 10 11
split_gain=0.158952 0.432106 0.454598 0.123444 0.405623
threshold=2.4000000000000008 771.16666666667118 196.00000000000003 256.16666666667157 0.55000000000000004
decision_type=2 2 2 2 2
left_child=1 2 3 -1 -5
right_child=-2 -3 -4 4 -6
leaf_value=0.02371280683976508 -0.013928879102893046 0.031885816057788605 -0.030583400086857955 0.021733315496378608 -0.021488926716986771
leaf_weight=3.201833553612242 6.2435949444770804 4.4512230344116679 4.4357819333672515 4.4711672663688642 4.2209955751895905
leaf_count=18 31 29 21 27 23
internal_value=0 0.00426653 -0.00326203 0.00692728 0.00074419
internal_weight=0 20.781 16.3298 11.894 8.69216
internal_count=149 118 89 68 50
is_linear=0
shrinkage=0.1


Tree=97
num_leaves=5
num_cat=0
split_feature=7 11 4 7
split_gain=0.142746 0.327552 1.10753 0.228462
threshold=30.500000000000004 1.5000000000000002 1.0000000180025095e-35 108.50000000000001
decision_type=2 2 2 2
left_child=-1 2 3 -2
right_child=1 -3 -4 -5
leaf_value=0.014442154017592948 -0.010734482271696776 0.01719940185074707 -0.055791140589360994 0.01723103609833369
leaf_weight=5.4963995702564743 5.326733913272621 5.5905843563377848 4.0892377644777289 6.4688443690538406
leaf_count=30 31 31 19 38
internal_value=0 -0.00361825 -0.0109449 0.00460216
internal_weight=0 21.4754 15.8848 11.7956
internal_count=149 119 88 69
is_linear=0
shrinkage=0.1


Tree=98
num_leaves=5
num_cat=0
split_feature=11 3 10 10
split_gain=0.163252 0.41246 0.427292 0.50376
threshold=2.4000000000000008 771.16666666667118 466.00000000000006 366.50000000000733
decision_type=2 2 2 2
left_child=1 2 3 -1
right_child=-2 -3 -4 -5
leaf_value=0.0019994025277021731 -0.0141142857945958 0.031501999250790516 0.021349360616862569 -0.042010112584613804
leaf_weight=7.2670159935951322 6.2449256032705298 4.4001824036240569 5.0000896081328383 4.0507493391633034
leaf_count=39 31 29 31 19
internal_value=0 0.00433055 -0.00299635 -0.0137521
internal_weight=0 20.718 16.3179 11.3178
internal_count=149 118 89 58
is_linear=0
shrinkage=0.1


Tree=99
num_leaves=6
num_cat=0
split_feature=7 0 7 7 7
split_gain=0.135391 0.324773 0.964884 0.244828 0.357943
threshold=30.500000000000004 1.2500000000000002 72.500000000000014 105.50000000000001 126.50000000000001
decision_type=2 2 2 2 2
left_child=-1 2 -2 -4 -5
right_child=1 -3 3 4 -6
leaf_value=0.014099876508035215 -0.052573515290834219 0.018856852691165188 0.020566111280898407 -0.029963657737186258 0.014142414573390986
leaf_weight=5.4688074775040176 4.0650537312030854 4.976752668619155 5.0334920734167081 3.7038386352360249 3.6564523726701736
leaf_count=30 19 25 33 21 21
internal_value=0 -0.0035277 -0.0102962 0.00357033 -0.0080526
internal_weight=0 21.4356 16.4588 12.3938 7.36029
internal_count=149 119 94 75 42
is_linear=0
shrinkage=0.1


end of trees

feature_importances:
taskNum=141
s_view_position=117
scroll_time=70
response_time=62
scroll_length=35
s_scroll_speed=35
s_choice_left=8
event_scroll=5

parameters:
[boosting: gbdt]
[objective: binary]
[metric: binary_error]
[tree_learner: serial]
[device_type: cpu]
[data_sample_strategy: bagging]
[data: ]
[valid: ]
[num_iterations: 100]
[learning_rate: 0.1]
[num_leaves: 31]
[num_threads: 0]
[seed: 0]
[deterministic: 0]
[force_col_wise: 0]
[force_row_wise: 0]
[histogram_pool_size: -1]
[max_depth: -1]
[min_data_in_leaf: 20]
[min_sum_hessian_in_leaf: 0.001]
[bagging_fraction: 1]
[pos_bagging_fraction: 1]
[neg_bagging_fraction: 1]
[bagging_freq: 0]
[bagging_seed: 3]
[feature_fraction: 0.9]
[feature_fraction_bynode: 1]
[feature_fraction_seed: 2]
[extra_trees: 0]
[extra_seed: 6]
[early_stopping_round: 0]
[first_metric_only: 0]
[max_delta_step: 0]
[lambda_l1: 0]
[lambda_l2: 0]
[linear_lambda: 0]
[min_gain_to_split: 0]
[drop_rate: 0.1]
[max_drop: 50]
[skip_drop: 0.5]
[xgboost_dart_mode: 0]
[uniform_drop: 0]
[drop_seed: 4]
[top_rate: 0.2]
[other_rate: 0.1]
[min_data_per_group: 100]
[max_cat_threshold: 32]
[cat_l2: 10]
[cat_smooth: 10]
[max_cat_to_onehot: 4]
[top_k: 20]
[monotone_constraints: ]
[monotone_constraints_method: basic]
[monotone_penalty: 0]
[feature_contri: ]
[forcedsplits_filename: ]
[refit_decay_rate: 0.9]
[cegb_tradeoff: 1]
[cegb_penalty_split: 0]
[cegb_penalty_feature_lazy: ]
[cegb_penalty_feature_coupled: ]
[path_smooth: 0]
[interaction_constraints: ]
[verbosity: -1]
[saved_feature_importance_type: 0]
[use_quantized_grad: 0]
[num_grad_quant_bins: 4]
[quant_train_renew_leaf: 0]
[stochastic_rounding: 1]
[linear_tree: 0]
[max_bin: 255]
[max_bin_by_feature: ]
[min_data_in_bin: 3]
[bin_construct_sample_cnt: 200000]
[data_random_seed: 1]
[is_enable_sparse: 1]
[enable_bundle: 1]
[use_missing: 1]
[zero_as_missing: 0]
[feature_pre_filter: 0]
[pre_partition: 0]
[two_round: 0]
[header: 0]
[label_column: ]
[weight_column: ]
[group_column: ]
[ignore_column: ]
[categorical_feature: ]
[forcedbins_filename: ]
[precise_float_parser: 0]
[parser_config_file: ]
[objective_seed: 5]
[num_class: 1]
[is_unbalance: 0]
[scale_pos_weight: 1]
[sigmoid: 1]
[boost_from_average: 1]
[reg_sqrt: 0]
[alpha: 0.9]
[fair_c: 1]
[poisson_max_delta_step: 0.7]
[tweedie_variance_power: 1.5]
[lambdarank_truncation_level: 30]
[lambdarank_norm: 1]
[label_gain: ]
[lambdarank_position_bias_regularization: 0]
[eval_at: ]
[multi_error_top_k: 1]
[auc_mu_weights: ]
[num_machines: 1]
[local_listen_port: 12400]
[time_out: 120]
[machine_list_filename: ]
[machines: ]
[gpu_platform_id: -1]
[gpu_device_id: -1]
[gpu_use_dp: 0]
[num_gpu: 1]

end of parameters

pandas_categorical:[]
