tree
version=v4
num_class=1
num_tree_per_iteration=1
label_index=0
max_feature_idx=15
objective=binary sigmoid:1
feature_names=ratio_tap_position_y screen_height tap_position_x tap_position_y predicted_isAnswerCorrect s_tap_count scroll_time s_view_position response_time taskNum screen_width ratio_tap_position_x s_choice_left event_scroll s_scroll_speed scroll_length
feature_infos=none [844:844] none none [0:1] [1:1] [-0.5:18.799999999999962] [-343.99999999999989:914] [0.10000000000000001:10.399999999999981] [1:91] [390:390] none [0:1] [0:6] [-3503.3333333333576:6900.0000000000018] [0:1950]
tree_sizes=436 446 542 437 542 544 544 442 545 545 448 441 551 546 547 447 552 443 447 444 443 541 551 543 441 450 550 444 441 445 441 443 543 449 547 549 544 443 445 550 547 549 443 550 447 546 548 447 446 549 559 448 550 447 550 445 549 550 444 446 547 444 446 446 548 548 551 447 553 445 547 550 445 446 551 447 549 550 547 549 443 545 551 446 446 444 547 550 448 444 447 551 551 549 450 550 446 447 551 550

Tree=0
num_leaves=3
num_cat=0
split_feature=9 9
split_gain=1.78341 3.44993
threshold=30.500000000000004 63.500000000000007
decision_type=2 2
left_child=-1 -2
right_child=1 -3
leaf_value=0.605457566357817 0.49794956927729861 0.597216535222725
leaf_weight=6.9339452683925655 7.6273397952318174 6.4716822504997253
leaf_count=30 33 28
internal_value=0.563935 0.543515
internal_weight=0 14.099
internal_count=91 61
is_linear=0
shrinkage=1


Tree=1
num_leaves=3
num_cat=0
split_feature=13 9
split_gain=2.09933 2.62557
threshold=1.0000000180025095e-35 30.500000000000004
decision_type=2 2
left_child=-1 -2
right_child=1 -3
leaf_value=0.051549226011662709 0.029499179759628028 -0.054537451450662147
leaf_weight=5.7477436363697079 6.3957388401031485 8.8792488574981672
leaf_count=25 28 38
internal_value=0 -0.0193508
internal_weight=0 15.275
internal_count=91 66
is_linear=0
shrinkage=0.1


Tree=2
num_leaves=4
num_cat=0
split_feature=8 8 9
split_gain=1.46934 3.33939 0.613361
threshold=1.0500000000000003 2.6500000000000017 63.500000000000007
decision_type=2 2 2
left_child=2 -2 -1
right_child=1 -3 -4
leaf_value=0.0006098608354965419 -0.081304444137315815 0.033158078332715828 0.048403594637496647
leaf_weight=5.0887007266283053 5.381793797016142 4.842003732919693 5.6850557923316956
leaf_count=22 23 21 25
internal_value=0 -0.0270948 0.0258295
internal_weight=0 10.2238 10.7738
internal_count=91 44 47
is_linear=0
shrinkage=0.1


Tree=3
num_leaves=3
num_cat=0
split_feature=9 9
split_gain=1.224 2.02313
threshold=30.500000000000004 63.500000000000007
decision_type=2 2
left_child=-1 -2
right_child=1 -3
leaf_value=0.035020599843188747 -0.050410498015447947 0.025593183961127076
leaf_weight=6.784807130694392 7.8781712949275953 6.30546735227108
leaf_count=30 33 28
internal_value=0 -0.0166224
internal_weight=0 14.1836
internal_count=91 61
is_linear=0
shrinkage=0.1


Tree=4
num_leaves=4
num_cat=0
split_feature=6 7 7
split_gain=1.74796 2.21983 0.890409
threshold=2.8500000000000001 401.50000000000006 379.83333333333582
decision_type=2 2 2
left_child=1 2 -1
right_child=-2 -3 -4
leaf_value=0.024812914298645766 -0.046556808379288855 0.07409064320256073 -0.03436184411373315
leaf_weight=4.5615892708301562 5.8029918223619452 4.8113107234239569 5.745749294757843
leaf_count=20 25 21 25
internal_value=0 0.0180059 -0.00817362
internal_weight=0 15.1186 10.3073
internal_count=91 66 45
is_linear=0
shrinkage=0.1


Tree=5
num_leaves=4
num_cat=0
split_feature=6 6 6
split_gain=1.40698 1.99697 1.01547
threshold=2.8500000000000001 1.5000000000000002 0.55000000000000004
decision_type=2 2 2
left_child=1 2 -1
right_child=-2 -3 -4
leaf_value=0.026382723558434813 -0.041404762672399162 0.071136137402216429 -0.036310871002119591
leaf_weight=4.7240372747182864 5.8688106834888449 4.6097887754440299 5.7019724249839783
leaf_count=21 25 20 25
internal_value=0 0.0163285 -0.00790433
internal_weight=0 15.0358 10.426
internal_count=91 66 46
is_linear=0
shrinkage=0.1


Tree=6
num_leaves=4
num_cat=0
split_feature=9 8 8
split_gain=1.14354 1.53375 1.0728
threshold=30.500000000000004 0.45000000000000007 1.3500000000000003
decision_type=2 2 2
left_child=-1 -2 -3
right_child=1 2 -4
leaf_value=0.033989963789530432 0.033237670012406455 -0.072563341555720959 -0.006224196766245884
leaf_weight=6.7521096467971828 4.3654400557279578 4.6873499006032926 5.0791396349668503
leaf_count=30 20 20 21
internal_value=0 -0.0160379 -0.0380631
internal_weight=0 14.1319 9.76649
internal_count=91 61 41
is_linear=0
shrinkage=0.1


Tree=7
num_leaves=3
num_cat=0
split_feature=9 9
split_gain=0.932272 1.26592
threshold=30.500000000000004 63.500000000000007
decision_type=2 2
left_child=-1 -2
right_child=1 -3
leaf_value=0.030944367263735152 -0.040607544114558261 0.019704304340182596
leaf_weight=6.678989082574847 8.0024428069591504 6.1583719402551642
leaf_count=30 33 28
internal_value=0 -0.0143786
internal_weight=0 14.1608
internal_count=91 61
is_linear=0
shrinkage=0.1


Tree=8
num_leaves=4
num_cat=0
split_feature=6 15 15
split_gain=1.19853 1.89211 0.805427
threshold=2.8500000000000001 772.66666666666754 302.83333333333582
decision_type=2 2 2
left_child=1 2 -1
right_child=-2 -3 -4
leaf_value=0.016499423006782265 -0.038071605761105638 0.058851846467564334 -0.04355957295485189
leaf_weight=4.4137784093618411 5.8830578327178946 5.9643282294273368 4.5190841555595398
leaf_count=20 25 26 20
internal_value=0 0.0152369 -0.0138841
internal_weight=0 14.8972 8.93286
internal_count=91 66 40
is_linear=0
shrinkage=0.1


Tree=9
num_leaves=4
num_cat=0
split_feature=6 6 9
split_gain=0.967168 1.68322 1.29614
threshold=2.8500000000000001 1.5000000000000002 63.500000000000007
decision_type=2 2 2
left_child=1 2 -1
right_child=-2 -3 -4
leaf_value=-0.042608357488508636 -0.033982231363833465 0.064962490130351921 0.028214855254655093
leaf_weight=5.3465714454650897 5.9292908459901801 4.4858510643243781 5.0011315643787384
leaf_count=23 25 20 23
internal_value=0 0.0138004 -0.00837891
internal_weight=0 14.8336 10.3477
internal_count=91 66 46
is_linear=0
shrinkage=0.1


Tree=10
num_leaves=3
num_cat=0
split_feature=13 9
split_gain=0.942224 1.30692
threshold=1.0000000180025095e-35 30.500000000000004
decision_type=2 2
left_child=-1 -2
right_child=1 -3
leaf_value=0.03618553263310146 0.022836632775340853 -0.036608779684089932
leaf_weight=5.3769209235906628 6.2279111742973319 9.1057928353548032
leaf_count=25 28 38
internal_value=0 -0.0124645
internal_weight=0 15.3337
internal_count=91 66
is_linear=0
shrinkage=0.1


Tree=11
num_leaves=3
num_cat=0
split_feature=7 7
split_gain=0.80693 1.51456
threshold=399.333333333334 379.83333333333582
decision_type=2 2
left_child=1 -1
right_child=-2 -3
leaf_value=0.016130993284729788 0.027853558126391134 -0.050765160051502403
leaf_weight=7.5264167934656161 6.9710041135549536 6.1498591154813766
leaf_count=33 31 27
internal_value=0 -0.0139504
internal_weight=0 13.6763
internal_count=91 60
is_linear=0
shrinkage=0.1


Tree=12
num_leaves=4
num_cat=0
split_feature=14 8 8
split_gain=0.844188 0.323154 0.236095
threshold=193.60504920838693 0.84999999999999998 1.3500000000000003
decision_type=2 2 2
left_child=2 -2 -1
right_child=1 -3 -4
leaf_value=0.0045495380167129137 -0.0016677114531426476 -0.036762781743464965 0.035129082023008872
leaf_weight=4.7655621320009249 5.1048452556133253 5.3982288539409637 5.3695974200963974
leaf_count=22 23 23 23
internal_value=0 -0.0197054 0.0207505
internal_weight=0 10.5031 10.1352
internal_count=91 46 45
is_linear=0
shrinkage=0.1


Tree=13
num_leaves=4
num_cat=0
split_feature=9 8 8
split_gain=0.779904 0.698039 1.03472
threshold=30.500000000000004 0.45000000000000007 1.3500000000000003
decision_type=2 2 2
left_child=-1 -2 -3
right_child=1 2 -4
leaf_value=0.028491211471957979 0.021292206180989801 -0.061184519078603256 0.0035564727072996587
leaf_weight=6.6033314019441631 4.139131858944892 4.7616729587316495 5.126508891582489
leaf_count=30 20 20 21
internal_value=0 -0.0131869 -0.0276197
internal_weight=0 14.0273 9.88818
internal_count=91 61 41
is_linear=0
shrinkage=0.1


Tree=14
num_leaves=4
num_cat=0
split_feature=8 8 14
split_gain=0.674765 2.18683 0.298029
threshold=2.6500000000000017 1.0500000000000003 346.36363636363666
decision_type=2 2 2
left_child=1 2 -1
right_child=-2 -3 -4
leaf_value=0.036863068850332838 0.03309221227282777 -0.060519731446937446 0.0025160248690115133
leaf_weight=4.4773424863815325 4.7755811512470236 5.5277256518602362 5.7973057925701141
leaf_count=21 21 23 26
internal_value=0 -0.00980243 0.0174833
internal_weight=0 15.8024 10.2746
internal_count=91 70 47
is_linear=0
shrinkage=0.1


Tree=15
num_leaves=3
num_cat=0
split_feature=15 15
split_gain=0.994965 0.710203
threshold=772.66666666666754 302.83333333333582
decision_type=2 2
left_child=1 -1
right_child=-2 -3
leaf_value=0.015815902287807004 0.029157700743615345 -0.033417148679934582
leaf_weight=4.4547795951366451 7.5025397837162009 8.5603526532649976
leaf_count=21 33 37
internal_value=0 -0.0165658
internal_weight=0 13.0151
internal_count=91 58
is_linear=0
shrinkage=0.1


Tree=16
num_leaves=4
num_cat=0
split_feature=13 8 8
split_gain=0.651535 0.771156 0.373889
threshold=1.0000000180025095e-35 2.6500000000000017 1.0500000000000003
decision_type=2 2 2
left_child=-1 2 -2
right_child=1 -3 -4
leaf_value=0.030685103179152212 -0.0079246854471868213 0.02444674449655472 -0.04536095107851762
leaf_weight=5.2109982371330288 5.9210671037435514 4.5126172453165045 4.8555838763713837
leaf_count=25 26 20 20
internal_value=0 -0.0102593 -0.0247922
internal_weight=0 15.2893 10.7767
internal_count=91 66 46
is_linear=0
shrinkage=0.1


Tree=17
num_leaves=3
num_cat=0
split_feature=9 9
split_gain=0.622 0.461076
threshold=30.500000000000004 63.500000000000007
decision_type=2 2
left_child=-1 -2
right_child=1 -3
leaf_value=0.025651989394510563 -0.027263204313012591 0.0096013514980825242
leaf_weight=6.5133320838212994 8.0805282145738584 5.8482846170663825
leaf_count=30 33 28
internal_value=0 -0.0117849
internal_weight=0 13.9288
internal_count=91 61
is_linear=0
shrinkage=0.1


Tree=18
num_leaves=3
num_cat=0
split_feature=15 9
split_gain=0.865992 0.850164
threshold=772.66666666666754 39.500000000000007
decision_type=2 2
left_child=1 -1
right_child=-2 -3
leaf_value=-0.048386221282396696 0.027355000693452702 0.0044667279038998423
leaf_weight=4.8873609304428127 7.4283111393451682 8.0667007416486722
leaf_count=22 33 36
internal_value=0 -0.0154738
internal_weight=0 12.9541
internal_count=91 58
is_linear=0
shrinkage=0.1


Tree=19
num_leaves=3
num_cat=0
split_feature=15 14
split_gain=0.70343 1.26775
threshold=772.66666666666754 150.81410825199643
decision_type=2 2
left_child=1 -1
right_child=-2 -3
leaf_value=0.015277044372406215 0.024806656357818216 -0.04729534698436616
leaf_weight=6.9560140967369097 7.3751786202192298 6.0577388107776642
leaf_count=32 33 26
internal_value=0 -0.0138496
internal_weight=0 13.0138
internal_count=91 58
is_linear=0
shrinkage=0.1


Tree=20
num_leaves=3
num_cat=0
split_feature=6 7
split_gain=0.783676 1.99941
threshold=2.8500000000000001 382.33333333333491
decision_type=2 2
left_child=1 -1
right_child=-2 -3
leaf_value=-0.033477572170037537 -0.030662707264602997 0.042560595413657532
leaf_weight=5.7033215016126659 5.8788137584924689 8.784301817417143
leaf_count=26 25 40
internal_value=0 0.0126268
internal_weight=0 14.4876
internal_count=91 66
is_linear=0
shrinkage=0.1


Tree=21
num_leaves=4
num_cat=0
split_feature=8 7 14
split_gain=0.679627 2.06463 1.63859
threshold=2.6500000000000017 399.333333333334 279.75243147657073
decision_type=2 2 2
left_child=1 2 -1
right_child=-2 -3 -4
leaf_value=-0.07192606800807351 0.03320392573829177 0.040232490759297551 0.008780407920054455
leaf_weight=5.710790231823923 4.7605149149894705 5.3685012161731711 4.4963568449020386
leaf_count=25 21 25 20
internal_value=0 -0.00996984 -0.036374
internal_weight=0 15.5756 10.2071
internal_count=91 70 45
is_linear=0
shrinkage=0.1


Tree=22
num_leaves=4
num_cat=0
split_feature=8 8 13
split_gain=0.554182 1.15377 0.684703
threshold=2.6500000000000017 1.0500000000000003 1.0000000180025095e-35
decision_type=2 2 2
left_child=1 2 -1
right_child=-2 -3 -4
leaf_value=0.042418759347841332 0.030174462508114109 -0.045430006757794836 -0.010691172269690349
leaf_weight=4.1520475745201129 4.7169935852289191 5.5687008053064337 5.8442215323448181
leaf_count=21 21 23 26
internal_value=0 -0.00895235 0.0113686
internal_weight=0 15.565 9.99627
internal_count=91 70 47
is_linear=0
shrinkage=0.1


Tree=23
num_leaves=4
num_cat=0
split_feature=6 6 7
split_gain=0.598308 1.60439 1.06156
threshold=2.8500000000000001 1.5000000000000002 399.333333333334
decision_type=2 2 2
left_child=1 2 -1
right_child=-2 -3 -4
leaf_value=-0.038313040061629583 -0.026801522729223884 0.061841342877588218 0.027847155792760869
leaf_weight=5.8571935743093508 5.8515826016664496 4.3490660786628714 4.1389957666397095
leaf_count=26 25 20 20
internal_value=0 0.0111399 -0.0109189
internal_weight=0 14.3453 9.99619
internal_count=91 66 46
is_linear=0
shrinkage=0.1


Tree=24
num_leaves=3
num_cat=0
split_feature=7 7
split_gain=0.680061 0.988466
threshold=379.83333333333582 399.333333333334
decision_type=2 2
left_child=-1 -2
right_child=1 -3
leaf_value=0.024092727254649483 -0.042795463730874249 0.013089414372660178
leaf_weight=7.4679811745882061 6.1318201273679716 6.5413936823606491
leaf_count=33 27 31
internal_value=0 -0.01395
internal_weight=0 12.6732
internal_count=91 58
is_linear=0
shrinkage=0.1


Tree=25
num_leaves=3
num_cat=0
split_feature=9 13
split_gain=0.604471 0.475883
threshold=30.500000000000004 1.0000000180025095e-35
decision_type=2 2
left_child=-1 -2
right_child=1 -3
leaf_value=0.025415438302945226 0.014425177144235074 -0.025025374941138823
leaf_weight=6.4394422024488476 4.6107892841100684 9.0776029229164106
leaf_count=30 23 38
internal_value=0 -0.0117369
internal_weight=0 13.6884
internal_count=91 61
is_linear=0
shrinkage=0.1


Tree=26
num_leaves=4
num_cat=0
split_feature=14 8 8
split_gain=0.748685 0.312167 0.124099
threshold=193.60504920838693 1.3500000000000003 0.84999999999999998
decision_type=2 2 2
left_child=1 -1 -2
right_child=2 -3 -4
leaf_value=0.00080339982225955038 -0.0072461519042540806 0.036609772165593905 -0.029237583743430384
leaf_weight=4.5558001250028628 4.9257945269346219 5.2298990339040756 5.356377899646759
leaf_count=22 23 23 23
internal_value=0 0.0199399 -0.0187023
internal_weight=0 9.7857 10.2822
internal_count=91 45 46
is_linear=0
shrinkage=0.1


Tree=27
num_leaves=3
num_cat=0
split_feature=6 6
split_gain=0.617075 1.39115
threshold=2.5000000000000009 1.0500000000000003
decision_type=2 2
left_child=1 -1
right_child=-2 -3
leaf_value=-0.013869158685008374 -0.025377196438059513 0.051377926618394978
leaf_weight=8.1817791163921374 6.4390206485986701 5.4408123642206183
leaf_count=38 28 25
internal_value=0 0.0121903
internal_weight=0 13.6226
internal_count=91 63
is_linear=0
shrinkage=0.1


Tree=28
num_leaves=3
num_cat=0
split_feature=7 7
split_gain=0.514678 0.79277
threshold=379.83333333333582 399.333333333334
decision_type=2 2
left_child=-1 -2
right_child=1 -3
leaf_value=0.02107822096724396 -0.037858758817016128 0.012239889313727223
leaf_weight=7.4000541269779232 6.1495887190103513 6.4942225366830826
leaf_count=33 27 31
internal_value=0 -0.0121267
internal_weight=0 12.6438
internal_count=91 58
is_linear=0
shrinkage=0.1


Tree=29
num_leaves=3
num_cat=0
split_feature=9 7
split_gain=0.519668 0.462807
threshold=30.500000000000004 399.1666666666643
decision_type=2 2
left_child=-1 -2
right_child=1 -3
leaf_value=0.023691756576321235 0.0035407733994109961 -0.034392259373901571
leaf_weight=6.3774030059576061 8.4567321687936765 5.1904608607292166
leaf_count=30 37 24
internal_value=0 -0.0108864
internal_weight=0 13.6472
internal_count=91 61
is_linear=0
shrinkage=0.1


Tree=30
num_leaves=3
num_cat=0
split_feature=6 7
split_gain=0.570342 1.65678
threshold=2.5000000000000009 382.33333333333491
decision_type=2 2
left_child=1 -1
right_child=-2 -3
leaf_value=-0.033599924498366025 -0.024412679943588325 0.038634658742805
leaf_weight=5.0592590719461468 6.4312146604061118 8.5264714211225492
leaf_count=23 28 40
internal_value=0 0.0117349
internal_weight=0 13.5857
internal_count=91 63
is_linear=0
shrinkage=0.1


Tree=31
num_leaves=3
num_cat=0
split_feature=7 15
split_gain=0.514303 0.847364
threshold=379.83333333333582 772.66666666666754
decision_type=2 2
left_child=-1 -2
right_child=1 -3
leaf_value=0.021049954467007029 -0.039839113616703468 0.012165420112629253
leaf_weight=7.3971564322710064 5.89016345143318 6.6939613372087479
leaf_count=33 27 31
internal_value=0 -0.012176
internal_weight=0 12.5841
internal_count=91 58
is_linear=0
shrinkage=0.1


Tree=32
num_leaves=4
num_cat=0
split_feature=6 6 6
split_gain=0.476563 1.28548 0.817974
threshold=2.8500000000000001 1.5000000000000002 0.55000000000000004
decision_type=2 2 2
left_child=1 2 -1
right_child=-2 -3 -4
leaf_value=0.02195477332098587 -0.023966450027582409 0.056242452079755346 -0.035684635667098348
leaf_weight=4.49490834772587 5.8212377876043311 4.222854644060134 5.444005474448204
leaf_count=21 25 20 25
internal_value=0 0.0100214 -0.00961701
internal_weight=0 14.1618 9.93891
internal_count=91 66 46
is_linear=0
shrinkage=0.1


Tree=33
num_leaves=3
num_cat=0
split_feature=9 13
split_gain=0.46642 0.374262
threshold=30.500000000000004 1.0000000180025095e-35
decision_type=2 2
left_child=-1 -2
right_child=1 -3
leaf_value=0.022566929929432503 0.013007759631790733 -0.022097779942668171
leaf_weight=6.3242744356393841 4.5741188675165168 9.0361361950635892
leaf_count=30 23 38
internal_value=0 -0.0102996
internal_weight=0 13.6103
internal_count=91 61
is_linear=0
shrinkage=0.1


Tree=34
num_leaves=4
num_cat=0
split_feature=14 9 9
split_gain=0.624875 0.77978 0.598052
threshold=193.60504920838693 51.500000000000007 36.500000000000007
decision_type=2 2 2
left_child=1 -1 -2
right_child=2 -3 -4
leaf_value=0.04539795142302451 -0.045340960280953524 -0.011337391071130304 0.0036975305326325879
leaf_weight=5.0656341612339038 4.3344031572341901 4.6428036391735077 5.8346803188323975
leaf_count=23 20 22 26
internal_value=0 0.0182658 -0.0172043
internal_weight=0 9.70844 10.1691
internal_count=91 45 46
is_linear=0
shrinkage=0.1


Tree=35
num_leaves=4
num_cat=0
split_feature=14 9 9
split_gain=0.506373 0.641222 0.476446
threshold=193.60504920838693 51.500000000000007 36.500000000000007
decision_type=2 2 2
left_child=1 -1 -2
right_child=2 -3 -4
leaf_value=0.041386829454927297 -0.040297512358058452 -0.010168349526180752 0.0033302639593867887
leaf_weight=5.0042610913515109 4.3862448185682279 4.6580700725317001 5.8305523842573166
leaf_count=23 20 22 26
internal_value=0 0.0165328 -0.0153999
internal_weight=0 9.66233 10.2168
internal_count=91 45 46
is_linear=0
shrinkage=0.1


Tree=36
num_leaves=4
num_cat=0
split_feature=6 7 9
split_gain=0.55449 1.53124 0.659489
threshold=2.5000000000000009 382.33333333333491 48.500000000000007
decision_type=2 2 2
left_child=1 -1 -3
right_child=-2 2 -4
leaf_value=-0.031979675726470314 -0.024208691851278084 0.064962712469791808 0.0090976807379836901
leaf_weight=5.050498932600024 6.3669211566448203 4.3157724142074567 4.1404029577970505
leaf_count=23 28 20 20
internal_value=0 0.0115883 0.0376095
internal_weight=0 13.5067 8.45618
internal_count=91 63 40
is_linear=0
shrinkage=0.1


Tree=37
num_leaves=3
num_cat=0
split_feature=7 7
split_gain=0.440565 0.585166
threshold=379.83333333333582 399.333333333334
decision_type=2 2
left_child=-1 -2
right_child=1 -3
leaf_value=0.019587799339624599 -0.033416495582259079 0.0098569108352128034
leaf_weight=7.3330976665020016 6.1098006367683393 6.3963886350393295
leaf_count=33 27 31
internal_value=0 -0.011284
internal_weight=0 12.5062
internal_count=91 58
is_linear=0
shrinkage=0.1


Tree=38
num_leaves=3
num_cat=0
split_feature=15 7
split_gain=0.384345 0.694925
threshold=772.66666666666754 379.83333333333582
decision_type=2 2
left_child=1 -1
right_child=-2 -3
leaf_value=0.011285182976897946 0.018951989832489597 -0.035449826297611266
leaf_weight=6.9276288449764269 7.0058292746543875 5.884007602930069
leaf_count=31 33 27
internal_value=0 -0.0101788
internal_weight=0 12.8116
internal_count=91 58
is_linear=0
shrinkage=0.1


Tree=39
num_leaves=4
num_cat=0
split_feature=14 9 15
split_gain=0.439876 0.511259 0.471136
threshold=193.60504920838693 51.500000000000007 798.33333333333223
decision_type=2 2 2
left_child=1 -1 -2
right_child=2 -3 -4
leaf_value=0.037859890939130704 -0.034559381022140977 -0.0082375720760920635 0.0085550296331763712
leaf_weight=4.9455529600381869 5.4150763452053052 4.6852820515632629 4.7646899670362473
leaf_count=23 23 22 23
internal_value=0 0.015434 -0.0143795
internal_weight=0 9.63084 10.1798
internal_count=91 45 46
is_linear=0
shrinkage=0.1


Tree=40
num_leaves=4
num_cat=0
split_feature=8 8 15
split_gain=0.392464 1.04536 0.378356
threshold=2.6500000000000017 1.0500000000000003 772.66666666666754
decision_type=2 2 2
left_child=1 2 -1
right_child=-2 -3 -4
leaf_value=-0.0048994594149945484 0.026004579062705615 -0.042640736622065842 0.034853709468758091
leaf_weight=5.6401908248662966 4.516301453113555 5.455292895436286 4.1600704789161682
leaf_count=27 21 23 20
internal_value=0 -0.00755513 0.0119752
internal_weight=0 15.2556 9.80026
internal_count=91 70 47
is_linear=0
shrinkage=0.1


Tree=41
num_leaves=4
num_cat=0
split_feature=14 9 9
split_gain=0.378733 0.438555 0.414603
threshold=193.60504920838693 36.500000000000007 51.500000000000007
decision_type=2 2 2
left_child=2 -2 -1
right_child=1 -3 -4
leaf_value=0.034809104615737961 -0.037284058660784762 0.0047117534426430446 -0.0068353789377516259
leaf_weight=4.8739141672849673 4.3636966347694379 5.7807924300432205 4.692176565527916
leaf_count=23 20 26 22
internal_value=0 -0.0133529 0.0143824
internal_weight=0 10.1445 9.56609
internal_count=91 46 45
is_linear=0
shrinkage=0.1


Tree=42
num_leaves=3
num_cat=0
split_feature=6 6
split_gain=0.568352 1.02379
threshold=2.5000000000000009 1.0500000000000003
decision_type=2 2
left_child=1 -1
right_child=-2 -3
leaf_value=-0.010463350586907155 -0.024731669413824636 0.046105263119155609
leaf_weight=8.1577365696430224 6.2773204892873755 5.2636855840682975
leaf_count=38 28 25
internal_value=0 0.011722
internal_weight=0 13.4214
internal_count=91 63
is_linear=0
shrinkage=0.1


Tree=43
num_leaves=4
num_cat=0
split_feature=6 6 14
split_gain=0.510468 0.961681 1.69714
threshold=0.40000000000000013 1.0500000000000003 279.75243147657073
decision_type=2 2 2
left_child=-1 -2 -3
right_child=1 2 -4
leaf_value=0.031902506235237361 -0.049227027115502128 -0.021628864640397316 0.058697278176478331
leaf_weight=4.0178190767765072 4.1641223132610312 7.4149308353662473 4.0762568563222885
leaf_count=19 19 33 20
internal_value=0 -0.00805469 0.00686514
internal_weight=0 15.6553 11.4912
internal_count=91 72 53
is_linear=0
shrinkage=0.1


Tree=44
num_leaves=3
num_cat=0
split_feature=9 9
split_gain=0.391354 0.513371
threshold=30.500000000000004 57.500000000000007
decision_type=2 2
left_child=-1 -2
right_child=1 -3
leaf_value=0.021016549921598206 -0.030244229641262117 0.0088728950129673568
leaf_weight=6.1521675735712078 6.3029374778270704 7.1734410673379898
leaf_count=30 27 34
internal_value=0 -0.00942229
internal_weight=0 13.4764
internal_count=91 61
is_linear=0
shrinkage=0.1


Tree=45
num_leaves=4
num_cat=0
split_feature=15 15 9
split_gain=0.401384 0.618805 1.79737
threshold=196.00000000000003 772.66666666666754 45.500000000000007
decision_type=2 2 2
left_child=-1 2 -2
right_child=1 -3 -4
leaf_value=0.030553247433302462 -0.068757780368263618 0.016201676602746361 0.019612203295629245
leaf_weight=3.546675160527232 4.4970696270465869 6.823712781071662 4.7144285589456558
leaf_count=18 20 33 20
internal_value=0 -0.00662246 -0.0235302
internal_weight=0 16.0352 9.2115
internal_count=91 73 40
is_linear=0
shrinkage=0.1


Tree=46
num_leaves=4
num_cat=0
split_feature=6 8 6
split_gain=0.39095 1.07951 1.12398
threshold=0.40000000000000013 0.65000000000000002 2.5000000000000009
decision_type=2 2 2
left_child=-1 -2 -3
right_child=1 2 -4
leaf_value=0.028264290884167514 -0.049771574119516437 0.044649751786849046 -0.018790564780174483
leaf_weight=3.9396540224552181 4.2805455029010764 4.9943080246448499 6.3353030532598495
leaf_count=19 21 23 28
internal_value=0 -0.00698896 0.00917513
internal_weight=0 15.6102 11.3296
internal_count=91 72 51
is_linear=0
shrinkage=0.1


Tree=47
num_leaves=3
num_cat=0
split_feature=9 14
split_gain=0.469635 0.534132
threshold=30.500000000000004 135.79242636746184
decision_type=2 2
left_child=-1 -2
right_child=1 -3
leaf_value=0.022986587819660363 -0.036704306417307847 0.0047779846455261003
leaf_weight=6.1536301970481899 4.8936228454112998 8.4877748489379865
leaf_count=30 23 38
internal_value=0 -0.0103922
internal_weight=0 13.3814
internal_count=91 61
is_linear=0
shrinkage=0.1


Tree=48
num_leaves=3
num_cat=0
split_feature=9 9
split_gain=0.382228 0.418902
threshold=30.500000000000004 57.500000000000007
decision_type=2 2
left_child=-1 -2
right_child=1 -3
leaf_value=0.020860691848529549 -0.028193132736785781 0.0072200882630223812
leaf_weight=6.1053210049867657 6.2677289098501188 7.1515729874372482
leaf_count=30 27 34
internal_value=0 -0.0093203
internal_weight=0 13.4193
internal_count=91 61
is_linear=0
shrinkage=0.1


Tree=49
num_leaves=4
num_cat=0
split_feature=14 9 9
split_gain=0.429188 0.391447 0.34682
threshold=193.60504920838693 51.500000000000007 36.500000000000007
decision_type=2 2 2
left_child=1 -1 -2
right_child=2 -3 -4
leaf_value=0.035286539680961099 -0.035908195398221612 -0.0053136822533261362 0.0017672103790828916
leaf_weight=4.8289319723844546 4.2751314193010312 4.6726108342409134 5.7025115489959717
leaf_count=23 20 22 26
internal_value=0 0.0153204 -0.0143756
internal_weight=0 9.50154 9.97764
internal_count=91 45 46
is_linear=0
shrinkage=0.1


Tree=50
num_leaves=4
num_cat=0
split_feature=12 13 14
split_gain=0.383566 0.634803 0.560395
threshold=1.0000000180025095e-35 1.0000000180025095e-35 228.64923747276717
decision_type=2 2 2
left_child=-1 -2 -3
right_child=1 2 -4
leaf_value=-0.026051972653461087 0.040892345368090575 0.018676528153732927 -0.026611697085194633
leaf_weight=4.3521583825349817 4.1604765653610238 5.2278587371110898 5.7236707657575607
leaf_count=19 22 24 26
internal_value=0 0.00763984 -0.00499276
internal_weight=0 15.112 10.9515
internal_count=91 72 50
is_linear=0
shrinkage=0.1


Tree=51
num_leaves=3
num_cat=0
split_feature=6 6
split_gain=0.359736 0.212605
threshold=2.0500000000000003 0.90000000000000013
decision_type=2 2
left_child=1 -1
right_child=-2 -3
leaf_value=-0.00052378410428106264 -0.016969622197949747 0.026565103856932178
leaf_weight=6.8317098170518893 7.5407204926013938 5.0308220833539963
leaf_count=33 34 24
internal_value=0 0.0109644
internal_weight=0 11.8625
internal_count=91 57
is_linear=0
shrinkage=0.1


Tree=52
num_leaves=4
num_cat=0
split_feature=9 8 9
split_gain=0.361586 0.57406 0.491757
threshold=30.500000000000004 1.3500000000000003 69.500000000000014
decision_type=2 2 2
left_child=-1 2 -2
right_child=1 -3 -4
leaf_value=0.020362956308032983 -0.049215748990117429 0.018130419603973182 -0.00092818050041475078
leaf_weight=6.0564443022012737 4.1901735812425596 4.8974993824958792 4.2462555170059204
leaf_count=30 18 21 22
internal_value=0 -0.00910235 -0.0249115
internal_weight=0 13.3339 8.43643
internal_count=91 61 40
is_linear=0
shrinkage=0.1


Tree=53
num_leaves=3
num_cat=0
split_feature=9 14
split_gain=0.294284 0.524402
threshold=30.500000000000004 135.79242636746184
decision_type=2 2
left_child=-1 -2
right_child=1 -3
leaf_value=0.018465128972509692 -0.034245330142115109 0.0068893286877795418
leaf_weight=6.0133958011865642 4.8903222382068625 8.4617215096950513
leaf_count=30 23 38
internal_value=0 -0.00817666
internal_weight=0 13.352
internal_count=91 61
is_linear=0
shrinkage=0.1


Tree=54
num_leaves=4
num_cat=0
split_feature=14 15 15
split_gain=0.328442 0.66332 0.346538
threshold=193.60504920838693 772.66666666666754 358.33333333333513
decision_type=2 2 2
left_child=2 -2 -1
right_child=1 -3 -4
leaf_value=-0.0051316839400161974 -0.042664257654451754 0.0095593337715762731 0.033297406044749511
leaf_weight=4.8384358584880847 4.2188773453235608 5.7428566515445709 4.5562643110752106
leaf_count=24 18 28 21
internal_value=0 -0.0125578 0.0135057
internal_weight=0 9.96173 9.3947
internal_count=91 46 45
is_linear=0
shrinkage=0.1


Tree=55
num_leaves=3
num_cat=0
split_feature=14 9
split_gain=0.28747 0.599933
threshold=279.75243147657073 57.500000000000007
decision_type=2 2
left_child=1 -1
right_child=-2 -3
leaf_value=-0.027263225620748517 0.014901397681680879 0.020146246429674317
leaf_weight=7.3111205846071261 7.8076092898845664 4.2039092034101486
leaf_count=34 37 20
internal_value=0 -0.00995497
internal_weight=0 11.515
internal_count=91 54
is_linear=0
shrinkage=0.1


Tree=56
num_leaves=4
num_cat=0
split_feature=6 9 6
split_gain=0.395248 0.969748 0.620814
threshold=0.40000000000000013 60.500000000000007 2.5000000000000009
decision_type=2 2 2
left_child=-1 2 -2
right_child=1 -3 -4
leaf_value=0.028585223711481783 0.033725082588519216 -0.047675356566755346 -0.01356866171584873
leaf_weight=3.8864839822053936 5.1833253651857358 4.2618954181671134 5.9752051383256912
leaf_count=19 25 20 27
internal_value=0 -0.00709804 0.00840008
internal_weight=0 15.4204 11.1585
internal_count=91 72 52
is_linear=0
shrinkage=0.1


Tree=57
num_leaves=4
num_cat=0
split_feature=15 15 6
split_gain=0.338762 0.451946 0.109375
threshold=196.00000000000003 772.66666666666754 2.5000000000000009
decision_type=2 2 2
left_child=-1 2 -2
right_child=1 -3 -4
leaf_value=0.028397627713451043 -0.03133368931102528 0.013700613812546433 -0.009474694870238623
leaf_weight=3.4676090031862286 4.6319841444492322 6.6629782393574706 4.5255371779203415
leaf_count=18 20 33 20
internal_value=0 -0.00611411 -0.0205312
internal_weight=0 15.8205 9.15752
internal_count=91 73 40
is_linear=0
shrinkage=0.1


Tree=58
num_leaves=3
num_cat=0
split_feature=7 9
split_gain=0.330658 0.807867
threshold=379.83333333333582 36.500000000000007
decision_type=2 2
left_child=-1 -2
right_child=1 -3
leaf_value=0.017164139240262177 -0.039329535976759027 0.012753120788569043
leaf_weight=7.134798243641856 5.2840512692928296 6.8247835636138916
leaf_count=33 26 32
internal_value=0 -0.0099747
internal_weight=0 12.1088
internal_count=91 58
is_linear=0
shrinkage=0.1


Tree=59
num_leaves=3
num_cat=0
split_feature=9 14
split_gain=0.325927 0.546859
threshold=30.500000000000004 135.79242636746184
decision_type=2 2
left_child=-1 -2
right_child=1 -3
leaf_value=0.019445880039754233 -0.035421631693747332 0.0067507536607084974
leaf_weight=5.9900547862052944 4.8453519940376273 8.4146965593099576
leaf_count=30 23 38
internal_value=0 -0.00865945
internal_weight=0 13.26
internal_count=91 61
is_linear=0
shrinkage=0.1


Tree=60
num_leaves=4
num_cat=0
split_feature=6 6 14
split_gain=0.330097 0.64218 1.24155
threshold=0.40000000000000013 1.0500000000000003 279.75243147657073
decision_type=2 2 2
left_child=-1 -2 -3
right_child=1 2 -4
leaf_value=0.026314539917116492 -0.039897770551923083 -0.018211940375313131 0.051698038091721799
leaf_weight=3.8400268405675915 4.1828483492135993 7.3313078433275205 3.88722974807024
leaf_count=19 19 33 20
internal_value=0 -0.00645666 0.00601191
internal_weight=0 15.4014 11.2185
internal_count=91 72 53
is_linear=0
shrinkage=0.1


Tree=61
num_leaves=3
num_cat=0
split_feature=7 15
split_gain=0.306671 1.13279
threshold=399.1666666666643 412.50000000000119
decision_type=2 2
left_child=1 -1
right_child=-2 -3
leaf_value=-0.030677233117817306 -0.016631180232266195 0.032651015715820415
leaf_weight=4.4358624964952487 6.9783409237861624 7.7761284112930298
leaf_count=21 35 35
internal_value=0 0.00964777
internal_weight=0 12.212
internal_count=91 56
is_linear=0
shrinkage=0.1


Tree=62
num_leaves=3
num_cat=0
split_feature=7 9
split_gain=0.294652 0.749464
threshold=379.83333333333582 36.500000000000007
decision_type=2 2
left_child=-1 -2
right_child=1 -3
leaf_value=0.016266164215763445 -0.037597410535220255 0.012530861432486513
leaf_weight=7.1007120758295086 5.2996581196784955 6.8215638697147369
leaf_count=33 26 32
internal_value=0 -0.00938629
internal_weight=0 12.1212
internal_count=91 58
is_linear=0
shrinkage=0.1


Tree=63
num_leaves=3
num_cat=0
split_feature=15 14
split_gain=0.33032 0.505885
threshold=196.00000000000003 279.75243147657073
decision_type=2 2
left_child=-1 -2
right_child=1 -3
leaf_value=0.028057892532937681 -0.023533995353384046 0.012304134519001732
leaf_weight=3.4619764387607601 8.0757435858249647 7.6888488680124274
leaf_count=18 36 37
internal_value=0 -0.0060547
internal_weight=0 15.7646
internal_count=91 73
is_linear=0
shrinkage=0.1


Tree=64
num_leaves=4
num_cat=0
split_feature=8 8 15
split_gain=0.353111 0.929313 0.30881
threshold=2.6500000000000017 1.0500000000000003 772.66666666666754
decision_type=2 2 2
left_child=1 2 -1
right_child=-2 -3 -4
leaf_value=-0.0039360122504903941 0.024970926586640203 -0.040791906050056684 0.03262480362634948
leaf_weight=5.4876505136489886 4.3952752053737631 5.3125122189521781 3.9900148883461952
leaf_count=27 21 23 20
internal_value=0 -0.00731117 0.0114558
internal_weight=0 14.7902 9.47767
internal_count=91 70 47
is_linear=0
shrinkage=0.1


Tree=65
num_leaves=4
num_cat=0
split_feature=14 8 7
split_gain=0.367845 0.216785 0.142505
threshold=193.60504920838693 1.3500000000000003 399.1666666666643
decision_type=2 2 2
left_child=1 -1 -2
right_child=2 -3 -4
leaf_value=-0.0017107447914468993 -0.0027998606502701163 0.028808178999069334 -0.027111856857669089
leaf_weight=4.4394272118806857 5.5008756369352323 4.8925937861204147 4.2921270355582237
leaf_count=22 25 23 21
internal_value=0 0.0142897 -0.0134554
internal_weight=0 9.33202 9.793
internal_count=91 45 46
is_linear=0
shrinkage=0.1


Tree=66
num_leaves=4
num_cat=0
split_feature=14 15 15
split_gain=0.297963 0.455312 0.317197
threshold=193.60504920838693 772.66666666666754 358.33333333333513
decision_type=2 2 2
left_child=2 -2 -1
right_child=1 -3 -4
leaf_value=-0.0050829980559997552 -0.036893222494693033 0.0065929493149402196 0.031865577005828392
leaf_weight=4.7711457908153552 4.2162683308124524 5.6131354123353958 4.5289652794599533
leaf_count=24 18 28 21
internal_value=0 -0.0120602 0.0129102
internal_weight=0 9.8294 9.30011
internal_count=91 46 45
is_linear=0
shrinkage=0.1


Tree=67
num_leaves=3
num_cat=0
split_feature=6 14
split_gain=0.308994 0.275049
threshold=2.0500000000000003 798.33333333333405
decision_type=2 2
left_child=1 -1
right_child=-2 -3
leaf_value=0.022437344748553117 -0.015822469766828336 -0.0091373887166980722
leaf_weight=7.1500282064080256 7.4531788676977149 4.4921950474381447
leaf_count=35 34 22
internal_value=0 0.0102541
internal_weight=0 11.6422
internal_count=91 57
is_linear=0
shrinkage=0.1


Tree=68
num_leaves=4
num_cat=0
split_feature=12 8 8
split_gain=0.259525 0.325399 0.225783
threshold=1.0000000180025095e-35 1.6500000000000006 0.55000000000000016
decision_type=2 2 2
left_child=-1 2 -2
right_child=1 -3 -4
leaf_value=-0.021545873311181334 0.0039462590212913746 -0.014047678815200363 0.034837760019668845
leaf_weight=4.3011263757944116 5.5340329855680448 5.109069451689721 4.1329914927482605
leaf_count=19 28 24 20
internal_value=0 0.00636517 0.0171535
internal_weight=0 14.7761 9.66702
internal_count=91 72 48
is_linear=0
shrinkage=0.1


Tree=69
num_leaves=3
num_cat=0
split_feature=9 9
split_gain=0.291086 0.358353
threshold=30.500000000000004 57.500000000000007
decision_type=2 2
left_child=-1 -2
right_child=1 -3
leaf_value=0.01846279220656567 -0.025854765550333073 0.0072497723558498876
leaf_weight=5.9281783327460316 6.1427465975284559 6.991779625415802
leaf_count=30 27 34
internal_value=0 -0.00823254
internal_weight=0 13.1345
internal_count=91 61
is_linear=0
shrinkage=0.1


Tree=70
num_leaves=4
num_cat=0
split_feature=8 7 8
split_gain=0.291909 0.874978 1.04877
threshold=2.6500000000000017 399.333333333334 0.84999999999999998
decision_type=2 2 2
left_child=1 2 -1
right_child=-2 -3 -4
leaf_value=0.0073075801136365543 0.022920431227728386 0.027692288904302576 -0.058287156634070351
leaf_weight=5.1101962178945559 4.3193007111549369 4.9307721778750411 4.6604604572057724
leaf_count=25 21 25 20
internal_value=0 -0.00664952 -0.0239802
internal_weight=0 14.7014 9.77066
internal_count=91 70 45
is_linear=0
shrinkage=0.1


Tree=71
num_leaves=4
num_cat=0
split_feature=14 9 9
split_gain=0.246258 0.354163 0.327542
threshold=193.60504920838693 51.500000000000007 36.500000000000007
decision_type=2 2 2
left_child=1 -1 -2
right_child=2 -3 -4
leaf_value=0.031193285735700422 -0.032041559511586507 -0.0081518778863616144 0.0049534446166935621
leaf_weight=4.6522674411535281 4.2054210007190687 4.5014609098434448 5.5536991506814957
leaf_count=23 20 22 26
internal_value=0 0.0118448 -0.0109885
internal_weight=0 9.15373 9.75912
internal_count=91 45 46
is_linear=0
shrinkage=0.1


Tree=72
num_leaves=3
num_cat=0
split_feature=7 15
split_gain=0.304274 1.05089
threshold=399.1666666666643 412.50000000000119
decision_type=2 2
left_child=1 -1
right_child=-2 -3
leaf_value=-0.029533204417861572 -0.016648246458013743 0.032047079888794308
leaf_weight=4.3499464541673678 6.9110498055815688 7.6358997002243996
leaf_count=21 35 35
internal_value=0 0.00969814
internal_weight=0 11.9858
internal_count=91 56
is_linear=0
shrinkage=0.1


Tree=73
num_leaves=3
num_cat=0
split_feature=8 14
split_gain=0.26733 1.77095
threshold=0.55000000000000016 279.75243147657073
decision_type=2 2
left_child=-1 -2
right_child=1 -3
leaf_value=-0.017427183630887324 -0.021055053831180823 0.054991684979365622
leaf_weight=5.9782308042049435 7.9767532199621183 4.9704478457570076
leaf_count=30 37 24
internal_value=0 0.00813939
internal_weight=0 12.9472
internal_count=91 61
is_linear=0
shrinkage=0.1


Tree=74
num_leaves=4
num_cat=0
split_feature=14 15 9
split_gain=0.317394 0.430904 0.274226
threshold=193.60504920838693 772.66666666666754 51.500000000000007
decision_type=2 2 2
left_child=2 -2 -1
right_child=1 -3 -4
leaf_value=0.030491260191853321 -0.036719806612617693 0.0057883298050488488 -0.0040491886520774862
leaf_weight=4.6423753947019595 4.1896785646676999 5.5353864207863808 4.5526630580425262
leaf_count=23 18 28 22
internal_value=0 -0.0125247 0.0133895
internal_weight=0 9.72506 9.19504
internal_count=91 46 45
is_linear=0
shrinkage=0.1


Tree=75
num_leaves=3
num_cat=0
split_feature=9 8
split_gain=0.269099 0.462589
threshold=36.500000000000007 0.84999999999999998
decision_type=2 2
left_child=-1 -2
right_child=1 -3
leaf_value=-0.015156243086074495 0.031203909087941597 -0.0087456235986579263
leaf_weight=7.1894055157899883 5.318173021078108 6.3705389797687531
leaf_count=36 27 28
internal_value=0 0.00943076
internal_weight=0 11.6887
internal_count=91 55
is_linear=0
shrinkage=0.1


Tree=76
num_leaves=4
num_cat=0
split_feature=15 14 8
split_gain=0.282607 0.659086 0.493308
threshold=697.66666666666674 380.29365079364965 1.2500000000000002
decision_type=2 2 2
left_child=2 -2 -1
right_child=1 -3 -4
leaf_value=-0.011698209818049532 -0.040527635579760281 0.010900723281026778 0.036036518384051149
leaf_weight=4.1308845877647418 4.3773411661386472 5.7855105996131897 4.5490867644548416
leaf_count=21 20 29 21
internal_value=0 -0.0112505 0.0133191
internal_weight=0 10.1629 8.67997
internal_count=91 49 42
is_linear=0
shrinkage=0.1


Tree=77
num_leaves=4
num_cat=0
split_feature=15 9 8
split_gain=0.270857 0.361092 0.0171542
threshold=196.00000000000003 36.500000000000007 1.3500000000000003
decision_type=2 2 2
left_child=-1 -2 -3
right_child=1 2 -4
leaf_value=0.025697113906355068 -0.022901113181302682 0.0033651064509326993 0.01224434645378571
leaf_weight=3.3829252272844341 6.7502851858735076 4.2470012530684453 4.4614544808864594
leaf_count=18 33 20 20
internal_value=0 -0.00554184 0.00791406
internal_weight=0 15.4587 8.70846
internal_count=91 73 40
is_linear=0
shrinkage=0.1


Tree=78
num_leaves=4
num_cat=0
split_feature=9 8 9
split_gain=0.282938 0.500027 0.212783
threshold=30.500000000000004 1.3500000000000003 69.500000000000014
decision_type=2 2 2
left_child=-1 2 -2
right_child=1 -3 -4
leaf_value=0.018290964917083416 -0.038852292760102027 0.017928702834295727 -0.006801345955465771
leaf_weight=5.8656356334686306 4.1724611073732358 4.6868736147880545 4.113399051129818
leaf_count=30 18 21 22
internal_value=0 -0.00817536 -0.022941
internal_weight=0 12.9727 8.28586
internal_count=91 61 40
is_linear=0
shrinkage=0.1


Tree=79
num_leaves=4
num_cat=0
split_feature=15 7 15
split_gain=0.233141 0.449699 0.161724
threshold=196.00000000000003 399.1666666666643 700.66666666666799
decision_type=2 2 2
left_child=-1 2 -2
right_child=1 -3 -4
leaf_value=0.023991552786946146 -0.0043651591564497893 -0.028939992967616499 0.020888273197822677
leaf_weight=3.3473228663206127 5.593208581209181 5.2394897490739814 4.6393455192446709
leaf_count=18 25 26 22
internal_value=0 -0.00511491 0.00708451
internal_weight=0 15.472 10.2326
internal_count=91 73 47
is_linear=0
shrinkage=0.1


Tree=80
num_leaves=3
num_cat=0
split_feature=6 7
split_gain=0.23631 0.767534
threshold=2.0500000000000003 382.833333333334
decision_type=2 2
left_child=1 -1
right_child=-2 -3
leaf_value=-0.019620544764202261 -0.013895716428471922 0.032450430409184217
leaf_weight=5.1394300982356089 7.3750165551900855 6.3017739802598953
leaf_count=25 34 32
internal_value=0 0.00905996
internal_weight=0 11.4412
internal_count=91 57
is_linear=0
shrinkage=0.1


Tree=81
num_leaves=4
num_cat=0
split_feature=8 7 7
split_gain=0.278699 0.384908 0.94084
threshold=0.55000000000000016 379.83333333333582 399.333333333334
decision_type=2 2 2
left_child=-1 -2 -3
right_child=1 2 -4
leaf_value=-0.017885611364387446 0.03167322708448362 -0.036371628613039407 0.031038963543831545
leaf_weight=5.9232613816857365 4.5594952106475821 4.377376124262808 3.9285751432180405
leaf_count=30 21 20 20
internal_value=0 0.00832777 -0.00448755
internal_weight=0 12.8654 8.30595
internal_count=91 61 40
is_linear=0
shrinkage=0.1


Tree=82
num_leaves=4
num_cat=0
split_feature=6 9 9
split_gain=0.245533 0.783818 0.456259
threshold=0.40000000000000013 60.500000000000007 36.500000000000007
decision_type=2 2 2
left_child=-1 2 -2
right_child=1 -3 -4
leaf_value=0.023098961377548528 -0.0091556748946022195 -0.042094123024275502 0.032329475702487537
leaf_weight=3.7123562544584301 6.1738742962479574 4.2336573377251616 4.6462066620588303
leaf_count=19 31 20 21
internal_value=0 -0.00561513 0.00865829
internal_weight=0 15.0537 10.8201
internal_count=91 72 52
is_linear=0
shrinkage=0.1


Tree=83
num_leaves=3
num_cat=0
split_feature=9 9
split_gain=0.255912 0.379792
threshold=30.500000000000004 57.500000000000007
decision_type=2 2
left_child=-1 -2
right_child=1 -3
leaf_value=0.017476892994185766 -0.026151996593040561 0.008176880338549665
leaf_weight=5.8243972957134273 6.0151897072792035 6.9421196058392525
leaf_count=30 27 34
internal_value=0 -0.00775966
internal_weight=0 12.9573
internal_count=91 61
is_linear=0
shrinkage=0.1


Tree=84
num_leaves=3
num_cat=0
split_feature=6 6
split_gain=0.257993 0.597279
threshold=2.8500000000000001 1.0500000000000003
decision_type=2 2
left_child=1 -1
right_child=-2 -3
leaf_value=-0.010133040003920199 -0.018218139316194266 0.032979633239405975
leaf_weight=7.8154112845659274 5.4676512926816931 5.4572367295622826
leaf_count=38 25 28
internal_value=0 0.00759334
internal_weight=0 13.2726
internal_count=91 66
is_linear=0
shrinkage=0.1


Tree=85
num_leaves=3
num_cat=0
split_feature=7 15
split_gain=0.253761 0.867328
threshold=399.1666666666643 412.50000000000119
decision_type=2 2
left_child=1 -1
right_child=-2 -3
leaf_value=-0.026663243813663029 -0.015277858996889111 0.029443565738636403
leaf_weight=4.346496522426607 6.841214917600154 7.5255614221096039
leaf_count=21 35 35
internal_value=0 0.00890222
internal_weight=0 11.8721
internal_count=91 56
is_linear=0
shrinkage=0.1


Tree=86
num_leaves=4
num_cat=0
split_feature=8 7 9
split_gain=0.251811 0.717928 0.192818
threshold=1.0500000000000003 382.33333333333036 69.500000000000014
decision_type=2 2 2
left_child=2 -2 -1
right_child=1 -3 -4
leaf_value=0.024523140586258749 0.016976581663378745 -0.038341741245367864 -0.0043932287753472724
leaf_weight=5.1948903501033801 4.5574455410242063 4.8350827693939209 4.146724633872509
leaf_count=25 21 23 22
internal_value=0 -0.0115002 0.0116872
internal_weight=0 9.39253 9.34161
internal_count=91 44 47
is_linear=0
shrinkage=0.1


Tree=87
num_leaves=4
num_cat=0
split_feature=6 9 9
split_gain=0.236599 0.665972 0.445624
threshold=0.40000000000000013 60.500000000000007 36.500000000000007
decision_type=2 2 2
left_child=-1 2 -2
right_child=1 -3 -4
leaf_value=0.02270330036715636 -0.0099000000033903912 -0.038985162673713963 0.031199371831956757
leaf_weight=3.7029076814651516 6.1531650125980359 4.2603081837296477 4.6181621849536896
leaf_count=19 31 20 21
internal_value=0 -0.00551646 0.00772119
internal_weight=0 15.0316 10.7713
internal_count=91 72 52
is_linear=0
shrinkage=0.1


Tree=88
num_leaves=3
num_cat=0
split_feature=9 14
split_gain=0.216746 0.486646
threshold=30.500000000000004 135.79242636746184
decision_type=2 2
left_child=-1 -2
right_child=1 -3
leaf_value=0.016131545111051204 -0.032546436725310289 0.0076548214107087457
leaf_weight=5.7977866381406811 4.7632558941841117 8.1861698701977712
leaf_count=30 23 38
internal_value=0 -0.00713262
internal_weight=0 12.9494
internal_count=91 61
is_linear=0
shrinkage=0.1


Tree=89
num_leaves=3
num_cat=0
split_feature=6 7
split_gain=0.271909 1.24408
threshold=2.0500000000000003 382.33333333333491
decision_type=2 2
left_child=1 -1
right_child=-2 -3
leaf_value=-0.033481791852969331 -0.014965518430887437 0.034961659520848128
leaf_weight=4.2076744586229342 7.3314136564731589 7.200249046087265
leaf_count=20 34 37
internal_value=0 0.00971712
internal_weight=0 11.4079
internal_count=91 57
is_linear=0
shrinkage=0.1


Tree=90
num_leaves=3
num_cat=0
split_feature=7 8
split_gain=0.248779 0.194714
threshold=399.1666666666643 0.84999999999999998
decision_type=2 2
left_child=1 -1
right_child=-2 -3
leaf_value=0.024092108982792251 -0.015130390602466574 -0.0019238554079571474
leaf_weight=4.9002819657325762 6.8359703943133345 6.9670410454273224
leaf_count=24 35 32
internal_value=0 0.00881872
internal_weight=0 11.8673
internal_count=91 56
is_linear=0
shrinkage=0.1


Tree=91
num_leaves=4
num_cat=0
split_feature=15 14 14
split_gain=0.250256 0.444147 0.140276
threshold=697.66666666666674 380.29365079364965 102.95752895752945
decision_type=2 2 2
left_child=2 -2 -1
right_child=1 -3 -4
leaf_value=-0.0003738715631342363 -0.034493097587319166 0.0078397721784986031 0.025131252671290124
leaf_weight=4.2513189464807528 4.3987370282411558 5.6770342141389847 4.3760782778263092
leaf_count=22 20 29 20
internal_value=0 -0.0106413 0.0125631
internal_weight=0 10.0758 8.6274
internal_count=91 49 42
is_linear=0
shrinkage=0.1


Tree=92
num_leaves=4
num_cat=0
split_feature=14 15 15
split_gain=0.237003 0.294053 0.202902
threshold=193.60504920838693 772.66666666666754 358.33333333333513
decision_type=2 2 2
left_child=2 -2 -1
right_child=1 -3 -4
leaf_value=-0.0029068917065411988 -0.03085306558339565 0.0044804952472550022 0.026947800923993445
leaf_weight=4.6836376339197177 4.1759398579597455 5.4024216383695602 4.4293112605810165
leaf_count=24 18 28 21
internal_value=0 -0.0109241 0.0116039
internal_weight=0 9.57836 9.11295
internal_count=91 46 45
is_linear=0
shrinkage=0.1


Tree=93
num_leaves=4
num_cat=0
split_feature=6 8 8
split_gain=0.226023 0.724898 0.832035
threshold=0.40000000000000013 0.65000000000000002 1.6500000000000006
decision_type=2 2 2
left_child=-1 -2 -3
right_child=1 2 -4
leaf_value=0.022224342989903417 -0.04028232050932657 0.04615661161851109 -0.012150280400226612
leaf_weight=3.6898251920938518 4.2628333419561377 3.7873966395854932 6.9172473549842834
leaf_count=19 21 18 33
internal_value=0 -0.00540839 0.00847921
internal_weight=0 14.9675 10.7046
internal_count=91 72 51
is_linear=0
shrinkage=0.1


Tree=94
num_leaves=3
num_cat=0
split_feature=13 9
split_gain=0.229512 0.387172
threshold=1.0000000180025095e-35 36.500000000000007
decision_type=2 2
left_child=-1 -2
right_child=1 -3
leaf_value=0.01930941279216471 -0.023853502054996589 0.0094504454048265508
leaf_weight=4.6506196632981327 6.6345735788345319 7.3664751499891281
leaf_count=25 33 33
internal_value=0 -0.00633105
internal_weight=0 14.001
internal_count=91 66
is_linear=0
shrinkage=0.1


Tree=95
num_leaves=4
num_cat=0
split_feature=8 8 6
split_gain=0.244242 0.715592 0.159227
threshold=2.6500000000000017 1.0500000000000003 0.75000000000000011
decision_type=2 2 2
left_child=1 2 -1
right_child=-2 -3 -4
leaf_value=-0.0043935675634849776 0.021267400378109411 -0.035922307744692773 0.022031960862129288
leaf_weight=4.0437283515930194 4.2060032784938803 5.1707227677106848 5.2283122912049294
leaf_count=21 21 23 26
internal_value=0 -0.00611522 0.0105072
internal_weight=0 14.4428 9.27204
internal_count=91 70 47
is_linear=0
shrinkage=0.1


Tree=96
num_leaves=3
num_cat=0
split_feature=7 14
split_gain=0.234563 0.202573
threshold=399.1666666666643 157.42200328407236
decision_type=2 2
left_child=1 -1
right_child=-2 -3
leaf_value=-0.0051893662938650997 -0.01470055634059253 0.021081500548068219
leaf_weight=5.5886554419994372 6.8183574080467215 6.1819410994648933
leaf_count=27 35 29
internal_value=0 0.00860815
internal_weight=0 11.7706
internal_count=91 56
is_linear=0
shrinkage=0.1


Tree=97
num_leaves=3
num_cat=0
split_feature=9 9
split_gain=0.233996 0.405253
threshold=30.500000000000004 57.500000000000007
decision_type=2 2
left_child=-1 -2
right_child=1 -3
leaf_value=0.016775447120162608 -0.026671593587268057 0.0089697134311451324
leaf_weight=5.7733905166387585 5.9197507947683317 6.9188104122877121
leaf_count=30 27 34
internal_value=0 -0.00746419
internal_weight=0 12.8386
internal_count=91 61
is_linear=0
shrinkage=0.1


Tree=98
num_leaves=4
num_cat=0
split_feature=6 8 8
split_gain=0.199064 0.674789 0.696574
threshold=0.40000000000000013 0.65000000000000002 1.6500000000000006
decision_type=2 2 2
left_child=-1 -2 -3
right_child=1 2 -4
leaf_value=0.020983089193095841 -0.038723729281018776 0.043055357776879466 -0.010464772068800837
leaf_weight=3.6505724042654064 4.2576201409101477 3.7522711455821973 6.9104809314012527
leaf_count=19 21 18 33
internal_value=0 -0.00506905 0.00836921
internal_weight=0 14.9204 10.6628
internal_count=91 72 51
is_linear=0
shrinkage=0.1


Tree=99
num_leaves=4
num_cat=0
split_feature=12 9 9
split_gain=0.210049 0.999617 1.82582
threshold=1.0000000180025095e-35 63.500000000000007 30.500000000000004
decision_type=2 2 2
left_child=-1 2 -2
right_child=1 -3 -4
leaf_value=-0.019641026993709683 0.031715791722505333 0.046151720505350574 -0.05345431294217904
leaf_weight=4.1911625415086755 4.9678789600729925 4.3018728271126756 5.1019328385591507
leaf_count=19 26 23 23
internal_value=0 0.0058016 -0.0114362
internal_weight=0 14.3717 10.0698
internal_count=91 72 49
is_linear=0
shrinkage=0.1


end of trees

feature_importances:
taskNum=64
response_time=42
scroll_time=40
s_view_position=33
s_scroll_speed=31
scroll_length=31
event_scroll=8
s_choice_left=3

parameters:
[boosting: gbdt]
[objective: binary]
[metric: binary_error]
[tree_learner: serial]
[device_type: cpu]
[data_sample_strategy: bagging]
[data: ]
[valid: ]
[num_iterations: 100]
[learning_rate: 0.1]
[num_leaves: 31]
[num_threads: 0]
[seed: 0]
[deterministic: 0]
[force_col_wise: 0]
[force_row_wise: 0]
[histogram_pool_size: -1]
[max_depth: -1]
[min_data_in_leaf: 20]
[min_sum_hessian_in_leaf: 0.001]
[bagging_fraction: 1]
[pos_bagging_fraction: 1]
[neg_bagging_fraction: 1]
[bagging_freq: 0]
[bagging_seed: 3]
[feature_fraction: 0.5]
[feature_fraction_bynode: 1]
[feature_fraction_seed: 2]
[extra_trees: 0]
[extra_seed: 6]
[early_stopping_round: 0]
[first_metric_only: 0]
[max_delta_step: 0]
[lambda_l1: 0]
[lambda_l2: 0]
[linear_lambda: 0]
[min_gain_to_split: 0]
[drop_rate: 0.1]
[max_drop: 50]
[skip_drop: 0.5]
[xgboost_dart_mode: 0]
[uniform_drop: 0]
[drop_seed: 4]
[top_rate: 0.2]
[other_rate: 0.1]
[min_data_per_group: 100]
[max_cat_threshold: 32]
[cat_l2: 10]
[cat_smooth: 10]
[max_cat_to_onehot: 4]
[top_k: 20]
[monotone_constraints: ]
[monotone_constraints_method: basic]
[monotone_penalty: 0]
[feature_contri: ]
[forcedsplits_filename: ]
[refit_decay_rate: 0.9]
[cegb_tradeoff: 1]
[cegb_penalty_split: 0]
[cegb_penalty_feature_lazy: ]
[cegb_penalty_feature_coupled: ]
[path_smooth: 0]
[interaction_constraints: ]
[verbosity: -1]
[saved_feature_importance_type: 0]
[use_quantized_grad: 0]
[num_grad_quant_bins: 4]
[quant_train_renew_leaf: 0]
[stochastic_rounding: 1]
[linear_tree: 0]
[max_bin: 255]
[max_bin_by_feature: ]
[min_data_in_bin: 3]
[bin_construct_sample_cnt: 200000]
[data_random_seed: 1]
[is_enable_sparse: 1]
[enable_bundle: 1]
[use_missing: 1]
[zero_as_missing: 0]
[feature_pre_filter: 0]
[pre_partition: 0]
[two_round: 0]
[header: 0]
[label_column: ]
[weight_column: ]
[group_column: ]
[ignore_column: ]
[categorical_feature: ]
[forcedbins_filename: ]
[precise_float_parser: 0]
[parser_config_file: ]
[objective_seed: 5]
[num_class: 1]
[is_unbalance: 0]
[scale_pos_weight: 1]
[sigmoid: 1]
[boost_from_average: 1]
[reg_sqrt: 0]
[alpha: 0.9]
[fair_c: 1]
[poisson_max_delta_step: 0.7]
[tweedie_variance_power: 1.5]
[lambdarank_truncation_level: 30]
[lambdarank_norm: 1]
[label_gain: ]
[lambdarank_position_bias_regularization: 0]
[eval_at: ]
[multi_error_top_k: 1]
[auc_mu_weights: ]
[num_machines: 1]
[local_listen_port: 12400]
[time_out: 120]
[machine_list_filename: ]
[machines: ]
[gpu_platform_id: -1]
[gpu_device_id: -1]
[gpu_use_dp: 0]
[num_gpu: 1]

end of parameters

pandas_categorical:[]
