tree
version=v4
num_class=1
num_tree_per_iteration=1
label_index=0
max_feature_idx=15
objective=binary sigmoid:1
feature_names=response_time s_tap_count ratio_tap_position_y scroll_length event_scroll s_scroll_speed tap_position_x taskNum tap_position_y screen_width s_view_position predicted_isAnswerCorrect scroll_time ratio_tap_position_x s_choice_left screen_height
feature_infos=[0.10000000000000001:10.399999999999981] [1:1] none [0:14300.666666666672] [0:6] [-3503.3333333333576:6900.0000000000018] none [1:103] none [390:390] [-343.99999999999989:1145.6666666666642] [0:1] [-0.5:18.799999999999962] none [0:1] [844:844]
tree_sizes=529 546 543 547 544 545 650 543 533 546 649 547 545 536 549 547 445 453 544 549 547 543 549 549 546 546 548 549 548 548 549 549 544 551 548 548 548 549 551 548 652 552 445 548 550 451 550 549 652 550 448 551 549 448 552 549 546 550 548 545 446 550 550 547 551 547 550 556 551 552 550 548 553 547 551 548 550 448 551 533 545 552 447 547 551 551 550 552 446 448 554 552 448 445 550 445 547 447 444 650

Tree=0
num_leaves=4
num_cat=0
split_feature=10 12 12
split_gain=2.44036 3.61973 1.98187
threshold=348.50000000000489 2.4000000000000008 1.25
decision_type=2 2 2
left_child=-1 2 -2
right_child=1 -3 -4
leaf_value=0.68693653374709684 0.60573484951270173 0.53665702785496983 0.68693653374709696
leaf_weight=4.5470827817916897 8.8668114244937914 5.4564993381500235 4.5470827817916861
leaf_count=20 39 24 20
internal_value=0.621174 0.605327 0.633261
internal_weight=0 18.8704 13.4139
internal_count=103 83 59
is_linear=0
shrinkage=1


Tree=1
num_leaves=4
num_cat=0
split_feature=7 7 12
split_gain=2.81544 4.39147 0.478851
threshold=72.500000000000014 30.500000000000004 1.9000000000000001
decision_type=2 2 2
left_child=1 -1 -3
right_child=-2 2 -4
leaf_value=0.038396056520029614 0.053089227598784275 -0.08796492159146746 -0.043098764642946236
leaf_weight=6.8581224381923738 7.0104916244745246 4.9790555536746961 4.5551082491874695
leaf_count=30 31 22 20
internal_value=0 -0.0226312 -0.0665294
internal_weight=0 16.3923 9.53416
internal_count=103 72 42
is_linear=0
shrinkage=0.1


Tree=2
num_leaves=4
num_cat=0
split_feature=3 3 3
split_gain=2.84312 2.42082 0.859306
threshold=832.3333333333386 196.00000000000003 730.3333333333286
decision_type=2 2 2
left_child=1 -1 -3
right_child=-2 2 -4
leaf_value=0.034644723791369868 0.069143789479508985 -0.01859098792567155 -0.071008731121812899
leaf_weight=6.0237532109022203 4.7518636137247077 6.8816513419151288 5.7328034341335297
leaf_count=27 21 30 25
internal_value=0 -0.0175084 -0.0424129
internal_weight=0 18.6382 12.6145
internal_count=103 82 55
is_linear=0
shrinkage=0.1


Tree=3
num_leaves=4
num_cat=0
split_feature=7 7 7
split_gain=1.99373 3.39783 0.0868266
threshold=72.500000000000014 30.500000000000004 51.500000000000007
decision_type=2 2 2
left_child=1 -1 -3
right_child=-2 2 -4
leaf_value=0.035715602121265747 0.045675661095678811 -0.046939562817084883 -0.065799958907505549
leaf_weight=6.7905292958021226 6.8086382895708075 4.8702006340026838 4.8934778124094009
leaf_count=30 31 21 21
internal_value=0 -0.0186096 -0.0563922
internal_weight=0 16.5542 9.76368
internal_count=103 72 42
is_linear=0
shrinkage=0.1


Tree=4
num_leaves=4
num_cat=0
split_feature=3 3 3
split_gain=2.25552 1.77519 0.581017
threshold=832.3333333333386 730.3333333333286 196.00000000000003
decision_type=2 2 2
left_child=1 2 -1
right_child=-2 -3 -4
leaf_value=0.028635134333918379 0.062709149387682961 -0.060936272395923079 -0.014064317530845012
leaf_weight=5.8812928050756508 4.6205321401357642 5.8572947531938544 6.9554780572652817
leaf_count=27 21 25 30
internal_value=0 -0.0153168 0.00549886
internal_weight=0 18.6941 12.8368
internal_count=103 82 57
is_linear=0
shrinkage=0.1


Tree=5
num_leaves=4
num_cat=0
split_feature=7 7 12
split_gain=1.41524 2.65417 0.459835
threshold=72.500000000000014 30.500000000000004 1.9000000000000001
decision_type=2 2 2
left_child=1 -1 -3
right_child=-2 2 -4
leaf_value=0.033150304660783315 0.039269068626701098 -0.068831583955317827 -0.025737003897392481
leaf_weight=6.7163585722446504 6.6198999285697928 5.184827119112013 4.739315539598465
leaf_count=30 31 22 20
internal_value=0 -0.0153966 -0.0482516
internal_weight=0 16.6405 9.92414
internal_count=103 72 42
is_linear=0
shrinkage=0.1


Tree=6
num_leaves=5
num_cat=0
split_feature=3 12 3 3
split_gain=1.82808 1.49389 1.0343 0.350234
threshold=832.3333333333386 1.0000000180025095e-35 730.3333333333286 395.33333333333218
decision_type=2 2 2 2
left_child=1 -1 3 -3
right_child=-2 2 -4 -5
leaf_value=0.037422413607969676 0.057407238992338162 -0.029037931725237082 -0.064743997360509939 0.010243456665287146
leaf_weight=4.3907941579818788 4.4981632679700843 4.4235866218805295 5.2181753963232032 4.6618014872074127
leaf_count=20 21 20 22 20
internal_value=0 -0.0135993 -0.0292615 -0.00888227
internal_weight=0 18.6944 14.3036 9.08539
internal_count=103 82 62 40
is_linear=0
shrinkage=0.1


Tree=7
num_leaves=4
num_cat=0
split_feature=0 0 7
split_gain=1.16551 3.10207 0.383803
threshold=1.0500000000000003 2.6500000000000017 63.500000000000007
decision_type=2 2 2
left_child=2 -2 -1
right_child=1 -3 -4
leaf_value=-0.0015472800789275167 -0.076993932768377502 0.03338339484207993 0.033844941907582991
leaf_weight=4.9981120079755801 5.4102388024330121 4.8098105639219284 7.9181422144174576
leaf_count=22 23 21 37
internal_value=0 -0.0250476 0.0201495
internal_weight=0 10.22 12.9163
internal_count=103 44 59
is_linear=0
shrinkage=0.1


Tree=8
num_leaves=4
num_cat=0
split_feature=12 12 12
split_gain=1.05253 1.93603 1.82329
threshold=2.4000000000000008 1.25 0.40000000000000013
decision_type=2 2 2
left_child=1 2 -1
right_child=-2 -3 -4
leaf_value=0.03306550371371654 -0.033242617564353663 0.063010321778558823 -0.048446883674901006
leaf_weight=5.1724437326192909 6.6877226531505576 5.3785351961851111 5.8452565222978592
leaf_count=24 29 24 26
internal_value=0 0.0138293 -0.0101795
internal_weight=0 16.3962 11.0177
internal_count=103 74 50
is_linear=0
shrinkage=0.1


Tree=9
num_leaves=4
num_cat=0
split_feature=10 10 10
split_gain=0.654143 0.879679 1.46337
threshold=505.16666666666612 380.6666666666643 348.50000000000489
decision_type=2 2 2
left_child=1 2 -1
right_child=-2 -3 -4
leaf_value=0.054243847403419754 0.029141457210353001 -0.033549214759507319 -0.02606829053316452
leaf_weight=4.2860637307167107 5.8345298916101447 8.1125247329473478 4.820428878068924
leaf_count=20 27 35 21
internal_value=0 -0.00960198 0.0117314
internal_weight=0 17.219 9.10649
internal_count=103 76 41
is_linear=0
shrinkage=0.1


Tree=10
num_leaves=5
num_cat=0
split_feature=3 12 3 3
split_gain=1.39455 0.949553 0.70241 0.341436
threshold=832.3333333333386 1.0000000180025095e-35 730.3333333333286 395.33333333333218
decision_type=2 2 2 2
left_child=1 -1 3 -3
right_child=-2 2 -4 -5
leaf_value=0.029903193550290204 0.051203889863013524 -0.02692438850717549 -0.05281509575799978 0.01183312998815045
leaf_weight=4.2416869699955049 4.3480039685964575 4.4334874153137189 5.3131506592035285 4.6643290519714355
leaf_count=20 21 20 22 20
internal_value=0 -0.0116847 -0.0239255 -0.00705393
internal_weight=0 18.6527 14.411 9.09782
internal_count=103 82 62 40
is_linear=0
shrinkage=0.1


Tree=11
num_leaves=4
num_cat=0
split_feature=7 7 12
split_gain=0.98817 1.76885 0.549048
threshold=30.500000000000004 72.500000000000014 1.9000000000000001
decision_type=2 2 2
left_child=-1 2 -2
right_child=1 -3 -4
leaf_value=0.032734758574109533 -0.061547337767379674 0.028627760492174439 -0.014702921645506663
leaf_weight=6.6356022506952312 5.2205406725406664 6.2676800340414038 4.8048610985279083
leaf_count=30 22 31 20
internal_value=0 -0.013044 -0.0390963
internal_weight=0 16.2931 10.0254
internal_count=103 73 42
is_linear=0
shrinkage=0.1


Tree=12
num_leaves=4
num_cat=0
split_feature=3 3 10
split_gain=1.13652 0.674117 1.36426
threshold=832.3333333333386 730.3333333333286 348.50000000000489
decision_type=2 2 2
left_child=1 2 -1
right_child=-2 -3 -4
leaf_value=0.049503712371408971 0.046943943906427761 -0.037820629124401622 -0.020476757891673959
leaf_weight=4.1730476617813173 4.2375194132328025 6.062254086136817 8.3798080086708051
leaf_count=20 21 25 37
internal_value=0 -0.0104371 0.00278742
internal_weight=0 18.6151 12.5529
internal_count=103 82 57
is_linear=0
shrinkage=0.1


Tree=13
num_leaves=4
num_cat=0
split_feature=12 12 12
split_gain=0.844041 1.65029 1.23872
threshold=2.4000000000000008 1.25 0.40000000000000013
decision_type=2 2 2
left_child=1 2 -1
right_child=-2 -3 -4
leaf_value=0.02702204431976506 -0.029721618796148319 0.058788048343666258 -0.040703667820161799
leaf_weight=4.9947860985994392 6.6648096591234198 5.2242764085531226 5.8797762393951416
leaf_count=24 29 24 26
internal_value=0 0.0125951 -0.00959663
internal_weight=0 16.0988 10.8746
internal_count=103 74 50
is_linear=0
shrinkage=0.1


Tree=14
num_leaves=4
num_cat=0
split_feature=12 3 12
split_gain=0.682434 1.65522 0.661751
threshold=2.4000000000000008 771.16666666667118 0.40000000000000013
decision_type=2 2 2
left_child=1 2 -1
right_child=-2 -3 -4
leaf_value=0.018672797374808491 -0.02656418518068912 0.054151731536297265 -0.033368277940065784
leaf_weight=4.0436156541109138 6.7088102996349326 5.7890946567058554 6.1745529323816299
leaf_count=20 29 27 27
internal_value=0 0.0114299 -0.0127742
internal_weight=0 16.0073 10.2182
internal_count=103 74 47
is_linear=0
shrinkage=0.1


Tree=15
num_leaves=4
num_cat=0
split_feature=7 7 7
split_gain=0.915385 1.30232 0.0436739
threshold=30.500000000000004 72.500000000000014 51.500000000000007
decision_type=2 2 2
left_child=-1 2 -2
right_child=1 -3 -4
leaf_value=0.03170575349284601 -0.028061240755547667 0.023884833462162566 -0.04125806158293141
leaf_weight=6.5580243468284634 4.9497795999050158 6.0866338759660712 5.0829622596502304
leaf_count=30 21 31 21
internal_value=0 -0.0126079 -0.0347472
internal_weight=0 16.1194 10.0327
internal_count=103 73 42
is_linear=0
shrinkage=0.1


Tree=16
num_leaves=3
num_cat=0
split_feature=5 0
split_gain=0.820942 0.954687
threshold=279.75243147657073 1.0500000000000003
decision_type=2 2
left_child=1 -1
right_child=-2 -3
leaf_value=0.014436612970170402 0.024233295006485724 -0.038360271390561175
leaf_weight=6.1603782624006289 8.724939897656439 7.7128391414880753
leaf_count=30 40 33
internal_value=0 -0.0149159
internal_weight=0 13.8732
internal_count=103 63
is_linear=0
shrinkage=0.1


Tree=17
num_leaves=3
num_cat=0
split_feature=4 10
split_gain=0.428427 0.264825
threshold=1.0000000180025095e-35 382.33333333333491
decision_type=2 2
left_child=-1 -2
right_child=1 -3
leaf_value=0.020200496409242791 -0.024081356359299907 0.0024057555713973867
leaf_weight=7.2570905983448055 6.7640584260225287 8.5413623601198179
leaf_count=36 29 38
internal_value=0 -0.00929993
internal_weight=0 15.3054
internal_count=103 67
is_linear=0
shrinkage=0.1


Tree=18
num_leaves=4
num_cat=0
split_feature=0 0 3
split_gain=0.87929 1.93345 0.639749
threshold=2.6500000000000017 1.0500000000000003 771.16666666667118
decision_type=2 2 2
left_child=1 2 -1
right_child=-2 -3 -4
leaf_value=-0.0053717981079711222 0.03808602014145842 -0.059361841876788737 0.042106166470204154
leaf_weight=7.7393764704465919 4.8113445639610282 5.4990975856780997 4.4814787656068802
leaf_count=37 21 23 22
internal_value=0 -0.0101193 0.0120387
internal_weight=0 17.72 12.2209
internal_count=103 82 59
is_linear=0
shrinkage=0.1


Tree=19
num_leaves=4
num_cat=0
split_feature=7 7 0
split_gain=0.773571 0.867094 0.551872
threshold=30.500000000000004 63.500000000000007 0.35000000000000009
decision_type=2 2 2
left_child=-1 -2 -3
right_child=1 2 -4
leaf_value=0.029319702573647494 -0.035202673419792052 -0.015675490139391689 0.036569969653113037
leaf_weight=6.4807714819908169 7.9006359428167334 3.9066900461912137 4.1905234307050705
leaf_count=30 33 20 20
internal_value=0 -0.0116338 0.0113629
internal_weight=0 15.9978 8.09721
internal_count=103 73 40
is_linear=0
shrinkage=0.1


Tree=20
num_leaves=4
num_cat=0
split_feature=0 0 3
split_gain=0.707155 1.47521 0.52629
threshold=2.6500000000000017 1.0500000000000003 771.16666666667118
decision_type=2 2 2
left_child=1 2 -1
right_child=-2 -3 -4
leaf_value=-0.0051807554190108828 0.034433133474322412 -0.051780768910682756 0.038160479726487721
leaf_weight=7.7515594065189415 4.7480258345603934 5.542378991842269 4.3875243961811066
leaf_count=37 21 23 22
internal_value=0 -0.00903305 0.0104844
internal_weight=0 17.6815 12.1391
internal_count=103 82 59
is_linear=0
shrinkage=0.1


Tree=21
num_leaves=4
num_cat=0
split_feature=0 0 12
split_gain=0.577278 1.18874 1.17872
threshold=2.6500000000000017 1.0500000000000003 0.90000000000000013
decision_type=2 2 2
left_child=1 2 -1
right_child=-2 -3 -4
leaf_value=-0.012555559367735933 0.03129334890842761 -0.0463449654745548 0.053710883785039312
leaf_weight=8.0717318505048805 4.704356610774993 5.5715100914239875 4.0216576308012
leaf_count=39 21 23 20
internal_value=0 -0.00812627 0.00948135
internal_weight=0 17.6649 12.0934
internal_count=103 82 59
is_linear=0
shrinkage=0.1


Tree=22
num_leaves=4
num_cat=0
split_feature=5 5 3
split_gain=0.508627 0.746166 0.696324
threshold=279.75243147657073 822.11111111111188 196.00000000000003
decision_type=2 2 2
left_child=2 -2 -1
right_child=1 -3 -4
leaf_value=0.016027182470042985 0.049910023381669728 -0.0094277492035064244 -0.029850387040621037
leaf_weight=5.4811708927154568 4.1269636303186399 4.3560477197170258 8.3456186354160291
leaf_count=27 18 22 36
internal_value=0 0.0194399 -0.0116638
internal_weight=0 8.48301 13.8268
internal_count=103 40 63
is_linear=0
shrinkage=0.1


Tree=23
num_leaves=4
num_cat=0
split_feature=7 7 7
split_gain=0.56904 0.684578 0.121377
threshold=30.500000000000004 57.500000000000007 81.500000000000014
decision_type=2 2 2
left_child=-1 -2 -3
right_child=1 2 -4
leaf_value=0.025464414405432814 -0.03512133689785718 0.017184708359631082 -0.0055679659358028053
leaf_weight=6.3523277640342739 6.4335240721702567 5.3002817630767805 4.2044828236103058
leaf_count=30 27 24 22
internal_value=0 -0.00993084 0.00711994
internal_weight=0 15.9383 9.50476
internal_count=103 73 46
is_linear=0
shrinkage=0.1


Tree=24
num_leaves=4
num_cat=0
split_feature=10 12 0
split_gain=1.10849 1.3603 1.40238
threshold=348.50000000000489 2.4000000000000008 0.65000000000000002
decision_type=2 2 2
left_child=-1 2 -2
right_child=1 -3 -4
leaf_value=0.047485819871130319 -0.022450580422437437 -0.051657258022667185 0.044448240041894412
leaf_weight=4.046836972236636 6.946987062692644 5.5492388457059851 5.7082682400941849
leaf_count=20 34 24 25
internal_value=0 -0.0103766 0.00772474
internal_weight=0 18.2045 12.6553
internal_count=103 83 59
is_linear=0
shrinkage=0.1


Tree=25
num_leaves=4
num_cat=0
split_feature=10 3 10
split_gain=0.319943 0.899342 0.86794
threshold=380.6666666666643 358.33333333333513 450.00000000000006
decision_type=2 2 2
left_child=1 -1 -2
right_child=2 -3 -4
leaf_value=-0.019685644793912202 -0.032817418029552806 0.044468915459078287 0.018264576222331231
leaf_weight=4.044673681259157 7.30784624814987 4.7526731938123703 6.1049916446208954
leaf_count=20 32 21 30
internal_value=0 0.0149732 -0.00956692
internal_weight=0 8.79735 13.4128
internal_count=103 41 62
is_linear=0
shrinkage=0.1


Tree=26
num_leaves=4
num_cat=0
split_feature=5 3 3
split_gain=0.371842 0.652208 0.524661
threshold=193.60504920838693 358.33333333333513 798.33333333333223
decision_type=2 2 2
left_child=1 -1 -2
right_child=2 -3 -4
leaf_value=-0.0072977233359833643 -0.034166320592781012 0.04077084634371686 0.010591564981986965
leaf_weight=6.8704922795295733 5.6634211093187314 4.7910755425691605 4.8721071779727936
leaf_count=33 24 21 25
internal_value=0 0.0124509 -0.0134682
internal_weight=0 11.6616 10.5355
internal_count=103 54 49
is_linear=0
shrinkage=0.1


Tree=27
num_leaves=4
num_cat=0
split_feature=7 12 12
split_gain=0.515514 0.966895 2.65425
threshold=30.500000000000004 1.5000000000000002 0.55000000000000004
decision_type=2 2 2
left_child=-1 2 -2
right_child=1 -3 -4
leaf_value=0.024375345594166046 0.029815519324129243 0.021178992687250958 -0.07589262507914725
leaf_weight=6.2886893749237087 4.2461578845977765 6.2512424737215033 5.3912442326545715
leaf_count=30 21 28 24
internal_value=0 -0.00945073 -0.0293185
internal_weight=0 15.8886 9.6374
internal_count=103 73 45
is_linear=0
shrinkage=0.1


Tree=28
num_leaves=4
num_cat=0
split_feature=5 3 5
split_gain=0.518176 0.673096 0.592414
threshold=279.75243147657073 196.00000000000003 822.11111111111188
decision_type=2 2 2
left_child=1 -1 -2
right_child=2 -3 -4
leaf_value=0.015445148242182075 0.047156052113572572 -0.029820096842646804 -0.0059038768247975703
leaf_weight=5.4502662569284466 4.0615155845880491 8.2693491131067258 4.3664081990718842
leaf_count=27 18 36 22
internal_value=0 -0.011838 0.0196663
internal_weight=0 13.7196 8.42792
internal_count=103 63 40
is_linear=0
shrinkage=0.1


Tree=29
num_leaves=4
num_cat=0
split_feature=12 12 4
split_gain=0.428612 1.35049 1.037
threshold=1.5000000000000002 2.7499999999999996 1.0000000180025095e-35
decision_type=2 2 2
left_child=2 -2 -1
right_child=1 -3 -4
leaf_value=0.018109962202852121 0.058046354011541949 -0.015200929160339008 -0.041417984656176417
leaf_weight=5.6068233251571673 4.2760362029075605 6.1194618493318558 6.1214487552642822
leaf_count=28 21 27 27
internal_value=0 0.0149283 -0.01296
internal_weight=0 10.3955 11.7283
internal_count=103 48 55
is_linear=0
shrinkage=0.1


Tree=30
num_leaves=4
num_cat=0
split_feature=12 12 12
split_gain=0.348789 1.11861 0.844323
threshold=1.5000000000000002 2.7499999999999996 0.40000000000000013
decision_type=2 2 2
left_child=2 -2 -1
right_child=1 -3 -4
leaf_value=0.020680348462961018 0.053392273117531974 -0.013646671789786553 -0.033903567481172001
leaf_weight=4.785102531313898 4.188610225915907 6.1339690536260605 6.9496078640222549
leaf_count=24 21 27 31
internal_value=0 0.0135558 -0.0116457
internal_weight=0 10.3226 11.7347
internal_count=103 48 55
is_linear=0
shrinkage=0.1


Tree=31
num_leaves=4
num_cat=0
split_feature=10 12 3
split_gain=0.853131 1.09249 1.25692
threshold=348.50000000000489 2.4000000000000008 771.16666666667118
decision_type=2 2 2
left_child=-1 2 -2
right_child=1 -3 -4
leaf_value=0.042480970977801999 -0.020234220309535634 -0.045890042798062407 0.043729770925393666
leaf_weight=3.9139993190765408 7.1189309656620043 5.562151998281478 5.4042729213833809
leaf_count=20 32 24 27
internal_value=0 -0.00901093 0.00736885
internal_weight=0 18.0854 12.5232
internal_count=103 83 59
is_linear=0
shrinkage=0.1


Tree=32
num_leaves=4
num_cat=0
split_feature=10 10 3
split_gain=0.702028 0.650867 0.9643
threshold=348.50000000000489 450.00000000000006 699.33333333333223
decision_type=2 2 2
left_child=-1 2 -2
right_child=1 -3 -4
leaf_value=0.038953235933277576 -0.05199990164159482 0.018583464210668376 0.0048338892938736026
leaf_weight=3.8453490287065533 5.5812086164951342 6.0698733106255522 6.4187488183379173
leaf_count=20 24 30 29
internal_value=0 -0.00810165 -0.0215996
internal_weight=0 18.0698 12
internal_count=103 83 53
is_linear=0
shrinkage=0.1


Tree=33
num_leaves=4
num_cat=0
split_feature=10 12 12
split_gain=0.577365 0.814239 0.723923
threshold=348.50000000000489 2.4000000000000008 1.0500000000000003
decision_type=2 2 2
left_child=-1 2 -2
right_child=1 -3 -4
leaf_value=0.035684857001123241 -0.011063614455836869 -0.039005150422536577 0.03918900317910063
leaf_weight=3.7812780290842083 8.0077995657920855 5.5890017300844184 4.4650719985365859
leaf_count=20 36 24 23
internal_value=0 -0.0072868 0.00692595
internal_weight=0 18.0619 12.4729
internal_count=103 83 59
is_linear=0
shrinkage=0.1


Tree=34
num_leaves=4
num_cat=0
split_feature=0 5 0
split_gain=0.602869 1.04466 1.22817
threshold=2.6500000000000017 279.75243147657073 0.65000000000000002
decision_type=2 2 2
left_child=1 2 -1
right_child=-2 -3 -4
leaf_value=0.0031861248309412319 0.032329523704759493 0.019177430767599899 -0.068665307763846231
leaf_weight=5.0772159993648582 4.5929739028215399 7.611774653196334 4.4763993918895721
leaf_count=26 21 37 19
internal_value=0 -0.00846019 -0.0304803
internal_weight=0 17.1654 9.55362
internal_count=103 82 45
is_linear=0
shrinkage=0.1


Tree=35
num_leaves=4
num_cat=0
split_feature=0 10 0
split_gain=0.492162 0.911841 0.561629
threshold=2.6500000000000017 350.33333333333036 0.84999999999999998
decision_type=2 2 2
left_child=1 -1 -3
right_child=-2 2 -4
leaf_value=-0.045552939917274771 0.029365134912963622 0.0232313780781499 -0.020290591398669965
leaf_weight=4.6266262382268968 4.5531463325023642 7.6711701005697233 4.8331649601459503
leaf_count=23 21 38 21
internal_value=0 -0.00762434 0.0064093
internal_weight=0 17.131 12.5043
internal_count=103 82 59
is_linear=0
shrinkage=0.1


Tree=36
num_leaves=4
num_cat=0
split_feature=5 0 0
split_gain=0.438317 0.847724 0.335234
threshold=193.60504920838693 1.3500000000000003 0.65000000000000002
decision_type=2 2 2
left_child=1 -1 -2
right_child=2 -3 -4
leaf_value=-0.010999375622647259 -0.037167120857679876 0.04377846664255719 -0.00018382019561603979
leaf_weight=6.288522884249689 4.0688488036394101 5.1297552585601807 6.1639525592327118
leaf_count=31 21 23 28
internal_value=0 0.01361 -0.0148894
internal_weight=0 11.4183 10.2328
internal_count=103 54 49
is_linear=0
shrinkage=0.1


Tree=37
num_leaves=4
num_cat=0
split_feature=7 12 12
split_gain=0.486019 0.713301 1.99195
threshold=30.500000000000004 1.5000000000000002 0.55000000000000004
decision_type=2 2 2
left_child=-1 2 -2
right_child=1 -3 -4
leaf_value=0.023887019556125377 0.026233474005675817 0.017938082052453262 -0.065842802679857398
leaf_weight=6.1653772518038776 4.1277587711811048 5.9357855319976798 5.4539928585290909
leaf_count=30 21 28 24
internal_value=0 -0.009302 -0.0261769
internal_weight=0 15.5175 9.58175
internal_count=103 73 45
is_linear=0
shrinkage=0.1


Tree=38
num_leaves=4
num_cat=0
split_feature=5 12 3
split_gain=0.32873 0.921368 0.526504
threshold=279.75243147657073 0.75000000000000011 412.50000000000119
decision_type=2 2 2
left_child=1 -1 -3
right_child=-2 2 -4
leaf_value=0.02881712495686839 0.016001490396970134 -0.052071413219536546 -0.0042003582339304058
leaf_weight=4.2930383980274227 8.1459846794605237 4.4373503029346448 4.7642761170864105
leaf_count=22 40 20 21
internal_value=0 -0.00943764 -0.0272855
internal_weight=0 13.4947 9.20163
internal_count=103 63 41
is_linear=0
shrinkage=0.1


Tree=39
num_leaves=4
num_cat=0
split_feature=7 12 7
split_gain=0.39518 0.626988 0.750947
threshold=30.500000000000004 1.5000000000000002 72.500000000000014
decision_type=2 2 2
left_child=-1 2 -2
right_child=1 -3 -4
leaf_value=0.021659534487265143 -0.053587266183088206 0.017257910350296727 0.0024757301870412919
leaf_weight=6.1152141988277462 4.552256688475607 5.9080085083842269 5.0282857865095139
leaf_count=30 19 28 26
internal_value=0 -0.00836324 -0.024163
internal_weight=0 15.4886 9.58054
internal_count=103 73 45
is_linear=0
shrinkage=0.1


Tree=40
num_leaves=5
num_cat=0
split_feature=10 12 12 0
split_gain=0.265812 1.44342 0.860462 0.660324
threshold=380.6666666666643 2.0500000000000003 1.5000000000000002 0.55000000000000016
decision_type=2 2 2 2
left_child=2 3 -1 -2
right_child=1 -3 -4 -5
leaf_value=-0.019829569590064929 -0.014297391944649657 -0.056061911393039232 0.044143127092350645 0.040580872837523478
leaf_weight=3.9790087789297122 4.1795053184032422 4.3267396539449683 4.4583468437194824 4.6121170967817307
leaf_count=20 20 20 21 22
internal_value=0 -0.00877835 0.013974 0.0144919
internal_weight=0 13.1184 8.43736 8.79162
internal_count=103 62 41 42
is_linear=0
shrinkage=0.1


Tree=41
num_leaves=4
num_cat=0
split_feature=10 10 7
split_gain=0.543096 0.583033 0.294447
threshold=348.50000000000489 450.00000000000006 36.500000000000007
decision_type=2 2 2
left_child=-1 2 -2
right_child=1 -3 -4
leaf_value=0.034972634869452193 -0.039277303070829661 0.018275954519254893 -0.0070995475439716189
leaf_weight=3.7052365094423321 4.737442575395109 6.0094946399331084 7.1143443286418915
leaf_count=20 21 30 32
internal_value=0 -0.00709654 -0.0199618
internal_weight=0 17.8613 11.8518
internal_count=103 83 53
is_linear=0
shrinkage=0.1


Tree=42
num_leaves=3
num_cat=0
split_feature=10 3
split_gain=0.24929 0.69164
threshold=399.1666666666643 412.50000000000119
decision_type=2 2
left_child=1 -1
right_child=-2 -3
leaf_value=-0.018865942013771328 -0.013515541679079555 0.027599302694205359
leaf_weight=5.4152342379093188 8.2538557350635511 7.8434333726763725
leaf_count=27 40 36
internal_value=0 0.00862151
internal_weight=0 13.2587
internal_count=103 63
is_linear=0
shrinkage=0.1


Tree=43
num_leaves=4
num_cat=0
split_feature=10 0 7
split_gain=0.472007 0.593324 0.85216
threshold=348.50000000000489 1.9500000000000008 51.500000000000007
decision_type=2 2 2
left_child=-1 2 -2
right_child=1 -3 -4
leaf_value=0.032817077513616032 0.035619432584336343 -0.034299499041729103 -0.017194413206248177
leaf_weight=3.6639423221349743 5.3382043987512606 5.3929831236600867 7.1432418674230576
leaf_count=20 25 24 34
internal_value=0 -0.0065824 0.0053936
internal_weight=0 17.8744 12.4814
internal_count=103 83 59
is_linear=0
shrinkage=0.1


Tree=44
num_leaves=4
num_cat=0
split_feature=5 5 5
split_gain=0.351949 0.241596 0.193294
threshold=193.60504920838693 492.71008403361617 59.393939393939419
decision_type=2 2 2
left_child=2 -2 -1
right_child=1 -3 -4
leaf_value=0.0012399394816593548 -0.030211932074939409 0.00074092850638882678 0.027751013809116903
leaf_weight=6.6281256526708621 4.6402681320905668 5.5231033116579056 4.7005994319915771
leaf_count=33 21 28 21
internal_value=0 -0.0133912 0.0122401
internal_weight=0 10.1634 11.3287
internal_count=103 49 54
is_linear=0
shrinkage=0.1


Tree=45
num_leaves=3
num_cat=0
split_feature=4 4
split_gain=0.222233 0.13949
threshold=1.0000000180025095e-35 1.5000000000000002
decision_type=2 2
left_child=-1 -2
right_child=1 -3
leaf_value=0.014870049257340149 -0.013674637372699736 0.0072332271980223616
leaf_weight=6.9169625341892269 9.8452128246426565 4.7211652398109427
leaf_count=36 45 22
internal_value=0 -0.00689811
internal_weight=0 14.5664
internal_count=103 67
is_linear=0
shrinkage=0.1


Tree=46
num_leaves=4
num_cat=0
split_feature=12 12 12
split_gain=0.251742 0.48356 0.374225
threshold=1.5000000000000002 0.40000000000000013 3.0000000000000013
decision_type=2 2 2
left_child=1 -1 -2
right_child=2 -3 -4
leaf_value=0.01518109910072258 0.031493581488310461 -0.02655155311863416 -0.0074342613681209757
leaf_weight=4.619340121746065 4.8884356021881086 6.9597155824303627 4.9907036870718002
leaf_count=24 25 31 23
internal_value=0 -0.00990276 0.0118282
internal_weight=0 11.5791 9.87914
internal_count=103 55 48
is_linear=0
shrinkage=0.1


Tree=47
num_leaves=4
num_cat=0
split_feature=7 7 7
split_gain=0.34945 0.639326 0.155951
threshold=30.500000000000004 57.500000000000007 81.500000000000014
decision_type=2 2 2
left_child=-1 -2 -3
right_child=1 2 -4
leaf_value=0.020457271366958213 -0.032833074041648661 0.020397651686757789 -0.005810621165393921
leaf_weight=6.0496975928545025 6.1656369715929022 5.1227153167128545 4.0777466595172882
leaf_count=30 27 24 22
internal_value=0 -0.00791611 0.00878185
internal_weight=0 15.3661 9.20046
internal_count=103 73 46
is_linear=0
shrinkage=0.1


Tree=48
num_leaves=5
num_cat=0
split_feature=5 12 12 3
split_gain=0.314721 1.24424 0.744717 0.462722
threshold=279.75243147657073 1.0500000000000003 0.75000000000000011 412.50000000000119
decision_type=2 2 2 2
left_child=2 -2 -1 -4
right_child=1 -3 3 -5
leaf_value=0.025550231359059775 -0.025060605134349379 0.053681019776860253 -0.048489817734221667 -0.0034843106963315645
leaf_weight=4.1974222064018276 3.8741642385721189 4.1632486209273338 4.4387742429971677 4.707038402557373
leaf_count=22 17 23 20 21
internal_value=0 0.0157263 -0.0093224 -0.025327
internal_weight=0 8.03741 13.3432 9.14581
internal_count=103 40 63 41
is_linear=0
shrinkage=0.1


Tree=49
num_leaves=4
num_cat=0
split_feature=0 10 0
split_gain=0.291943 0.863477 0.545916
threshold=2.6500000000000017 350.33333333333036 0.84999999999999998
decision_type=2 2 2
left_child=1 -1 -3
right_child=-2 2 -4
leaf_value=-0.042956296390002709 0.02306996658078625 0.024620775190696081 -0.018572896370586619
leaf_weight=4.5770536810159745 4.3936407417058936 7.5599299818277341 4.773766502737999
leaf_count=23 21 38 21
internal_value=0 -0.00586282 0.00790263
internal_weight=0 16.9108 12.3337
internal_count=103 82 59
is_linear=0
shrinkage=0.1


Tree=50
num_leaves=3
num_cat=0
split_feature=7 0
split_gain=0.300367 0.733738
threshold=36.500000000000007 0.84999999999999998
decision_type=2 2
left_child=-1 -2
right_child=1 -3
leaf_value=-0.016245902722261823 0.029912396996947529 -0.016162490151083821
leaf_weight=7.3521194234490421 7.5221255719661695 6.3944741785526276
leaf_count=36 39 28
internal_value=0 0.00874166
internal_weight=0 13.9166
internal_count=103 67
is_linear=0
shrinkage=0.1


Tree=51
num_leaves=4
num_cat=0
split_feature=12 10 10
split_gain=0.24608 0.729305 0.638911
threshold=1.5000000000000002 380.6666666666643 382.33333333333491
decision_type=2 2 2
left_child=2 -2 -1
right_child=1 -3 -4
leaf_value=-0.039814646219433952 0.042433328209163672 -0.012631256821092871 0.0087374185349013544
leaf_weight=4.3872915208339709 4.3217461779713613 5.4240097180008888 7.0909327641129494
leaf_count=22 21 27 33
internal_value=0 0.0117871 -0.00982051
internal_weight=0 9.74576 11.4782
internal_count=103 48 55
is_linear=0
shrinkage=0.1


Tree=52
num_leaves=4
num_cat=0
split_feature=5 0 0
split_gain=0.307005 0.635098 0.546234
threshold=193.60504920838693 1.0500000000000003 1.3500000000000003
decision_type=2 2 2
left_child=2 -2 -1
right_child=1 -3 -4
leaf_value=-0.0082526156634067007 0.0089061035162065465 -0.042045033502250445 0.036175974495741711
leaf_weight=6.2331585586071032 5.7927997410297376 4.2349413335323334 4.9767878651618958
leaf_count=31 30 19 23
internal_value=0 -0.0126117 0.011472
internal_weight=0 10.0277 11.2099
internal_count=103 49 54
is_linear=0
shrinkage=0.1


Tree=53
num_leaves=3
num_cat=0
split_feature=5 10
split_gain=0.261756 0.558552
threshold=279.75243147657073 382.33333333333286
decision_type=2 2
left_child=1 -1
right_child=-2 -3
leaf_value=0.011156191809892845 0.014469741639954218 -0.029886520584796142
leaf_weight=6.9286974966526049 7.9332828596234313 6.3590258359909058
leaf_count=34 40 29
internal_value=0 -0.00848537
internal_weight=0 13.2877
internal_count=103 63
is_linear=0
shrinkage=0.1


Tree=54
num_leaves=4
num_cat=0
split_feature=10 10 10
split_gain=0.279757 0.680589 0.145919
threshold=450.00000000000006 348.50000000000489 380.6666666666643
decision_type=2 2 2
left_child=1 -1 -3
right_child=-2 2 -4
leaf_value=0.031140456649196076 0.01853433653624138 -0.0049865482347221301 -0.027792836444086075
leaf_weight=3.5733164921402958 5.9263839647173873 4.6595659628510457 7.0503363534808159
leaf_count=20 30 21 32
internal_value=0 -0.00706064 -0.0187178
internal_weight=0 15.2832 11.7099
internal_count=103 73 53
is_linear=0
shrinkage=0.1


Tree=55
num_leaves=4
num_cat=0
split_feature=7 7 7
split_gain=0.298014 0.434119 0.121631
threshold=30.500000000000004 57.500000000000007 81.500000000000014
decision_type=2 2 2
left_child=-1 -2 -3
right_child=1 2 -4
leaf_value=0.0190091742549942 -0.027905548097237078 0.016965069382416948 -0.0063564809744646386
leaf_weight=5.9742656201124218 6.1295008063316336 5.0126899406313878 4.0375700294971466
leaf_count=30 27 24 22
internal_value=0 -0.00735658 0.00656068
internal_weight=0 15.1798 9.05026
internal_count=103 73 46
is_linear=0
shrinkage=0.1


Tree=56
num_leaves=4
num_cat=0
split_feature=7 5 7
split_gain=0.298528 1.30206 0.750788
threshold=36.500000000000007 279.75243147657073 66.500000000000014
decision_type=2 2 2
left_child=-1 2 -2
right_child=1 -3 -4
leaf_value=-0.016254214274367094 -0.041437124501742792 0.05260223628781438 0.01548970721276784
leaf_weight=7.3116813674569157 4.5989790260791761 4.5411920994520178 4.6686340719461441
leaf_count=36 20 23 24
internal_value=0 0.00873531 -0.0127598
internal_weight=0 13.8088 9.26761
internal_count=103 67 44
is_linear=0
shrinkage=0.1


Tree=57
num_leaves=4
num_cat=0
split_feature=5 12 5
split_gain=0.313863 0.4406 0.148769
threshold=193.60504920838693 1.5000000000000002 492.71008403361617
decision_type=2 2 2
left_child=1 -1 -2
right_child=2 -3 -4
leaf_value=-0.0060720852142834691 -0.026178965555710022 0.033959619378180983 -0.0015772652743474395
leaf_weight=6.2312561869621295 4.5451198145747167 4.9203836023807526 5.3527882099151611
leaf_count=31 21 23 28
internal_value=0 0.0115909 -0.0128744
internal_weight=0 11.1516 9.89791
internal_count=103 54 49
is_linear=0
shrinkage=0.1


Tree=58
num_leaves=4
num_cat=0
split_feature=7 5 3
split_gain=0.268687 0.519551 0.490666
threshold=30.500000000000004 135.79242636746184 765.00000000000193
decision_type=2 2 2
left_child=-1 -2 -3
right_child=1 2 -4
leaf_value=0.018075177895861994 -0.028026606838797926 0.034973619944023447 -0.013228942081123194
leaf_weight=5.9519660696387318 6.6117850244045249 3.97563888132572 4.5044018402695656
leaf_count=30 32 18 23
internal_value=0 -0.00701386 0.00936953
internal_weight=0 15.0918 8.48004
internal_count=103 73 41
is_linear=0
shrinkage=0.1


Tree=59
num_leaves=4
num_cat=0
split_feature=7 5 7
split_gain=0.307884 1.04831 0.70256
threshold=36.500000000000007 279.75243147657073 66.500000000000014
decision_type=2 2 2
left_child=-1 2 -2
right_child=1 -3 -4
leaf_value=-0.016519837028146602 -0.038283218810973935 0.048544978050787363 0.016819112720797318
leaf_weight=7.297896251082423 4.5624996423721296 4.4899522066116324 4.6949680000543594
leaf_count=36 20 23 24
internal_value=0 0.0088935 -0.0103378
internal_weight=0 13.7474 9.25747
internal_count=103 67 44
is_linear=0
shrinkage=0.1


Tree=60
num_leaves=3
num_cat=0
split_feature=0 5
split_gain=0.366444 1.09753
threshold=0.55000000000000016 279.75243147657073
decision_type=2 2
left_child=-1 -2
right_child=1 -3
leaf_value=-0.017084665844742827 -0.012442969993450528 0.046974386730374872
leaf_weight=7.8058258444070843 8.1360742300748807 5.0311990603804579
leaf_count=41 37 25
internal_value=0 0.0102603
internal_weight=0 13.1673
internal_count=103 62
is_linear=0
shrinkage=0.1


Tree=61
num_leaves=4
num_cat=0
split_feature=12 4 10
split_gain=0.23048 0.82122 0.47381
threshold=1.5000000000000002 1.0000000180025095e-35 382.833333333334
decision_type=2 2 2
left_child=1 -1 -2
right_child=2 -3 -4
leaf_value=0.018588851852645319 0.030512170076532966 -0.034993958318342434 -0.014765688090478797
leaf_weight=5.4641702175140399 5.5335279405117017 6.0021892786026001 3.9688115864992142
leaf_count=28 28 27 20
internal_value=0 -0.00945965 0.0116011
internal_weight=0 11.4664 9.50234
internal_count=103 55 48
is_linear=0
shrinkage=0.1


Tree=62
num_leaves=4
num_cat=0
split_feature=5 5 5
split_gain=0.358175 0.146914 0.119358
threshold=193.60504920838693 492.71008403361617 59.393939393939419
decision_type=2 2 2
left_child=2 -2 -1
right_child=1 -3 -4
leaf_value=0.0037154563822511377 -0.027216708703302023 -0.0026310932829818243 0.024762010319933414
leaf_weight=6.5664042085409182 4.4753291830420476 5.3195344358682632 4.5698661953210831
leaf_count=33 21 28 21
internal_value=0 -0.0138644 0.0123521
internal_weight=0 9.79486 11.1363
internal_count=103 49 54
is_linear=0
shrinkage=0.1


Tree=63
num_leaves=4
num_cat=0
split_feature=5 7 7
split_gain=0.290205 0.933254 0.910011
threshold=193.60504920838693 51.500000000000007 36.500000000000007
decision_type=2 2 2
left_child=1 -1 -2
right_child=2 -3 -4
leaf_value=0.043730621197055869 -0.048686569184668113 -0.014643278301823002 0.013136994047115089
leaf_weight=4.9071380347013491 4.062098912894724 6.1982138007879257 5.7526227682828903
leaf_count=23 20 31 29
internal_value=0 0.0111505 -0.0124504
internal_weight=0 11.1054 9.81472
internal_count=103 54 49
is_linear=0
shrinkage=0.1


Tree=64
num_leaves=4
num_cat=0
split_feature=0 5 0
split_gain=0.264101 1.16207 0.0696048
threshold=0.55000000000000016 279.75243147657073 0.35000000000000009
decision_type=2 2 2
left_child=2 -2 -1
right_child=1 -3 -4
leaf_value=-0.0052442087542892458 -0.014719177995112902 0.046602859870806201 -0.024086295825048402
leaf_weight=4.026422172784808 8.0615136325359327 5.0113347470760337 3.821202427148819
leaf_count=21 37 25 20
internal_value=0 0.00878796 -0.0144189
internal_weight=0 13.0728 7.84762
internal_count=103 62 41
is_linear=0
shrinkage=0.1


Tree=65
num_leaves=4
num_cat=0
split_feature=5 10 5
split_gain=0.297578 0.444606 0.1331
threshold=193.60504920838693 350.33333333333036 492.71008403361617
decision_type=2 2 2
left_child=1 -1 -2
right_child=2 -3 -4
leaf_value=-0.010670820624434725 -0.025332843302264103 0.029506938337379513 -0.0019301377843285823
leaf_weight=5.0403696149587649 4.4754776582121831 6.072518527507782 5.3178505748510361
leaf_count=26 21 28 28
internal_value=0 0.0112839 -0.012625
internal_weight=0 11.1129 9.79333
internal_count=103 54 49
is_linear=0
shrinkage=0.1


Tree=66
num_leaves=4
num_cat=0
split_feature=5 5 0
split_gain=0.245917 0.533652 0.376779
threshold=150.81410825199643 380.29365079364965 0.35000000000000009
decision_type=2 2 2
left_child=2 -2 -1
right_child=1 -3 -4
leaf_value=-0.01153451570384823 -0.033370770014036676 0.0096228365360728017 0.029478896448216874
leaf_weight=3.8532930612564105 5.2105086147785169 6.4742720499634743 5.3497646450996399
leaf_count=20 24 34 25
internal_value=0 -0.00954899 0.0123067
internal_weight=0 11.6848 9.20306
internal_count=103 58 45
is_linear=0
shrinkage=0.1


Tree=67
num_leaves=4
num_cat=0
split_feature=14 12 12
split_gain=0.210958 0.316724 0.407298
threshold=1.0000000180025095e-35 0.40000000000000013 2.2500000000000013
decision_type=2 2 2
left_child=-1 -2 -3
right_child=1 2 -4
leaf_value=-0.019626882056539327 0.028465109755030651 -0.01884293043617833 0.018006825063770476
leaf_weight=4.3114134892821339 4.3256515860557583 6.982792988419531 5.2580586671829224
leaf_count=21 23 34 25
internal_value=0 0.00520537 -0.00301412
internal_weight=0 16.5665 12.2409
internal_count=103 82 59
is_linear=0
shrinkage=0.1


Tree=68
num_leaves=4
num_cat=0
split_feature=5 5 5
split_gain=0.182405 0.0822646 0.0791661
threshold=193.60504920838693 492.71008403361617 59.393939393939419
decision_type=2 2 2
left_child=2 -2 -1
right_child=1 -3 -4
leaf_value=0.0018513130271402814 -0.019795920246071939 -0.0014239720983723631 0.019076737959444673
leaf_weight=6.5239010751247424 4.497500501573084 5.3205471113324165 4.5142979845404625
leaf_count=33 21 28 21
internal_value=0 -0.00983989 0.008896
internal_weight=0 9.81805 11.0382
internal_count=103 49 54
is_linear=0
shrinkage=0.1


Tree=69
num_leaves=4
num_cat=0
split_feature=10 10 5
split_gain=0.262711 0.579296 0.378608
threshold=450.00000000000006 348.50000000000489 279.75243147657073
decision_type=2 2 2
left_child=1 -1 -3
right_child=-2 2 -4
leaf_value=0.028808863155557137 0.018168100788844628 -0.033712440418166123 0.0027434071496765643
leaf_weight=3.4906834438443211 5.7919423952698699 6.4750342667102796 5.0867010429501534
leaf_count=20 30 29 24
internal_value=0 -0.00689402 -0.0176733
internal_weight=0 15.0524 11.5617
internal_count=103 73 53
is_linear=0
shrinkage=0.1


Tree=70
num_leaves=4
num_cat=0
split_feature=3 12 3
split_gain=0.244738 0.532775 0.658019
threshold=771.16666666667118 2.2500000000000013 196.00000000000003
decision_type=2 2 2
left_child=1 2 -1
right_child=-2 -3 -4
leaf_value=0.0038985643627790904 0.015649879726866125 0.019622524029741253 -0.049599661505939141
leaf_weight=4.8367441892623919 6.7888340204954138 4.7751310020685187 4.3821188062429428
leaf_count=25 36 22 20
internal_value=0 -0.00748858 -0.0215314
internal_weight=0 13.994 9.21886
internal_count=103 67 45
is_linear=0
shrinkage=0.1


Tree=71
num_leaves=4
num_cat=0
split_feature=7 5 7
split_gain=0.265979 0.898695 0.580815
threshold=36.500000000000007 279.75243147657073 66.500000000000014
decision_type=2 2 2
left_child=-1 2 -2
right_child=1 -3 -4
leaf_value=-0.01541817529618978 -0.035164064361377312 0.045451998183125147 0.01525970846924308
leaf_weight=7.2295499294996288 4.4956850707530958 4.4029444009065619 4.6442320793867111
leaf_count=36 20 23 24
internal_value=0 0.00833692 -0.00954242
internal_weight=0 13.5429 9.13992
internal_count=103 67 44
is_linear=0
shrinkage=0.1


Tree=72
num_leaves=4
num_cat=0
split_feature=0 5 0
split_gain=0.322104 0.992583 0.0452585
threshold=0.55000000000000016 279.75243147657073 0.35000000000000009
decision_type=2 2 2
left_child=2 -2 -1
right_child=1 -3 -4
leaf_value=-0.0085439638477073417 -0.012080898144608594 0.04489946854760344 -0.023818353268098634
leaf_weight=3.9562575966119793 7.9857430607080442 4.9534550607204437 3.8061247915029526
leaf_count=21 37 25 20
internal_value=0 0.00973264 -0.0160334
internal_weight=0 12.9392 7.76238
internal_count=103 62 41
is_linear=0
shrinkage=0.1


Tree=73
num_leaves=4
num_cat=0
split_feature=7 10 10
split_gain=0.263377 0.611822 1.64286
threshold=30.500000000000004 399.1666666666643 350.33333333333036
decision_type=2 2 2
left_child=-1 2 -2
right_child=1 -3 -4
leaf_value=0.017997184990709469 -0.035031425862655528 -0.031705551043916841 0.051287767845013092
leaf_weight=5.8715780675411251 4.2546092718839628 5.987602934241294 4.576687790453434
leaf_count=30 22 29 22
internal_value=0 -0.00702867 0.00970221
internal_weight=0 14.8189 8.8313
internal_count=103 73 44
is_linear=0
shrinkage=0.1


Tree=74
num_leaves=4
num_cat=0
split_feature=10 12 3
split_gain=0.213641 0.466124 0.455552
threshold=450.00000000000006 0.75000000000000011 412.50000000000119
decision_type=2 2 2
left_child=1 -1 -3
right_child=-2 2 -4
leaf_value=-0.032824096061306388 0.016524965245064336 -0.022669170505163334 0.021006750417346339
leaf_weight=4.5696446597576168 5.7173799052834502 3.7052881419658643 6.717859260737896
leaf_count=23 30 17 33
internal_value=0 -0.0061943 0.00548055
internal_weight=0 14.9928 10.4231
internal_count=103 73 50
is_linear=0
shrinkage=0.1


Tree=75
num_leaves=4
num_cat=0
split_feature=5 7 7
split_gain=0.302411 0.745757 0.658587
threshold=193.60504920838693 36.500000000000007 51.500000000000007
decision_type=2 2 2
left_child=2 -2 -1
right_child=1 -3 -4
leaf_value=0.039259553693365284 -0.045514953913303992 0.010772315248425958 -0.010020308768041473
leaf_weight=4.7947247400879878 4.0545687824487668 5.6115977242588997 6.2428940385580063
leaf_count=23 20 29 31
internal_value=0 -0.0128379 0.0113868
internal_weight=0 9.66617 11.0376
internal_count=103 49 54
is_linear=0
shrinkage=0.1


Tree=76
num_leaves=4
num_cat=0
split_feature=5 0 0
split_gain=0.244997 0.573575 0.451142
threshold=193.60504920838693 0.20000000000000004 1.0500000000000003
decision_type=2 2 2
left_child=1 -1 -2
right_child=2 -3 -4
leaf_value=-0.023002096151780851 0.0068193225876362149 0.025948185422341181 -0.036905549739457838
leaf_weight=3.5195614993572253 5.6276432946324331 7.4835202023386955 4.0635755211114883
leaf_count=18 30 36 19
internal_value=0 0.0102904 -0.0115147
internal_weight=0 11.0031 9.69122
internal_count=103 54 49
is_linear=0
shrinkage=0.1


Tree=77
num_leaves=3
num_cat=0
split_feature=10 10
split_gain=0.20735 0.288766
threshold=399.1666666666643 350.33333333333036
decision_type=2 2
left_child=1 -1
right_child=-2 -3
leaf_value=-0.0091146756357044414 -0.012595565554289574 0.021252139037688487
leaf_weight=5.5595191344618815 7.9483518227934828 7.1701475009322166
leaf_count=29 40 34
internal_value=0 0.00798982
internal_weight=0 12.7297
internal_count=103 63
is_linear=0
shrinkage=0.1


Tree=78
num_leaves=4
num_cat=0
split_feature=5 0 0
split_gain=0.217852 0.311546 0.0487277
threshold=781.33333333333405 1.0500000000000003 2.4500000000000015
decision_type=2 2 2
left_child=1 -1 -3
right_child=-2 2 -4
leaf_value=0.021361088081619781 -0.018740519651979978 -0.014458261439141633 0.00035390161974004617
leaf_weight=7.054824352264407 4.7444477006793013 4.2834195345640165 4.612559862434864
leaf_count=36 25 19 23
internal_value=0 0.00566745 -0.00677816
internal_weight=0 15.9508 8.89598
internal_count=103 78 42
is_linear=0
shrinkage=0.1


Tree=79
num_leaves=4
num_cat=0
split_feature=7 10 12
split_gain=0.28153 0.65364 0.423724
threshold=36.500000000000007 399.1666666666643 1.25
decision_type=2 2 2
left_child=-1 2 -2
right_child=1 -3 -4
leaf_value=-0.015924523978426055 0.050980285561611785 -0.01851012057833204 0.0051798222175416051
leaf_weight=7.1811158135533359 3.7763021737337095 5.3612124025821677 4.3431238457560539
leaf_count=36 19 26 22
internal_value=0 0.00858838 0.0264814
internal_weight=0 13.4806 8.11943
internal_count=103 67 41
is_linear=0
shrinkage=0.1


Tree=80
num_leaves=4
num_cat=0
split_feature=7 5 3
split_gain=0.234916 0.392374 0.393492
threshold=30.500000000000004 135.79242636746184 765.00000000000193
decision_type=2 2 2
left_child=-1 -2 -3
right_child=1 2 -4
leaf_value=0.01707405220496205 -0.024804060787695648 0.030963237909810044 -0.012826163659549203
leaf_weight=5.8319005668163326 6.5890809446573249 3.9031889215111715 4.327023871243
leaf_count=30 32 18 23
internal_value=0 -0.00661838 0.00794102
internal_weight=0 14.8193 8.23021
internal_count=103 73 41
is_linear=0
shrinkage=0.1


Tree=81
num_leaves=4
num_cat=0
split_feature=10 12 0
split_gain=0.306287 0.378029 0.593445
threshold=450.00000000000006 0.75000000000000011 1.6500000000000006
decision_type=2 2 2
left_child=1 -1 -3
right_child=-2 2 -4
leaf_value=-0.031447597262900202 0.019655108582963862 0.029176859453135064 -0.018954727997652531
leaf_weight=4.5699373334646252 5.7584708705544463 4.7282598167657834 5.5903690382838249
leaf_count=23 30 23 27
internal_value=0 -0.00750386 0.0031004
internal_weight=0 14.8886 10.3186
internal_count=103 73 50
is_linear=0
shrinkage=0.1


Tree=82
num_leaves=3
num_cat=0
split_feature=3 3
split_gain=0.229819 0.488606
threshold=196.00000000000003 771.16666666667118
decision_type=2 2
left_child=-1 -2
right_child=1 -3
leaf_value=0.018099119801397456 -0.021720440164988197 0.014248719016262686
leaf_weight=5.2669306099414852 8.6990785300731641 6.6739873737096778
leaf_count=27 40 36
internal_value=0 -0.00610497
internal_weight=0 15.3731
internal_count=103 76
is_linear=0
shrinkage=0.1


Tree=83
num_leaves=4
num_cat=0
split_feature=7 7 7
split_gain=0.247574 0.28955 0.24873
threshold=36.500000000000007 54.500000000000007 72.500000000000014
decision_type=2 2 2
left_child=-1 -2 -3
right_child=1 2 -4
leaf_value=-0.014909309008971734 0.030801827830003532 -0.020402286761429501 0.012427541668697105
leaf_weight=7.1873685643076923 3.9577121436595908 3.9889702498912794 5.4755715057253838
leaf_count=36 18 18 31
internal_value=0 0.0080887 -0.00140907
internal_weight=0 13.4223 9.46454
internal_count=103 67 49
is_linear=0
shrinkage=0.1


Tree=84
num_leaves=4
num_cat=0
split_feature=0 5 0
split_gain=0.230904 0.917755 0.0521708
threshold=0.55000000000000016 279.75243147657073 0.35000000000000009
decision_type=2 2 2
left_child=2 -2 -1
right_child=1 -3 -4
leaf_value=-0.0055594241461792964 -0.01279371543415251 0.042250219187195036 -0.021928908552509854
leaf_weight=4.0102920979261425 7.8960773199796659 4.9142372906208038 3.7841238752007484
leaf_count=21 37 25 20
internal_value=0 0.008322 -0.0135067
internal_weight=0 12.8103 7.79442
internal_count=103 62 41
is_linear=0
shrinkage=0.1


Tree=85
num_leaves=4
num_cat=0
split_feature=5 12 12
split_gain=0.245775 0.239017 0.16565
threshold=193.60504920838693 0.75000000000000011 1.0500000000000003
decision_type=2 2 2
left_child=1 -1 -2
right_child=2 -3 -4
leaf_value=0.029251365484407151 -0.027934095552642032 -0.0012044275941835852 -0.001063169547693835
leaf_weight=4.1424882709980029 3.772224694490431 6.8180467709898949 5.8551313430070877
leaf_count=22 17 32 32
internal_value=0 0.0103062 -0.0115918
internal_weight=0 10.9605 9.62736
internal_count=103 54 49
is_linear=0
shrinkage=0.1


Tree=86
num_leaves=4
num_cat=0
split_feature=0 0 5
split_gain=0.229319 0.62521 0.165627
threshold=2.6500000000000017 1.0500000000000003 781.33333333333405
decision_type=2 2 2
left_child=1 2 -1
right_child=-2 -3 -4
leaf_value=0.017549128607277666 0.021104224619585169 -0.034167382545983047 -0.0073208973787399507
leaf_weight=6.9183335527777725 4.1376441568136206 5.1344299167394629 4.3687905371189117
leaf_count=36 21 23 23
internal_value=0 -0.00523719 0.00792294
internal_weight=0 16.4216 11.2871
internal_count=103 82 59
is_linear=0
shrinkage=0.1


Tree=87
num_leaves=4
num_cat=0
split_feature=7 12 12
split_gain=0.251122 0.567677 0.484687
threshold=30.500000000000004 1.5000000000000002 0.75000000000000011
decision_type=2 2 2
left_child=-1 2 -2
right_child=1 -3 -4
leaf_value=0.017678963837295281 0.0026702315964324008 0.019066559046671507 -0.043002713319445461
leaf_weight=5.8010090962052372 4.341282129287718 5.3543290868401519 4.9990612864494324
leaf_count=30 23 28 22
internal_value=0 -0.00689313 -0.0217745
internal_weight=0 14.6947 9.34034
internal_count=103 73 45
is_linear=0
shrinkage=0.1


Tree=88
num_leaves=3
num_cat=0
split_feature=7 0
split_gain=0.233617 0.379777
threshold=36.500000000000007 0.84999999999999998
decision_type=2 2
left_child=-1 -2
right_child=1 -3
leaf_value=-0.01453012941626552 0.023375458088342557 -0.010499726939820033
leaf_weight=7.1443383023142841 7.234820254147051 6.0998621135950089
leaf_count=36 39 28
internal_value=0 0.00787948
internal_weight=0 13.3347
internal_count=103 67
is_linear=0
shrinkage=0.1


Tree=89
num_leaves=3
num_cat=0
split_feature=10 10
split_gain=0.211007 0.307097
threshold=450.00000000000006 380.6666666666643
decision_type=2 2
left_child=1 -1
right_child=-2 -3
leaf_value=0.0072029452642553482 0.016459724185106751 -0.021706224195930109
leaf_weight=7.9056048989295977 5.6697563976049414 6.865792915225029
leaf_count=41 30 32
internal_value=0 -0.00623413
internal_weight=0 14.7714
internal_count=103 73
is_linear=0
shrinkage=0.1


Tree=90
num_leaves=4
num_cat=0
split_feature=0 0 0
split_gain=0.257495 0.27696 0.0214898
threshold=0.55000000000000016 1.6500000000000006 0.35000000000000009
decision_type=2 2 2
left_child=2 -2 -1
right_child=1 -3 -4
leaf_value=-0.0092004444402901085 0.024966926222660068 -0.0046771296619052402 -0.019768082781160653
leaf_weight=3.9312432110309627 5.7786034718155843 6.9329249411821365 3.7694253847002983
leaf_count=21 28 34 20
internal_value=0 0.00879892 -0.0143732
internal_weight=0 12.7115 7.70067
internal_count=103 62 41
is_linear=0
shrinkage=0.1


Tree=91
num_leaves=4
num_cat=0
split_feature=7 12 12
split_gain=0.241707 0.504653 0.400461
threshold=30.500000000000004 1.5000000000000002 0.75000000000000011
decision_type=2 2 2
left_child=-1 2 -2
right_child=1 -3 -4
leaf_value=0.017366121761922391 0.0015263160427501123 0.017769544843409864 -0.04005386666265711
leaf_weight=5.7820969969034222 4.3103345036506635 5.3270693346858016 5.0067518055438995
leaf_count=30 23 28 22
internal_value=0 -0.00678095 -0.0208178
internal_weight=0 14.6442 9.31709
internal_count=103 73 45
is_linear=0
shrinkage=0.1


Tree=92
num_leaves=3
num_cat=0
split_feature=3 0
split_gain=0.208996 0.494892
threshold=771.16666666667118 0.65000000000000002
decision_type=2 2
left_child=1 -1
right_child=-2 -3
leaf_value=-0.027096176280474074 0.014705208212769298 0.010831434719937605
leaf_weight=6.4722230061888713 6.5916906818747512 7.3440965861082077
leaf_count=33 36 34
internal_value=0 -0.00693567
internal_weight=0 13.8163
internal_count=103 67
is_linear=0
shrinkage=0.1


Tree=93
num_leaves=3
num_cat=0
split_feature=10 3
split_gain=0.201759 0.49925
threshold=399.1666666666643 412.50000000000119
decision_type=2 2
left_child=1 -1
right_child=-2 -3
leaf_value=-0.01564127872750741 -0.012500162608521728 0.024792682894250854
leaf_weight=5.2403004169464129 7.8700078949332228 7.3182994723320007
leaf_count=27 40 36
internal_value=0 0.00792089
internal_weight=0 12.5586
internal_count=103 63
is_linear=0
shrinkage=0.1


Tree=94
num_leaves=4
num_cat=0
split_feature=3 3 5
split_gain=0.205687 0.423139 0.0148452
threshold=196.00000000000003 771.16666666667118 176.53985507246429
decision_type=2 2 2
left_child=-1 2 -2
right_child=1 -3 -4
leaf_value=0.017199732881139636 -0.024571098255489504 0.013305932437681651 -0.016286809052130157
leaf_weight=5.2118807584047344 4.2378066480159742 6.5767061859369269 4.418334886431694
leaf_count=27 20 36 20
internal_value=0 -0.00581499 -0.0203426
internal_weight=0 15.2328 8.65614
internal_count=103 76 40
is_linear=0
shrinkage=0.1


Tree=95
num_leaves=3
num_cat=0
split_feature=7 3
split_gain=0.2324 0.304274
threshold=36.500000000000007 395.33333333333218
decision_type=2 2
left_child=-1 -2
right_child=1 -3
leaf_value=-0.014540855602114567 -0.008792943267725865 0.021592845231307171
leaf_weight=7.1127359643578556 6.0161705613136274 7.2873986586928368
leaf_count=36 30 37
internal_value=0 0.00785171
internal_weight=0 13.3036
internal_count=103 67
is_linear=0
shrinkage=0.1


Tree=96
num_leaves=4
num_cat=0
split_feature=7 7 0
split_gain=0.218725 0.318303 0.784964
threshold=30.500000000000004 72.500000000000014 1.3500000000000003
decision_type=2 2 2
left_child=-1 2 -2
right_child=1 -3 -4
leaf_value=0.0165443405511933 -0.045383333215393465 0.012781903576312481 0.013017533517904765
leaf_weight=5.7679829597473171 4.8621920198202115 5.4245389476418486 4.3700475692749023
leaf_count=30 21 31 21
internal_value=0 -0.00644339 -0.0177395
internal_weight=0 14.6568 9.23224
internal_count=103 73 42
is_linear=0
shrinkage=0.1


Tree=97
num_leaves=3
num_cat=0
split_feature=10 10
split_gain=0.183532 0.223164
threshold=399.1666666666643 350.33333333333036
decision_type=2 2
left_child=1 -1
right_child=-2 -3
leaf_value=-0.0076150533192521231 -0.011930896307121942 0.01931585770608911
leaf_weight=5.4571810811758059 7.8572953417897216 7.0546213239431381
leaf_count=29 40 34
internal_value=0 0.0075696
internal_weight=0 12.5118
internal_count=103 63
is_linear=0
shrinkage=0.1


Tree=98
num_leaves=3
num_cat=0
split_feature=3 3
split_gain=0.186472 0.363206
threshold=196.00000000000003 771.16666666667118
decision_type=2 2
left_child=-1 -2
right_child=1 -3
leaf_value=0.016426723791998415 -0.01897694222230794 0.012241866617907389
leaf_weight=5.1818507760763195 8.65821874886751 6.5428354591131201
leaf_count=27 40 36
internal_value=0 -0.00553975
internal_weight=0 15.2011
internal_count=103 76
is_linear=0
shrinkage=0.1


Tree=99
num_leaves=5
num_cat=0
split_feature=0 7 0 0
split_gain=0.200517 0.368135 0.747948 0.156119
threshold=1.0500000000000003 36.500000000000007 0.35000000000000009 2.4500000000000015
decision_type=2 2 2 2
left_child=1 -1 -3 -2
right_child=3 2 -4 -5
leaf_value=-0.01785439743229842 -0.024310789772467575 -0.0099384967002966798 0.052487526677608726 0.0017795035695942097
leaf_weight=3.4968501180410403 4.4640482515096647 3.8366759717464447 3.8404755219817162 4.7169101983308792
leaf_count=18 20 20 21 24
internal_value=0 0.00903992 0.02129 -0.0109064
internal_weight=0 11.174 7.67715 9.18096
internal_count=103 59 41 44
is_linear=0
shrinkage=0.1


end of trees

feature_importances:
taskNum=55
scroll_time=53
response_time=48
s_scroll_speed=44
s_view_position=42
scroll_length=41
event_scroll=5
s_choice_left=1

parameters:
[boosting: gbdt]
[objective: binary]
[metric: binary_error]
[tree_learner: serial]
[device_type: cpu]
[data_sample_strategy: bagging]
[data: ]
[valid: ]
[num_iterations: 100]
[learning_rate: 0.1]
[num_leaves: 31]
[num_threads: 0]
[seed: 0]
[deterministic: 0]
[force_col_wise: 0]
[force_row_wise: 0]
[histogram_pool_size: -1]
[max_depth: -1]
[min_data_in_leaf: 20]
[min_sum_hessian_in_leaf: 0.001]
[bagging_fraction: 1]
[pos_bagging_fraction: 1]
[neg_bagging_fraction: 1]
[bagging_freq: 0]
[bagging_seed: 3]
[feature_fraction: 0.4]
[feature_fraction_bynode: 1]
[feature_fraction_seed: 2]
[extra_trees: 0]
[extra_seed: 6]
[early_stopping_round: 0]
[first_metric_only: 0]
[max_delta_step: 0]
[lambda_l1: 0]
[lambda_l2: 0]
[linear_lambda: 0]
[min_gain_to_split: 0]
[drop_rate: 0.1]
[max_drop: 50]
[skip_drop: 0.5]
[xgboost_dart_mode: 0]
[uniform_drop: 0]
[drop_seed: 4]
[top_rate: 0.2]
[other_rate: 0.1]
[min_data_per_group: 100]
[max_cat_threshold: 32]
[cat_l2: 10]
[cat_smooth: 10]
[max_cat_to_onehot: 4]
[top_k: 20]
[monotone_constraints: ]
[monotone_constraints_method: basic]
[monotone_penalty: 0]
[feature_contri: ]
[forcedsplits_filename: ]
[refit_decay_rate: 0.9]
[cegb_tradeoff: 1]
[cegb_penalty_split: 0]
[cegb_penalty_feature_lazy: ]
[cegb_penalty_feature_coupled: ]
[path_smooth: 0]
[interaction_constraints: ]
[verbosity: -1]
[saved_feature_importance_type: 0]
[use_quantized_grad: 0]
[num_grad_quant_bins: 4]
[quant_train_renew_leaf: 0]
[stochastic_rounding: 1]
[linear_tree: 0]
[max_bin: 255]
[max_bin_by_feature: ]
[min_data_in_bin: 3]
[bin_construct_sample_cnt: 200000]
[data_random_seed: 1]
[is_enable_sparse: 1]
[enable_bundle: 1]
[use_missing: 1]
[zero_as_missing: 0]
[feature_pre_filter: 0]
[pre_partition: 0]
[two_round: 0]
[header: 0]
[label_column: ]
[weight_column: ]
[group_column: ]
[ignore_column: ]
[categorical_feature: ]
[forcedbins_filename: ]
[precise_float_parser: 0]
[parser_config_file: ]
[objective_seed: 5]
[num_class: 1]
[is_unbalance: 0]
[scale_pos_weight: 1]
[sigmoid: 1]
[boost_from_average: 1]
[reg_sqrt: 0]
[alpha: 0.9]
[fair_c: 1]
[poisson_max_delta_step: 0.7]
[tweedie_variance_power: 1.5]
[lambdarank_truncation_level: 30]
[lambdarank_norm: 1]
[label_gain: ]
[lambdarank_position_bias_regularization: 0]
[eval_at: ]
[multi_error_top_k: 1]
[auc_mu_weights: ]
[num_machines: 1]
[local_listen_port: 12400]
[time_out: 120]
[machine_list_filename: ]
[machines: ]
[gpu_platform_id: -1]
[gpu_device_id: -1]
[gpu_use_dp: 0]
[num_gpu: 1]

end of parameters

pandas_categorical:[]
