tree
version=v4
num_class=1
num_tree_per_iteration=1
label_index=0
max_feature_idx=14
objective=binary sigmoid:1
feature_names=response_time s_tap_count ratio_tap_position_y scroll_length event_scroll s_scroll_speed tap_position_x taskNum tap_position_y screen_width s_view_position scroll_time ratio_tap_position_x s_choice_left screen_height
feature_infos=[0:10.399999999999981] [1:1] none [0:14300.666666666672] [0:6] [-3503.3333333333576:6900.0000000000018] none [1:131] none [390:390] [-343.99999999999989:1145.6666666666642] [-0.5:18.799999999999962] none [0:1] [844:844]
tree_sizes=639 649 647 647 645 647 647 649 651 653 649 646 649 740 654 651 754 739 654 649 647 739 651 651 756 652 756 654 654 656 656 653 655 549 652 648 652 659 548 651 654 656 654 656 754 653 653 661 654 762 654 652 652 648 652 548 653 656 653 661 654 642 653 654 648 651 657 653 756 653 649 654 549 654 656 652 656 648 651 653 549 651 652 657 655 654 547 655 649 651 654 646 659 655 656 652 656 650 754 654

Tree=0
num_leaves=5
num_cat=0
split_feature=3 10 11 10
split_gain=3.88084 2.92423 3.35688 2.37753
threshold=832.3333333333386 348.83333333333337 2.0500000000000003 450.00000000000006
decision_type=2 2 2 2
left_child=1 -1 3 -3
right_child=-2 2 -4 -5
leaf_value=0.58432305216345937 0.62715310700459648 0.49752362082531282 0.44327649889159082 0.5848614871386052
leaf_weight=7.4289379119873109 5.1073948144912711 6.7324749827384966 5.3395491242408744 5.8038577437400818
leaf_count=32 22 29 23 25
internal_value=0.54764 0.531591 0.509676 0.537958
internal_weight=0 25.3048 17.8759 12.5363
internal_count=131 109 77 54
is_linear=0
shrinkage=1


Tree=1
num_leaves=5
num_cat=0
split_feature=3 10 0 0
split_gain=3.20477 2.35685 2.72365 1.62587
threshold=832.3333333333386 348.83333333333337 1.6500000000000006 0.25000000000000006
decision_type=2 2 2 2
left_child=1 -1 3 -3
right_child=-2 2 -4 -5
leaf_value=0.033369141650770318 0.073294959071924043 -0.050241079713409402 -0.092758453600003787 0.022549091854145668
leaf_weight=7.3541927337646547 4.9927571713924399 5.3118301928043383 5.4622831344604483 7.2662423551082611
leaf_count=32 22 23 23 31
internal_value=0 -0.0143454 -0.0337963 -0.00819084
internal_weight=0 25.3945 18.0404 12.5781
internal_count=131 109 77 54
is_linear=0
shrinkage=0.1


Tree=2
num_leaves=5
num_cat=0
split_feature=3 3 7 11
split_gain=2.64993 1.44479 1.62184 2.33723
threshold=832.3333333333386 730.3333333333286 105.50000000000001 0.55000000000000004
decision_type=2 2 2 2
left_child=1 2 3 -1
right_child=-2 -3 -4 -5
leaf_value=0.074999315828252852 0.067617778912387058 -0.056116347602427501 -0.042989567437529089 -0.011640415095837273
leaf_weight=4.8574520796537497 4.8769478797912589 5.9217325747013083 6.003050208091735 8.6731299757957441
leaf_count=21 22 25 26 37
internal_value=0 -0.0128471 0.000270212 0.0194631
internal_weight=0 25.4554 19.5336 13.5306
internal_count=131 109 84 58
is_linear=0
shrinkage=0.1


Tree=3
num_leaves=5
num_cat=0
split_feature=3 3 0 0
split_gain=2.19211 1.15296 1.40056 2.72104
threshold=832.3333333333386 730.3333333333286 0.15000000000000005 1.0500000000000003
decision_type=2 2 2 2
left_child=1 2 -1 -4
right_child=-2 -3 3 -5
leaf_value=-0.030092220754614426 0.062399994272849049 -0.049874104147018261 0.077673284903148232 -0.022189195311142655
leaf_weight=8.5433481484651654 4.7624177634716025 5.9925472736358634 5.0670318305492383 5.9121839553117752
leaf_count=37 22 25 22 25
internal_value=0 -0.0115059 0.000271383 0.0238985
internal_weight=0 25.5151 19.5226 10.9792
internal_count=131 109 84 47
is_linear=0
shrinkage=0.1


Tree=4
num_leaves=5
num_cat=0
split_feature=3 10 11 10
split_gain=1.81367 1.8184 1.88963 1.92541
threshold=832.3333333333386 348.83333333333337 2.0500000000000003 450.00000000000006
decision_type=2 2 2 2
left_child=1 -1 3 -3
right_child=-2 2 -4 -5
leaf_value=0.031827289283546466 0.057580376756494425 -0.04163445832618104 -0.075471699134912015 0.036734202594366341
leaf_weight=7.310748025774962 4.6509331464767447 6.844886392354967 5.6136989742517462 5.784203365445137
leaf_count=32 22 29 23 25
internal_value=0 -0.0103117 -0.0271987 -0.00574111
internal_weight=0 25.5535 18.2428 12.6291
internal_count=131 109 77 54
is_linear=0
shrinkage=0.1


Tree=5
num_leaves=5
num_cat=0
split_feature=7 7 0 0
split_gain=1.90649 2.12083 4.7851 1.68801
threshold=30.500000000000004 72.500000000000014 0.15000000000000005 1.3500000000000003
decision_type=2 2 2 2
left_child=-1 3 -3 -2
right_child=1 2 -4 -5
leaf_value=0.046287054959797735 -0.091181166032575811 -0.034142565028274431 0.089373828417334877 -0.0082556717611405889
leaf_weight=6.9037586003541973 4.8089429587125796 8.3318743705749494 5.0299714952707282 5.0141379535198212
leaf_count=30 21 36 23 21
internal_value=0 -0.013578 0.0123543 -0.0488523
internal_weight=0 23.1849 13.3618 9.82308
internal_count=131 101 59 42
is_linear=0
shrinkage=0.1


Tree=6
num_leaves=5
num_cat=0
split_feature=10 10 10 3
split_gain=1.8725 3.76979 1.65975 2.49629
threshold=631.49999999999693 450.00000000000006 348.83333333333337 699.33333333333223
decision_type=2 2 2 2
left_child=1 2 -1 -4
right_child=-2 -3 3 -5
leaf_value=0.030522779268698771 -0.056989592709725839 0.090274328038531457 -0.076177316060138375 0.011390111073221867
leaf_weight=7.2747204154729941 4.8095460236072531 4.8557220101356497 6.0487029552459699 7.0495379567146301
leaf_count=32 22 22 25 30
internal_value=0 0.011095 -0.00777669 -0.0290481
internal_weight=0 25.2287 20.373 13.0982
internal_count=131 109 87 55
is_linear=0
shrinkage=0.1


Tree=7
num_leaves=5
num_cat=0
split_feature=7 7 0 0
split_gain=1.50272 1.55162 4.11298 1.35818
threshold=30.500000000000004 72.500000000000014 0.15000000000000005 1.3500000000000003
decision_type=2 2 2 2
left_child=-1 3 -3 -2
right_child=1 2 -4 -5
leaf_value=0.041641709505593393 -0.079055024543724872 -0.032037068521680444 0.083529158560540259 -0.0051698545346530941
leaf_weight=6.7768589258193996 4.9233365505933779 8.3580107390880567 4.8763424307107917 5.0296454280614853
leaf_count=30 21 36 23 21
internal_value=0 -0.0118887 0.0105446 -0.0417179
internal_weight=0 23.1873 13.2344 9.95298
internal_count=131 101 59 42
is_linear=0
shrinkage=0.1


Tree=8
num_leaves=5
num_cat=0
split_feature=10 10 10 3
split_gain=1.60565 3.06741 1.42252 1.91025
threshold=631.49999999999693 450.00000000000006 348.83333333333337 699.33333333333223
decision_type=2 2 2 2
left_child=1 2 -1 -4
right_child=-2 -3 3 -5
leaf_value=0.029260955155003654 -0.052398455852878251 0.083467135470219334 -0.066785517287983001 0.0097200611552952215
leaf_weight=7.2339509725570776 4.8537258803844443 4.6777001172304145 6.1185423582792264 6.9945622831583023
leaf_count=32 22 22 25 30
internal_value=0 0.0104482 -0.00633852 -0.0259773
internal_weight=0 25.0248 20.3471 13.1131
internal_count=131 109 87 55
is_linear=0
shrinkage=0.1


Tree=9
num_leaves=5
num_cat=0
split_feature=10 10 11 0
split_gain=1.28496 2.57578 1.39209 0.721902
threshold=631.49999999999693 450.00000000000006 0.55000000000000004 1.0500000000000003
decision_type=2 2 2 2
left_child=1 2 -1 -4
right_child=-2 -3 3 -5
leaf_value=-0.042160884630835893 -0.046377817717170519 0.07767931454595417 0.039983008508172421 -0.0069380385426410247
leaf_weight=6.9099467396736243 4.9310303032398215 4.5313923507928839 5.7223152518272382 7.6795793920755386
leaf_count=30 22 22 25 32
internal_value=0 0.00950682 -0.00570186 0.0130962
internal_weight=0 24.8432 20.3118 13.4019
internal_count=131 109 87 57
is_linear=0
shrinkage=0.1


Tree=10
num_leaves=5
num_cat=0
split_feature=7 7 7 0
split_gain=1.50169 1.8315 2.12497 1.13936
threshold=105.50000000000001 72.500000000000014 30.500000000000004 1.3500000000000003
decision_type=2 2 2 2
left_child=1 2 -1 -4
right_child=-2 -3 3 -5
leaf_value=0.037212470821662139 -0.044905523569090805 0.053705105739951201 -0.069628739548154489 -0.0022083724621446989
leaf_weight=6.6217998415231802 5.9000543951988211 7.1692910194396964 4.9931371957063657 5.0332774519920349
leaf_count=30 26 33 21 21
internal_value=0 0.0114479 -0.00674953 -0.0357836
internal_weight=0 23.8175 16.6482 10.0264
internal_count=131 105 72 42
is_linear=0
shrinkage=0.1


Tree=11
num_leaves=5
num_cat=0
split_feature=7 4 0 10
split_gain=1.20672 1.63763 1.4814 1.31041
threshold=105.50000000000001 1.0000000180025095e-35 2.6500000000000017 386.33333333333377
decision_type=2 2 2 2
left_child=1 -1 3 -3
right_child=-2 2 -4 -5
leaf_value=0.046141759903128 -0.0399146673271535 -0.065789562265898729 0.038619983471250736 0.0040494314055645221
leaf_weight=8.3145290315151268 5.9700288027524939 5.1320206969976407 4.589255839586257 5.6383835971355438
leaf_count=38 26 22 20 25
internal_value=0 0.0103946 -0.0089562 -0.0292284
internal_weight=0 23.6742 15.3597 10.7704
internal_count=131 105 67 47
is_linear=0
shrinkage=0.1


Tree=12
num_leaves=5
num_cat=0
split_feature=10 7 0 10
split_gain=1.06929 1.86013 3.32066 2.33958
threshold=631.49999999999693 66.500000000000014 2.6500000000000017 350.33333333333036
decision_type=2 2 2 2
left_child=1 2 -1 -3
right_child=-2 3 -4 -5
leaf_value=-0.051101093617345633 -0.042079694045255162 -0.0074387132466617323 0.05386739583280941 0.084449397201427301
leaf_weight=9.0279697626829201 4.9644921571016303 5.4626024812459928 4.523950830101966 5.6233056485652924
leaf_count=39 22 24 20 26
internal_value=0 0.00879154 -0.0160601 0.0391714
internal_weight=0 24.6378 13.5519 11.0859
internal_count=131 109 59 50
is_linear=0
shrinkage=0.1


Tree=13
num_leaves=6
num_cat=0
split_feature=7 10 11 11 7
split_gain=1.05518 1.53753 3.12207 1.76792 0.283903
threshold=105.50000000000001 348.83333333333337 2.4000000000000008 1.25 69.500000000000014
decision_type=2 2 2 2 2
left_child=1 -1 3 4 -3
right_child=-2 2 -4 -5 -6
leaf_value=0.061814734586491608 -0.037187414915337391 -0.019908988417070804 -0.067524871562838859 0.073392507636719048 0.01553131450962672
leaf_weight=4.5792064964771333 5.9936649352312079 4.7146054506301898 5.3440447300672522 4.5668607503175727 4.3421090990304947
leaf_count=21 26 20 23 21 20
internal_value=0 0.00980835 -0.00274715 0.0226628 -0.00291765
internal_weight=0 23.5468 18.9676 13.6236 9.05671
internal_count=131 105 84 61 40
is_linear=0
shrinkage=0.1


Tree=14
num_leaves=5
num_cat=0
split_feature=0 4 11 4
split_gain=0.903329 1.79462 1.19554 0.00720986
threshold=0.15000000000000005 1.0000000180025095e-35 1.5000000000000002 1.5000000000000002
decision_type=2 2 2 2
left_child=-1 -2 -3 -4
right_child=1 2 3 -5
leaf_value=-0.027265109316324206 0.059872184945105648 -0.039979881075775679 0.0140038474118695 0.019625577640653796
leaf_weight=8.4780691415071505 5.6015191376209286 6.2398764193058005 4.5559131503105146 4.5694022178649902
leaf_count=37 27 27 20 20
internal_value=0 0.0114173 -0.00624737 0.0168189
internal_weight=0 20.9667 15.3652 9.12532
internal_count=131 94 67 40
is_linear=0
shrinkage=0.1


Tree=15
num_leaves=5
num_cat=0
split_feature=7 7 0 11
split_gain=1.02995 0.926028 1.89258 1.23837
threshold=30.500000000000004 57.500000000000007 0.25000000000000006 0.55000000000000004
decision_type=2 2 2 2
left_child=-1 -2 3 -3
right_child=1 2 -4 -5
leaf_value=0.035233302921332733 -0.042020773190976135 -0.061228596972691098 0.042997577791437723 0.0105971066999843
leaf_weight=6.5489259660244015 6.4009270817041424 4.8698887974023837 6.8427352011203757 4.7337712794542313
leaf_count=30 27 21 32 21
internal_value=0 -0.00975007 0.00280966 -0.0258248
internal_weight=0 22.8473 16.4464 9.60366
internal_count=131 101 74 42
is_linear=0
shrinkage=0.1


Tree=16
num_leaves=6
num_cat=0
split_feature=10 7 11 0 5
split_gain=0.882267 1.75521 3.22847 2.37573 2.29991
threshold=631.49999999999693 72.500000000000014 1.0000000180025095e-35 2.6500000000000017 279.75243147657073
decision_type=2 2 2 2 2
left_child=1 3 -3 4 -1
right_child=-2 2 -4 -5 -6
leaf_value=-0.090928365735553851 -0.038117661508627117 -0.013022337385454481 0.10267469955296882 0.047561226740707049 0.0040426663540496224
leaf_weight=4.7683161199092918 4.9732277840375891 5.152277931571005 4.534570574760437 4.4209825098514548 5.4809387028217316
leaf_count=20 22 23 22 20 24
internal_value=0 0.00810198 0.0411373 -0.0137115 -0.0401412
internal_weight=0 24.3571 9.68685 14.6702 10.2493
internal_count=131 109 45 64 44
is_linear=0
shrinkage=0.1


Tree=17
num_leaves=6
num_cat=0
split_feature=7 10 11 11 5
split_gain=0.825673 1.34004 2.64147 1.24641 0.69202
threshold=105.50000000000001 348.83333333333337 2.4000000000000008 1.25 279.75243147657073
decision_type=2 2 2 2 2
left_child=1 -1 3 4 -3
right_child=-2 2 -4 -5 -6
leaf_value=0.0581366910618119 -0.032839274183568225 0.027686010745228137 -0.062372023832049428 0.064566611621225956 -0.027662116862497428
leaf_weight=4.4533855915069642 5.9825473278760901 4.4470749646425265 5.3394166231155387 4.380428969860076 4.5911536663770676
leaf_count=21 26 20 23 21 20
internal_value=0 0.00882431 -0.00288303 0.0207882 -0.000429206
internal_weight=0 23.2115 18.7581 13.4187 9.03823
internal_count=131 105 84 61 40
is_linear=0
shrinkage=0.1


Tree=18
num_leaves=5
num_cat=0
split_feature=7 10 7 10
split_gain=0.883979 0.985487 2.67615 1.82532
threshold=30.500000000000004 631.49999999999693 66.500000000000014 350.33333333333036
decision_type=2 2 2 2
left_child=-1 2 -2 -4
right_child=1 -3 3 -5
leaf_value=0.032904841753660971 -0.044837955123936207 -0.050452461802167892 -0.0073878806454702184 0.075354734178582169
leaf_weight=6.4626974314451244 7.3732697665691438 4.5806545615196219 5.3937859088182432 5.2720853388309479
leaf_count=30 31 20 24 26
internal_value=0 -0.00903101 0.00148708 0.0335114
internal_weight=0 22.6198 18.0391 10.6659
internal_count=131 101 81 50
is_linear=0
shrinkage=0.1


Tree=19
num_leaves=5
num_cat=0
split_feature=0 7 7 0
split_gain=0.786137 1.89391 0.966786 0.954081
threshold=0.15000000000000005 72.500000000000014 30.500000000000004 1.3500000000000003
decision_type=2 2 2 2
left_child=-1 2 -2 -4
right_child=1 -3 3 -5
leaf_value=-0.02542005510357799 0.026262574697530929 0.06977921913005676 -0.054526388643975014 0.0071611926191539697
leaf_weight=8.4312542825937289 6.1925871819257798 4.308800444006919 5.0645423978567106 4.9652625471353531
leaf_count=37 29 23 21 21
internal_value=0 0.0108471 -0.00480575 -0.0239879
internal_weight=0 20.5312 16.2224 10.0298
internal_count=131 94 71 42
is_linear=0
shrinkage=0.1


Tree=20
num_leaves=5
num_cat=0
split_feature=10 11 0 7
split_gain=0.748402 1.6664 2.28472 1.47597
threshold=348.83333333333337 2.4000000000000008 0.25000000000000006 36.500000000000007
decision_type=2 2 2 2
left_child=-1 2 -2 -4
right_child=1 -3 3 -5
leaf_value=0.028657672268914032 -0.048592873531355808 -0.05742659693121506 -0.01805188721049137 0.057891393354099922
leaf_weight=7.031097590923312 5.1201861351728502 5.3364394754171363 3.893590107560156 7.4670973792672157
leaf_count=32 23 23 18 35
internal_value=0 -0.00885829 0.00686793 0.0318637
internal_weight=0 21.8173 16.4809 11.3607
internal_count=131 99 76 53
is_linear=0
shrinkage=0.1


Tree=21
num_leaves=6
num_cat=0
split_feature=0 5 5 11 11
split_gain=0.621258 1.25462 2.21255 2.09883 0.599852
threshold=0.25000000000000006 150.81410825199643 279.75243147657073 1.25 0.55000000000000004
decision_type=2 2 2 2 2
left_child=4 -2 -3 -4 -1
right_child=1 2 3 -5 -6
leaf_value=-0.043747576955335946 0.047446235601182357 -0.06743992193685204 -0.025056534286400256 0.073555537090323364 0.0059869682747494121
leaf_weight=5.1386688053607958 6.2638707756996181 4.1267260164022437 4.5681261122226697 4.0914127975702286 4.592362105846405
leaf_count=22 29 18 20 21 21
internal_value=0 0.0107808 -0.00718125 0.0215352 -0.0202764
internal_weight=0 19.0501 12.7863 8.65954 9.73103
internal_count=131 88 59 41 43
is_linear=0
shrinkage=0.1


Tree=22
num_leaves=5
num_cat=0
split_feature=7 10 7 10
split_gain=0.710725 0.891366 2.20904 1.43776
threshold=30.500000000000004 631.49999999999693 63.500000000000007 382.33333333333491
decision_type=2 2 2 2
left_child=-1 2 -2 -4
right_child=1 -3 3 -5
leaf_value=0.029755748745209372 -0.042477395451056853 -0.047679236895223229 0.0018913287200929838 0.076869621420971909
leaf_weight=6.3669452071189907 6.8672766834497514 4.5382603406906119 6.8472549542784673 4.082238458096981
leaf_count=30 29 20 31 21
internal_value=0 -0.00811883 0.00196926 0.0298962
internal_weight=0 22.335 17.7968 10.9295
internal_count=131 101 81 52
is_linear=0
shrinkage=0.1


Tree=23
num_leaves=5
num_cat=0
split_feature=10 11 3 10
split_gain=0.711109 1.23644 1.76206 1.62279
threshold=348.83333333333337 2.4000000000000008 771.16666666667118 450.00000000000006
decision_type=2 2 2 2
left_child=-1 2 3 -2
right_child=1 -3 -4 -5
leaf_value=0.028012732990545283 -0.055830253956538789 -0.050385642954331546 0.050478572061051941 0.022349951115001362
leaf_weight=6.9859382510185268 5.6099910587072426 5.3503893315792075 5.5951335430145255 5.0405461490154266
leaf_count=32 24 23 28 24
internal_value=0 -0.00869139 0.0050403 -0.0188302
internal_weight=0 21.5961 16.2457 10.6505
internal_count=131 99 76 48
is_linear=0
shrinkage=0.1


Tree=24
num_leaves=6
num_cat=0
split_feature=0 0 11 0 10
split_gain=0.736711 1.20784 1.53083 0.361208 0.6017
threshold=2.6500000000000017 1.0500000000000003 0.90000000000000013 0.25000000000000006 348.83333333333337
decision_type=2 2 2 2 2
left_child=1 2 3 4 -1
right_child=-2 -3 -4 -5 -6
leaf_value=0.0054122634881131138 0.037099424251146991 -0.048395834943849296 0.059479177392068629 0.012543698372626153 -0.044627303749145725
leaf_weight=4.5431357026100248 4.5613975226879111 5.394157648086547 4.0779835283756247 4.7883527576923361 5.1011278033256531
leaf_count=20 21 23 21 23 23
internal_value=0 -0.00675585 0.00537842 -0.00990793 -0.0210551
internal_weight=0 23.9048 18.5106 14.4326 9.64426
internal_count=131 110 87 66 43
is_linear=0
shrinkage=0.1


Tree=25
num_leaves=5
num_cat=0
split_feature=7 10 0 10
split_gain=0.604894 1.01741 0.873779 0.695515
threshold=105.50000000000001 348.83333333333337 1.0500000000000003 450.00000000000006
decision_type=2 2 2 2
left_child=1 -1 3 -3
right_child=-2 2 -4 -5
leaf_value=0.051785279399680889 -0.028157485325569137 -0.0049141660193662562 -0.026379587116782868 0.048887021554349708
leaf_weight=4.2547967731952729 5.9260205477476111 5.7435023561120051 8.3313082754611951 4.13109290599823
leaf_count=21 26 27 36 21
internal_value=0 0.00775985 -0.00252908 0.0175939
internal_weight=0 22.4607 18.2059 9.8746
internal_count=131 105 84 48
is_linear=0
shrinkage=0.1


Tree=26
num_leaves=6
num_cat=0
split_feature=0 7 7 0 11
split_gain=0.643007 1.09076 1.27703 1.47247 0.64143
threshold=2.6500000000000017 30.500000000000004 63.500000000000007 0.25000000000000006 0.55000000000000004
decision_type=2 2 2 2 2
left_child=1 -1 -3 4 -4
right_child=-2 2 3 -5 -6
leaf_value=0.044513353957549601 0.034853375624453946 -0.054504259462310072 -0.047133376628724799 0.045742365141173691 0.0050095372307106924
leaf_weight=3.5845451951026979 4.5138129144906989 5.8957239687442806 4.9207517951726896 4.8285334259271613 4.5319167524576187
leaf_count=17 21 25 21 26 21
internal_value=0 -0.00631873 -0.0153493 0.000815036 -0.0221344
internal_weight=0 23.7615 20.1769 14.2812 9.45267
internal_count=131 110 93 68 42
is_linear=0
shrinkage=0.1


Tree=27
num_leaves=5
num_cat=0
split_feature=11 11 4 7
split_gain=0.426948 1.28576 0.71101 0.962148
threshold=1.5000000000000002 2.7499999999999996 1.0000000180025095e-35 105.50000000000001
decision_type=2 2 2 2
left_child=2 -2 3 -1
right_child=1 -3 -4 -5
leaf_value=0.03351718710906914 0.059307818440099351 -0.013268716921483166 -0.036650758319793787 -0.023229708620546678
leaf_weight=5.9988025128841453 4.1632833033800107 5.9006463438272476 6.1240051686763755 5.9527489095926285
leaf_count=30 21 27 27 26
internal_value=0 0.016755 -0.00894396 0.00525307
internal_weight=0 10.0639 18.0756 11.9516
internal_count=131 48 83 56
is_linear=0
shrinkage=0.1


Tree=28
num_leaves=5
num_cat=0
split_feature=10 5 7 5
split_gain=0.521102 0.647876 1.35174 0.691052
threshold=348.83333333333337 279.75243147657073 36.500000000000007 1.0000000180025095e-35
decision_type=2 2 2 2
left_child=-1 3 -3 -2
right_child=1 2 -4 -5
leaf_value=0.024346472003397835 -0.0014261446250551 -0.031753315172236958 0.050410247993960294 -0.047847724117261653
leaf_weight=6.7949542105197933 7.5174063369631785 3.5431771874427778 4.6043324023485184 5.5924235284328461
leaf_count=32 35 17 23 24
internal_value=0 -0.00746602 0.0146791 -0.0212288
internal_weight=0 21.2573 8.14751 13.1098
internal_count=131 99 40 59
is_linear=0
shrinkage=0.1


Tree=29
num_leaves=5
num_cat=0
split_feature=10 10 11 5
split_gain=0.570348 1.59677 0.851652 0.735594
threshold=631.49999999999693 450.00000000000006 0.55000000000000004 150.81410825199643
decision_type=2 2 2 2
left_child=1 2 -1 -4
right_child=-2 -3 3 -5
leaf_value=-0.033716274873808731 -0.030921761773675956 0.063950427764611503 0.040764827553889285 -0.0093190862296117019
leaf_weight=6.7951807826757529 4.8573487251996985 4.0322070568799964 4.8375734239816648 7.446696937084198
leaf_count=30 22 22 22 35
internal_value=0 0.00677405 -0.00530947 0.0104041
internal_weight=0 23.1117 19.0795 12.2843
internal_count=131 109 87 57
is_linear=0
shrinkage=0.1


Tree=30
num_leaves=5
num_cat=0
split_feature=0 0 11 10
split_gain=0.549535 0.833035 1.11074 0.335334
threshold=2.6500000000000017 1.0500000000000003 0.90000000000000013 386.33333333333377
decision_type=2 2 2 2
left_child=1 2 3 -1
right_child=-2 -3 -4 -5
leaf_value=-0.022424762966095507 0.032462497058334344 -0.040535512429447723 0.05201706735744463 0.0084020071772429698
leaf_weight=7.8187483698129743 4.4454653710126868 5.3541064262390128 3.8509671688079825 6.4313389584422112
leaf_count=35 21 23 21 31
internal_value=0 -0.00588411 0.00436541 -0.00851205
internal_weight=0 23.4552 18.1011 14.2501
internal_count=131 110 87 66
is_linear=0
shrinkage=0.1


Tree=31
num_leaves=5
num_cat=0
split_feature=10 11 0 11
split_gain=0.50294 0.904784 1.52666 1.06124
threshold=348.83333333333337 2.4000000000000008 0.65000000000000002 0.40000000000000013
decision_type=2 2 2 2
left_child=-1 2 3 -2
right_child=1 -3 -4 -5
leaf_value=0.023973991200702607 0.022100733107045085 -0.043357736982657748 0.046866136517770329 -0.043822611189646261
leaf_weight=6.7485770881176022 3.9893771260976809 5.2519491463899604 5.5394864678382865 6.295494444668293
leaf_count=32 19 23 25 32
internal_value=0 -0.00739291 0.00454347 -0.0182517
internal_weight=0 21.0763 15.8244 10.2849
internal_count=131 99 76 51
is_linear=0
shrinkage=0.1


Tree=32
num_leaves=5
num_cat=0
split_feature=7 10 7 11
split_gain=0.52433 0.756345 1.68642 2.25048
threshold=30.500000000000004 631.49999999999693 72.500000000000014 1.0000000180025095e-35
decision_type=2 2 2 2
left_child=-1 2 -2 -4
right_child=1 -3 3 -5
leaf_value=0.026035319607782149 -0.030007838386912525 -0.043807940911190835 -0.012144233407472622 0.089082912235495748
leaf_weight=6.1272322982549694 8.3019780367612892 4.4574560970067969 4.9634937271475774 3.939320832490921
leaf_count=30 36 20 23 22
internal_value=0 -0.00709751 0.00241351 0.0326468
internal_weight=0 21.6622 17.2048 8.90281
internal_count=131 101 81 45
is_linear=0
shrinkage=0.1


Tree=33
num_leaves=4
num_cat=0
split_feature=0 5 5
split_gain=0.576998 1.08805 0.81925
threshold=0.15000000000000005 150.81410825199643 380.29365079364965
decision_type=2 2 2
left_child=-1 -2 -3
right_child=1 2 -4
leaf_value=-0.021949860110871001 0.040558952895144662 -0.037580342542334333 0.014541621576852778
leaf_weight=8.2397255599498767 7.1719857081770924 5.4054505228996259 6.8208386078476906
leaf_count=37 35 24 35
internal_value=0 0.00963671 -0.00850239
internal_weight=0 19.3983 12.2263
internal_count=131 94 59
is_linear=0
shrinkage=0.1


Tree=34
num_leaves=5
num_cat=0
split_feature=11 10 10 10
split_gain=0.428119 1.24926 0.569207 1.93204
threshold=1.5000000000000002 379.83333333333582 386.33333333333377 589.99999999999648
decision_type=2 2 2 2
left_child=2 -2 -1 -4
right_child=1 -3 3 -5
leaf_value=-0.027736092422346856 0.059974887085604035 -0.012630911945609419 0.055220328338438318 -0.036001480150578552
leaf_weight=8.5035578384995514 4.001598156988619 5.8112846836447716 4.4912601187825185 4.8065047562122345
leaf_count=38 20 28 22 23
internal_value=0 0.016977 -0.00903797 0.00806297
internal_weight=0 9.81288 17.8013 9.29776
internal_count=131 48 83 45
is_linear=0
shrinkage=0.1


Tree=35
num_leaves=5
num_cat=0
split_feature=10 11 7 10
split_gain=0.438047 0.768347 1.11991 0.712428
threshold=348.83333333333337 2.4000000000000008 51.500000000000007 399.00000000000369
decision_type=2 2 2 2
left_child=-1 2 -2 -4
right_child=1 -3 3 -5
leaf_value=0.0225750964623639 0.040472542645541842 -0.039986562053205041 0.01907714777319075 -0.035721376584575512
leaf_weight=6.6448903456330326 5.5170245543122318 5.2555909454822531 3.7631171047687513 6.4200496450066566
leaf_count=32 26 23 18 32
internal_value=0 -0.0068911 0.0041875 -0.015471
internal_weight=0 20.9558 15.7002 10.1832
internal_count=131 99 76 50
is_linear=0
shrinkage=0.1


Tree=36
num_leaves=5
num_cat=0
split_feature=0 10 7 0
split_gain=0.513371 0.802612 1.30189 1.00644
threshold=2.6500000000000017 399.33333333333036 63.500000000000007 0.25000000000000006
decision_type=2 2 2 2
left_child=1 2 -1 -3
right_child=-2 3 -4 -5
leaf_value=-0.057672513477902324 0.031785570588861431 -0.020973647221507921 0.0047682521315889938 0.044942328207349648
leaf_weight=5.7044176459312501 4.3345640748739234 4.0510221272706968 8.053253769874571 5.4094856381416321
leaf_count=25 21 19 39 27
internal_value=0 -0.00570406 -0.0211219 0.0167169
internal_weight=0 23.2182 13.7577 9.46051
internal_count=131 110 64 46
is_linear=0
shrinkage=0.1


Tree=37
num_leaves=5
num_cat=0
split_feature=7 11 4 11
split_gain=0.384066 0.699678 1.2909 0.715011
threshold=30.500000000000004 1.5000000000000002 1.0000000180025095e-35 1.0000000180025095e-35
decision_type=2 2 2 2
left_child=-1 2 3 -2
right_child=1 -3 -4 -5
leaf_value=0.022553496051683945 -0.022943253441865989 0.023875280559752063 -0.062754469527965664 0.0274046572757644
leaf_weight=5.9991875365376499 5.942304767668249 5.7226563021540633 4.4243061095476142 5.3693367689847946
leaf_count=30 27 28 19 27
internal_value=0 -0.00606777 -0.0169571 0.000955567
internal_weight=0 21.4586 15.7359 11.3116
internal_count=131 101 73 54
is_linear=0
shrinkage=0.1


Tree=38
num_leaves=4
num_cat=0
split_feature=0 10 5
split_gain=0.38732 0.928433 1.25401
threshold=0.15000000000000005 616.50000000000011 193.60504920838693
decision_type=2 2 2
left_child=-1 2 -2
right_child=1 -3 -4
leaf_value=-0.017915337966042326 0.025517581392833357 0.047923287431894356 -0.03296234533257205
leaf_weight=8.2639425098896044 7.2253854274749774 4.4639400765299788 7.4451340511441231
leaf_count=37 35 23 36
internal_value=0 0.0079904 -0.00416037
internal_weight=0 19.1345 14.6705
internal_count=131 94 71
is_linear=0
shrinkage=0.1


Tree=39
num_leaves=5
num_cat=0
split_feature=10 11 0 0
split_gain=0.395248 0.787484 1.0499 0.259401
threshold=348.83333333333337 2.7499999999999996 0.55000000000000016 0.25000000000000006
decision_type=2 2 2 2
left_child=-1 2 3 -2
right_child=1 -3 -4 -5
leaf_value=0.02155123865924162 -0.033827178609950451 -0.04257278867859917 0.032740023119353673 0.00035577202974972625
leaf_weight=6.5699970424175289 5.0243740230798775 4.7047053426504126 7.0834701508283606 3.9774024412035942
leaf_count=32 23 21 33 22
internal_value=0 -0.0065861 0.00393949 -0.0187236
internal_weight=0 20.79 16.0852 9.00178
internal_count=131 99 78 45
is_linear=0
shrinkage=0.1


Tree=40
num_leaves=5
num_cat=0
split_feature=10 11 7 11
split_gain=0.321869 0.645054 0.791708 0.511113
threshold=348.83333333333337 2.4000000000000008 51.500000000000007 0.55000000000000004
decision_type=2 2 2 2
left_child=-1 2 -2 -4
right_child=1 -3 3 -5
leaf_value=0.01953112647160539 0.035351646225472926 -0.036406915853254833 0.014658317244860756 -0.030826854311780061
leaf_weight=6.5269480571150806 5.3669975847005871 5.2037053555250159 4.1998782381415349 5.9994741082191467
leaf_count=32 26 23 20 30
internal_value=0 -0.00592682 0.00426243 -0.012097
internal_weight=0 20.7701 15.5663 10.1994
internal_count=131 99 76 50
is_linear=0
shrinkage=0.1


Tree=41
num_leaves=5
num_cat=0
split_feature=0 10 3 10
split_gain=0.416581 0.685081 0.850752 0.918886
threshold=2.6500000000000017 450.00000000000006 699.33333333333223 348.33333333333036
decision_type=2 2 2 2
left_child=1 2 3 -1
right_child=-2 -3 -4 -5
leaf_value=-0.0064337617446722567 0.028908302621469695 0.019149734560079013 0.014875845199494864 -0.067318993838006769
leaf_weight=5.3484251424670273 4.2516414746642104 7.7046447694301596 5.3188181370496741 4.6199236661195755
leaf_count=25 21 39 26 20
internal_value=0 -0.00516511 -0.0174197 -0.0346516
internal_weight=0 22.9918 15.2872 9.96835
internal_count=131 110 71 45
is_linear=0
shrinkage=0.1


Tree=42
num_leaves=5
num_cat=0
split_feature=10 10 10 5
split_gain=0.344952 1.24361 0.847898 1.34534
threshold=631.49999999999693 450.00000000000006 379.83333333333582 102.95752895752945
decision_type=2 2 2 2
left_child=1 2 3 -1
right_child=-2 -3 -4 -5
leaf_value=-0.014471147630085314 -0.024168438268637116 0.057657110110938208 -0.030732423941141257 0.058167353589494333
leaf_weight=6.8267769291997045 4.8045733571052542 3.7791254371404639 7.6755752712488166 4.0697972774505615
leaf_count=32 22 22 35 20
internal_value=0 0.00536625 -0.00527408 0.0126588
internal_weight=0 22.3513 18.5721 10.8966
internal_count=131 109 87 52
is_linear=0
shrinkage=0.1


Tree=43
num_leaves=5
num_cat=0
split_feature=11 10 4 7
split_gain=0.301894 1.07041 0.638312 0.741856
threshold=1.5000000000000002 382.33333333333036 1.0000000180025095e-35 105.50000000000001
decision_type=2 2 2 2
left_child=2 -2 3 -1
right_child=1 -3 -4 -5
leaf_value=0.031481942687511248 0.051786063048953314 -0.015880896132544592 -0.033890944944149744 -0.019171532998828074
leaf_weight=5.7896448150277191 4.2507134154438955 5.1945782974362373 6.0548674166202536 5.775783434510231
leaf_count=30 22 26 27 26
internal_value=0 0.0145716 -0.00758594 0.00618556
internal_weight=0 9.44529 17.6203 11.5654
internal_count=131 48 83 56
is_linear=0
shrinkage=0.1


Tree=44
num_leaves=6
num_cat=0
split_feature=0 0 0 5 7
split_gain=0.29275 0.663879 0.661477 1.09361 0.35438
threshold=2.6500000000000017 1.0500000000000003 0.25000000000000006 781.33333333333405 108.50000000000001
decision_type=2 2 2 2 2
left_child=1 2 4 -4 -1
right_child=-2 -3 3 -5 -6
leaf_value=-0.033473454278180985 0.024494520777779819 -0.035794656386683943 0.066581203658722554 -0.0067606455322751216 0.0053463047938085402
leaf_weight=4.4972589462995618 4.174084097146987 5.1781757473945609 3.6390466615557653 4.6070069298148155 4.9289222061634064
leaf_count=21 21 23 20 24 22
internal_value=0 -0.00430594 0.00492063 0.0256057 -0.0131747
internal_weight=0 22.8504 17.6722 8.24605 9.42618
internal_count=131 110 87 44 43
is_linear=0
shrinkage=0.1


Tree=45
num_leaves=5
num_cat=0
split_feature=7 5 11 7
split_gain=0.299791 1.18546 0.967794 0.463537
threshold=36.500000000000007 279.75243147657073 0.75000000000000011 111.50000000000001
decision_type=2 2 2 2
left_child=-1 2 3 -2
right_child=1 -3 -4 -5
leaf_value=-0.017398176961121115 0.032752334624885152 0.051069506208686589 -0.040069442899127339 -0.011241875298123268
leaf_weight=7.1551119983196285 5.1426864191889781 4.5829989835619918 5.5834405720233908 4.4823546633124352
leaf_count=36 25 24 26 20
internal_value=0 0.00648618 -0.00694878 0.0122644
internal_weight=0 19.7915 15.2085 9.62504
internal_count=131 95 71 45
is_linear=0
shrinkage=0.1


Tree=46
num_leaves=5
num_cat=0
split_feature=10 10 10 5
split_gain=0.302224 1.08212 0.639982 1.05033
threshold=631.49999999999693 450.00000000000006 379.83333333333582 102.95752895752945
decision_type=2 2 2 2
left_child=1 2 3 -1
right_child=-2 -3 -4 -5
leaf_value=-0.012919946202482383 -0.02269566426453061 0.054546155602686677 -0.026925936478838064 0.051835410220827619
leaf_weight=6.8136958554387181 4.7671420574188224 3.6835383996367446 7.6580036953091613 3.9609095975756645
leaf_count=32 22 22 35 20
internal_value=0 0.00506448 -0.00482385 0.0108851
internal_weight=0 22.1161 18.4326 10.7746
internal_count=131 109 87 52
is_linear=0
shrinkage=0.1


Tree=47
num_leaves=5
num_cat=0
split_feature=7 11 4 11
split_gain=0.300005 0.534002 1.09241 0.597179
threshold=30.500000000000004 1.5000000000000002 1.0000000180025095e-35 1.0000000180025095e-35
decision_type=2 2 2 2
left_child=-1 2 3 -2
right_child=1 -3 -4 -5
leaf_value=0.020223690065595878 -0.020090229537150686 0.021433484460791311 -0.056902286187127116 0.026432201265825097
leaf_weight=5.8237170204520252 5.8439935669302958 5.4686807617545119 4.4262694418430319 5.2270937263965607
leaf_count=30 27 28 19 27
internal_value=0 -0.00543238 -0.0149128 0.00187483
internal_weight=0 20.966 15.4974 11.0711
internal_count=131 101 73 54
is_linear=0
shrinkage=0.1


Tree=48
num_leaves=5
num_cat=0
split_feature=10 11 10 7
split_gain=0.288475 0.654349 1.08755 1.64176
threshold=348.83333333333337 2.7499999999999996 382.33333333333491 51.500000000000007
decision_type=2 2 2 2
left_child=-1 2 -2 -4
right_child=1 -3 3 -5
leaf_value=0.018652803466632825 -0.041774252460692295 -0.038811946242482673 0.069504442133104458 -0.0084456844194492932
leaf_weight=6.4000676348805454 3.8983050733804729 4.6118030548095694 4.1815466061234456 7.6360136345028877
leaf_count=32 18 21 21 39
internal_value=0 -0.00569161 0.00402752 0.0191363
internal_weight=0 20.3277 15.7159 11.8176
internal_count=131 99 78 60
is_linear=0
shrinkage=0.1


Tree=49
num_leaves=6
num_cat=0
split_feature=0 0 3 10 11
split_gain=0.267872 0.532401 0.538459 0.354224 0.804452
threshold=2.6500000000000017 1.0500000000000003 771.16666666667118 256.16666666667157 1.0000000180025095e-35
decision_type=2 2 2 2 2
left_child=1 2 3 -1 -5
right_child=-2 -3 -4 4 -6
leaf_value=0.021110006198567066 0.023606294119011009 -0.032598506640081036 0.035806341364716145 0.017801285174698492 -0.040375333684638755
leaf_weight=3.6188262626528838 4.1129410266876212 5.0906862020492545 4.1094352751970282 4.1469778716564161 5.5684294328093529
leaf_count=17 21 23 23 20 27
internal_value=0 -0.00414554 0.00415805 -0.00559554 -0.0155429
internal_weight=0 22.5344 17.4437 13.3342 9.71541
internal_count=131 110 87 64 47
is_linear=0
shrinkage=0.1


Tree=50
num_leaves=5
num_cat=0
split_feature=0 5 10 11
split_gain=0.257251 1.20083 0.390846 1.41002
threshold=0.55000000000000016 279.75243147657073 256.16666666667157 1.0000000180025095e-35
decision_type=2 2 2 2
left_child=2 -2 -1 -4
right_child=1 -3 3 -5
leaf_value=0.019122566562736643 -0.013990212028229879 0.049203052006192072 0.023940610161664932 -0.050899023399219069
leaf_weight=3.596661880612376 7.7801732420921308 4.9014370143413544 4.3708674684166891 5.9368331655859947
leaf_count=17 37 25 21 31
internal_value=0 0.010434 -0.00926043 -0.0191641
internal_weight=0 12.6816 13.9044 10.3077
internal_count=131 62 69 52
is_linear=0
shrinkage=0.1


Tree=51
num_leaves=5
num_cat=0
split_feature=7 5 11 7
split_gain=0.326176 1.00895 0.753643 0.412659
threshold=36.500000000000007 279.75243147657073 0.75000000000000011 111.50000000000001
decision_type=2 2 2 2
left_child=-1 2 3 -2
right_child=1 -3 -4 -5
leaf_value=-0.018338954062095219 0.030867154409820803 0.048312848468342766 -0.035084314006821708 -0.010832341525694435
leaf_weight=7.0288196131587055 5.0755345448851603 4.5017915815114966 5.5115337222814551 4.4572616145014763
leaf_count=36 25 24 26 20
internal_value=0 0.00677939 -0.00564888 0.0113697
internal_weight=0 19.5461 15.0443 9.5328
internal_count=131 95 71 45
is_linear=0
shrinkage=0.1


Tree=52
num_leaves=5
num_cat=0
split_feature=7 11 0 7
split_gain=0.284468 0.565255 1.12268 0.449751
threshold=30.500000000000004 1.5000000000000002 0.45000000000000007 105.50000000000001
decision_type=2 2 2 2
left_child=-1 2 3 -2
right_child=1 -3 -4 -5
leaf_value=0.019808847209497053 0.022957945800670978 0.022716240975956814 -0.057925831782124432 -0.017433461461066092
leaf_weight=5.7533669918775585 5.2988981753587741 5.3408369421958914 4.3717875033617011 5.7461412400007248
leaf_count=30 28 28 19 26
internal_value=0 -0.0053204 -0.0150331 0.00194446
internal_weight=0 20.7577 15.4168 11.045
internal_count=131 101 73 54
is_linear=0
shrinkage=0.1


Tree=53
num_leaves=5
num_cat=0
split_feature=7 10 10 7
split_gain=0.281925 0.885751 1.35585 0.86722
threshold=36.500000000000007 631.49999999999693 350.33333333333036 72.500000000000014
decision_type=2 2 2 2
left_child=-1 2 -2 -4
right_child=1 -3 3 -5
leaf_value=-0.01703127101824066 -0.015951929926671389 -0.033469299704597992 0.014701424202389516 0.079053231049281955
leaf_weight=7.0307557806372669 6.6512680724263218 4.3399260491132727 4.5307154655456525 3.8940013125538826
leaf_count=36 32 20 20 23
internal_value=0 0.00633947 0.0177992 0.0444456
internal_weight=0 19.4159 15.076 8.42472
internal_count=131 95 75 43
is_linear=0
shrinkage=0.1


Tree=54
num_leaves=5
num_cat=0
split_feature=7 7 0 7
split_gain=0.276977 0.446127 0.999356 0.455923
threshold=30.500000000000004 96.500000000000014 1.2500000000000002 72.500000000000014
decision_type=2 2 2 2
left_child=-1 2 3 -2
right_child=1 -3 -4 -5
leaf_value=0.019548148487654224 -0.059397951088407369 0.014895241368170997 0.020159221803319478 -0.013349550539940745
leaf_weight=5.7483817785978344 4.3232439309358615 7.1633186414837828 4.8799056261777869 4.277467917650938
leaf_count=30 19 35 23 24
internal_value=0 -0.00527126 -0.0159873 -0.0364963
internal_weight=0 20.6439 13.4806 8.60071
internal_count=131 101 66 43
is_linear=0
shrinkage=0.1


Tree=55
num_leaves=4
num_cat=0
split_feature=0 5 7
split_gain=0.281005 0.898739 1.63718
threshold=0.15000000000000005 150.81410825199643 36.500000000000007
decision_type=2 2 2
left_child=-1 -2 -3
right_child=1 2 -4
leaf_value=-0.015332412820927233 0.036097335367925441 -0.054574463527137233 0.021884776800762333
leaf_weight=8.1333288997411746 6.715684778988364 4.7955442145466787 6.731689739972353
leaf_count=37 35 24 35
internal_value=0 0.00701782 -0.00992369
internal_weight=0 18.2429 11.5272
internal_count=131 94 59
is_linear=0
shrinkage=0.1


Tree=56
num_leaves=5
num_cat=0
split_feature=7 7 0 7
split_gain=0.293297 0.394783 0.733481 0.384259
threshold=30.500000000000004 96.500000000000014 1.2500000000000002 72.500000000000014
decision_type=2 2 2 2
left_child=-1 2 3 -2
right_child=1 -3 -4 -5
leaf_value=0.020099344067015294 -0.054017623039032597 0.013604969954285954 0.015502474051127469 -0.011803358218492464
leaf_weight=5.7487238347530392 4.3345262110233325 7.1233470588922492 4.8774997889995566 4.2908203601837158
leaf_count=30 19 35 23 24
internal_value=0 -0.00544263 -0.0154911 -0.0330174
internal_weight=0 20.6262 13.5028 8.62535
internal_count=131 101 66 43
is_linear=0
shrinkage=0.1


Tree=57
num_leaves=5
num_cat=0
split_feature=7 11 0 0
split_gain=0.267683 0.913769 0.928521 0.829624
threshold=105.50000000000001 0.40000000000000013 0.65000000000000002 1.6500000000000006
decision_type=2 2 2 2
left_child=1 -1 -3 -4
right_child=-2 2 3 -5
leaf_value=0.042427765578718891 -0.019089638786629743 -0.041444311530350199 0.047275611212033081 -0.010993239309397114
leaf_weight=5.0402689352631631 5.6900323107838622 5.1223522759973994 3.8704894483089429 6.6274564266204834
leaf_count=25 26 28 19 33
internal_value=0 0.00540535 -0.00654084 0.0104899
internal_weight=0 20.6606 15.6203 10.4979
internal_count=131 105 80 52
is_linear=0
shrinkage=0.1


Tree=58
num_leaves=5
num_cat=0
split_feature=10 11 10 7
split_gain=0.244649 0.625096 0.999933 1.57221
threshold=348.83333333333337 2.7499999999999996 382.33333333333491 51.500000000000007
decision_type=2 2 2 2
left_child=-1 2 -2 -4
right_child=1 -3 3 -5
leaf_value=0.017238683638066216 -0.040089236325493854 -0.037754156173203074 0.069037399918925796 -0.0081269855361494302
leaf_weight=6.3372230753302601 3.8136320114135769 4.5782456547021857 4.0670126229524595 7.527672253549099
leaf_count=32 18 21 21 39
internal_value=0 -0.0053103 0.00432968 0.0189396
internal_weight=0 19.9866 15.4083 11.5947
internal_count=131 99 78 60
is_linear=0
shrinkage=0.1


Tree=59
num_leaves=5
num_cat=0
split_feature=7 11 4 11
split_gain=0.234082 0.391503 0.76155 0.91728
threshold=30.500000000000004 1.5000000000000002 1.0000000180025095e-35 1.0000000180025095e-35
decision_type=2 2 2 2
left_child=-1 2 3 -2
right_child=1 -3 -4 -5
leaf_value=0.018101149694479363 -0.026510679904748868 0.018603377677877116 -0.048141555514104775 0.031588742857643917
leaf_weight=5.6740924939513233 5.6958717703819293 5.2907837629318228 4.3862631618976584 5.1967190802097321
leaf_count=30 27 28 19 27
internal_value=0 -0.00484105 -0.0129594 0.00120783
internal_weight=0 20.5696 15.2789 10.8926
internal_count=131 101 73 54
is_linear=0
shrinkage=0.1


Tree=60
num_leaves=5
num_cat=0
split_feature=7 5 11 7
split_gain=0.234362 0.987226 0.665235 0.316232
threshold=36.500000000000007 279.75243147657073 0.75000000000000011 111.50000000000001
decision_type=2 2 2 2
left_child=-1 2 3 -2
right_child=1 -3 -4 -5
leaf_value=-0.015654019648829599 0.027095180437035984 0.047434514484602106 -0.034109084048376551 -0.0097382141063386586
leaf_weight=6.9306145161390331 4.9379618689417857 4.3935205191373816 5.5036543756723395 4.4148671105504036
leaf_count=36 25 24 26 20
internal_value=0 0.00579127 -0.00652392 0.00970851
internal_weight=0 19.25 14.8565 9.35283
internal_count=131 95 71 45
is_linear=0
shrinkage=0.1


Tree=61
num_leaves=5
num_cat=0
split_feature=10 7 11 11
split_gain=0.480679 0.76501 1.22777 2.27083
threshold=639.66666666666799 36.500000000000007 1.0000000180025095e-35 1.25
decision_type=2 2 2 2
left_child=1 -1 -3 -4
right_child=-2 2 3 -5
leaf_value=-0.02263635305916251 -0.031667442649649671 -0.019990150501151896 0.091114074076527399 -0.0045307747211998555
leaf_weight=6.5901744142174783 4.0258021205663672 5.4855705052614203 4.5441891625523549 5.4709350578486919
leaf_count=34 19 26 23 29
internal_value=0 0.00590367 0.0180376 0.0388664
internal_weight=0 22.0909 15.5007 10.0151
internal_count=131 112 78 52
is_linear=0
shrinkage=0.1


Tree=62
num_leaves=5
num_cat=0
split_feature=7 11 11 7
split_gain=0.290428 0.402216 0.778899 0.52493
threshold=30.500000000000004 1.5000000000000002 0.75000000000000011 105.50000000000001
decision_type=2 2 2 2
left_child=-1 2 3 -2
right_child=1 -3 -4 -5
leaf_value=0.02005492576539402 0.026167910604302003 0.01840922740018458 -0.047167910438163756 -0.019074265205000725
leaf_weight=5.7110817506909397 4.7394447103142756 5.2384125664830199 4.7708240672945967 5.5886627212166786
leaf_count=30 24 28 23 26
internal_value=0 -0.00546644 -0.0137499 0.00168683
internal_weight=0 20.3373 15.0989 10.3281
internal_count=131 101 73 50
is_linear=0
shrinkage=0.1


Tree=63
num_leaves=5
num_cat=0
split_feature=10 7 10 5
split_gain=0.34929 0.700543 0.822462 0.528859
threshold=639.66666666666799 72.500000000000014 268.83333333332854 193.60504920838693
decision_type=2 2 2 2
left_child=1 3 -3 -1
right_child=-2 2 -4 -5
leaf_value=0.012899576558913387 -0.026922395643445521 -0.0082889898251987098 0.055347888954609382 -0.026599445790656453
leaf_weight=6.1695361062884384 4.034600466489791 3.5584741085767728 4.7312110662460327 7.5232925266027451
leaf_count=30 19 17 28 37
internal_value=0 0.00508747 0.0280308 -0.00880249
internal_weight=0 21.9825 8.28969 13.6928
internal_count=131 112 45 67
is_linear=0
shrinkage=0.1


Tree=64
num_leaves=5
num_cat=0
split_feature=0 5 5 0
split_gain=0.277883 0.64446 1.02633 1.1884
threshold=0.15000000000000005 150.81410825199643 279.75243147657073 0.65000000000000002
decision_type=2 2 2 2
left_child=-1 -2 -3 -4
right_child=1 2 3 -5
leaf_value=-0.015392059853817575 0.03203463879841105 -0.049417232780932067 -0.023834999949743425 0.055447624194885838
leaf_weight=7.9900462031364468 6.5477319695055511 3.8423263579606992 3.9586690925061703 3.619065634906292
leaf_count=37 35 18 22 19
internal_value=0 0.00702317 -0.00731725 0.0140297
internal_weight=0 17.9678 11.4201 7.57773
internal_count=131 94 59 41
is_linear=0
shrinkage=0.1


Tree=65
num_leaves=5
num_cat=0
split_feature=10 11 5 11
split_gain=0.300781 0.683048 1.42136 1.43567
threshold=639.66666666666799 0.55000000000000004 150.81410825199643 2.0500000000000003
decision_type=2 2 2 2
left_child=1 -1 -3 -4
right_child=-2 2 3 -5
leaf_value=-0.020788691462598499 -0.02495817791641301 0.054835871320184484 0.026885111381925331 -0.054339126257371854
leaf_weight=7.0816158354282441 4.0364742875099173 5.9369956701993933 5.0091580562293512 3.847639337182045
leaf_count=34 19 31 29 18
internal_value=0 0.00475133 0.016977 -0.00840096
internal_weight=0 21.8754 14.7938 8.8568
internal_count=131 112 78 47
is_linear=0
shrinkage=0.1


Tree=66
num_leaves=5
num_cat=0
split_feature=7 11 11 7
split_gain=0.281909 0.363685 0.652836 0.444475
threshold=30.500000000000004 1.5000000000000002 0.75000000000000011 105.50000000000001
decision_type=2 2 2 2
left_child=-1 2 3 -2
right_child=1 -3 -4 -5
leaf_value=0.019844157421651805 0.023552075532056366 0.017361400671119045 -0.043840464911729896 -0.018316713993638555
leaf_weight=5.6624986454844501 4.6989371702075022 5.2070620246231547 4.7742051780223838 5.5071205869317055
leaf_count=30 24 28 23 26
internal_value=0 -0.00540459 -0.0133179 0.000959956
internal_weight=0 20.1873 14.9803 10.2061
internal_count=131 101 73 50
is_linear=0
shrinkage=0.1


Tree=67
num_leaves=5
num_cat=0
split_feature=10 11 10 7
split_gain=0.231121 0.53157 0.910874 1.37012
threshold=348.83333333333337 2.7499999999999996 382.33333333333491 51.500000000000007
decision_type=2 2 2 2
left_child=-1 2 -2 -4
right_child=1 -3 3 -5
leaf_value=0.016937866461627527 -0.038701516725859877 -0.035125884507591645 0.06566560962316674 -0.0074420788705043747
leaf_weight=6.2067408040165928 3.7697128728032139 4.5572039037942877 3.9380254596471769 7.3443592190742493
leaf_count=32 18 21 21 39
internal_value=0 -0.00520334 0.00385607 0.0180756
internal_weight=0 19.6093 15.0521 11.2824
internal_count=131 99 78 60
is_linear=0
shrinkage=0.1


Tree=68
num_leaves=6
num_cat=0
split_feature=0 0 3 10 10
split_gain=0.267109 0.60119 0.610112 0.422435 0.0980142
threshold=2.6500000000000017 1.0500000000000003 771.16666666667118 450.00000000000006 268.83333333332854
decision_type=2 2 2 2 2
left_child=1 2 3 4 -1
right_child=-2 -3 -4 -5 -6
leaf_value=-0.0074483542157639734 0.023971736617295791 -0.034915608110617953 0.03881556254403784 0.020260210271148302 -0.028755240993154491
leaf_weight=4.1672886684537023 3.970628283917903 4.9370146244764319 4.0095790326595298 4.1708527766168109 4.4799410924315453
leaf_count=20 21 23 23 23 21
internal_value=0 -0.0042318 0.00477043 -0.00587911 -0.018487
internal_weight=0 21.7647 16.8277 12.8181 8.64723
internal_count=131 110 87 64 41
is_linear=0
shrinkage=0.1


Tree=69
num_leaves=5
num_cat=0
split_feature=10 7 10 11
split_gain=0.247869 0.716937 1.09596 0.508329
threshold=639.66666666666799 36.500000000000007 350.33333333333036 1.0500000000000003
decision_type=2 2 2 2
left_child=1 -1 -3 -4
right_child=-2 2 3 -5
leaf_value=-0.023485443239334089 -0.022688306892387773 -0.014505986875693905 0.061415331648081911 0.012453687382236255
leaf_weight=6.4822703599929872 4.0203574597835532 6.5681467279791823 4.7919169813394529 3.8036152869462967
leaf_count=34 19 32 26 20
internal_value=0 0.00434953 0.0162486 0.0397493
internal_weight=0 21.6459 15.1637 8.59553
internal_count=131 112 78 46
is_linear=0
shrinkage=0.1


Tree=70
num_leaves=5
num_cat=0
split_feature=7 7 0 7
split_gain=0.28788 0.3917 0.740051 0.382446
threshold=30.500000000000004 96.500000000000014 1.2500000000000002 72.500000000000014
decision_type=2 2 2 2
left_child=-1 2 3 -2
right_child=1 -3 -4 -5
leaf_value=0.020137848481895981 -0.054434031170287049 0.013881383213335345 0.016072187458502918 -0.011839975347430819
leaf_weight=5.6099484711885479 4.2582059055566805 6.8599090054631224 4.7294313609600058 4.1746465899050236
leaf_count=30 19 35 23 24
internal_value=0 -0.00549299 -0.0155905 -0.033348
internal_weight=0 20.0222 13.1623 8.43285
internal_count=131 101 66 43
is_linear=0
shrinkage=0.1


Tree=71
num_leaves=5
num_cat=0
split_feature=7 11 0 11
split_gain=0.24904 0.679015 0.763032 0.421172
threshold=105.50000000000001 0.40000000000000013 0.65000000000000002 3.0000000000000013
decision_type=2 2 2 2
left_child=1 -1 -3 -4
right_child=-2 2 3 -5
leaf_value=0.037554139348613076 -0.01882702709226047 -0.03704840272706221 0.028455106015277377 -0.012510183476811005
leaf_weight=4.9169744551181855 5.4637569934129706 5.0327242501080027 5.7376618906855565 4.4610667824745178
leaf_count=25 26 28 29 23
internal_value=0 0.00524385 -0.00518646 0.0105363
internal_weight=0 20.1484 15.2315 10.1987
internal_count=131 105 80 52
is_linear=0
shrinkage=0.1


Tree=72
num_leaves=4
num_cat=0
split_feature=7 7 5
split_gain=0.226737 0.366047 0.643999
threshold=30.500000000000004 96.500000000000014 135.79242636746184
decision_type=2 2 2
left_child=-1 2 -2
right_child=1 -3 -4
leaf_value=0.017941615418779241 -0.040367029844783554 0.013876331152575375 0.0043926529021095281
leaf_weight=5.5754253864288357 5.5892329290509242 6.8541150987148276 7.565643236041069
leaf_count=30 28 35 38
internal_value=0 -0.00486169 -0.0146248
internal_weight=0 20.009 13.1549
internal_count=131 101 66
is_linear=0
shrinkage=0.1


Tree=73
num_leaves=5
num_cat=0
split_feature=10 0 7 10
split_gain=0.263572 0.517293 0.838976 0.500439
threshold=348.83333333333337 1.9500000000000008 51.500000000000007 450.00000000000006
decision_type=2 2 2 2
left_child=-1 2 -2 -4
right_child=1 -3 3 -5
leaf_value=0.018018451855007975 0.03752263110879385 -0.034166032499100989 -0.037537060695968641 0.0080210551313213922
leaf_weight=6.2146931067109135 4.8819817304611233 4.7882982790470114 4.5358603522181493 5.1472344994544983
leaf_count=32 25 23 23 28
internal_value=0 -0.00565219 0.00372179 -0.0133198
internal_weight=0 19.3534 14.5651 9.68309
internal_count=131 99 76 51
is_linear=0
shrinkage=0.1


Tree=74
num_leaves=5
num_cat=0
split_feature=7 11 0 3
split_gain=0.260087 0.603504 0.647048 0.369774
threshold=105.50000000000001 0.40000000000000013 0.65000000000000002 764.66666666666515
decision_type=2 2 2 2
left_child=1 -1 -3 -4
right_child=-2 2 3 -5
leaf_value=0.035955229205837831 -0.019267694530197541 -0.033643305643157893 0.026978403881142761 -0.011584657424677297
leaf_weight=4.8794266544282499 5.4529379755258551 5.0660093277692786 5.6958950832486135 4.4130297005176544
leaf_count=25 26 28 28 24
internal_value=0 0.00536274 -0.00447413 0.0101438
internal_weight=0 20.0544 15.1749 10.1089
internal_count=131 105 80 52
is_linear=0
shrinkage=0.1


Tree=75
num_leaves=5
num_cat=0
split_feature=7 5 0 7
split_gain=0.232629 0.894566 0.340609 0.536998
threshold=36.500000000000007 279.75243147657073 0.84999999999999998 105.50000000000001
decision_type=2 2 2 2
left_child=-1 2 3 -2
right_child=1 -3 -4 -5
leaf_value=-0.0157651339601803 0.029036541774670417 0.045675919502532275 -0.029709489365846227 -0.017308277484063689
leaf_weight=6.7860114872455624 4.6101777292788046 4.3333453051745883 4.3025135546922675 5.4626754894852638
leaf_count=36 25 24 20 26
internal_value=0 0.00584851 -0.00615716 0.00390298
internal_weight=0 18.7087 14.3754 10.0729
internal_count=131 95 71 51
is_linear=0
shrinkage=0.1


Tree=76
num_leaves=5
num_cat=0
split_feature=0 0 11 0
split_gain=0.231586 0.539856 0.593495 0.344609
threshold=2.6500000000000017 1.0500000000000003 0.55000000000000004 0.45000000000000007
decision_type=2 2 2 2
left_child=1 2 -1 -4
right_child=-2 -3 3 -5
leaf_value=-0.016151454174583083 0.022367432602204803 -0.033350035253244856 0.0054218279119749536 0.044996685260585034
leaf_weight=7.5440933294594386 3.9438603296875945 4.8500083312392226 5.3131842538714391 3.7556463107466698
leaf_count=37 21 23 30 20
internal_value=0 -0.00399746 0.00457179 0.0218108
internal_weight=0 21.4629 16.6129 9.06883
internal_count=131 110 87 50
is_linear=0
shrinkage=0.1


Tree=77
num_leaves=5
num_cat=0
split_feature=10 0 0 5
split_gain=0.241811 0.406029 0.61023 1.10441
threshold=348.83333333333337 1.9500000000000008 0.25000000000000006 346.36363636363666
decision_type=2 2 2 2
left_child=-1 2 -2 -4
right_child=1 -3 3 -5
leaf_value=0.01734435677198596 -0.027114076175198728 -0.030747863185218761 0.058654658654859283 -0.0099805643310594445
leaf_weight=6.1520913168787983 4.6064962744712856 4.7649974003434172 3.86254810169339 5.9649227298796177
leaf_count=32 23 23 20 33
internal_value=0 -0.00543734 0.00291827 0.0169955
internal_weight=0 19.199 14.434 9.82747
internal_count=131 99 76 53
is_linear=0
shrinkage=0.1


Tree=78
num_leaves=5
num_cat=0
split_feature=0 0 11 7
split_gain=0.235806 0.48068 0.52379 0.281647
threshold=2.6500000000000017 1.0500000000000003 0.55000000000000004 90.500000000000014
decision_type=2 2 2 2
left_child=1 2 -1 -4
right_child=-2 -3 3 -5
leaf_value=-0.015417218029804178 0.022593376423081638 -0.031792115874399104 0.0054575287298378912 0.041346712044664238
leaf_weight=7.5267628878355124 3.9327456876635543 4.8335397019982329 5.2805490493774396 3.732063852250576
leaf_count=37 21 23 29 21
internal_value=0 -0.00405106 0.00405611 0.020319
internal_weight=0 21.3729 16.5394 9.01261
internal_count=131 110 87 50
is_linear=0
shrinkage=0.1


Tree=79
num_leaves=5
num_cat=0
split_feature=10 11 5 5
split_gain=0.242858 0.648315 1.40448 1.20525
threshold=639.66666666666799 0.55000000000000004 150.81410825199643 279.75243147657073
decision_type=2 2 2 2
left_child=1 -1 -3 -4
right_child=-2 2 3 -5
leaf_value=-0.020754668718997782 -0.022751101922481504 0.054925177398406855 -0.053694391337427885 0.022190389205150908
leaf_weight=6.9577582255005899 3.9314516782760611 5.710633620619773 3.5518003702163679 5.0958862788975239
leaf_count=34 19 31 17 30
internal_value=0 0.00429814 0.0164382 -0.00897721
internal_weight=0 21.3161 14.3583 8.64769
internal_count=131 112 78 47
is_linear=0
shrinkage=0.1


Tree=80
num_leaves=4
num_cat=0
split_feature=7 5 7
split_gain=0.230689 0.798488 0.380865
threshold=36.500000000000007 135.79242636746184 96.500000000000014
decision_type=2 2 2
left_child=-1 2 -2
right_child=1 -3 -4
leaf_value=-0.015724179596658051 -0.030004397998944755 0.032811329400939775 0.0064832465575826023
leaf_weight=6.7498153932392624 5.2746413238346594 6.8925663009285918 6.2510810643434525
leaf_count=36 27 37 31
internal_value=0 0.00588649 -0.010215
internal_weight=0 18.4183 11.5257
internal_count=131 95 58
is_linear=0
shrinkage=0.1


Tree=81
num_leaves=5
num_cat=0
split_feature=10 5 11 10
split_gain=0.211457 0.618274 1.04312 0.457357
threshold=639.66666666666799 228.64923747276717 1.0000000180025095e-35 350.33333333333036
decision_type=2 2 2 2
left_child=1 2 -1 -4
right_child=-2 -3 3 -5
leaf_value=-0.01555356135054973 -0.021242768976221675 -0.0201338109437448 0.015857069207096425 0.06319019113246388
leaf_weight=6.0079853609204354 3.9232288450002661 7.067707546055316 4.1141832992434484 4.0518391951918602
leaf_count=29 19 39 23 21
internal_value=0 0.00402651 0.0160738 0.0393429
internal_weight=0 21.2417 14.174 8.16602
internal_count=131 112 73 44
is_linear=0
shrinkage=0.1


Tree=82
num_leaves=5
num_cat=0
split_feature=10 0 7 7
split_gain=0.212824 0.441042 0.741309 0.438701
threshold=348.83333333333337 1.9500000000000008 51.500000000000007 96.500000000000014
decision_type=2 2 2 2
left_child=-1 2 -2 -4
right_child=1 -3 3 -5
leaf_value=0.016389551727938635 0.035483721283732887 -0.031632878192162386 -0.029563497649909211 0.014593320396144511
leaf_weight=6.073788188397887 4.8380077779293087 4.7167670875787726 5.8558238968253118 3.6538506895303726
leaf_count=32 25 23 30 21
internal_value=0 -0.00510538 0.00361548 -0.0125974
internal_weight=0 19.0644 14.3477 9.50967
internal_count=131 99 76 51
is_linear=0
shrinkage=0.1


Tree=83
num_leaves=5
num_cat=0
split_feature=7 11 0 11
split_gain=0.233732 0.707785 0.695632 0.266123
threshold=105.50000000000001 0.40000000000000013 0.65000000000000002 3.0000000000000013
decision_type=2 2 2 2
left_child=1 -1 -3 -4
right_child=-2 2 3 -5
leaf_value=0.038132020403468386 -0.018547842732694504 -0.036231475016386593 0.023880515910608881 -0.0091650682142194115
leaf_weight=4.8817063942551675 5.3080787956714621 4.9814769215881816 5.6255148798227292 4.2996201813220978
leaf_count=25 26 28 29 23
internal_value=0 0.00508365 -0.00573922 0.009565
internal_weight=0 19.7883 14.9066 9.92514
internal_count=131 105 80 52
is_linear=0
shrinkage=0.1


Tree=84
num_leaves=5
num_cat=0
split_feature=7 5 11 7
split_gain=0.22353 0.732278 0.399814 0.218303
threshold=36.500000000000007 279.75243147657073 0.75000000000000011 111.50000000000001
decision_type=2 2 2 2
left_child=-1 2 3 -2
right_child=1 -3 -4 -5
leaf_value=-0.015482914585602784 0.022520970360295878 0.042118431917079813 -0.027138068616986307 -0.0089692367681949246
leaf_weight=6.7416443489491966 4.6976862251758593 4.2632634267210952 5.2201815992593756 4.1429323852062225
leaf_count=36 25 24 26 20
internal_value=0 0.00581388 -0.00519374 0.00776388
internal_weight=0 18.3241 14.0608 8.84062
internal_count=131 95 71 45
is_linear=0
shrinkage=0.1


Tree=85
num_leaves=5
num_cat=0
split_feature=7 11 0 7
split_gain=0.221906 0.387305 0.781603 0.370212
threshold=30.500000000000004 1.5000000000000002 0.45000000000000007 105.50000000000001
decision_type=2 2 2 2
left_child=-1 2 3 -2
right_child=1 -3 -4 -5
leaf_value=0.017818809233281909 0.021532351037629786 0.019305470986450607 -0.048916384223651146 -0.016459288535408401
leaf_weight=5.5030477084219482 4.9549250081181544 4.9311319291591635 4.2993115782737723 5.3175767734646797
leaf_count=30 28 28 19 26
internal_value=0 -0.00491932 -0.013117 0.00186592
internal_weight=0 19.5029 14.5718 10.2725
internal_count=131 101 73 54
is_linear=0
shrinkage=0.1


Tree=86
num_leaves=4
num_cat=0
split_feature=7 5 10
split_gain=0.195685 0.653337 0.37619
threshold=36.500000000000007 135.79242636746184 401.50000000000006
decision_type=2 2 2
left_child=-1 2 -2
right_child=1 -3 -4
leaf_value=-0.01448536806774396 -0.02339447345381104 0.029983251365158909 0.014023024904825251
leaf_weight=6.733313005417588 7.0671323016285914 6.8066134229302397 4.3351769894361496
leaf_count=36 34 37 24
internal_value=0 0.00546682 -0.00916828
internal_weight=0 18.2089 11.4023
internal_count=131 95 58
is_linear=0
shrinkage=0.1


Tree=87
num_leaves=5
num_cat=0
split_feature=10 10 10 0
split_gain=0.230268 0.370468 0.820488 0.295241
threshold=348.83333333333337 450.00000000000006 639.66666666666799 1.6500000000000006
decision_type=2 2 2 2
left_child=-1 3 -3 -2
right_child=1 2 -4 -5
leaf_value=0.017062791144914987 -0.0041182557031942809 0.044649468683578074 -0.020775506082413742 -0.037471327004532082
leaf_weight=6.0454734787344959 6.9015997052192706 3.7919811569154254 3.8762904182076454 4.3123558312654495
leaf_count=32 35 25 19 20
internal_value=0 -0.00536135 0.0115773 -0.0169443
internal_weight=0 18.8822 7.66827 11.214
internal_count=131 99 44 55
is_linear=0
shrinkage=0.1


Tree=88
num_leaves=5
num_cat=0
split_feature=7 7 0 7
split_gain=0.232995 0.352098 0.659705 0.367342
threshold=30.500000000000004 96.500000000000014 1.2500000000000002 72.500000000000014
decision_type=2 2 2 2
left_child=-1 2 3 -2
right_child=1 -3 -4 -5
leaf_value=0.018269307493982891 -0.052319357542203883 0.013747346607296609 0.016078080225732386 -0.010195808868802659
leaf_weight=5.4848697148263481 4.1873617321252841 6.5622813813388339 4.4985254183411589 4.0946380272507668
leaf_count=30 19 35 23 24
internal_value=0 -0.0050813 -0.014749 -0.0314934
internal_weight=0 19.3428 12.7805 8.282
internal_count=131 101 66 43
is_linear=0
shrinkage=0.1


Tree=89
num_leaves=5
num_cat=0
split_feature=7 7 0 7
split_gain=0.189541 0.292951 0.674423 0.415657
threshold=30.500000000000004 57.500000000000007 0.25000000000000006 108.50000000000001
decision_type=2 2 2 2
left_child=-1 -2 3 -3
right_child=1 2 -4 -5
leaf_value=0.01653520932770277 -0.024344523236098488 -0.037422888440766904 0.030734422408263708 0.006723027328239037
leaf_weight=5.4556841589510467 5.4002941027283695 4.0891517102718336 5.4048437140882006 4.4580511301755905
leaf_count=30 27 20 32 22
internal_value=0 -0.00456839 0.00308618 -0.0143973
internal_weight=0 19.3523 13.952 8.5472
internal_count=131 101 74 42
is_linear=0
shrinkage=0.1


Tree=90
num_leaves=5
num_cat=0
split_feature=10 11 10 7
split_gain=0.207026 0.326193 0.723121 1.09341
threshold=348.83333333333337 2.7499999999999996 382.33333333333491 51.500000000000007
decision_type=2 2 2 2
left_child=-1 2 -2 -4
right_child=1 -3 3 -5
leaf_value=0.016211570374431539 -0.036142909358350676 -0.029020264619105507 0.059067140728358662 -0.0080315863135101452
leaf_weight=6.0168449729681042 3.6695451922714737 4.3737528026103965 3.7228304706513864 6.9858083613216877
leaf_count=32 18 21 21 39
internal_value=0 -0.00510698 0.0021673 0.0152951
internal_weight=0 18.7519 14.3782 10.7086
internal_count=131 99 78 60
is_linear=0
shrinkage=0.1


Tree=91
num_leaves=5
num_cat=0
split_feature=5 3 7 7
split_gain=0.20755 1.57379 0.715153 0.306233
threshold=228.64923747276717 412.50000000000119 36.500000000000007 96.500000000000014
decision_type=2 2 2 2
left_child=1 3 -2 -1
right_child=2 -3 -4 -5
leaf_value=-0.0259697541382298 -0.045152424564983973 0.063319363574751583 0.013221355217719883 0.0054462637806951819
leaf_weight=6.2852669321000629 3.7598394863307458 3.7689193710684767 4.7505420967936516 6.1278028637170792
leaf_count=34 20 19 27 31
internal_value=0 0.00672305 -0.0125679 -0.010461
internal_weight=0 16.182 8.51038 12.4131
internal_count=131 84 47 65
is_linear=0
shrinkage=0.1


Tree=92
num_leaves=5
num_cat=0
split_feature=5 3 0 11
split_gain=0.168086 1.28999 0.305479 0.0275745
threshold=228.64923747276717 412.50000000000119 0.84999999999999998 1.0000000180025095e-35
decision_type=2 2 2 2
left_child=1 3 -2 -1
right_child=2 -3 -4 -5
leaf_value=-0.014143977894986346 0.0059077692077466768 0.057686693009556846 -0.032135360091088826 -0.0047266332856899023
leaf_weight=6.1630598418414646 4.6696631796658021 3.7255773469805709 3.8517045080661774 6.2748167887330055
leaf_count=30 27 19 20 35
internal_value=0 0.00606846 -0.0112879 -0.009393
internal_weight=0 16.1635 8.52137 12.4379
internal_count=131 84 47 65
is_linear=0
shrinkage=0.1


Tree=93
num_leaves=5
num_cat=0
split_feature=10 0 0 10
split_gain=0.179994 0.430422 0.513295 0.391983
threshold=348.83333333333337 1.9500000000000008 0.55000000000000016 450.00000000000006
decision_type=2 2 2 2
left_child=-1 2 3 -2
right_child=1 -3 -4 -5
leaf_value=0.01517660764979141 -0.038846749801525304 -0.031220335816732517 0.026249892219724326 0.0058686384811313143
leaf_weight=5.9797519408166435 3.3170717544853705 4.6248667761683455 5.9517478086054316 4.7934200651943684
leaf_count=32 18 23 31 27
internal_value=0 -0.00475642 0.00394718 -0.0124193
internal_weight=0 18.6871 14.0622 8.11049
internal_count=131 99 76 45
is_linear=0
shrinkage=0.1


Tree=94
num_leaves=5
num_cat=0
split_feature=7 11 0 11
split_gain=0.202743 0.630792 0.528569 0.250664
threshold=105.50000000000001 0.40000000000000013 0.65000000000000002 3.0000000000000013
decision_type=2 2 2 2
left_child=1 -1 -3 -4
right_child=-2 2 3 -5
leaf_value=0.036354975859540041 -0.017362299310914927 -0.032268768112486725 0.02191271732215018 -0.010576510729189451
leaf_weight=4.7729781568050447 5.2485206276178351 4.9059139750897875 5.5491401478648168 4.1512104868888855
leaf_count=25 26 28 29 23
internal_value=0 0.00479405 -0.0055193 0.00800913
internal_weight=0 19.3792 14.6063 9.70035
internal_count=131 105 80 52
is_linear=0
shrinkage=0.1


Tree=95
num_leaves=5
num_cat=0
split_feature=7 5 7 7
split_gain=0.182774 0.538075 0.34309 0.533724
threshold=36.500000000000007 279.75243147657073 66.500000000000014 105.50000000000001
decision_type=2 2 2 2
left_child=-1 2 -2 -4
right_child=1 -3 3 -5
leaf_value=-0.014145007875905039 -0.028467956416244989 0.036926157719676965 0.031325033069723361 -0.015606194204357446
leaf_weight=6.6112898699939278 4.0908471494913128 4.1407968550920478 4.4969372600316984 5.2548488676548004
leaf_count=36 20 24 25 26
internal_value=0 0.00529955 -0.00416102 0.00603567
internal_weight=0 17.9834 13.8426 9.75179
internal_count=131 95 71 51
is_linear=0
shrinkage=0.1


Tree=96
num_leaves=5
num_cat=0
split_feature=10 10 11 0
split_gain=0.188529 0.715739 0.610051 0.306013
threshold=639.66666666666799 450.00000000000006 0.55000000000000004 1.6500000000000006
decision_type=2 2 2 2
left_child=1 2 -1 -4
right_child=-2 -3 3 -5
leaf_value=-0.02934363475176744 -0.020376641286851113 0.043628149870251487 0.026240685859256093 -0.00771492387346682
leaf_weight=6.3627721965313055 3.8078370168805113 3.7098472975194445 5.4841546975076181 5.1431675106287003
leaf_count=30 19 25 30 27
internal_value=0 0.00383459 -0.00485448 0.00980763
internal_weight=0 20.6999 16.9901 10.6273
internal_count=131 112 87 57
is_linear=0
shrinkage=0.1


Tree=97
num_leaves=5
num_cat=0
split_feature=7 7 0 7
split_gain=0.194745 0.370036 0.55127 0.374027
threshold=96.500000000000014 30.500000000000004 1.2500000000000002 72.500000000000014
decision_type=2 2 2 2
left_child=1 -1 3 -3
right_child=-2 2 -4 -5
leaf_value=0.016649968512091825 0.014973755946083456 -0.051188904046899811 0.013874391711769419 -0.0084426155222477785
leaf_weight=5.3909383527934613 6.4561175256967536 4.130066052079199 4.4031526520848265 4.0583406277000904
leaf_count=30 35 19 23 24
internal_value=0 -0.00527327 -0.0146595 -0.030003
internal_weight=0 17.9825 12.5916 8.18841
internal_count=131 96 66 43
is_linear=0
shrinkage=0.1


Tree=98
num_leaves=6
num_cat=0
split_feature=5 3 7 10 7
split_gain=0.180001 1.14955 0.51409 0.417981 0.663295
threshold=228.64923747276717 412.50000000000119 36.500000000000007 401.50000000000006 93.500000000000014
decision_type=2 2 2 2 2
left_child=1 3 -2 4 -1
right_child=2 -3 -4 -5 -6
leaf_value=-0.051832009526311708 -0.039275172391783464 0.055277204447821797 0.010379689838210557 0.016642768344990455 0.0059196868431645577
leaf_weight=3.8465636745095271 3.7603098377585393 3.6877992153167716 4.6801117956638336 4.3252072967588902 4.1176117807626724
leaf_count=21 20 19 27 25 19
internal_value=0 0.00631116 -0.0117422 -0.00838258 -0.0219734
internal_weight=0 15.9772 8.44042 12.2894 7.96418
internal_count=131 84 47 65 40
is_linear=0
shrinkage=0.1


Tree=99
num_leaves=5
num_cat=0
split_feature=7 3 0 7
split_gain=0.177844 0.306256 0.516638 0.332076
threshold=30.500000000000004 730.3333333333286 0.25000000000000006 108.50000000000001
decision_type=2 2 2 2
left_child=-1 2 3 -2
right_child=1 -3 -4 -5
leaf_value=0.016135315631587186 -0.032737266344533465 -0.025429658324748257 0.027250950664496204 0.0068721073701672923
leaf_weight=5.3751358948648003 4.0869599878788012 5.0997451394796363 5.4450538679957381 4.3903457224369049
leaf_count=30 20 29 30 22
internal_value=0 -0.00446464 0.00321482 -0.0122238
internal_weight=0 19.0221 13.9224 8.47731
internal_count=131 101 72 42
is_linear=0
shrinkage=0.1


end of trees

feature_importances:
taskNum=107
s_view_position=89
response_time=76
scroll_time=71
s_scroll_speed=35
scroll_length=18
event_scroll=8

parameters:
[boosting: gbdt]
[objective: binary]
[metric: binary_error]
[tree_learner: serial]
[device_type: cpu]
[data_sample_strategy: bagging]
[data: ]
[valid: ]
[num_iterations: 100]
[learning_rate: 0.1]
[num_leaves: 31]
[num_threads: 0]
[seed: 0]
[deterministic: 0]
[force_col_wise: 0]
[force_row_wise: 0]
[histogram_pool_size: -1]
[max_depth: -1]
[min_data_in_leaf: 20]
[min_sum_hessian_in_leaf: 0.001]
[bagging_fraction: 1]
[pos_bagging_fraction: 1]
[neg_bagging_fraction: 1]
[bagging_freq: 0]
[bagging_seed: 3]
[feature_fraction: 0.8]
[feature_fraction_bynode: 1]
[feature_fraction_seed: 2]
[extra_trees: 0]
[extra_seed: 6]
[early_stopping_round: 0]
[first_metric_only: 0]
[max_delta_step: 0]
[lambda_l1: 0]
[lambda_l2: 0]
[linear_lambda: 0]
[min_gain_to_split: 0]
[drop_rate: 0.1]
[max_drop: 50]
[skip_drop: 0.5]
[xgboost_dart_mode: 0]
[uniform_drop: 0]
[drop_seed: 4]
[top_rate: 0.2]
[other_rate: 0.1]
[min_data_per_group: 100]
[max_cat_threshold: 32]
[cat_l2: 10]
[cat_smooth: 10]
[max_cat_to_onehot: 4]
[top_k: 20]
[monotone_constraints: ]
[monotone_constraints_method: basic]
[monotone_penalty: 0]
[feature_contri: ]
[forcedsplits_filename: ]
[refit_decay_rate: 0.9]
[cegb_tradeoff: 1]
[cegb_penalty_split: 0]
[cegb_penalty_feature_lazy: ]
[cegb_penalty_feature_coupled: ]
[path_smooth: 0]
[interaction_constraints: ]
[verbosity: -1]
[saved_feature_importance_type: 0]
[use_quantized_grad: 0]
[num_grad_quant_bins: 4]
[quant_train_renew_leaf: 0]
[stochastic_rounding: 1]
[linear_tree: 0]
[max_bin: 255]
[max_bin_by_feature: ]
[min_data_in_bin: 3]
[bin_construct_sample_cnt: 200000]
[data_random_seed: 1]
[is_enable_sparse: 1]
[enable_bundle: 1]
[use_missing: 1]
[zero_as_missing: 0]
[feature_pre_filter: 0]
[pre_partition: 0]
[two_round: 0]
[header: 0]
[label_column: ]
[weight_column: ]
[group_column: ]
[ignore_column: ]
[categorical_feature: ]
[forcedbins_filename: ]
[precise_float_parser: 0]
[parser_config_file: ]
[objective_seed: 5]
[num_class: 1]
[is_unbalance: 0]
[scale_pos_weight: 1]
[sigmoid: 1]
[boost_from_average: 1]
[reg_sqrt: 0]
[alpha: 0.9]
[fair_c: 1]
[poisson_max_delta_step: 0.7]
[tweedie_variance_power: 1.5]
[lambdarank_truncation_level: 30]
[lambdarank_norm: 1]
[label_gain: ]
[lambdarank_position_bias_regularization: 0]
[eval_at: ]
[multi_error_top_k: 1]
[auc_mu_weights: ]
[num_machines: 1]
[local_listen_port: 12400]
[time_out: 120]
[machine_list_filename: ]
[machines: ]
[gpu_platform_id: -1]
[gpu_device_id: -1]
[gpu_use_dp: 0]
[num_gpu: 1]

end of parameters

pandas_categorical:[]
