tree
version=v4
num_class=1
num_tree_per_iteration=1
label_index=0
max_feature_idx=14
objective=binary sigmoid:1
feature_names=response_time s_tap_count ratio_tap_position_y scroll_length event_scroll s_scroll_speed tap_position_x taskNum tap_position_y screen_width s_view_position scroll_time ratio_tap_position_x s_choice_left screen_height
feature_infos=[0.10000000000000001:10.399999999999981] [1:1] none [0:1950] [0:6] [-3503.3333333333576:6900.0000000000018] none [1:87] none [390:390] [-343.99999999999989:914] [-0.5:18.799999999999962] none [0:1] [844:844]
tree_sizes=542 440 440 549 441 443 446 446 445 443 444 543 547 444 543 548 442 549 442 443 445 433 445 441 547 545 450 447 446 446 545 444 444 546 442 445 443 445 449 444 446 548 449 446 445 447 550 444 438 446 442 444 446 547 443 445 444 444 446 445 447 444 448 553 444 445 442 554 443 446 444 443 446 444 444 446 447 556 445 446 446 446 447 448 444 445 551 446 446 444 553 444 445 447 443 444 553 551 446 445

Tree=0
num_leaves=4
num_cat=0
split_feature=11 11 3
split_gain=1.89869 1.90784 0.409578
threshold=2.8500000000000001 1.5000000000000002 759.33333333333223
decision_type=2 2 2
left_child=1 2 -1
right_child=-2 -3 -4
leaf_value=0.55642682694909829 0.49335182843316439 0.61376773469085644 0.51546903570498537
leaf_weight=4.8830758184194583 5.8131854981183997 4.6505483984947196 4.8830758184194565
leaf_count=21 25 20 21
internal_value=0.541597 0.561051 0.535948
internal_weight=0 14.4167 9.76615
internal_count=87 62 42
is_linear=0
shrinkage=1


Tree=1
num_leaves=3
num_cat=0
split_feature=7 7
split_gain=2.09498 2.8562
threshold=30.500000000000004 63.500000000000007
decision_type=2 2
left_child=-1 -2
right_child=1 -3
leaf_value=0.04431925841711868 -0.062877987423697823 0.031258583295824101
leaf_weight=6.9885358661413219 7.6783236712217313 5.5547793209552765
leaf_count=30 33 24
internal_value=0 -0.0233629
internal_weight=0 13.2331
internal_count=87 57
is_linear=0
shrinkage=0.1


Tree=2
num_leaves=3
num_cat=0
split_feature=7 7
split_gain=1.7067 2.28066
threshold=30.500000000000004 63.500000000000007
decision_type=2 2
left_child=-1 -2
right_child=1 -3
leaf_value=0.040394207512507073 -0.05566760974006997 0.028392776556614863
leaf_weight=6.9053568094968822 7.7986628264188749 5.5065386593341827
leaf_count=30 33 24
internal_value=0 -0.0208781
internal_weight=0 13.3052
internal_count=87 57
is_linear=0
shrinkage=0.1


Tree=3
num_leaves=4
num_cat=0
split_feature=4 0 0
split_gain=1.68488 1.35755 1.07081
threshold=1.0000000180025095e-35 2.6500000000000017 1.0500000000000003
decision_type=2 2 2
left_child=-1 2 -2
right_child=1 -3 -4
leaf_value=0.051731320553641907 -0.0076891393934468482 0.029122938640443269 -0.071338626304546002
leaf_weight=4.8095463663339642 6.0227804780006391 4.6377982050180426 4.7103428244590759
leaf_count=21 26 20 20
internal_value=0 -0.0160871 -0.0356224
internal_weight=0 15.3709 10.7331
internal_count=87 66 46
is_linear=0
shrinkage=0.1


Tree=4
num_leaves=3
num_cat=0
split_feature=7 7
split_gain=1.38077 1.62657
threshold=30.500000000000004 63.500000000000007
decision_type=2 2
left_child=-1 -2
right_child=1 -3
leaf_value=0.036694881313861637 -0.047510588985618302 0.023595608039331306
leaf_weight=6.8198069185018566 7.9184320867061597 5.4183957278728485
leaf_count=30 33 24
internal_value=0 -0.018622
internal_weight=0 13.3368
internal_count=87 57
is_linear=0
shrinkage=0.1


Tree=5
num_leaves=3
num_cat=0
split_feature=11 3
split_gain=1.31887 1.98237
threshold=2.8500000000000001 772.66666666666754
decision_type=2 2
left_child=1 -1
right_child=-2 -3
leaf_value=-0.015458041896152606 -0.039691979167252034 0.060089428691931561
leaf_weight=8.1895823478698748 5.8893494755029669 6.0312611460685721
leaf_count=36 25 26
internal_value=0 0.0165827
internal_weight=0 14.2208
internal_count=87 62
is_linear=0
shrinkage=0.1


Tree=6
num_leaves=3
num_cat=0
split_feature=4 7
split_gain=1.31696 1.73682
threshold=1.0000000180025095e-35 30.500000000000004
decision_type=2 2
left_child=-1 -2
right_child=1 -3
leaf_value=0.046367908575274036 0.026208859642700186 -0.042087600865007187
leaf_weight=4.7123126834630993 6.3163840174674979 9.0709178000688535
leaf_count=21 28 38
internal_value=0 -0.0140524
internal_weight=0 15.3873
internal_count=87 66
is_linear=0
shrinkage=0.1


Tree=7
num_leaves=3
num_cat=0
split_feature=4 7
split_gain=1.07965 1.39948
threshold=1.0000000180025095e-35 30.500000000000004
decision_type=2 2
left_child=-1 -2
right_child=1 -3
leaf_value=0.042398257073772996 0.023794504199323281 -0.037562098971993294
leaf_weight=4.6419791430234936 6.2644091099500647 9.1432885080575925
leaf_count=21 28 38
internal_value=0 -0.0126159
internal_weight=0 15.4077
internal_count=87 66
is_linear=0
shrinkage=0.1


Tree=8
num_leaves=3
num_cat=0
split_feature=10 10
split_gain=0.978187 2.30614
threshold=505.16666666666612 379.83333333333582
decision_type=2 2
left_child=1 -1
right_child=-2 -3
leaf_value=0.027034169545801397 0.038296990052788547 -0.051478265023137897
leaf_weight=7.3937103897333163 5.0256606936454764 7.5731679350137711
leaf_count=32 22 33
internal_value=0 -0.0126927
internal_weight=0 14.9669
internal_count=87 65
is_linear=0
shrinkage=0.1


Tree=9
num_leaves=3
num_cat=0
split_feature=3 10
split_gain=0.978644 1.82911
threshold=772.66666666666754 379.83333333333582
decision_type=2 2
left_child=1 -1
right_child=-2 -3
leaf_value=0.017034528188794727 0.028436834606986663 -0.06028202966123735
leaf_weight=6.9170973449945468 7.5821146965026847 5.4870217144489288
leaf_count=30 33 24
internal_value=0 -0.0171668
internal_weight=0 12.4041
internal_count=87 54
is_linear=0
shrinkage=0.1


Tree=10
num_leaves=3
num_cat=0
split_feature=7 7
split_gain=0.912714 0.944427
threshold=30.500000000000004 63.500000000000007
decision_type=2 2
left_child=-1 -2
right_child=1 -3
leaf_value=0.030374771327896885 -0.036573465586382969 0.017828319875590269
leaf_weight=6.657744616270068 8.0340986996889097 5.2937815785408011
leaf_count=30 33 24
internal_value=0 -0.0149653
internal_weight=0 13.3279
internal_count=87 57
is_linear=0
shrinkage=0.1


Tree=11
num_leaves=4
num_cat=0
split_feature=0 0 7
split_gain=0.821006 2.49505 0.319071
threshold=2.6500000000000017 1.0500000000000003 63.500000000000007
decision_type=2 2 2
left_child=1 2 -1
right_child=-2 -3 -4
leaf_value=0.0020481825624091925 0.0360703345587901 -0.06506607227716775 0.038534580759535142
leaf_weight=5.0379260033369082 4.8200117200613013 5.4966802150011054 4.5717484205961227
leaf_count=22 21 23 21
internal_value=0 -0.0113302 0.0194064
internal_weight=0 15.1064 9.60967
internal_count=87 66 43
is_linear=0
shrinkage=0.1


Tree=12
num_leaves=4
num_cat=0
split_feature=11 11 7
split_gain=1.0383 1.81741 0.483669
threshold=2.8500000000000001 1.5000000000000002 60.500000000000007
decision_type=2 2 2
left_child=1 2 -1
right_child=-2 -3 -4
leaf_value=-0.030699198782621562 -0.035173709488769148 0.067383413840622824 0.014521135255281266
leaf_weight=5.1192357093095797 5.8670606166124335 4.4893195182085028 4.3967105895280838
leaf_count=22 25 20 20
internal_value=0 0.0149368 -0.00980577
internal_weight=0 14.0053 9.51595
internal_count=87 62 42
is_linear=0
shrinkage=0.1


Tree=13
num_leaves=3
num_cat=0
split_feature=3 10
split_gain=0.819281 1.59869
threshold=772.66666666666754 379.83333333333582
decision_type=2 2
left_child=1 -1
right_child=-2 -3
leaf_value=0.016647925358176805 0.026276053935325169 -0.055707599086431608
leaf_weight=6.8387632071971911 7.4778375029563895 5.5172479748725891
leaf_count=30 33 24
internal_value=0 -0.0156605
internal_weight=0 12.356
internal_count=87 54
is_linear=0
shrinkage=0.1


Tree=14
num_leaves=4
num_cat=0
split_feature=5 3 3
split_gain=0.925395 1.64654 0.291554
threshold=193.60504920838693 798.33333333333223 358.33333333333513
decision_type=2 2 2
left_child=2 -2 -1
right_child=1 -3 -4
leaf_value=0.0046085728615878263 -0.059071003858068571 0.020259109600980159 0.039945884076495415
leaf_weight=4.4844093918800372 5.3493831753730756 5.120976448059082 4.8707888424396515
leaf_count=20 23 23 21
internal_value=0 -0.0202712 0.023007
internal_weight=0 10.4704 9.3552
internal_count=87 46 41
is_linear=0
shrinkage=0.1


Tree=15
num_leaves=4
num_cat=0
split_feature=11 11 5
split_gain=0.955529 1.50743 0.356029
threshold=2.8500000000000001 1.5000000000000002 560.68627450980637
decision_type=2 2 2
left_child=1 2 -1
right_child=-2 -3 -4
leaf_value=0.011522726186178877 -0.03369244867539762 0.062802998109437597 -0.027122320256996554
leaf_weight=4.7335869222879428 5.8699242472648612 4.4027556627988806 4.8027190715074539
leaf_count=21 25 20 21
internal_value=0 0.0144048 -0.00793987
internal_weight=0 13.9391 9.53631
internal_count=87 62 42
is_linear=0
shrinkage=0.1


Tree=16
num_leaves=3
num_cat=0
split_feature=7 7
split_gain=0.82189 0.55542
threshold=30.500000000000004 63.500000000000007
decision_type=2 2
left_child=-1 -2
right_child=1 -3
leaf_value=0.029016559411171084 -0.030658860771828802 0.011407726493318523
leaf_weight=6.5829956978559521 8.0440807193517667 5.1469382345676413
leaf_count=30 33 24
internal_value=0 -0.0142451
internal_weight=0 13.191
internal_count=87 57
is_linear=0
shrinkage=0.1


Tree=17
num_leaves=4
num_cat=0
split_feature=5 7 7
split_gain=0.749877 0.422998 0.147391
threshold=193.60504920838693 36.500000000000007 48.500000000000007
decision_type=2 2 2
left_child=2 -2 -1
right_child=1 -3 -4
leaf_value=0.033197650894338737 -0.041393344059254641 -0.00075646777456807486 0.0079587985629830712
leaf_weight=4.7378207445144671 4.4891455173492414 5.965375080704689 4.5225414335727692
leaf_count=21 20 26 20
internal_value=0 -0.0182058 0.0208716
internal_weight=0 10.4545 9.26036
internal_count=87 46 41
is_linear=0
shrinkage=0.1


Tree=18
num_leaves=3
num_cat=0
split_feature=10 10
split_gain=0.765758 1.39679
threshold=505.16666666666612 379.83333333333582
decision_type=2 2
left_child=1 -1
right_child=-2 -3
leaf_value=0.02057803233591628 0.034364780584695415 -0.040893459715927304
leaf_weight=7.1486837714910525 4.9101324230432501 7.65434230864048
leaf_count=32 22 33
internal_value=0 -0.0112076
internal_weight=0 14.803
internal_count=87 65
is_linear=0
shrinkage=0.1


Tree=19
num_leaves=3
num_cat=0
split_feature=3 5
split_gain=0.711306 1.27458
threshold=772.66666666666754 150.81410825199643
decision_type=2 2
left_child=1 -1
right_child=-2 -3
leaf_value=0.017114319172272855 0.024702534718694737 -0.047245676965941577
leaf_weight=6.250427648425104 7.3746288716793051 6.0606729686260223
leaf_count=28 33 26
internal_value=0 -0.0145697
internal_weight=0 12.3111
internal_count=87 54
is_linear=0
shrinkage=0.1


Tree=20
num_leaves=3
num_cat=0
split_feature=11 10
split_gain=0.900676 1.41642
threshold=2.5000000000000009 382.33333333333491
decision_type=2 2
left_child=1 -1
right_child=-2 -3
leaf_value=-0.027902662931391632 -0.030426067754992576 0.040070209616754282
leaf_weight=4.8430514037609127 6.4691060036420813 8.353134408593176
leaf_count=22 28 37
internal_value=0 0.0151239
internal_weight=0 13.1962
internal_count=87 59
is_linear=0
shrinkage=0.1


Tree=21
num_leaves=3
num_cat=0
split_feature=11 11
split_gain=0.728033 1.17039
threshold=2.5000000000000009 1.25
decision_type=2 2
left_child=1 -1
right_child=-2 -3
leaf_value=-0.0091112671462872143 -0.027215087381785626 0.052748870247491954
leaf_weight=8.2997734248638171 6.5069882273674002 4.8432854115962973
leaf_count=37 28 22
internal_value=0 0.0136845
internal_weight=0 13.1431
internal_count=87 59
is_linear=0
shrinkage=0.1


Tree=22
num_leaves=3
num_cat=0
split_feature=7 7
split_gain=0.821585 0.45614
threshold=30.500000000000004 57.500000000000007
decision_type=2 2
left_child=-1 -2
right_child=1 -3
leaf_value=0.029083725336736213 -0.033021983347259712 0.0043201225661806883
leaf_weight=6.5392056852579143 6.5331635922193509 6.5514728575944901
leaf_count=30 27 30
internal_value=0 -0.0143248
internal_weight=0 13.0846
internal_count=87 57
is_linear=0
shrinkage=0.1


Tree=23
num_leaves=3
num_cat=0
split_feature=7 10
split_gain=0.670011 0.613843
threshold=30.500000000000004 399.1666666666643
decision_type=2 2
left_child=-1 -2
right_child=1 -3
leaf_value=0.02644703041278388 0.0036770506953150116 -0.041185309966844053
leaf_weight=6.4755180031061199 8.2670502513647062 4.8329742997884741
leaf_count=30 36 21
internal_value=0 -0.012874
internal_weight=0 13.1
internal_count=87 57
is_linear=0
shrinkage=0.1


Tree=24
num_leaves=4
num_cat=0
split_feature=0 0 3
split_gain=0.765988 1.86267 0.423467
threshold=2.6500000000000017 1.0500000000000003 772.66666666666754
decision_type=2 2 2
left_child=1 2 -1
right_child=-2 -3 -4
leaf_value=-0.0034935170582711707 0.035275669924489508 -0.057174171979529335 0.039219701014148969
leaf_weight=5.0430299341678637 4.7078657895326605 5.5024560689926139 4.3004134893417358
leaf_count=23 21 23 20
internal_value=0 -0.0110169 0.0161657
internal_weight=0 14.8459 9.34344
internal_count=87 66 43
is_linear=0
shrinkage=0.1


Tree=25
num_leaves=4
num_cat=0
split_feature=5 3 3
split_gain=0.656933 0.977789 0.27007
threshold=193.60504920838693 798.33333333333223 358.33333333333513
decision_type=2 2 2
left_child=2 -2 -1
right_child=1 -3 -4
leaf_value=0.0017572249821412554 -0.046462238260483568 0.015075573449992084 0.036144942185131812
leaf_weight=4.3888926506042498 5.4162446409463865 4.9343119114637375 4.7617418020963669
leaf_count=20 23 23 21
internal_value=0 -0.017126 0.0196517
internal_weight=0 10.3506 9.15063
internal_count=87 46 41
is_linear=0
shrinkage=0.1


Tree=26
num_leaves=3
num_cat=0
split_feature=4 5
split_gain=0.630066 0.719752
threshold=1.0000000180025095e-35 228.64923747276717
decision_type=2 2
left_child=-1 -2
right_child=1 -3
leaf_value=0.033384350780148356 0.013677001903022104 -0.030126913753637026
leaf_weight=4.4074341803789165 7.0584328472614279 8.0054569840431196
leaf_count=21 31 35
internal_value=0 -0.00960187
internal_weight=0 15.0639
internal_count=87 66
is_linear=0
shrinkage=0.1


Tree=27
num_leaves=3
num_cat=0
split_feature=11 11
split_gain=0.759319 1.03067
threshold=2.5000000000000009 1.0500000000000003
decision_type=2 2
left_child=1 -1
right_child=-2 -3
leaf_value=-0.0098078506604644469 -0.028063740369459068 0.047216201429145337
leaf_weight=7.5984783470630664 6.4070871919393531 5.4379599094390869
leaf_count=34 28 25
internal_value=0 0.0139789
internal_weight=0 13.0364
internal_count=87 59
is_linear=0
shrinkage=0.1


Tree=28
num_leaves=3
num_cat=0
split_feature=7 7
split_gain=0.561556 0.351114
threshold=30.500000000000004 57.500000000000007
decision_type=2 2
left_child=-1 -2
right_child=1 -3
leaf_value=0.024433511010432802 -0.028167286501837779 0.0046543288780553551
leaf_weight=6.3804730921983746 6.5248661786317808 6.5124480128288269
leaf_count=30 27 30
internal_value=0 -0.0117721
internal_weight=0 13.0373
internal_count=87 57
is_linear=0
shrinkage=0.1


Tree=29
num_leaves=3
num_cat=0
split_feature=10 10
split_gain=0.491615 1.22108
threshold=505.16666666666612 379.83333333333582
decision_type=2 2
left_child=1 -1
right_child=-2 -3
leaf_value=0.020973531878208291 0.028159048899096713 -0.036815125298373642
leaf_weight=7.065228536725046 4.7264138460159293 7.5784953683614731
leaf_count=32 22 33
internal_value=0 -0.00893355
internal_weight=0 14.6437
internal_count=87 65
is_linear=0
shrinkage=0.1


Tree=30
num_leaves=4
num_cat=0
split_feature=0 0 3
split_gain=0.617337 1.50821 0.36975
threshold=2.6500000000000017 1.0500000000000003 772.66666666666754
decision_type=2 2 2
left_child=1 2 -1
right_child=-2 -3 -4
leaf_value=-0.0035200942765928945 0.03203250186931824 -0.051244460924561003 0.036702740570179193
leaf_weight=4.9952874630689639 4.6140896230936042 5.5147971659898749 4.2128133326768875
leaf_count=23 21 23 20
internal_value=0 -0.00988697 0.0148823
internal_weight=0 14.7229 9.2081
internal_count=87 66 43
is_linear=0
shrinkage=0.1


Tree=31
num_leaves=3
num_cat=0
split_feature=0 7
split_gain=0.503659 1.43378
threshold=2.6500000000000017 45.500000000000007
decision_type=2 2
left_child=1 -1
right_child=-2 -3
leaf_value=0.023898620402845683 0.029099381982104669 -0.038625592718270776
leaf_weight=6.9922352582216281 4.5734775960445395 7.7137466669082642
leaf_count=31 21 35
internal_value=0 -0.00889728
internal_weight=0 14.706
internal_count=87 66
is_linear=0
shrinkage=0.1


Tree=32
num_leaves=3
num_cat=0
split_feature=11 10
split_gain=0.698481 1.18303
threshold=2.5000000000000009 382.33333333333491
decision_type=2 2
left_child=1 -1
right_child=-2 -3
leaf_value=-0.02584733418225741 -0.027125861448189927 0.036691645296254974
leaf_weight=4.8171388953924206 6.3231773376464835 8.129425108432768
leaf_count=22 28 37
internal_value=0 0.0134222
internal_weight=0 12.9466
internal_count=87 59
is_linear=0
shrinkage=0.1


Tree=33
num_leaves=4
num_cat=0
split_feature=5 3 3
split_gain=0.533751 0.599201 0.224521
threshold=193.60504920838693 798.33333333333223 358.33333333333513
decision_type=2 2 2
left_child=2 -2 -1
right_child=1 -3 -4
leaf_value=0.0015014000952153351 -0.038244497145614786 0.010269536652412491 0.033069522088871643
leaf_weight=4.3520032465457934 5.4365819096565229 4.7880711257457733 4.6712527871131897
leaf_count=20 23 23 21
internal_value=0 -0.015526 0.0178439
internal_weight=0 10.2247 9.02326
internal_count=87 46 41
is_linear=0
shrinkage=0.1


Tree=34
num_leaves=3
num_cat=0
split_feature=11 7
split_gain=0.622125 0.980725
threshold=2.5000000000000009 36.500000000000007
decision_type=2 2
left_child=1 -1
right_child=-2 -3
leaf_value=-0.026607001079631723 -0.02559035094959751 0.032055221923276769
leaf_weight=4.252144098281863 6.3196357786655417 8.6420184522867185
leaf_count=20 28 39
internal_value=0 0.01271
internal_weight=0 12.8942
internal_count=87 59
is_linear=0
shrinkage=0.1


Tree=35
num_leaves=3
num_cat=0
split_feature=10 10
split_gain=0.574678 0.89291
threshold=379.83333333333582 505.16666666666612
decision_type=2 2
left_child=-1 -2
right_child=1 -3
leaf_value=0.022850591542807833 -0.034224330755757475 0.021649404491441551
leaf_weight=7.0385396778583553 7.549487501382826 4.6046929061412811
leaf_count=32 33 22
internal_value=0 -0.0130562
internal_weight=0 12.1542
internal_count=87 55
is_linear=0
shrinkage=0.1


Tree=36
num_leaves=3
num_cat=0
split_feature=11 10
split_gain=0.533321 1.0102
threshold=2.8500000000000001 382.33333333333491
decision_type=2 2
left_child=1 -1
right_child=-2 -3
leaf_value=-0.022349726621166743 -0.025523207439072396 0.03349863285687376
leaf_weight=5.4288413822650936 5.7016580104827872 8.0286179482936841
leaf_count=25 25 37
internal_value=0 0.010969
internal_weight=0 13.4575
internal_count=87 62
is_linear=0
shrinkage=0.1


Tree=37
num_leaves=3
num_cat=0
split_feature=10 5
split_gain=0.580161 0.810982
threshold=379.83333333333582 380.29365079364965
decision_type=2 2
left_child=-1 -2
right_child=1 -3
leaf_value=0.02293272472063913 -0.036907963128357889 0.015083247938849204
leaf_weight=7.0391754359006908 6.5731894075870496 5.5194569528102875
leaf_count=32 29 26
internal_value=0 -0.0131776
internal_weight=0 12.0926
internal_count=87 55
is_linear=0
shrinkage=0.1


Tree=38
num_leaves=3
num_cat=0
split_feature=13 5
split_gain=0.490862 0.580185
threshold=1.0000000180025095e-35 228.64923747276717
decision_type=2 2
left_child=-1 -2
right_child=1 -3
leaf_value=-0.029448864999150733 0.02799836012944525 -0.011664657644684981
leaf_weight=4.3426677584648141 7.6180385500192642 7.1490054279565811
leaf_count=19 35 33
internal_value=0 0.00879674
internal_weight=0 14.767
internal_count=87 68
is_linear=0
shrinkage=0.1


Tree=39
num_leaves=3
num_cat=0
split_feature=0 7
split_gain=0.605304 1.23139
threshold=2.6500000000000017 45.500000000000007
decision_type=2 2
left_child=1 -1
right_child=-2 -3
leaf_value=0.020744658899622036 0.031927332498033145 -0.037539621647852524
leaf_weight=6.9026992768049258 4.5512068867683402 7.6335047036409378
leaf_count=31 21 35
internal_value=0 -0.0098626
internal_weight=0 14.5362
internal_count=87 66
is_linear=0
shrinkage=0.1


Tree=40
num_leaves=3
num_cat=0
split_feature=10 5
split_gain=0.461725 0.696297
threshold=379.83333333333582 380.29365079364965
decision_type=2 2
left_child=-1 -2
right_child=1 -3
leaf_value=0.020601710398185119 -0.033669699714934019 0.014487780472321563
leaf_weight=6.9720275849103954 6.5828545391559583 5.5200284272432327
leaf_count=32 29 26
internal_value=0 -0.0117055
internal_weight=0 12.1029
internal_count=87 55
is_linear=0
shrinkage=0.1


Tree=41
num_leaves=4
num_cat=0
split_feature=0 0 11
split_gain=0.528602 0.999285 0.353669
threshold=2.6500000000000017 1.0500000000000003 0.75000000000000011
decision_type=2 2 2
left_child=1 2 -1
right_child=-2 -3 -4
leaf_value=-0.010444602831054901 0.030007358509260448 -0.042953017148584821 0.02920369693106661
leaf_weight=4.126849979162218 4.5103369653224936 5.4665845334529868 4.9464587271213531
leaf_count=19 21 23 24
internal_value=0 -0.00917852 0.0111703
internal_weight=0 14.5399 9.07331
internal_count=87 66 43
is_linear=0
shrinkage=0.1


Tree=42
num_leaves=3
num_cat=0
split_feature=4 11
split_gain=0.492941 0.961498
threshold=1.0000000180025095e-35 1.5000000000000002
decision_type=2 2
left_child=-1 -2
right_child=1 -3
leaf_value=0.02997386339823856 -0.038628340438715707 0.01317129486267777
leaf_weight=4.2784207761287716 6.1797064393758765 8.5291695743799192
leaf_count=21 27 39
internal_value=0 -0.00859152
internal_weight=0 14.7089
internal_count=87 66
is_linear=0
shrinkage=0.1


Tree=43
num_leaves=3
num_cat=0
split_feature=11 10
split_gain=0.503129 0.915064
threshold=2.8500000000000001 382.33333333333491
decision_type=2 2
left_child=1 -1
right_child=-2 -3
leaf_value=-0.021100024481699439 -0.024993630397128506 0.03226471605511904
leaf_weight=5.3967309743165988 5.6218544840812674 7.9418507218360901
leaf_count=25 25 37
internal_value=0 0.0106736
internal_weight=0 13.3386
internal_count=87 62
is_linear=0
shrinkage=0.1


Tree=44
num_leaves=3
num_cat=0
split_feature=7 11
split_gain=0.413231 0.639474
threshold=30.500000000000004 1.5000000000000002
decision_type=2 2
left_child=-1 -2
right_child=1 -3
leaf_value=0.021332654740579021 -0.030145981853687349 0.014927848175506839
leaf_weight=6.1750228106975582 7.1062171906232816 5.650207057595253
leaf_count=30 32 25
internal_value=0 -0.0101814
internal_weight=0 12.7564
internal_count=87 57
is_linear=0
shrinkage=0.1


Tree=45
num_leaves=3
num_cat=0
split_feature=10 7
split_gain=0.485063 0.654898
threshold=379.83333333333582 36.500000000000007
decision_type=2 2
left_child=-1 -2
right_child=1 -3
leaf_value=0.021154717334675787 -0.037425636176656618 0.0094633464760147737
leaf_weight=6.9313581287860897 5.5095493197441083 6.4846698194742203
leaf_count=32 26 29
internal_value=0 -0.0120751
internal_weight=0 11.9942
internal_count=87 55
is_linear=0
shrinkage=0.1


Tree=46
num_leaves=4
num_cat=0
split_feature=0 0 10
split_gain=0.401089 0.869731 0.101605
threshold=2.6500000000000017 1.0500000000000003 386.83333333333127
decision_type=2 2 2
left_child=1 2 -1
right_child=-2 -3 -4
leaf_value=0.022009595922176911 0.026323499248838114 -0.039432086150260115 0.00075883907697487589
leaf_weight=4.3913252055645007 4.4572443962097159 5.4704583436250678 4.6138260513544083
leaf_count=21 21 23 22
internal_value=0 -0.00798302 0.0111217
internal_weight=0 14.4756 9.00515
internal_count=87 66 43
is_linear=0
shrinkage=0.1


Tree=47
num_leaves=3
num_cat=0
split_feature=11 0
split_gain=0.4776 0.724843
threshold=2.8500000000000001 0.55000000000000016
decision_type=2 2
left_child=1 -1
right_child=-2 -3
leaf_value=-0.017794936628717086 -0.024377012707801897 0.029785703072244776
leaf_weight=5.3971656262874621 5.6080282777547827 7.8709485977888107
leaf_count=26 25 36
internal_value=0 0.010431
internal_weight=0 13.2681
internal_count=87 62
is_linear=0
shrinkage=0.1


Tree=48
num_leaves=3
num_cat=0
split_feature=10 10
split_gain=0.433278 0.664767
threshold=379.83333333333582 505.16666666666612
decision_type=2 2
left_child=-1 -2
right_child=1 -3
leaf_value=0.02010853638065134 -0.029669123406203958 0.018909235685595632
leaf_weight=6.8729703724384335 7.481936186552046 4.51804518699646
leaf_count=32 33 22
internal_value=0 -0.0113792
internal_weight=0 12
internal_count=87 55
is_linear=0
shrinkage=0.1


Tree=49
num_leaves=3
num_cat=0
split_feature=11 10
split_gain=0.406627 0.875235
threshold=2.8500000000000001 382.33333333333491
decision_type=2 2
left_child=1 -1
right_child=-2 -3
leaf_value=-0.021528396386252632 -0.02248411997479002 0.030866326763637927
leaf_weight=5.3579002767801303 5.6069306880235663 7.873176172375679
leaf_count=25 25 37
internal_value=0 0.00964918
internal_weight=0 13.2311
internal_count=87 62
is_linear=0
shrinkage=0.1


Tree=50
num_leaves=3
num_cat=0
split_feature=10 10
split_gain=0.44209 0.5193
threshold=379.83333333333582 505.16666666666612
decision_type=2 2
left_child=-1 -2
right_child=1 -3
leaf_value=0.02028203124663246 -0.027645905001184939 0.015488272798623186
leaf_weight=6.8759612590074566 7.4807400554418546 4.4522639513015747
leaf_count=32 33 22
internal_value=0 -0.0115523
internal_weight=0 11.933
internal_count=87 55
is_linear=0
shrinkage=0.1


Tree=51
num_leaves=3
num_cat=0
split_feature=7 0
split_gain=0.428529 0.764608
threshold=30.500000000000004 1.3500000000000003
decision_type=2 2
left_child=-1 -2
right_child=1 -3
leaf_value=0.021797454443547054 -0.02989292789111932 0.020621411533095754
leaf_weight=6.1235301941633251 7.7765662074089033 4.8748419135808945
leaf_count=30 36 21
internal_value=0 -0.0104287
internal_weight=0 12.6514
internal_count=87 57
is_linear=0
shrinkage=0.1


Tree=52
num_leaves=3
num_cat=0
split_feature=11 7
split_gain=0.422796 0.905697
threshold=2.8500000000000001 36.500000000000007
decision_type=2 2
left_child=1 -1
right_child=-2 -3
leaf_value=-0.025175335152135436 -0.022970722547505804 0.029441264960808001
leaf_weight=4.7352778613567379 5.5890980809926978 8.4619769006967527
leaf_count=23 25 39
internal_value=0 0.0098444
internal_weight=0 13.1973
internal_count=87 62
is_linear=0
shrinkage=0.1


Tree=53
num_leaves=4
num_cat=0
split_feature=0 0 11
split_gain=0.397024 0.782497 0.263253
threshold=2.6500000000000017 1.0500000000000003 0.75000000000000011
decision_type=2 2 2
left_child=1 2 -1
right_child=-2 -3 -4
leaf_value=-0.0084270809732765791 0.026314986737552809 -0.037924451760892389 0.026045966657736664
leaf_weight=4.09311690926552 4.4125140309333792 5.4274796992540351 4.8282786458730698
leaf_count=19 21 23 24
internal_value=0 -0.0079846 0.0102298
internal_weight=0 14.3489 8.9214
internal_count=87 66 43
is_linear=0
shrinkage=0.1


Tree=54
num_leaves=3
num_cat=0
split_feature=7 10
split_gain=0.409411 1.0903
threshold=30.500000000000004 399.1666666666643
decision_type=2 2
left_child=-1 -2
right_child=1 -3
leaf_value=0.021352082476237377 0.012318815994463264 -0.048614126624036885
leaf_weight=6.0977957546710995 7.9416897594928724 4.6595269292593002
leaf_count=30 36 21
internal_value=0 -0.0102122
internal_weight=0 12.6012
internal_count=87 57
is_linear=0
shrinkage=0.1


Tree=55
num_leaves=3
num_cat=0
split_feature=11 7
split_gain=0.380712 0.848721
threshold=2.8500000000000001 36.500000000000007
decision_type=2 2
left_child=1 -1
right_child=-2 -3
leaf_value=-0.024522554273070485 -0.021853739774674474 0.028435795322460489
leaf_weight=4.7288748770952251 5.55873218178749 8.4046509414911252
leaf_count=23 25 39
internal_value=0 0.00936754
internal_weight=0 13.1335
internal_count=87 62
is_linear=0
shrinkage=0.1


Tree=56
num_leaves=3
num_cat=0
split_feature=7 10
split_gain=0.417147 0.898809
threshold=30.500000000000004 399.1666666666643
decision_type=2 2
left_child=-1 -2
right_child=1 -3
leaf_value=0.021534061125319984 0.010294545069991078 -0.045011125103336047
leaf_weight=6.1019944176077869 7.877916678786276 4.6866763830184937
leaf_count=30 36 21
internal_value=0 -0.0103348
internal_weight=0 12.5646
internal_count=87 57
is_linear=0
shrinkage=0.1


Tree=57
num_leaves=3
num_cat=0
split_feature=5 7
split_gain=0.365784 1.06203
threshold=150.81410825199643 36.500000000000007
decision_type=2 2
left_child=-1 -2
right_child=1 -3
leaf_value=0.018567009774847685 -0.044781735629045472 0.015631613530125713
leaf_weight=6.8024212867021587 5.1316592246294004 6.7208625823259354
leaf_count=32 24 31
internal_value=0 -0.0105249
internal_weight=0 11.8525
internal_count=87 55
is_linear=0
shrinkage=0.1


Tree=58
num_leaves=3
num_cat=0
split_feature=7 10
split_gain=0.423523 0.704797
threshold=30.500000000000004 399.1666666666643
decision_type=2 2
left_child=-1 -2
right_child=1 -3
leaf_value=0.021726589036981669 0.0079797287673278074 -0.040918767498202314
leaf_weight=6.0898104608058956 7.8389455378055555 4.7239458113908768
leaf_count=30 36 21
internal_value=0 -0.0104073
internal_weight=0 12.5629
internal_count=87 57
is_linear=0
shrinkage=0.1


Tree=59
num_leaves=3
num_cat=0
split_feature=3 7
split_gain=0.407723 0.807094
threshold=772.66666666666754 39.500000000000007
decision_type=2 2
left_child=1 -1
right_child=-2 -3
leaf_value=-0.043132209989454502 0.019674284127991923 0.010131433928520284
leaf_weight=4.7281391620636004 6.7660643085837355 7.1423258781433105
leaf_count=22 33 32
internal_value=0 -0.0110841
internal_weight=0 11.8705
internal_count=87 54
is_linear=0
shrinkage=0.1


Tree=60
num_leaves=3
num_cat=0
split_feature=11 10
split_gain=0.368079 0.963816
threshold=2.8500000000000001 382.33333333333491
decision_type=2 2
left_child=1 -1
right_child=-2 -3
leaf_value=-0.02386776622509099 -0.021456234095182214 0.031517556701705612
leaf_weight=5.2540983855724352 5.5647878646850577 7.8160398826003075
leaf_count=25 25 37
internal_value=0 0.00925307
internal_weight=0 13.0701
internal_count=87 62
is_linear=0
shrinkage=0.1


Tree=61
num_leaves=3
num_cat=0
split_feature=7 0
split_gain=0.450666 0.709961
threshold=30.500000000000004 1.3500000000000003
decision_type=2 2
left_child=-1 -2
right_child=1 -3
leaf_value=0.022423364755842203 -0.029549405905817106 0.019398942135263122
leaf_weight=6.079726584255698 7.7184582054615003 4.8096505999565125
leaf_count=30 36 21
internal_value=0 -0.0107577
internal_weight=0 12.5281
internal_count=87 57
is_linear=0
shrinkage=0.1


Tree=62
num_leaves=3
num_cat=0
split_feature=11 3
split_gain=0.366344 0.635468
threshold=2.8500000000000001 772.66666666666754
decision_type=2 2
left_child=1 -1
right_child=-2 -3
leaf_value=-0.0087031597290629075 -0.021404834545157098 0.036370203927001528
leaf_weight=7.8570562601089495 5.5632984936237326 5.1967356279492378
leaf_count=36 25 26
internal_value=0 0.00924062
internal_weight=0 13.0538
internal_count=87 62
is_linear=0
shrinkage=0.1


Tree=63
num_leaves=4
num_cat=0
split_feature=13 11 10
split_gain=0.398805 0.56183 0.87447
threshold=1.0000000180025095e-35 0.90000000000000013 386.83333333333127
decision_type=2 2 2
left_child=-1 -2 -3
right_child=1 2 -4
leaf_value=-0.026847252221092861 0.033117641661871138 0.022035953625157936 -0.041026449903561669
leaf_weight=4.2432032972574243 5.5074478685855874 4.6817098408937436 4.1463232189416885
leaf_count=19 26 22 20
internal_value=0 0.00805349 -0.007583
internal_weight=0 14.3355 8.82803
internal_count=87 68 42
is_linear=0
shrinkage=0.1


Tree=64
num_leaves=3
num_cat=0
split_feature=0 5
split_gain=0.376964 0.775111
threshold=2.6500000000000017 279.75243147657073
decision_type=2 2
left_child=1 -1
right_child=-2 -3
leaf_value=-0.031384358657989116 0.02589576855445019 0.015319182279293611
leaf_weight=7.0330508202314395 4.336254969239234 7.1827864646911621
leaf_count=32 21 34
internal_value=0 -0.00778662
internal_weight=0 14.2158
internal_count=87 66
is_linear=0
shrinkage=0.1


Tree=65
num_leaves=3
num_cat=0
split_feature=5 5
split_gain=0.368088 0.300638
threshold=150.81410825199643 380.29365079364965
decision_type=2 2
left_child=-1 -2
right_child=1 -3
leaf_value=0.01862838290218349 -0.027922397847275626 0.0041721742627869787
leaf_weight=6.7847013622522381 5.4162113815546018 6.3293206542730331
leaf_count=32 24 31
internal_value=0 -0.0106276
internal_weight=0 11.7455
internal_count=87 55
is_linear=0
shrinkage=0.1


Tree=66
num_leaves=3
num_cat=0
split_feature=7 0
split_gain=0.363468 0.664231
threshold=30.500000000000004 1.3500000000000003
decision_type=2 2
left_child=-1 -2
right_child=1 -3
leaf_value=0.020281392814197829 -0.027758084938946739 0.019707396493968365
leaf_weight=6.0121932849288013 7.7251773923635465 4.76785509288311
leaf_count=30 36 21
internal_value=0 -0.0096433
internal_weight=0 12.493
internal_count=87 57
is_linear=0
shrinkage=0.1


Tree=67
num_leaves=4
num_cat=0
split_feature=13 7 11
split_gain=0.325528 0.657941 1.41394
threshold=1.0000000180025095e-35 30.500000000000004 0.90000000000000013
decision_type=2 2 2
left_child=-1 -2 -3
right_child=1 2 -4
leaf_value=-0.02426393001101871 0.035770607445432062 0.035574907780017324 -0.043828166038480491
leaf_weight=4.2367094010114679 5.1751105189323434 4.0050675421953184 5.0962523818016052
leaf_count=19 26 19 23
internal_value=0 0.00730136 -0.00888657
internal_weight=0 14.2764 9.10132
internal_count=87 68 42
is_linear=0
shrinkage=0.1


Tree=68
num_leaves=3
num_cat=0
split_feature=11 7
split_gain=0.297808 0.859045
threshold=2.8500000000000001 36.500000000000007
decision_type=2 2
left_child=1 -1
right_child=-2 -3
leaf_value=-0.0261682131885441 -0.019426574265191496 0.027576438435867719
leaf_weight=4.6289363205432918 5.4926437437534323 8.3186493963003141
leaf_count=23 25 39
internal_value=0 0.008362
internal_weight=0 12.9476
internal_count=87 62
is_linear=0
shrinkage=0.1


Tree=69
num_leaves=3
num_cat=0
split_feature=10 3
split_gain=0.281521 0.49506
threshold=379.83333333333582 772.66666666666754
decision_type=2 2
left_child=-1 -2
right_child=1 -3
leaf_value=0.016433003693444179 -0.031192922370704423 0.010007537998955464
leaf_weight=6.7003790289163616 5.4801635742187482 6.2341442033648491
leaf_count=32 24 31
internal_value=0 -0.00926678
internal_weight=0 11.7143
internal_count=87 55
is_linear=0
shrinkage=0.1


Tree=70
num_leaves=3
num_cat=0
split_feature=0 7
split_gain=0.339799 1.1085
threshold=2.6500000000000017 45.500000000000007
decision_type=2 2
left_child=1 -1
right_child=-2 -3
leaf_value=0.022135812582141111 0.024826004313989521 -0.033967499770826012
leaf_weight=6.6923696994781512 4.2625507265329352 7.4335454404354095
leaf_count=31 21 35
internal_value=0 -0.00738769
internal_weight=0 14.1259
internal_count=87 66
is_linear=0
shrinkage=0.1


Tree=71
num_leaves=3
num_cat=0
split_feature=0 7
split_gain=0.276728 0.894552
threshold=2.6500000000000017 45.500000000000007
decision_type=2 2
left_child=1 -1
right_child=-2 -3
leaf_value=0.0200283755259777 0.022515100675566183 -0.030359656188931196
leaf_weight=6.6587499380111712 4.2317379862070075 7.482470378279686
leaf_count=31 21 35
internal_value=0 -0.00663318
internal_weight=0 14.1412
internal_count=87 66
is_linear=0
shrinkage=0.1


Tree=72
num_leaves=3
num_cat=0
split_feature=7 5
split_gain=0.339531 0.626391
threshold=36.500000000000007 279.75243147657073
decision_type=2 2
left_child=-1 -2
right_child=1 -3
leaf_value=-0.016714261377100893 -0.0075938359165565366 0.041333590960099309
leaf_weight=7.2703388854861286 6.8505087047815305 4.2337420135736465
leaf_count=36 31 20
internal_value=0 0.0110945
internal_weight=0 11.0843
internal_count=87 51
is_linear=0
shrinkage=0.1


Tree=73
num_leaves=3
num_cat=0
split_feature=3 3
split_gain=0.314089 0.426629
threshold=697.66666666666674 798.33333333333223
decision_type=2 2
left_child=-1 -2
right_child=1 -3
leaf_value=0.014744965697191463 -0.032596512688807616 0.0082948384595111155
leaf_weight=8.1304439455270785 4.9680524766445142 5.24527657777071
leaf_count=38 22 27
internal_value=0 -0.0115959
internal_weight=0 10.2133
internal_count=87 49
is_linear=0
shrinkage=0.1


Tree=74
num_leaves=3
num_cat=0
split_feature=5 7
split_gain=0.312883 0.973267
threshold=150.81410825199643 36.500000000000007
decision_type=2 2
left_child=-1 -2
right_child=1 -3
leaf_value=0.0173191350947066 -0.042749719064396299 0.015566435062479412
leaf_weight=6.6840152740478542 5.0691606253385526 6.5725864917039871
leaf_count=32 24 31
internal_value=0 -0.00982614
internal_weight=0 11.6417
internal_count=87 55
is_linear=0
shrinkage=0.1


Tree=75
num_leaves=3
num_cat=0
split_feature=7 10
split_gain=0.299881 0.750182
threshold=30.500000000000004 399.1666666666643
decision_type=2 2
left_child=-1 -2
right_child=1 -3
leaf_value=0.018603438855902391 0.010390369920224006 -0.040339077766892661
leaf_weight=5.9148202911019352 7.7220786064863187 4.6827791929244995
leaf_count=30 36 21
internal_value=0 -0.00875977
internal_weight=0 12.4049
internal_count=87 57
is_linear=0
shrinkage=0.1


Tree=76
num_leaves=3
num_cat=0
split_feature=11 10
split_gain=0.305311 0.838361
threshold=2.8500000000000001 382.33333333333491
decision_type=2 2
left_child=1 -1
right_child=-2 -3
leaf_value=-0.022404554308877805 -0.019827425589141801 0.029543175255827132
leaf_weight=5.2298520803451556 5.424483284354209 7.6525233834981918
leaf_count=25 25 37
internal_value=0 0.00845398
internal_weight=0 12.8824
internal_count=87 62
is_linear=0
shrinkage=0.1


Tree=77
num_leaves=4
num_cat=0
split_feature=13 11 10
split_gain=0.283829 0.417513 0.672203
threshold=1.0000000180025095e-35 0.90000000000000013 386.83333333333127
decision_type=2 2 2
left_child=-1 -2 -3
right_child=1 2 -4
leaf_value=-0.022724284205467259 0.028712017377815709 0.019647465889772283 -0.036114009459949109
leaf_weight=4.2044869661331186 5.4008321464061746 4.574392229318617 4.0991755500435829
leaf_count=19 26 22 20
internal_value=0 0.00688529 -0.00670571
internal_weight=0 14.0744 8.67357
internal_count=87 68 42
is_linear=0
shrinkage=0.1


Tree=78
num_leaves=3
num_cat=0
split_feature=7 3
split_gain=0.25914 0.275595
threshold=30.500000000000004 697.66666666666674
decision_type=2 2
left_child=-1 -2
right_child=1 -3
leaf_value=0.017355269951053614 0.0066631197412061463 -0.023195254817075225
leaf_weight=5.8816832676529911 6.2340845167636854 6.1319145858287811
leaf_count=30 28 29
internal_value=0 -0.00814272
internal_weight=0 12.366
internal_count=87 57
is_linear=0
shrinkage=0.1


Tree=79
num_leaves=3
num_cat=0
split_feature=0 5
split_gain=0.272007 0.731182
threshold=2.6500000000000017 279.75243147657073
decision_type=2 2
left_child=1 -1
right_child=-2 -3
leaf_value=-0.029680846053784044 0.022479707023113853 0.015941557558929696
leaf_weight=6.9398264139890689 4.1762308627367011 7.1140322610735893
leaf_count=32 21 34
internal_value=0 -0.00658689
internal_weight=0 14.0539
internal_count=87 66
is_linear=0
shrinkage=0.1


Tree=80
num_leaves=3
num_cat=0
split_feature=5 3
split_gain=0.252016 0.525067
threshold=150.81410825199643 772.66666666666754
decision_type=2 2
left_child=-1 -2
right_child=1 -3
leaf_value=0.015654135902456928 -0.029427077419281161 0.013147422368315341
leaf_weight=6.6101796776056316 5.9821278601884824 5.6165188848972321
leaf_count=32 26 29
internal_value=0 -0.00881084
internal_weight=0 11.5986
internal_count=87 55
is_linear=0
shrinkage=0.1


Tree=81
num_leaves=3
num_cat=0
split_feature=11 11
split_gain=0.249847 0.702131
threshold=2.8500000000000001 1.0500000000000003
decision_type=2 2
left_child=1 -1
right_child=-2 -3
leaf_value=-0.012794070392154022 -0.018008111687479365 0.034480408967663613
leaf_weight=7.257637947797777 5.3829689770936957 5.5397643148899078
leaf_count=34 25 28
internal_value=0 0.0076702
internal_weight=0 12.7974
internal_count=87 62
is_linear=0
shrinkage=0.1


Tree=82
num_leaves=3
num_cat=0
split_feature=7 0
split_gain=0.250407 0.519554
threshold=36.500000000000007 0.84999999999999998
decision_type=2 2
left_child=-1 -2
right_child=1 -3
leaf_value=-0.014386994125033914 0.03518438595118091 -0.0089673819113010797
leaf_weight=7.2193220183253315 4.6012068986892682 6.3344052731990814
leaf_count=36 23 28
internal_value=0 0.00960967
internal_weight=0 10.9356
internal_count=87 51
is_linear=0
shrinkage=0.1


Tree=83
num_leaves=3
num_cat=0
split_feature=0 11
split_gain=0.316919 0.514048
threshold=0.55000000000000016 2.5000000000000009
decision_type=2 2
left_child=-1 -2
right_child=1 -3
leaf_value=-0.020694431468112243 0.027115634565731236 -0.012921768073811188
leaf_weight=5.2297036349773434 6.8941420912742597 5.9956735372543335
leaf_count=26 33 28
internal_value=0 0.00849231
internal_weight=0 12.8898
internal_count=87 61
is_linear=0
shrinkage=0.1


Tree=84
num_leaves=3
num_cat=0
split_feature=5 11
split_gain=0.25835 0.3127
threshold=150.81410825199643 1.5000000000000002
decision_type=2 2
left_child=-1 -2
right_child=1 -3
leaf_value=0.015830227460549618 -0.026414342679753251 0.0065977965179019743
leaf_weight=6.606707930564883 5.4323181509971601 6.0816072076559067
leaf_count=32 25 30
internal_value=0 -0.00897747
internal_weight=0 11.5139
internal_count=87 55
is_linear=0
shrinkage=0.1


Tree=85
num_leaves=3
num_cat=0
split_feature=7 10
split_gain=0.246688 0.681455
threshold=30.500000000000004 399.1666666666643
decision_type=2 2
left_child=-1 -2
right_child=1 -3
leaf_value=0.017007038874497376 0.010450572497234585 -0.038081807873403165
leaf_weight=5.8282901570200947 7.6207678467035276 4.663712203502655
leaf_count=30 36 21
internal_value=0 -0.00797439
internal_weight=0 12.2845
internal_count=87 57
is_linear=0
shrinkage=0.1


Tree=86
num_leaves=4
num_cat=0
split_feature=13 7 7
split_gain=0.239314 0.524482 1.02489
threshold=1.0000000180025095e-35 30.500000000000004 60.500000000000007
decision_type=2 2 2
left_child=-1 -2 -3
right_child=1 2 -4
leaf_value=-0.020910383171365829 0.032250709392412515 -0.039940924388472354 0.02805134073181241
leaf_weight=4.1829989105463037 5.0102592110633859 4.7478606104850751 4.1589029878377914
leaf_count=19 26 21 21
internal_value=0 0.00636726 -0.00819278
internal_weight=0 13.917 8.90676
internal_count=87 68 42
is_linear=0
shrinkage=0.1


Tree=87
num_leaves=3
num_cat=0
split_feature=7 5
split_gain=0.277453 0.512937
threshold=36.500000000000007 279.75243147657073
decision_type=2 2
left_child=-1 -2
right_child=1 -3
leaf_value=-0.015240886891548358 -0.0069793808736723188 0.037718132792866572
leaf_weight=7.1437381803989437 6.7070858180522901 4.1597410961985588
leaf_count=36 31 20
internal_value=0 0.0101305
internal_weight=0 10.8668
internal_count=87 51
is_linear=0
shrinkage=0.1


Tree=88
num_leaves=3
num_cat=0
split_feature=0 5
split_gain=0.281175 1.27768
threshold=0.55000000000000016 279.75243147657073
decision_type=2 2
left_child=-1 -2
right_child=1 -3
leaf_value=-0.019508529068259339 -0.016814250405869396 0.048244127425334904
leaf_weight=5.2124352231621769 7.8991242125630361 4.8857685476541519
leaf_count=26 37 24
internal_value=0 0.00804792
internal_weight=0 12.7849
internal_count=87 61
is_linear=0
shrinkage=0.1


Tree=89
num_leaves=3
num_cat=0
split_feature=3 3
split_gain=0.247383 0.418402
threshold=697.66666666666674 798.33333333333223
decision_type=2 2
left_child=-1 -2
right_child=1 -3
leaf_value=0.013163505535432546 -0.031399059073149174 0.009563470741922056
leaf_weight=8.007343068718912 4.8719626218080503 5.1078501045703888
leaf_count=38 22 27
internal_value=0 -0.0104337
internal_weight=0 9.97981
internal_count=87 49
is_linear=0
shrinkage=0.1


Tree=90
num_leaves=4
num_cat=0
split_feature=13 7 11
split_gain=0.2315 0.473363 1.08471
threshold=1.0000000180025095e-35 30.500000000000004 0.90000000000000013
decision_type=2 2 2
left_child=-1 -2 -3
right_child=1 2 -4
leaf_value=-0.020576650053817109 0.030986751014131571 0.031827750258875596 -0.038768070573121871
leaf_weight=4.1712058335542688 4.9716879278421411 3.8976772874593717 4.9286882728338242
leaf_count=19 26 19 23
internal_value=0 0.00630778 -0.00759332
internal_weight=0 13.7981 8.82637
internal_count=87 68 42
is_linear=0
shrinkage=0.1


Tree=91
num_leaves=3
num_cat=0
split_feature=0 5
split_gain=0.294084 0.56284
threshold=2.6500000000000017 279.75243147657073
decision_type=2 2
left_child=1 -1
right_child=-2 -3
leaf_value=-0.027248368853734634 0.023654677642486622 0.013121987594180085
leaf_weight=6.8503909558057803 4.0816981047391883 6.9645598381757736
leaf_count=32 21 34
internal_value=0 -0.00689638
internal_weight=0 13.815
internal_count=87 66
is_linear=0
shrinkage=0.1


Tree=92
num_leaves=3
num_cat=0
split_feature=3 3
split_gain=0.248561 0.367449
threshold=697.66666666666674 798.33333333333223
decision_type=2 2
left_child=-1 -2
right_child=1 -3
leaf_value=0.013243146009113025 -0.030117411614574697 0.0083752864424719627
leaf_weight=7.9512062668800381 4.8626182377338392 5.0610852092504501
leaf_count=38 22 27
internal_value=0 -0.0104861
internal_weight=0 9.9237
internal_count=87 49
is_linear=0
shrinkage=0.1


Tree=93
num_leaves=3
num_cat=0
split_feature=0 0
split_gain=0.23337 0.176075
threshold=0.55000000000000016 1.9500000000000008
decision_type=2 2
left_child=-1 -2
right_child=1 -3
leaf_value=-0.017707079452661006 0.018758815401627955 -0.0048732696763723439
leaf_weight=5.2262455746531513 6.5699674785137159 6.0615929961204529
leaf_count=26 31 30
internal_value=0 0.00741833
internal_weight=0 12.6316
internal_count=87 61
is_linear=0
shrinkage=0.1


Tree=94
num_leaves=3
num_cat=0
split_feature=7 5
split_gain=0.29905 0.336892
threshold=36.500000000000007 279.75243147657073
decision_type=2 2
left_child=-1 -2
right_child=1 -3
leaf_value=-0.015916316701430403 -0.0032802123997553983 0.033121085025997588
leaf_weight=7.0764997527003315 6.70010858774185 4.0972470641136169
leaf_count=36 31 20
internal_value=0 0.0105329
internal_weight=0 10.7974
internal_count=87 51
is_linear=0
shrinkage=0.1


Tree=95
num_leaves=3
num_cat=0
split_feature=5 7
split_gain=0.289481 0.811664
threshold=150.81410825199643 36.500000000000007
decision_type=2 2
left_child=-1 -2
right_child=1 -3
leaf_value=0.016830613023173874 -0.039861407554446421 0.014068236099689902
leaf_weight=6.5302612856030491 4.9739862829446775 6.358063705265522
leaf_count=32 24 31
internal_value=0 -0.00960315
internal_weight=0 11.332
internal_count=87 55
is_linear=0
shrinkage=0.1


Tree=96
num_leaves=4
num_cat=0
split_feature=13 3 10
split_gain=0.246705 0.357804 0.0684588
threshold=1.0000000180025095e-35 772.66666666666754 350.33333333333945
decision_type=2 2 2
left_child=-1 2 -2
right_child=1 -3 -4
leaf_value=-0.021265069298267381 0.0037952132741776697 0.028428020036423463 -0.013804848640161588
leaf_weight=4.1602985709905633 4.2303087264299375 4.832748420536519 4.6276951283216476
leaf_count=19 21 26 21
internal_value=0 0.00654133 -0.0053996
internal_weight=0 13.6908 8.858
internal_count=87 68 42
is_linear=0
shrinkage=0.1


Tree=97
num_leaves=4
num_cat=0
split_feature=11 11 3
split_gain=0.235675 0.379818 0.235288
threshold=1.5000000000000002 3.0000000000000013 759.33333333333223
decision_type=2 2 2
left_child=2 -2 -1
right_child=1 -3 -4
leaf_value=0.0047148963923948845 0.032450109126767719 -0.0086176339595652636 -0.027961787209020289
leaf_weight=4.4222817569971102 4.3997551649808866 4.6134318858385086 4.3920462355017662
leaf_count=21 23 22 21
internal_value=0 0.0114294 -0.0115674
internal_weight=0 9.01319 8.81433
internal_count=87 45 42
is_linear=0
shrinkage=0.1


Tree=98
num_leaves=3
num_cat=0
split_feature=5 7
split_gain=0.246838 0.633852
threshold=150.81410825199643 36.500000000000007
decision_type=2 2
left_child=-1 -2
right_child=1 -3
leaf_value=0.015590130726159338 -0.035489940965808285 0.012180568453885311
leaf_weight=6.4993700683116939 4.9937911480665189 6.3183296471834183
leaf_count=32 24 31
internal_value=0 -0.00886381
internal_weight=0 11.3121
internal_count=87 55
is_linear=0
shrinkage=0.1


Tree=99
num_leaves=3
num_cat=0
split_feature=7 5
split_gain=0.267317 0.612882
threshold=51.500000000000007 157.42200328407236
decision_type=2 2
left_child=1 -1
right_child=-2 -3
leaf_value=0.040917535833558866 -0.014420687502176652 -0.0089568354360130414
leaf_weight=4.0308887809515017 7.428877241909503 6.3380389660596848
leaf_count=20 36 31
internal_value=0 0.0104317
internal_weight=0 10.3689
internal_count=87 51
is_linear=0
shrinkage=0.1


end of trees

feature_importances:
taskNum=54
scroll_time=38
s_view_position=35
response_time=30
scroll_length=26
s_scroll_speed=26
s_choice_left=7
event_scroll=5

parameters:
[boosting: gbdt]
[objective: binary]
[metric: binary_error]
[tree_learner: serial]
[device_type: cpu]
[data_sample_strategy: bagging]
[data: ]
[valid: ]
[num_iterations: 100]
[learning_rate: 0.1]
[num_leaves: 31]
[num_threads: 0]
[seed: 0]
[deterministic: 0]
[force_col_wise: 0]
[force_row_wise: 0]
[histogram_pool_size: -1]
[max_depth: -1]
[min_data_in_leaf: 20]
[min_sum_hessian_in_leaf: 0.001]
[bagging_fraction: 1]
[pos_bagging_fraction: 1]
[neg_bagging_fraction: 1]
[bagging_freq: 0]
[bagging_seed: 3]
[feature_fraction: 0.6]
[feature_fraction_bynode: 1]
[feature_fraction_seed: 2]
[extra_trees: 0]
[extra_seed: 6]
[early_stopping_round: 0]
[first_metric_only: 0]
[max_delta_step: 0]
[lambda_l1: 0]
[lambda_l2: 0]
[linear_lambda: 0]
[min_gain_to_split: 0]
[drop_rate: 0.1]
[max_drop: 50]
[skip_drop: 0.5]
[xgboost_dart_mode: 0]
[uniform_drop: 0]
[drop_seed: 4]
[top_rate: 0.2]
[other_rate: 0.1]
[min_data_per_group: 100]
[max_cat_threshold: 32]
[cat_l2: 10]
[cat_smooth: 10]
[max_cat_to_onehot: 4]
[top_k: 20]
[monotone_constraints: ]
[monotone_constraints_method: basic]
[monotone_penalty: 0]
[feature_contri: ]
[forcedsplits_filename: ]
[refit_decay_rate: 0.9]
[cegb_tradeoff: 1]
[cegb_penalty_split: 0]
[cegb_penalty_feature_lazy: ]
[cegb_penalty_feature_coupled: ]
[path_smooth: 0]
[interaction_constraints: ]
[verbosity: -1]
[saved_feature_importance_type: 0]
[use_quantized_grad: 0]
[num_grad_quant_bins: 4]
[quant_train_renew_leaf: 0]
[stochastic_rounding: 1]
[linear_tree: 0]
[max_bin: 255]
[max_bin_by_feature: ]
[min_data_in_bin: 3]
[bin_construct_sample_cnt: 200000]
[data_random_seed: 1]
[is_enable_sparse: 1]
[enable_bundle: 1]
[use_missing: 1]
[zero_as_missing: 0]
[feature_pre_filter: 0]
[pre_partition: 0]
[two_round: 0]
[header: 0]
[label_column: ]
[weight_column: ]
[group_column: ]
[ignore_column: ]
[categorical_feature: ]
[forcedbins_filename: ]
[precise_float_parser: 0]
[parser_config_file: ]
[objective_seed: 5]
[num_class: 1]
[is_unbalance: 0]
[scale_pos_weight: 1]
[sigmoid: 1]
[boost_from_average: 1]
[reg_sqrt: 0]
[alpha: 0.9]
[fair_c: 1]
[poisson_max_delta_step: 0.7]
[tweedie_variance_power: 1.5]
[lambdarank_truncation_level: 30]
[lambdarank_norm: 1]
[label_gain: ]
[lambdarank_position_bias_regularization: 0]
[eval_at: ]
[multi_error_top_k: 1]
[auc_mu_weights: ]
[num_machines: 1]
[local_listen_port: 12400]
[time_out: 120]
[machine_list_filename: ]
[machines: ]
[gpu_platform_id: -1]
[gpu_device_id: -1]
[gpu_use_dp: 0]
[num_gpu: 1]

end of parameters

pandas_categorical:[]
