tree
version=v4
num_class=1
num_tree_per_iteration=1
label_index=0
max_feature_idx=14
objective=binary sigmoid:1
feature_names=response_time s_tap_count ratio_tap_position_y scroll_length event_scroll s_scroll_speed tap_position_x taskNum tap_position_y screen_width s_view_position scroll_time ratio_tap_position_x s_choice_left screen_height
feature_infos=[0:10.399999999999981] [1:1] none [0:14300.666666666672] [0:6] [-3503.3333333333576:6900.0000000000018] none [1:146] none [390:390] [-343.99999999999989:1145.6666666666642] [-0.5:18.799999999999962] none [0:1] [844:844]
tree_sizes=643 748 751 739 554 652 554 751 648 748 752 655 650 755 751 751 652 754 557 749 654 751 545 753 749 755 755 645 756 860 553 654 659 755 755 759 863 756 749 654 756 652 660 751 756 652 652 655 655 658 744 751 757 653 655 652 658 754 550 759 656 654 654 654 650 755 653 653 556 750 756 654 547 754 754 654 355 753 661 750 655 756 758 649 648 752 758 658 549 655 761 758 657 655 656 656 551 658 667 760

Tree=0
num_leaves=5
num_cat=0
split_feature=10 10 10 10
split_gain=4.2775 2.98002 3.04134 0.512226
threshold=659.66666666667163 466.00000000000006 348.33333333334127 382.66666666666703
decision_type=2 2 2 2
left_child=1 2 -1 -4
right_child=-2 -3 3 -5
leaf_value=0.48957710413625438 0.35751887040858016 0.51474949472950615 0.42955063426003887 0.39113369353926086
leaf_weight=8.3296585828065925 4.7598049044609061 7.3776976019144049 8.3296585828065854 5.9497561305761328
leaf_count=35 20 31 35 25
internal_value=0.445585 0.459564 0.441556 0.413544
internal_weight=0 29.9868 22.6091 14.2794
internal_count=146 126 95 60
is_linear=0
shrinkage=1


Tree=1
num_leaves=6
num_cat=0
split_feature=7 7 0 7 0
split_gain=4.65241 2.00805 5.06267 3.98159 0.825015
threshold=120.50000000000001 72.500000000000014 0.15000000000000005 30.500000000000004 1.3500000000000003
decision_type=2 2 2 2 2
left_child=1 3 -3 -1 -5
right_child=-2 2 -4 4 -6
leaf_value=0.052472346911547209 -0.078636019881263952 -0.00938405191963727 0.12492399917914541 -0.073913726141424663 -0.01648413460198643
leaf_weight=7.1433038115501466 6.1794814467430106 6.3902136087417585 5.0045548528432846 5.0149320662021619 4.9908978044986725
leaf_count=30 26 27 21 21 21
internal_value=0 0.0170651 0.0496037 -0.00455516 -0.0452679
internal_weight=0 28.5439 11.3948 17.1491 10.0058
internal_count=146 120 48 72 42
is_linear=0
shrinkage=0.1


Tree=2
num_leaves=6
num_cat=0
split_feature=7 7 7 7 7
split_gain=3.72191 1.65426 3.22981 0.164543 0.0536111
threshold=120.50000000000001 72.500000000000014 30.500000000000004 93.500000000000014 51.500000000000007
decision_type=2 2 2 2 2
left_child=1 2 -1 -3 -4
right_child=-2 3 4 -5 -6
leaf_value=0.047827088283062404 -0.069600518706726025 0.058979501060432371 -0.033028198301307217 0.034608292867528624 -0.047602884620494668
leaf_weight=7.0579988807439866 6.2778148651123038 4.9224323630332929 5.0232293307781202 6.3362492471933365 5.0722332745790482
leaf_count=30 26 21 21 27 21
internal_value=0 0.0154797 -0.00406901 0.0452637 -0.0403509
internal_weight=0 28.4121 17.1535 11.2587 10.0955
internal_count=146 120 72 48 42
is_linear=0
shrinkage=0.1


Tree=3
num_leaves=6
num_cat=0
split_feature=7 11 11 4 7
split_gain=2.98798 1.57259 2.25823 1.00675 0.00816183
threshold=120.50000000000001 2.4000000000000008 1.25 1.0000000180025095e-35 96.500000000000014
decision_type=2 2 2 2 2
left_child=1 2 3 4 -1
right_child=-2 -3 -4 -5 -6
leaf_value=0.024019693190156247 -0.061883879090595374 -0.027727136483952693 0.079888504717475953 -0.026033766493125152 0.029801234861430204
leaf_weight=5.1374573260545784 6.3503562659025183 6.8389616161584845 5.9205687046051017 5.7210576683282843 4.6534465104341507
leaf_count=22 26 29 25 24 20
internal_value=0 0.0140247 0.0273474 0.00729359 0.0267676
internal_weight=0 28.2715 21.4325 15.512 9.7909
internal_count=146 120 91 66 42
is_linear=0
shrinkage=0.1


Tree=4
num_leaves=4
num_cat=0
split_feature=11 11 11
split_gain=0.915969 2.90847 0.236009
threshold=1.0500000000000003 2.4000000000000008 1.0000000180025095e-35
decision_type=2 2 2
left_child=2 -2 -1
right_child=1 -3 -4
leaf_value=-0.024028549752489938 0.068393707616590235 -0.024789228534842861 -0.0028713327690109451
leaf_weight=9.973110571503641 6.5257387757301313 6.8821029812097549 11.186174511909483
leaf_count=42 28 29 47
internal_value=0 0.0205639 -0.0128435
internal_weight=0 13.4078 21.1593
internal_count=146 57 89
is_linear=0
shrinkage=0.1


Tree=5
num_leaves=5
num_cat=0
split_feature=10 10 10 10
split_gain=3.21511 2.32609 2.70958 0.447842
threshold=659.66666666667163 466.00000000000006 348.33333333334127 379.83333333333582
decision_type=2 2 2 2
left_child=1 2 -1 -4
right_child=-2 -3 3 -5
leaf_value=0.042242635036799189 -0.075531679535891211 0.061996217640534271 -0.0064475514534681868 -0.043204625838336619
leaf_weight=8.2526239752769524 4.8321152031421652 7.1780368685722342 5.231557995080947 9.0465076714754087
leaf_count=35 20 31 22 38
internal_value=0 0.012422 -0.00337181 -0.0297366
internal_weight=0 29.7087 22.5307 14.2781
internal_count=146 126 95 60
is_linear=0
shrinkage=0.1


Tree=6
num_leaves=4
num_cat=0
split_feature=11 11 11
split_gain=0.751472 2.37364 0.20386
threshold=1.0500000000000003 2.4000000000000008 1.0000000180025095e-35
decision_type=2 2 2
left_child=2 -2 -1
right_child=1 -3 -4
leaf_value=-0.021954007026154767 0.062672860670102012 -0.021855552538808297 -0.0022950143220222042
leaf_weight=9.9909088164567965 6.3934815227985364 6.9152712821960449 11.174688279628752
leaf_count=42 28 29 47
internal_value=0 0.0187516 -0.0115748
internal_weight=0 13.3088 21.1656
internal_count=146 57 89
is_linear=0
shrinkage=0.1


Tree=7
num_leaves=6
num_cat=0
split_feature=7 11 7 7 11
split_gain=2.24701 3.68484 2.57316 3.03747 0.333388
threshold=105.50000000000001 0.55000000000000004 72.500000000000014 30.500000000000004 1.9000000000000001
decision_type=2 2 2 2 2
left_child=2 -2 3 -1 -5
right_child=1 -3 -4 4 -6
leaf_value=0.0454105295906444 -0.099389529292203946 0.022989967792390268 0.064808670383255329 -0.057845641730264102 -0.021351299994632214
leaf_weight=6.9753694385290208 5.0885989516973478 4.7636223286390305 7.5694195330142966 5.2667981982231122 4.7706178575754166
leaf_count=30 21 20 33 22 20
internal_value=0 -0.0402181 0.0163044 -0.00527633 -0.0405005
internal_weight=0 9.85222 24.5822 17.0128 10.0374
internal_count=146 41 105 72 42
is_linear=0
shrinkage=0.1


Tree=8
num_leaves=5
num_cat=0
split_feature=10 10 10 5
split_gain=2.46888 1.8323 2.35586 1.35775
threshold=659.66666666667163 466.00000000000006 348.33333333334127 279.75243147657073
decision_type=2 2 2 2
left_child=1 2 -1 -4
right_child=-2 -3 3 -5
leaf_value=0.039949751081279281 -0.065764782154428575 0.055736536419037891 -0.053039577288054779 0.0096836226055035651
leaf_weight=8.1733426898717934 4.874857857823371 6.9996434897184363 8.4344717562198621 5.8411775380372992
leaf_count=35 20 31 35 25
internal_value=0 0.0110654 -0.00286312 -0.0273751
internal_weight=0 29.4486 22.449 14.2756
internal_count=146 126 95 60
is_linear=0
shrinkage=0.1


Tree=9
num_leaves=6
num_cat=0
split_feature=0 7 7 0 7
split_gain=1.97823 4.309 2.18857 0.600799 0.522624
threshold=0.15000000000000005 72.500000000000014 30.500000000000004 1.3500000000000003 123.50000000000001
decision_type=2 2 2 2 2
left_child=4 2 -2 -4 -1
right_child=1 -3 3 -5 -6
leaf_value=-0.013711952502605899 0.038126287316055676 0.098271142429271666 -0.059932001689629269 -0.011128888161047524 -0.055218674835183057
leaf_weight=6.9292406588792783 6.6568874567747178 5.1425178796052924 5.0892017036676389 5.001621201634407 5.3957862555980682
leaf_count=30 29 23 21 21 22
internal_value=0 0.0182042 -0.00638094 -0.0357422 -0.0318832
internal_weight=0 21.8902 16.7477 10.0908 12.325
internal_count=146 94 71 42 52
is_linear=0
shrinkage=0.1


Tree=10
num_leaves=6
num_cat=0
split_feature=3 3 7 3 7
split_gain=2.65812 1.05414 1.92365 0.805728 0.0019256
threshold=832.3333333333386 730.3333333333286 105.50000000000001 196.00000000000003 126.50000000000001
decision_type=2 2 2 2 2
left_child=1 2 3 -1 -4
right_child=-2 -3 4 -5 -6
leaf_value=0.048652298193387712 0.069196165227696824 -0.048738958124629472 -0.036622373744040045 -0.00023190222802406488 -0.033822938229851378
leaf_weight=6.4032996743917519 4.795204058289527 5.9386966228485099 4.9109952598810178 7.1217484772205353 4.9174861907958984
leaf_count=28 22 25 21 30 20
internal_value=0 -0.0111203 -0.00155405 0.0229118 -0.0352217
internal_weight=0 29.2922 23.3535 13.525 9.82848
internal_count=146 124 99 58 41
is_linear=0
shrinkage=0.1


Tree=11
num_leaves=5
num_cat=0
split_feature=10 10 10 10
split_gain=2.16118 1.34281 2.00166 0.326171
threshold=659.66666666667163 466.00000000000006 348.33333333334127 379.83333333333582
decision_type=2 2 2 2
left_child=1 2 -1 -4
right_child=-2 -3 3 -5
leaf_value=0.038369866808050733 -0.061629589821147114 0.049430090717164032 -0.0039609265355096401 -0.035372852661420533
leaf_weight=8.0911516994237953 4.8490961939096442 6.7866414934396735 5.2073884308338156 9.0515485405921918
leaf_count=35 20 31 22 38
internal_value=0 0.0104719 -0.00135788 -0.0239012
internal_weight=0 29.1367 22.3501 14.2589
internal_count=146 126 95 60
is_linear=0
shrinkage=0.1


Tree=12
num_leaves=5
num_cat=0
split_feature=10 11 10 11
split_gain=1.7444 1.64555 2.33092 1.58022
threshold=659.66666666667163 2.4000000000000008 466.00000000000006 0.55000000000000004
decision_type=2 2 2 2
left_child=1 2 3 -1
right_child=-2 -3 -4 -5
leaf_value=-0.028578277961734636 -0.055173876365936972 -0.035360602533906722 0.07825555724523961 0.032433772706678701
leaf_weight=8.0053241997957318 4.873390018939971 6.3814354985952368 5.5768788158893576 9.0375169366598112
leaf_count=34 20 27 26 39
internal_value=0 0.00948627 0.0221384 0.00377533
internal_weight=0 29.0012 22.6197 17.0428
internal_count=146 126 99 73
is_linear=0
shrinkage=0.1


Tree=13
num_leaves=6
num_cat=0
split_feature=0 7 7 0 11
split_gain=1.68921 3.52196 1.8853 0.502492 0.393719
threshold=0.15000000000000005 72.500000000000014 30.500000000000004 1.3500000000000003 0.55000000000000004
decision_type=2 2 2 2 2
left_child=4 2 -2 -4 -1
right_child=1 -3 3 -5 -6
leaf_value=-0.046060267349333939 0.036752160199805262 0.091543149918625388 -0.054232785387860666 -0.0095414815095018202 -0.010030940055909062
leaf_weight=6.6050270795822126 6.5712526440620485 4.9010904282331458 5.0828114449977857 4.9815689623355865 5.6083409637212753
leaf_count=28 29 23 21 21 24
internal_value=0 0.0170398 -0.00490987 -0.0321119 -0.0295157
internal_weight=0 21.5367 16.6356 10.0644 12.2134
internal_count=146 94 71 42 52
is_linear=0
shrinkage=0.1


Tree=14
num_leaves=6
num_cat=0
split_feature=7 7 7 5 7
split_gain=1.43537 1.4151 1.76268 0.21124 0.00546215
threshold=105.50000000000001 72.500000000000014 30.500000000000004 240.90773809523799 126.50000000000001
decision_type=2 2 2 2 2
left_child=1 2 -1 -4 -2
right_child=4 -3 3 -5 -6
leaf_value=0.037285343618048465 -0.034542837644475022 0.05096138650561477 -0.042421253273981357 -0.013448375268325447 -0.029803574979605486
leaf_weight=6.7262251377105775 4.8739465028047544 7.0613407641649237 5.347875848412512 4.7530709654092789 4.8536064028739929
leaf_count=30 21 33 22 20 20
internal_value=0 0.0133897 -0.00237681 -0.0287879 -0.0321782
internal_weight=0 23.8885 16.8272 10.1009 9.72755
internal_count=146 105 72 42 41
is_linear=0
shrinkage=0.1


Tree=15
num_leaves=6
num_cat=0
split_feature=3 3 7 3 7
split_gain=1.74167 0.816022 1.386 0.501555 0.00407438
threshold=832.3333333333386 730.3333333333286 105.50000000000001 196.00000000000003 126.50000000000001
decision_type=2 2 2 2 2
left_child=1 2 3 -1 -4
right_child=-2 -3 4 -5 -6
leaf_value=0.041583668496837679 0.058241980248706249 -0.041774372729011515 -0.030877977754531927 0.0026405725864573504 -0.026792470459071845
leaf_weight=6.1896569430828148 4.4786169230937949 5.9509148597717276 4.905403256416319 7.101623147726059 4.8588655441999435
leaf_count=28 22 25 21 30 20
internal_value=0 -0.00876028 -0.000238942 0.0207761 -0.028845
internal_weight=0 29.0065 23.0555 13.2913 9.76427
internal_count=146 124 99 58 41
is_linear=0
shrinkage=0.1


Tree=16
num_leaves=5
num_cat=0
split_feature=10 11 10 11
split_gain=1.59708 1.47869 1.80861 1.23669
threshold=659.66666666667163 2.4000000000000008 466.00000000000006 0.55000000000000004
decision_type=2 2 2 2
left_child=1 2 3 -1
right_child=-2 -3 -4 -5
leaf_value=-0.023295082217245678 -0.053183963993778373 -0.033365474897203699 0.072077632461911414 0.030928261960289596
leaf_weight=7.9791422635316946 4.7983248084783545 6.3557731658220282 5.3367506414651862 8.8952885121107084
leaf_count=34 20 27 26 39
internal_value=0 0.00916577 0.0213362 0.00528854
internal_weight=0 28.567 22.2112 16.8744
internal_count=146 126 99 73
is_linear=0
shrinkage=0.1


Tree=17
num_leaves=6
num_cat=0
split_feature=7 13 7 7 7
split_gain=1.00976 0.963382 2.68287 5.46854 0.386421
threshold=30.500000000000004 1.0000000180025095e-35 63.500000000000007 117.50000000000001 90.500000000000014
decision_type=2 2 2 2 2
left_child=-1 -2 -3 4 -4
right_child=1 2 3 -5 -6
leaf_value=0.035096819868006113 0.023759034970385451 -0.079391414719133108 0.069535855752977757 -0.080002176092874078 0.028495001782381388
leaf_weight=6.636708751320838 6.8651326000690487 5.4541322141885784 4.6269332319498044 5.0960344076156607 4.5504444688558578
leaf_count=30 30 23 22 21 20
internal_value=0 -0.00850586 -0.019734 0.00306226 0.0491865
internal_weight=0 26.5927 19.7275 14.2734 9.17738
internal_count=146 116 86 63 42
is_linear=0
shrinkage=0.1


Tree=18
num_leaves=4
num_cat=0
split_feature=3 3 3
split_gain=0.670629 0.335421 0.268859
threshold=798.33333333333223 696.99999999999523 1.0000000180025095e-35
decision_type=2 2 2
left_child=1 2 -1
right_child=-2 -3 -4
leaf_value=-0.0082893073016552295 0.029842653427911755 -0.02879382788844775 0.016220586089472005
leaf_weight=15.048116534948354 6.2041964530944815 5.4459853023290625 6.3700371831655493
leaf_count=66 30 23 27
internal_value=0 -0.00663425 -0.000999747
internal_weight=0 26.8641 21.4182
internal_count=146 116 93
is_linear=0
shrinkage=0.1


Tree=19
num_leaves=6
num_cat=0
split_feature=10 7 11 7 7
split_gain=1.59041 2.94851 1.88018 0.950072 0.310947
threshold=348.33333333334127 114.50000000000001 2.4000000000000008 36.500000000000007 69.500000000000014
decision_type=2 2 2 2 2
left_child=-1 2 3 -2 -5
right_child=1 -3 -4 4 -6
leaf_value=0.039132425174364653 -0.018203172938406061 -0.0829968277847693 -0.042901403623203688 0.060400288109893112 0.025356604557345425
leaf_weight=7.9614869058132163 3.8930976241827073 4.7615421563386908 5.9391175955533972 4.2753330469131452 6.2095543891191483
leaf_count=35 18 20 25 18 30
internal_value=0 -0.0121686 0.00443082 0.0239823 0.0396461
internal_weight=0 25.0786 20.3171 14.378 10.4849
internal_count=146 111 91 66 48
is_linear=0
shrinkage=0.1


Tree=20
num_leaves=5
num_cat=0
split_feature=10 10 10 10
split_gain=1.29874 0.783026 1.44528 0.295865
threshold=348.33333333334127 659.66666666667163 466.00000000000006 379.83333333333582
decision_type=2 2 2 2
left_child=-1 2 3 -2
right_child=1 -3 -4 -5
leaf_value=0.03557516772114238 -0.0011207114946106373 -0.047549033364549909 0.037492433043491889 -0.031289635597566375
leaf_weight=7.8859340697526923 5.1229352951049867 4.7416219413280478 6.2708757370710364 8.8945827484130842
leaf_count=35 22 20 31 38
internal_value=0 -0.0109628 -0.00241218 -0.0202639
internal_weight=0 25.03 20.2884 14.0175
internal_count=146 111 91 60
is_linear=0
shrinkage=0.1


Tree=21
num_leaves=6
num_cat=0
split_feature=0 7 7 0 7
split_gain=1.22685 2.64314 1.27807 0.591103 0.336669
threshold=0.15000000000000005 72.500000000000014 30.500000000000004 1.3500000000000003 114.50000000000001
decision_type=2 2 2 2 2
left_child=4 2 -2 -4 -1
right_child=1 -3 3 -5 -6
leaf_value=-0.045139803584120008 0.031178288053248134 0.08277018388899679 -0.050187127317185547 -0.0016035469992134556 -0.011092405144583121
leaf_weight=5.015725910663603 6.3732669800520005 4.4896635711193076 5.0517595708370191 4.9661182761192322 6.8989665657281876
leaf_count=23 29 23 21 21 29
internal_value=0 0.0147897 -0.00383068 -0.026103 -0.0254253
internal_weight=0 20.8808 16.3911 10.0179 11.9147
internal_count=146 94 71 42 52
is_linear=0
shrinkage=0.1


Tree=22
num_leaves=4
num_cat=0
split_feature=3 3 3
split_gain=0.577369 0.894702 1.61293
threshold=412.50000000000119 730.3333333333286 832.3333333333386
decision_type=2 2 2
left_child=-1 -2 -3
right_child=1 2 -4
leaf_value=-0.011529527971676168 0.05408191116646896 -0.034245596528196857 0.046967917119807488
leaf_weight=18.388773456215858 4.1950866729021064 5.9485615044832212 4.1525585055351257
leaf_count=81 18 25 22
internal_value=0 0.015263 -0.000858817
internal_weight=0 14.2962 10.1011
internal_count=146 65 47
is_linear=0
shrinkage=0.1


Tree=23
num_leaves=6
num_cat=0
split_feature=7 13 7 7 7
split_gain=0.800141 0.756209 2.30938 3.98802 0.290322
threshold=30.500000000000004 1.0000000180025095e-35 63.500000000000007 117.50000000000001 90.500000000000014
decision_type=2 2 2 2 2
left_child=-1 -2 -3 4 -4
right_child=1 2 3 -5 -6
leaf_value=0.03158853636294183 0.021293024394210248 -0.073005833526652672 0.062345146529594497 -0.067014876614534688 0.026249774931580584
leaf_weight=6.496314898133277 6.7159429267048862 5.426662132143977 4.4117779433727247 5.0636082738637915 4.5024240612983704
leaf_count=30 30 23 22 21 20
internal_value=0 -0.00762897 -0.0176389 0.00385636 0.0441139
internal_weight=0 26.1204 19.4045 13.9778 8.9142
internal_count=146 116 86 63 42
is_linear=0
shrinkage=0.1


Tree=24
num_leaves=6
num_cat=0
split_feature=0 7 0 7 7
split_gain=0.858862 2.0884 1.04989 2.1464 0.418338
threshold=0.15000000000000005 72.500000000000014 2.6500000000000017 45.500000000000007 114.50000000000001
decision_type=2 2 2 2 2
left_child=4 2 3 -2 -1
right_child=1 -3 -4 -5 -6
leaf_value=-0.043052883302146849 0.016918329475727346 0.075045695653211383 0.036113299646601066 -0.070333901382351946 -0.0051372399739486657
leaf_weight=5.0384544134139997 6.677030444145208 4.2458571642637244 4.704269438982009 4.8800239562988281 6.8884110599756241
leaf_count=23 30 23 21 20 29
internal_value=0 0.0125933 -0.00371312 -0.0199244 -0.0211545
internal_weight=0 20.5072 16.2613 11.5571 11.9269
internal_count=146 94 71 50 52
is_linear=0
shrinkage=0.1


Tree=25
num_leaves=6
num_cat=0
split_feature=7 7 3 7 7
split_gain=0.555867 0.550393 0.996618 0.321078 0.533934
threshold=30.500000000000004 57.500000000000007 395.33333333333218 96.500000000000014 120.50000000000001
decision_type=2 2 2 2 2
left_child=-1 -2 3 -3 -5
right_child=1 2 -4 4 -6
leaf_value=0.026622593733833001 -0.031891467732113078 -0.034209918361140693 0.041905603929707179 0.025055357119825778 -0.020419107055067293
leaf_weight=6.3835657984018317 6.353889316320422 4.1931347399950054 4.7387524768710128 4.4157350361347181 6.2174562215805054
leaf_count=30 27 20 23 20 26
internal_value=0 -0.00632041 0.00198396 -0.0107757 -0.00153454
internal_weight=0 25.919 19.5651 14.8263 10.6332
internal_count=146 116 89 66 46
is_linear=0
shrinkage=0.1


Tree=26
num_leaves=6
num_cat=0
split_feature=0 4 0 0 7
split_gain=0.615086 2.06196 0.588339 0.771025 0.33396
threshold=0.15000000000000005 1.0000000180025095e-35 2.6500000000000017 1.0500000000000003 114.50000000000001
decision_type=2 2 2 2 2
left_child=4 -2 3 -3 -1
right_child=1 2 -4 -5 -6
leaf_value=-0.037074972456823022 0.064337440736193879 0.0031934335134971622 0.022508800999782613 -0.051273193899392777 -0.003349299994022727
leaf_weight=5.125646233558653 5.3097409456968334 5.8361586034297925 4.3930066823959342 4.6856634467840195 6.8733669370412827
leaf_count=23 27 27 20 20 29
internal_value=0 0.0108227 -0.00822874 -0.0210621 -0.017756
internal_weight=0 20.2246 14.9148 10.5218 11.999
internal_count=146 94 67 47 52
is_linear=0
shrinkage=0.1


Tree=27
num_leaves=5
num_cat=0
split_feature=10 7 10 5
split_gain=1.4865 1.97468 0.889218 1.09652
threshold=348.33333333334127 114.50000000000001 382.33333333333491 157.42200328407236
decision_type=2 2 2 2
left_child=-1 2 -2 -4
right_child=1 -3 3 -5
leaf_value=0.038001901781147131 -0.0287050176569651 -0.07055024591592228 0.05280033227262159 -0.006272924520615431
leaf_weight=7.8540820479392996 6.4164364784956041 4.661855772137641 5.1360368430614463 8.0941282063722593
leaf_count=35 28 20 24 39
internal_value=0 -0.0120398 0.00184392 0.0166597
internal_weight=0 24.3085 19.6466 13.2302
internal_count=146 111 91 63
is_linear=0
shrinkage=0.1


Tree=28
num_leaves=6
num_cat=0
split_feature=10 10 10 5 10
split_gain=1.34148 0.826727 1.00496 0.744599 1.22212
threshold=659.66666666667163 256.16666666667157 466.00000000000006 102.95752895752945 382.33333333333036
decision_type=2 2 2 2 2
left_child=1 -1 3 -3 -5
right_child=-2 2 -4 4 -6
leaf_value=0.04463576440375161 -0.050092601284920858 -0.039206633686073501 0.035154404754944954 0.042803782123540371 -0.027683868518263585
leaf_weight=5.1460395902395275 4.5549288988113394 6.4226765483617845 6.006223388016223 4.5266641527414304 5.3869112432003021
leaf_count=23 20 28 31 20 24
internal_value=0 0.00850024 0.000177307 -0.0126825 0.00450169
internal_weight=0 27.4885 22.3425 16.3363 9.91358
internal_count=146 126 103 72 44
is_linear=0
shrinkage=0.1


Tree=29
num_leaves=7
num_cat=0
split_feature=7 7 7 11 7 7
split_gain=0.860617 0.972638 0.601271 1.84348 1.05292 0.191111
threshold=15.500000000000002 36.500000000000007 105.50000000000001 0.55000000000000004 60.500000000000007 126.50000000000001
decision_type=2 2 2 2 2 2
left_child=-1 -2 3 -3 -5 -4
right_child=1 2 5 4 -6 -7
leaf_value=0.050655743545979987 -0.047101479248614797 0.06992324256050382 -0.031228069379286974 0.025952140983792022 -0.037556737438147476 -0.0026880057353870193
leaf_weight=3.0533796697855022 4.6425755769014385 4.3727427199482944 4.6889723986387235 4.9728638082742673 5.4952811002731323 4.6960510164499283
leaf_count=15 21 21 21 21 27 20
internal_value=0 -0.00517155 0.00286377 0.0153918 -0.00738702 -0.0169473
internal_weight=0 28.8685 24.2259 14.8409 10.4681 9.38502
internal_count=146 131 110 69 48 41
is_linear=0
shrinkage=0.1


Tree=30
num_leaves=4
num_cat=0
split_feature=5 5 5
split_gain=0.565691 0.523746 0.465369
threshold=279.75243147657073 822.11111111111188 135.79242636746184
decision_type=2 2 2
left_child=2 -2 -1
right_child=1 -3 -4
leaf_value=-0.00066526580272809944 0.048751560317791889 -0.0011712264130952486 -0.035578097120960828
leaf_weight=18.650318466126926 3.9794291928410512 4.4530432745814323 4.8006773442029944
leaf_count=84 18 23 21
internal_value=0 0.0223882 -0.00781231
internal_weight=0 8.43247 23.451
internal_count=146 41 105
is_linear=0
shrinkage=0.1


Tree=31
num_leaves=5
num_cat=0
split_feature=10 0 0 4
split_gain=1.10408 1.76149 1.98853 1.26084
threshold=348.33333333334127 0.15000000000000005 1.0500000000000003 1.0000000180025095e-35
decision_type=2 2 2 2
left_child=-1 -2 3 -3
right_child=1 2 -4 -5
leaf_value=0.033105039706286275 -0.056724106347071347 0.079114348307985666 -0.029025205363962272 0.0050567080301365868
leaf_weight=7.7125093638896969 6.1176377981901195 4.0814178138971346 8.7043984085321409 5.2638157084584236
leaf_count=35 27 22 38 24
internal_value=0 -0.0103507 0.00536683 0.0374005
internal_weight=0 24.1673 18.0496 9.34523
internal_count=146 111 84 46
is_linear=0
shrinkage=0.1


Tree=32
num_leaves=5
num_cat=0
split_feature=11 11 4 11
split_gain=0.262485 1.29987 0.659909 0.938452
threshold=1.5000000000000002 2.7499999999999996 1.0000000180025095e-35 1.0000000180025095e-35
decision_type=2 2 2 2
left_child=2 -2 3 -1
right_child=1 -3 -4 -5
leaf_value=-0.019150251070016777 0.056369281570727715 -0.016067769016482235 -0.03403170176900671 0.030284731790255932
leaf_weight=7.8939856141805702 4.1672743931412679 6.1087503135204315 6.0753269344568244 7.4777113348245621
leaf_count=36 21 27 27 35
internal_value=0 0.0133079 -0.00612976 0.00489788
internal_weight=0 10.276 21.447 15.3717
internal_count=146 48 98 71
is_linear=0
shrinkage=0.1


Tree=33
num_leaves=6
num_cat=0
split_feature=7 7 3 7 11
split_gain=0.826191 0.80293 1.03935 0.396119 1.08881
threshold=15.500000000000002 36.500000000000007 412.50000000000119 96.500000000000014 0.55000000000000004
decision_type=2 2 2 2 2
left_child=-1 -2 3 -3 -5
right_child=1 2 -4 4 -6
leaf_value=0.04983285460582472 -0.043011595781091316 -0.032295337976157197 0.032817214953906673 -0.029239433891629432 0.036076829243004496
leaf_weight=3.0284446999430683 4.6725981384515789 6.0217299684882226 7.6151475459337226 5.7055352479219419 4.6177390515804291
leaf_count=15 21 28 36 25 21
internal_value=0 -0.0050912 0.00230386 -0.0119123 -2.25934e-05
internal_weight=0 28.6327 23.9602 16.345 10.3233
internal_count=146 131 110 74 46
is_linear=0
shrinkage=0.1


Tree=34
num_leaves=6
num_cat=0
split_feature=7 13 7 7 7
split_gain=0.681612 0.65926 1.16255 2.52246 0.165338
threshold=15.500000000000002 1.0000000180025095e-35 117.50000000000001 63.500000000000007 90.500000000000014
decision_type=2 2 2 2 2
left_child=-1 -2 3 -3 -5
right_child=1 2 -4 4 -6
leaf_value=0.045739051109297907 0.023094330107647748 -0.03902915570872454 -0.055644117138771577 0.05210816413938673 0.02430326811885412
leaf_weight=2.9725775867700603 6.6232417076826158 8.5305507630109805 4.9345566481351844 4.1569000706076604 4.4046545177698135
leaf_count=15 31 37 21 22 20
internal_value=0 -0.00456909 -0.0128873 -0.00054319 0.0378034
internal_weight=0 28.6499 22.0267 17.0921 8.56155
internal_count=146 131 100 79 42
is_linear=0
shrinkage=0.1


Tree=35
num_leaves=6
num_cat=0
split_feature=7 0 0 7 7
split_gain=0.562142 0.771128 1.21504 1.07637 0.416609
threshold=15.500000000000002 1.0500000000000003 0.25000000000000006 63.500000000000007 108.50000000000001
decision_type=2 2 2 2 2
left_child=-1 2 4 -4 -2
right_child=1 -3 3 -5 -6
leaf_value=0.041951073492969893 -0.037919201623686893 -0.032169838792210033 0.00041758799022419379 0.072161154069152841 -0.00036808990968115819
leaf_weight=2.9197552129626301 4.5949944853782716 7.2943159192800513 4.3175750523805601 4.0554057657718658 8.2754557579755765
leaf_count=15 21 31 19 23 37
internal_value=0 -0.00411721 0.00551517 0.0351662 -0.0137745
internal_weight=0 28.5377 21.2434 8.37298 12.8705
internal_count=146 131 100 42 58
is_linear=0
shrinkage=0.1


Tree=36
num_leaves=7
num_cat=0
split_feature=7 11 7 11 11 7
split_gain=0.46295 0.619273 0.467247 0.864773 0.725225 0.241889
threshold=15.500000000000002 2.0500000000000003 105.50000000000001 1.0000000180025095e-35 0.90000000000000013 126.50000000000001
decision_type=2 2 2 2 2 2
left_child=-1 2 3 -2 -5 -4
right_child=1 -3 5 4 -6 -7
leaf_value=0.038444892437201277 0.051471111106681504 -0.034569869417908357 -0.030304096431542804 -0.030224892314365231 0.024930258735860109 0.002053727500197697
leaf_weight=2.8701312690973309 4.4181176349520745 5.2891633510589591 4.6115690469741804 4.6656957864761335 4.8747590035200119 4.629447340965271
leaf_count=15 21 23 21 22 24 20
internal_value=0 -0.00369175 0.00334801 0.0148951 -0.002043 -0.0140939
internal_weight=0 28.4888 23.1996 13.9586 9.54045 9.24102
internal_count=146 131 108 67 46 41
is_linear=0
shrinkage=0.1


Tree=37
num_leaves=6
num_cat=0
split_feature=10 7 7 10 3
split_gain=1.13567 0.760408 0.567763 0.405589 0.856731
threshold=659.66666666667163 72.500000000000014 105.50000000000001 379.83333333333582 771.16666666667118
decision_type=2 2 2 2 2
left_child=1 3 -3 -1 -5
right_child=-2 2 -4 4 -6
leaf_value=0.014486015100942504 -0.046623469661165123 0.054090317008810646 0.0091187839992533989 -0.052399793623652727 0.0078194997398553408
leaf_weight=5.5954551845789018 4.4505195915698996 4.6694889366626722 7.0395042151212692 4.3148715645074827 5.2213131263852119
leaf_count=25 20 27 31 18 25
internal_value=0 0.00791902 0.0270532 -0.00688719 -0.0194281
internal_weight=0 26.8406 11.709 15.1316 9.53618
internal_count=146 126 58 68 43
is_linear=0
shrinkage=0.1


Tree=38
num_leaves=6
num_cat=0
split_feature=10 7 7 7 3
split_gain=0.921122 0.623538 0.482452 0.355109 0.0127127
threshold=659.66666666667163 72.500000000000014 105.50000000000001 30.500000000000004 699.33333333333223
decision_type=2 2 2 2 2
left_child=1 3 -3 -1 -5
right_child=-2 2 -4 4 -6
leaf_value=0.013431129307322837 -0.041964093311030286 0.0499953080468864 0.00821487304003286 -0.014555704904326797 -0.021910800031431421
leaf_weight=5.7309822887182298 4.4501916766166678 4.5530457571148855 7.0330335944890976 4.8122338801622373 4.592744305729866
leaf_count=28 20 27 31 20 20
internal_value=0 0.007174 0.0246336 -0.00619073 -0.0181474
internal_weight=0 26.722 11.5861 15.136 9.40498
internal_count=146 126 58 68 40
is_linear=0
shrinkage=0.1


Tree=39
num_leaves=5
num_cat=0
split_feature=10 7 10 3
split_gain=0.773155 1.19638 0.737544 0.528696
threshold=348.33333333334127 114.50000000000001 382.33333333333491 730.3333333333286
decision_type=2 2 2 2
left_child=-1 2 -2 -4
right_child=1 -3 3 -5
leaf_value=0.028201670290370986 -0.025932448329949766 -0.055410841629830399 0.042235502606408321 0.00025778578178931906
leaf_weight=7.4644158780574825 6.2828982174396577 4.4527393877506247 4.7787272334098807 8.0621462538838369
leaf_count=35 28 20 23 40
internal_value=0 -0.00872694 0.00214285 0.0158798
internal_weight=0 23.5765 19.1238 12.8409
internal_count=146 111 91 63
is_linear=0
shrinkage=0.1


Tree=40
num_leaves=6
num_cat=0
split_feature=10 7 10 10 7
split_gain=0.733647 0.601216 0.628221 0.509879 1.06156
threshold=659.66666666667163 36.500000000000007 466.00000000000006 256.16666666667157 60.500000000000007
decision_type=2 2 2 2 2
left_child=1 -1 3 -3 -5
right_child=-2 2 -4 4 -6
leaf_value=-0.018529170054322881 -0.037639876674706078 0.035733258514728604 0.048546583073902007 0.034957527354994959 -0.029647278399145102
leaf_weight=7.0789714306593003 4.406934365630149 4.1104231551289585 4.4407449960708609 4.0509145110845548 6.8344732522964478
leaf_count=34 20 19 23 17 33
internal_value=0 0.00642193 0.0155093 0.00572595 -0.00560509
internal_weight=0 26.5155 19.4366 14.9958 10.8854
internal_count=146 126 92 69 50
is_linear=0
shrinkage=0.1


Tree=41
num_leaves=5
num_cat=0
split_feature=10 7 3 10
split_gain=0.59538 0.487736 0.521653 0.728551
threshold=659.66666666667163 36.500000000000007 412.50000000000119 401.50000000000006
decision_type=2 2 2 2
left_child=1 -1 3 -3
right_child=-2 2 -4 -5
leaf_value=-0.016589700986455038 -0.033915666557712408 -0.013971253935276307 0.037519050843687438 0.036450520924303835
leaf_weight=7.1139436066150727 4.4020187854766837 8.7419845163822192 6.3521795123815528 4.263120859861373
leaf_count=34 20 40 31 21
internal_value=0 0.00580124 0.0140301 0.00255719
internal_weight=0 26.4712 19.3573 13.0051
internal_count=146 126 92 61
is_linear=0
shrinkage=0.1


Tree=42
num_leaves=5
num_cat=0
split_feature=10 10 10 10
split_gain=0.633239 0.308758 0.526557 0.332826
threshold=348.33333333334127 382.33333333333491 659.66666666667163 466.00000000000006
decision_type=2 2 2 2
left_child=-1 -2 3 -3
right_child=1 2 -4 -5
leaf_value=0.025629236358335746 -0.02640319307385593 -0.0051449489207551699 -0.030569697177609378 0.027616728914345096
leaf_weight=7.4017800614237812 6.5237725451588657 6.8616814091801661 4.3957832455635062 5.6576233580708504
leaf_count=35 29 31 20 31
internal_value=0 -0.00792206 -0.000794303 0.00966044
internal_weight=0 23.4389 16.9151 12.5193
internal_count=146 111 82 62
is_linear=0
shrinkage=0.1


Tree=43
num_leaves=6
num_cat=0
split_feature=7 10 7 0 7
split_gain=0.612708 0.728822 1.11713 0.529579 0.19046
threshold=30.500000000000004 600.83333333333951 57.500000000000007 0.15000000000000005 117.50000000000001
decision_type=2 2 2 2 2
left_child=-1 2 -2 4 -4
right_child=1 -3 3 -5 -6
leaf_value=0.028086268558118362 -0.038194964743440148 -0.038020401492385413 -0.01204958216401502 0.044323136703030203 0.017003301802855947
leaf_weight=6.2443244680762318 4.9428986459970536 5.7865616902708998 4.3461995124816877 4.7329698279499999 4.6928778737783432
leaf_count=30 21 29 21 25 20
internal_value=0 -0.00700351 0.00258674 0.0172236 0.003034
internal_weight=0 24.5015 18.7149 13.772 9.03908
internal_count=146 116 87 66 41
is_linear=0
shrinkage=0.1


Tree=44
num_leaves=6
num_cat=0
split_feature=5 10 0 5 5
split_gain=0.532274 0.985826 1.04549 1.07878 0.947079
threshold=279.75243147657073 337.83333333333809 0.15000000000000005 123.42174432497008 912.78571428571411
decision_type=2 2 2 2 2
left_child=1 -1 -3 -4 -2
right_child=4 2 3 -5 -6
leaf_value=0.024142153066082476 0.054213970812298166 -0.054198696188832308 0.030162202270858515 -0.036531566007670664 -0.014137365477161802
leaf_weight=6.7630742937326493 4.3068430721759778 6.0346648693084708 5.1537581086158735 4.5810291767120361 3.8298358172178268
leaf_count=32 21 28 25 20 20
internal_value=0 -0.00779758 -0.0214956 -0.00122278 0.0220418
internal_weight=0 22.5325 15.7695 9.73479 8.13668
internal_count=146 105 73 45 41
is_linear=0
shrinkage=0.1


Tree=45
num_leaves=5
num_cat=0
split_feature=7 7 3 7
split_gain=0.472128 0.447411 0.755167 0.340433
threshold=30.500000000000004 96.500000000000014 395.33333333333218 120.50000000000001
decision_type=2 2 2 2
left_child=-1 2 -2 -3
right_child=1 3 -4 -5
leaf_value=0.02483118705525611 -0.046629339689064075 0.02980438379916292 0.00086788491816233064 -0.0066774075698871217
leaf_weight=6.1688316687941578 5.5076111927628544 4.6286615878343564 8.5343810394406301 5.7173934876918793
leaf_count=30 27 24 39 26
internal_value=0 -0.00613548 -0.0177617 0.00964397
internal_weight=0 24.388 14.042 10.3461
internal_count=146 116 66 50
is_linear=0
shrinkage=0.1


Tree=46
num_leaves=5
num_cat=0
split_feature=7 7 7 7
split_gain=0.384931 0.361157 0.278742 0.116081
threshold=30.500000000000004 96.500000000000014 120.50000000000001 57.500000000000007
decision_type=2 2 2 2
left_child=-1 3 -3 -2
right_child=1 2 -4 -5
leaf_value=0.022539631448144186 -0.026078552187158446 0.027086771708929615 -0.0060135200354780828 -0.0078142313334954774
leaf_weight=6.1191311329603222 6.2489617317914981 4.5860820636153203 5.7139212340116501 7.8526071980595589
leaf_count=30 27 24 26 39
internal_value=0 -0.00551049 0.0087244 -0.0159079
internal_weight=0 24.4016 10.3 14.1016
internal_count=146 116 50 66
is_linear=0
shrinkage=0.1


Tree=47
num_leaves=5
num_cat=0
split_feature=7 13 7 7
split_gain=0.313882 0.648939 1.1571 2.06011
threshold=30.500000000000004 1.0000000180025095e-35 63.500000000000007 105.50000000000001
decision_type=2 2 2 2
left_child=-1 -2 -3 -4
right_child=1 2 3 -5
leaf_value=0.020447947946557174 0.022996879781545132 -0.053502218798048964 0.042029043163727464 -0.038111470862057045
leaf_weight=6.0730974599719074 6.1938453018665376 5.3596981316804877 6.3933866173028928 6.4373514428734779
leaf_count=30 30 23 34 29
internal_value=0 -0.00495998 -0.0144793 0.00182148
internal_weight=0 24.3843 18.1904 12.8307
internal_count=146 116 86 63
is_linear=0
shrinkage=0.1


Tree=48
num_leaves=5
num_cat=0
split_feature=7 13 7 7
split_gain=0.255858 0.527488 0.935186 1.68484
threshold=30.500000000000004 1.0000000180025095e-35 63.500000000000007 105.50000000000001
decision_type=2 2 2 2
left_child=-1 -2 -3 -4
right_child=1 2 3 -5
leaf_value=0.018540008956478785 0.020755860276702041 -0.048112089835476671 0.038460868991752911 -0.034304260536925715
leaf_weight=6.0306048020720509 6.1772472411394181 5.3638547956943503 6.2933216616511327 6.436621718108654
leaf_count=30 30 23 34 29
internal_value=0 -0.00447484 -0.0130886 0.00166875
internal_weight=0 24.271 18.0938 12.7299
internal_count=146 116 86 63
is_linear=0
shrinkage=0.1


Tree=49
num_leaves=5
num_cat=0
split_feature=3 11 3 11
split_gain=0.290751 0.595677 0.927266 0.251133
threshold=771.16666666667118 2.2500000000000013 196.00000000000003 1.0000000180025095e-35
decision_type=2 2 2 2
left_child=1 2 3 -1
right_child=-2 -3 -4 -5
leaf_value=-0.013039523855403036 0.017945864680714033 0.02559967630202142 -0.053621344497063642 0.014064497213307279
leaf_weight=7.6386957392096608 7.0092232078313819 4.9133905172348014 4.3990970551967612 6.1876208186149597
leaf_count=37 37 22 20 30
internal_value=0 -0.00530207 -0.0136329 -0.0009098
internal_weight=0 23.1388 18.2254 13.8263
internal_count=146 109 87 67
is_linear=0
shrinkage=0.1


Tree=50
num_leaves=6
num_cat=0
split_feature=10 11 11 10 11
split_gain=0.489208 0.86781 1.03832 1.14315 0.384049
threshold=348.33333333334127 2.4000000000000008 1.25 600.83333333333951 0.55000000000000004
decision_type=2 2 2 2 2
left_child=-1 2 3 4 -2
right_child=1 -3 -4 -5 -6
leaf_value=0.022797444312787771 -0.0089885673491886288 -0.041285518782322728 0.049637444753909833 -0.048245877714098447 0.033166032968098544
leaf_weight=7.2205510064959553 4.220964610576635 5.5966854095458975 3.8723357096314421 4.803042344748973 4.4288728460669518
leaf_count=35 20 25 21 24 21
internal_value=0 -0.00705127 0.00400766 -0.00912662 0.0125953
internal_weight=0 22.9219 17.3252 13.4529 8.64984
internal_count=146 111 86 65 41
is_linear=0
shrinkage=0.1


Tree=51
num_leaves=6
num_cat=0
split_feature=10 7 11 7 11
split_gain=0.412017 1.00363 2.1073 1.46124 1.56686
threshold=219.33333333333943 111.50000000000001 0.40000000000000013 60.500000000000007 2.4000000000000008
decision_type=2 2 2 2 2
left_child=-1 2 -2 4 -4
right_child=1 -3 3 -5 -6
leaf_value=0.029830496910445838 0.068653918260676697 -0.040449102474060333 0.051904490341535131 -0.053837351046409791 -0.025407637673674349
leaf_weight=4.034963101148608 4.2572898939251962 5.9835427477955809 4.933901794254778 5.2308186367154113 5.5930119156837463
leaf_count=20 21 28 24 28 25
internal_value=0 -0.00451472 0.00622795 -0.0106378 0.0108281
internal_weight=0 25.9986 20.015 15.7577 10.5269
internal_count=146 126 98 77 49
is_linear=0
shrinkage=0.1


Tree=52
num_leaves=6
num_cat=0
split_feature=10 11 10 10 11
split_gain=0.360922 0.591114 0.872495 1.00568 1.61967
threshold=348.33333333334127 2.4000000000000008 382.66666666665884 639.66666666666799 0.75000000000000011
decision_type=2 2 2 2 2
left_child=-1 2 -2 4 -4
right_child=1 -3 3 -5 -6
leaf_value=0.019757155183685281 -0.038359987071337441 -0.03412046804673579 -0.0085000071980262069 -0.025441526889911498 0.07586492759961859
leaf_weight=7.1238152310252216 3.9004049822688165 5.6378937363624564 4.5140127390623075 4.1348954886198035 4.589167632162571
leaf_count=35 19 25 22 21 24
internal_value=0 -0.00603245 0.00320741 0.0154546 0.0340307
internal_weight=0 22.7764 17.1385 13.2381 9.10318
internal_count=146 111 86 67 46
is_linear=0
shrinkage=0.1


Tree=53
num_leaves=5
num_cat=0
split_feature=5 7 7 7
split_gain=0.276967 0.890599 0.749072 0.560836
threshold=193.60504920838693 51.500000000000007 36.500000000000007 108.50000000000001
decision_type=2 2 2 2
left_child=1 -1 -2 -3
right_child=2 3 -4 -5
leaf_value=0.043666522631996885 -0.046643697701734516 -0.026193961434923752 0.0091820327192791273 0.012754744945134663
leaf_weight=4.9561333358287873 4.0460086837410909 6.8855851963162404 5.9209160283207893 7.9834895208477974
leaf_count=23 20 35 30 38
internal_value=0 0.00695497 -0.0134801 -0.00528166
internal_weight=0 19.8252 9.96692 14.8691
internal_count=146 96 50 73
is_linear=0
shrinkage=0.1


Tree=54
num_leaves=5
num_cat=0
split_feature=10 10 10 3
split_gain=0.342924 0.665802 0.554654 0.399831
threshold=379.83333333333582 466.00000000000006 659.66666666667163 302.83333333333582
decision_type=2 2 2 2
left_child=3 -2 -3 -1
right_child=1 2 -4 -5
leaf_value=-0.0016656071409461718 -0.029480892047566976 0.03001743117768968 -0.018182920578256326 0.035860902851653449
leaf_weight=7.1024448499083537 8.2505294382572192 5.5122834965586645 4.2113021612167358 4.7300949022173882
leaf_count=34 38 31 20 23
internal_value=0 -0.00858691 0.00914177 0.0133357
internal_weight=0 17.9741 9.72359 11.8325
internal_count=146 89 51 57
is_linear=0
shrinkage=0.1


Tree=55
num_leaves=5
num_cat=0
split_feature=10 10 10 7
split_gain=0.278377 0.538027 0.453563 0.213637
threshold=379.83333333333582 466.00000000000006 659.66666666667163 96.500000000000014
decision_type=2 2 2 2
left_child=3 -2 -3 -1
right_child=1 2 -4 -5
leaf_value=0.001044776342146121 -0.026456204208873426 0.027312713780666267 -0.016392483489580421 0.028502249232425388
leaf_weight=7.0792494416236895 8.2731341421604174 5.455451771616934 4.2045184224843979 4.7250896319746971
leaf_count=35 38 31 20 22
internal_value=0 -0.0077396 0.00828995 0.0120356
internal_weight=0 17.9331 9.65997 11.8043
internal_count=146 89 51 57
is_linear=0
shrinkage=0.1


Tree=56
num_leaves=5
num_cat=0
split_feature=10 10 10 10
split_gain=0.228316 0.224122 0.20141 0.439095
threshold=256.16666666667157 350.33333333333036 399.00000000000369 616.50000000000011
decision_type=2 2 2 2
left_child=-1 -2 -3 -4
right_child=1 2 3 -5
leaf_value=0.020601035947754552 -0.023202066138136707 0.013745979458444578 -0.024143407872789759 0.013167099134761037
leaf_weight=4.5929953232407597 4.7520188763737705 7.6409820467233684 6.7884456738829595 5.8919374719262123
leaf_count=23 22 36 33 32
internal_value=0 -0.0036509 0.000921016 -0.00680709
internal_weight=0 25.0734 20.3214 12.6804
internal_count=146 123 101 65
is_linear=0
shrinkage=0.1


Tree=57
num_leaves=6
num_cat=0
split_feature=5 5 7 7 5
split_gain=0.315331 0.738511 0.328165 0.468383 0.517413
threshold=279.75243147657073 912.78571428571411 108.50000000000001 81.500000000000014 135.79242636746184
decision_type=2 2 2 2 2
left_child=2 -2 3 4 -1
right_child=1 -3 -4 -5 -6
leaf_value=0.020338758053461567 0.04657450892320953 -0.014874007559145173 0.010179723223675595 -0.042286639619819356 -0.026324339003549753
leaf_weight=4.7838615104556137 4.1050394997000685 3.7357335388660431 7.9094279855489722 4.4049918353557578 4.7215106934309006
leaf_count=24 21 20 38 22 21
internal_value=0 0.0172974 -0.0060839 -0.0153314 -0.00283975
internal_weight=0 7.84077 21.8198 13.9104 9.50537
internal_count=146 41 105 67 45
is_linear=0
shrinkage=0.1


Tree=58
num_leaves=4
num_cat=0
split_feature=5 5 3
split_gain=0.256359 0.606625 0.320751
threshold=279.75243147657073 912.78571428571411 196.00000000000003
decision_type=2 2 2
left_child=2 -2 -1
right_child=1 -3 -4
leaf_value=0.0036732836713404466 0.042469269396564563 -0.013333302655803068 -0.021518565640377102
leaf_weight=13.949275583028799 4.0544169992208472 3.7498769760131836 7.9258673489093772
leaf_count=69 21 20 36
internal_value=0 0.0156568 -0.0054543
internal_weight=0 7.80429 21.8751
internal_count=146 41 105
is_linear=0
shrinkage=0.1


Tree=59
num_leaves=6
num_cat=0
split_feature=7 11 11 11 7
split_gain=0.244313 0.558798 0.803785 0.631669 1.14364
threshold=30.500000000000004 1.5000000000000002 0.75000000000000011 1.0000000180025095e-35 105.50000000000001
decision_type=2 2 2 2 2
left_child=-1 2 3 4 -2
right_child=1 -3 -4 -5 -6
leaf_value=0.018291530777996078 0.024196820966738981 0.022881815536840079 -0.048060026379126763 0.027549460413639683 -0.050896646621102493
leaf_weight=5.9067702367901829 3.6579718068242126 5.6933457478880873 4.8102405071258536 5.0358167588710776 4.55161352455616
leaf_count=30 19 28 23 25 21
internal_value=0 -0.00443483 -0.0130484 -0.00033344 -0.017437
internal_weight=0 23.749 18.0556 13.2454 8.20959
internal_count=146 116 88 65 40
is_linear=0
shrinkage=0.1


Tree=60
num_leaves=5
num_cat=0
split_feature=10 11 10 10
split_gain=0.25377 0.511365 0.569347 0.846329
threshold=348.33333333334127 2.4000000000000008 386.33333333333377 600.83333333333951
decision_type=2 2 2 2
left_child=-1 2 -2 -4
right_child=1 -3 3 -5
leaf_value=0.016654922701715751 -0.026381716474510066 -0.031167959878754592 0.038399685838640223 -0.014377391333937256
leaf_weight=7.0446388721466091 4.6047726050019326 5.6381985545158377 6.8074144348502141 5.4878980219364166
leaf_count=35 23 25 33 30
internal_value=0 -0.00508965 0.00361058 0.0148431
internal_weight=0 22.5383 16.9001 12.2953
internal_count=146 111 86 63
is_linear=0
shrinkage=0.1


Tree=61
num_leaves=5
num_cat=0
split_feature=10 10 10 7
split_gain=0.259279 0.531729 0.325428 0.231941
threshold=379.83333333333582 466.00000000000006 659.66666666667163 60.500000000000007
decision_type=2 2 2 2
left_child=3 -2 -3 -1
right_child=1 2 -4 -5
leaf_value=0.031096416106118505 -0.026126327150989198 0.024811224204289807 -0.012374815794403532 0.0014724774518581182
leaf_weight=4.0218237861990946 8.2457785978913325 5.3747202157974225 4.1865166425704956 7.7089926898479462
leaf_count=19 38 31 20 38
internal_value=0 -0.00751872 0.00852881 0.0116288
internal_weight=0 17.807 9.56124 11.7308
internal_count=146 89 51 57
is_linear=0
shrinkage=0.1


Tree=62
num_leaves=5
num_cat=0
split_feature=10 10 10 10
split_gain=0.210444 0.429956 0.265935 0.124856
threshold=379.83333333333582 466.00000000000006 659.66666666667163 268.83333333332854
decision_type=2 2 2 2
left_child=3 -2 -3 -1
right_child=1 2 -4 -5
leaf_value=-0.0010955924252860074 -0.023460349882191641 0.02254087896940813 -0.011152994654886395 0.019698646227162536
leaf_weight=5.1811733767390269 8.2635215893387812 5.3270784392952901 4.1809455752372742 6.522670604288578
leaf_count=26 38 31 20 31
internal_value=0 -0.0067759 0.00772474 0.0104932
internal_weight=0 17.7715 9.50802 11.7038
internal_count=146 89 51 57
is_linear=0
shrinkage=0.1


Tree=63
num_leaves=5
num_cat=0
split_feature=7 13 7 7
split_gain=0.259828 0.519227 1.04892 1.65736
threshold=30.500000000000004 1.0000000180025095e-35 63.500000000000007 105.50000000000001
decision_type=2 2 2 2
left_child=-1 -2 -3 -4
right_child=1 2 3 -5
leaf_value=0.018894077225994663 0.020907627845652917 -0.050993422411469314 0.039292802040757593 -0.033818217158001193
leaf_weight=5.8727557286620167 5.9545510970056119 5.1918027848005286 6.1683444157242757 6.2345697656273842
leaf_count=30 30 23 34 29
internal_value=0 -0.00461682 -0.013255 0.0025421
internal_weight=0 23.5493 17.5947 12.4029
internal_count=146 116 86 63
is_linear=0
shrinkage=0.1


Tree=64
num_leaves=5
num_cat=0
split_feature=3 10 10 10
split_gain=0.275211 1.12005 0.434478 1.48565
threshold=412.50000000000119 382.66666666666703 337.83333333333809 446.00000000000006
decision_type=2 2 2 2
left_child=2 -2 -1 -4
right_child=1 -3 3 -5
leaf_value=0.012086439202028241 0.046294953849891067 -0.013509388266304108 -0.0717593499861581 0.0079401844051281128
leaf_weight=6.2733854055404725 5.3002110570669156 7.6541372127830982 3.7055565267801267 6.3414022922515869
leaf_count=31 26 39 17 33
internal_value=0 0.0109593 -0.00856192 -0.0214549
internal_weight=0 12.9543 16.3203 10.047
internal_count=146 65 81 50
is_linear=0
shrinkage=0.1


Tree=65
num_leaves=6
num_cat=0
split_feature=5 5 10 7 10
split_gain=0.235915 0.519065 0.341126 0.843532 0.425931
threshold=279.75243147657073 912.78571428571411 600.83333333333951 57.500000000000007 350.33333333333945
decision_type=2 2 2 2 2
left_child=2 -2 3 -1 -5
right_child=1 -3 -4 4 -6
leaf_value=-0.029512792442270487 0.040347125492749443 -0.01160108153515128 -0.029967543553231599 4.7553242043906189e-05 0.03938838563188906
leaf_weight=5.887043200433264 3.9569791182875624 3.7427813671529293 4.4477696493268004 6.2922796458005887 4.8913111239671707
leaf_count=27 21 20 23 30 25
internal_value=0 0.0150956 -0.00530113 0.00112573 0.0172539
internal_weight=0 7.69976 21.5184 17.0706 11.1836
internal_count=146 41 105 82 55
is_linear=0
shrinkage=0.1


Tree=66
num_leaves=5
num_cat=0
split_feature=7 7 7 7
split_gain=0.225406 0.358646 0.256006 0.171634
threshold=30.500000000000004 96.500000000000014 69.500000000000014 120.50000000000001
decision_type=2 2 2 2
left_child=-1 2 -2 -3
right_child=1 3 -4 -5
leaf_value=0.017640150461418921 -0.004750411639109605 0.024940274939764799 -0.033555465268630784 -0.0016870961959520874
leaf_weight=5.8412456586957004 8.784659683704378 4.3905503638088685 4.7557487189769736 5.3955706283450127
leaf_count=30 39 24 27 26
internal_value=0 -0.00432612 -0.0148675 0.0102593
internal_weight=0 23.3265 13.5404 9.78612
internal_count=146 116 66 50
is_linear=0
shrinkage=0.1


Tree=67
num_leaves=5
num_cat=0
split_feature=7 11 7 11
split_gain=0.183391 0.555694 0.604885 1.03904
threshold=30.500000000000004 1.5000000000000002 108.50000000000001 0.55000000000000004
decision_type=2 2 2 2
left_child=-1 2 3 -2
right_child=1 -3 -4 -5
leaf_value=0.01597428181650681 0.0065212959427470227 0.023620480413620817 0.0085261051901057254 -0.058058945074319336
leaf_weight=5.8072304390370872 4.5673862919211441 5.5878848023712626 7.7136326655745497 5.4810567870736122
leaf_count=30 24 28 38 26
internal_value=0 -0.00388366 -0.0125364 -0.0287049
internal_weight=0 23.35 17.7621 10.0484
internal_count=146 116 88 50
is_linear=0
shrinkage=0.1


Tree=68
num_leaves=4
num_cat=0
split_feature=3 13 3
split_gain=0.276859 0.318192 0.268161
threshold=771.16666666667118 1.0000000180025095e-35 196.00000000000003
decision_type=2 2 2
left_child=1 -1 -3
right_child=-2 2 -4
leaf_value=0.017564163005880675 0.017860771072213677 -0.0021185331303765799 -0.02773765174628989
leaf_weight=4.7956826128065648 6.7269619442522517 11.168629348278047 6.4425033256411544
leaf_count=24 37 56 29
internal_value=0 -0.00527201 -0.0114905
internal_weight=0 22.4068 17.6111
internal_count=146 109 85
is_linear=0
shrinkage=0.1


Tree=69
num_leaves=6
num_cat=0
split_feature=7 7 7 7 7
split_gain=0.163054 0.25286 0.319473 0.42717 0.0186764
threshold=30.500000000000004 57.500000000000007 105.50000000000001 126.50000000000001 78.500000000000014
decision_type=2 2 2 2 2
left_child=-1 -2 4 -4 -3
right_child=1 2 3 -5 -6
leaf_value=0.015100846057755933 -0.021311045116607811 0.011041031983642218 -0.034071845124313188 0.011011165507747738 0.020196958945220552
leaf_weight=5.7805407941341427 6.0215188711881664 4.4077397808432597 4.1988854706287366 4.2080059945583344 4.504789050668478
leaf_count=30 27 21 21 20 27
internal_value=0 -0.003659 0.00247816 -0.0115059 0.0156688
internal_weight=0 23.3409 17.3194 8.40689 8.91253
internal_count=146 116 89 41 48
is_linear=0
shrinkage=0.1


Tree=70
num_leaves=6
num_cat=0
split_feature=0 0 0 11 0
split_gain=0.387035 0.97691 1.27677 0.413964 0.375775
threshold=0.15000000000000005 1.0500000000000003 0.55000000000000016 0.55000000000000004 2.4500000000000015
decision_type=2 2 2 2 2
left_child=3 2 -2 -1 -3
right_child=1 4 -4 -5 -6
leaf_value=-0.033838457014828023 0.0015365534293102447 -0.034694517013538644 0.078055364737889155 0.0055503032968375922 0.0055310048097254013
leaf_weight=5.5973961874842662 5.4429168812930602 4.4965048432350141 3.6381775140762329 5.0986552089452744 4.8029292896389961
leaf_count=28 32 20 18 24 24
internal_value=0 0.00886283 0.0321924 -0.0150624 -0.013919
internal_weight=0 18.3805 9.08109 10.6961 9.29943
internal_count=146 94 50 52 44
is_linear=0
shrinkage=0.1


Tree=71
num_leaves=5
num_cat=0
split_feature=5 7 7 7
split_gain=0.284488 0.754308 0.742302 0.313055
threshold=193.60504920838693 51.500000000000007 36.500000000000007 108.50000000000001
decision_type=2 2 2 2
left_child=1 -1 -2 -3
right_child=2 3 -4 -5
leaf_value=0.041211399534426874 -0.047581440001677473 -0.019976179097270549 0.0088774571430091532 0.0094523905489861428
leaf_weight=4.8479872718453469 3.9085946045815927 6.8064636141061765 5.7611869722604752 7.7087735757231712
leaf_count=23 20 35 30 38
internal_value=0 0.00705934 -0.0139436 -0.00434721
internal_weight=0 19.3632 9.66978 14.5152
internal_count=146 96 50 73
is_linear=0
shrinkage=0.1


Tree=72
num_leaves=4
num_cat=0
split_feature=5 3 3
split_gain=0.230084 0.604795 0.421608
threshold=193.60504920838693 358.33333333333513 798.33333333333223
decision_type=2 2 2
left_child=1 -1 -2
right_child=2 -3 -4
leaf_value=-0.003202127698942635 -0.031438807974256244 0.03904636683066412 0.010463625385275623
leaf_weight=14.957100681960588 5.3147833868861181 4.3807218223810187 4.3801617175340652
leaf_count=75 24 21 26
internal_value=0 0.0063687 -0.0125074
internal_weight=0 19.3378 9.69495
internal_count=146 96 50
is_linear=0
shrinkage=0.1


Tree=73
num_leaves=6
num_cat=0
split_feature=0 0 7 7 0
split_gain=0.294945 1.01549 1.27523 0.561509 0.268073
threshold=1.0500000000000003 0.25000000000000006 36.500000000000007 108.50000000000001 2.4500000000000015
decision_type=2 2 2 2 2
left_child=1 3 -3 -1 -2
right_child=4 2 -4 -5 -6
leaf_value=-0.040872054776435768 -0.032229576357391439 -0.012070134914557763 0.068490857553180851 0.0046596854078807598 0.0018645324363385238
leaf_weight=4.2439788579940849 4.4841526150703412 3.4124350845813733 4.6320317126810551 7.4861013069748878 4.7481454387307167
leaf_count=21 20 17 27 37 24
internal_value=0 0.00695268 0.0343172 -0.0118138 -0.0146951
internal_weight=0 19.7745 8.04447 11.7301 9.2323
internal_count=146 102 44 58 44
is_linear=0
shrinkage=0.1


Tree=74
num_leaves=6
num_cat=0
split_feature=10 7 5 7 7
split_gain=0.241168 1.05074 0.747376 0.59997 0.510288
threshold=219.33333333333943 111.50000000000001 193.60504920838693 51.500000000000007 36.500000000000007
decision_type=2 2 2 2 2
left_child=-1 2 3 -2 -4
right_child=1 -3 4 -5 -6
leaf_value=0.023255222251793148 0.057733602430417058 -0.041086567813936069 -0.039675282153752225 0.0069277262172128991 0.0071081942963219669
leaf_weight=3.8854149207472828 3.8755547553300911 5.7402053847908965 3.9516001306474191 5.8072058781981468 5.6866119354963303
leaf_count=20 18 28 20 30 30
internal_value=0 -0.00352035 0.00764046 0.0272629 -0.0120727
internal_weight=0 25.0612 19.321 9.68276 9.63821
internal_count=146 126 98 48 50
is_linear=0
shrinkage=0.1


Tree=75
num_leaves=5
num_cat=0
split_feature=7 7 7 7
split_gain=0.185296 0.200706 0.341629 0.0735112
threshold=36.500000000000007 105.50000000000001 126.50000000000001 72.500000000000014
decision_type=2 2 2 2
left_child=-1 3 -3 -2
right_child=1 2 -4 -5
leaf_value=-0.014109771519969694 0.0061438256171282811 -0.027691275476494661 0.012714038554580247 0.021221648698716102
leaf_weight=6.9807088449597385 8.1157425194978732 4.2000695690512639 4.1702664792537689 5.3751047402620307
leaf_count=36 36 21 20 33
internal_value=0 0.00460386 -0.00756055 0.0121512
internal_weight=0 21.8612 8.37034 13.4908
internal_count=146 110 41 69
is_linear=0
shrinkage=0.1


Tree=76
num_leaves=2
num_cat=0
split_feature=13
split_gain=0.00819269
threshold=1.0000000180025095e-35
decision_type=2
left_child=-1
right_child=-2
leaf_value=0.0031642512430617915 -0.00084825419815726891
leaf_weight=6.5986483506858375 22.235669702291489
leaf_count=34 112
internal_value=0
internal_weight=0
internal_count=146
is_linear=0
shrinkage=0.1


Tree=77
num_leaves=6
num_cat=0
split_feature=10 7 10 7 10
split_gain=0.225851 0.498221 0.8699 1.01733 0.189166
threshold=348.33333333334127 111.50000000000001 616.50000000000011 36.500000000000007 382.66666666665884
decision_type=2 2 2 2 2
left_child=-1 2 3 -2 -5
right_child=1 -3 -4 4 -6
leaf_value=0.015830127634108924 -0.044319261711677632 -0.036676497418410052 0.041620999076904891 -0.0040587684854506327 0.026128260617423404
leaf_weight=6.9082573801279095 5.3047422841191354 4.0287203192710868 4.2718542702496043 3.9713558703660947 4.34931630641222
leaf_count=35 25 21 24 19 22
internal_value=0 -0.00490475 0.00224715 -0.0100974 0.0117204
internal_weight=0 21.926 17.8973 13.6254 8.32067
internal_count=146 111 90 66 41
is_linear=0
shrinkage=0.1


Tree=78
num_leaves=5
num_cat=0
split_feature=10 10 10 4
split_gain=0.183616 0.27092 0.218289 0.117604
threshold=348.33333333334127 382.33333333333491 600.83333333333951 1.0000000180025095e-35
decision_type=2 2 2 2
left_child=-1 -2 3 -3
right_child=1 2 -4 -5
leaf_value=0.014319444173243136 -0.022120238594172042 -0.00028114192654456053 -0.011539501898351377 0.022444372928417663
leaf_weight=6.8751865141093758 6.1956482157111195 4.0703837722539884 6.4506621621549121 5.1688843667507172
leaf_count=35 29 22 36 24
internal_value=0 -0.00441472 0.00257685 0.0124326
internal_weight=0 21.8856 15.6899 9.23927
internal_count=146 111 82 46
is_linear=0
shrinkage=0.1


Tree=79
num_leaves=6
num_cat=0
split_feature=5 5 5 7 7
split_gain=0.262316 1.1107 0.490722 0.472925 0.651876
threshold=279.75243147657073 150.81410825199643 912.78571428571411 81.500000000000014 108.50000000000001
decision_type=2 2 2 2 2
left_child=1 3 -2 -1 -5
right_child=2 -3 -4 4 -6
leaf_value=0.030680281289897793 0.040921445642124112 -0.052801436977505868 -0.010224638429744193 -0.036273114037749639 0.012185901665082266
leaf_weight=5.192051902413378 3.868697725236415 4.0403954088687888 3.6417834497988224 4.363918870687483 7.6288309916853905
leaf_count=27 21 18 20 22 38
internal_value=0 -0.00562416 0.016121 0.00546791 -0.00544735
internal_weight=0 21.2252 7.51048 17.1848 11.9927
internal_count=146 105 41 87 60
is_linear=0
shrinkage=0.1


Tree=80
num_leaves=5
num_cat=0
split_feature=0 0 0 0
split_gain=0.284607 0.774917 1.10638 0.236789
threshold=1.0500000000000003 0.25000000000000006 0.55000000000000016 2.4500000000000015
decision_type=2 2 2 2
left_child=1 -1 -3 -2
right_child=3 2 -4 -5
leaf_value=-0.0094665567063522173 -0.03088692182838659 -0.0030890329619948989 0.072218284057460599 0.0012119582158824256
leaf_weight=11.663752548396593 4.4853750169277173 4.2916092276573172 3.5768206566572189 4.7129368707537651
leaf_count=58 20 26 18 24
internal_value=0 0.00689321 0.0311441 -0.0144404
internal_weight=0 19.5322 7.86843 9.19831
internal_count=146 102 44 44
is_linear=0
shrinkage=0.1


Tree=81
num_leaves=6
num_cat=0
split_feature=7 7 5 10 7
split_gain=0.218569 0.381789 0.667559 0.239173 0.00543213
threshold=96.500000000000014 69.500000000000014 279.75243147657073 357.33333333333218 39.500000000000007
decision_type=2 2 2 2 2
left_child=1 2 4 -2 -1
right_child=3 -3 -4 -5 -6
leaf_value=-0.018393263045611594 0.029898396878433254 -0.030706772633602487 0.028302108990224117 -0.0018272748456407567 -0.013345122895068057
leaf_weight=4.0014345571398788 4.2987586967647058 4.7480833493173114 5.7699146270751944 5.3132997751235962 4.561652198433876
leaf_count=20 20 27 29 30 20
internal_value=0 -0.0061303 0.00201113 0.0123613 -0.0157041
internal_weight=0 19.0811 14.333 9.61206 8.56309
internal_count=146 96 69 50 40
is_linear=0
shrinkage=0.1


Tree=82
num_leaves=6
num_cat=0
split_feature=7 7 10 10 7
split_gain=0.177233 0.347231 0.435995 0.195639 0.143704
threshold=96.500000000000014 30.500000000000004 357.33333333333218 357.33333333333218 57.500000000000007
decision_type=2 2 2 2 2
left_child=1 -1 -3 -2 -4
right_child=3 2 4 -5 -6
leaf_value=0.015222322078842885 0.027103541763199221 -0.040189762922840398 -0.014924802870622009 -0.0016446500671622557 0.010288091943310885
leaf_weight=5.6830693222582402 4.2694380357861501 4.3745542094111434 4.3251885026693326 5.3129863142967224 4.7358029261231422
leaf_count=30 20 22 20 30 24
internal_value=0 -0.00549899 -0.0142638 0.0111641 -0.00174707
internal_weight=0 19.1186 13.4355 9.58242 9.06099
internal_count=146 96 66 50 44
is_linear=0
shrinkage=0.1


Tree=83
num_leaves=5
num_cat=0
split_feature=5 0 0 7
split_gain=0.25349 0.766085 0.635541 0.446457
threshold=193.60504920838693 0.25000000000000006 1.0500000000000003 108.50000000000001
decision_type=2 2 2 2
left_child=1 3 -2 -1
right_child=2 -3 -4 -5
leaf_value=-0.034982384270693744 0.008899923882879383 0.031634991100193015 -0.043396664288323637 0.005590649795008844
leaf_weight=4.2918389141559654 5.4792273975908738 7.4943122789263716 4.0351177603006363 7.3681824952363968
leaf_count=21 31 38 19 37
internal_value=0 0.0066897 -0.0132795 -0.00934354
internal_weight=0 19.1543 9.51435 11.66
internal_count=146 96 50 58
is_linear=0
shrinkage=0.1


Tree=84
num_leaves=5
num_cat=0
split_feature=11 11 11 11
split_gain=0.120616 0.322634 0.0768979 0.172357
threshold=2.4000000000000008 1.25 0.75000000000000011 0.55000000000000004
decision_type=2 2 2 2
left_child=1 2 3 -1
right_child=-2 -3 -4 -5
leaf_value=-0.0062276125968926919 -0.012508495136237689 0.028664427726981273 -0.013911076025940284 0.017431078277153341
leaf_weight=9.6438833586871713 6.0267718359827986 4.1346622817218295 4.3223420977592459 4.5236684903502455
leaf_count=48 29 25 21 23
internal_value=0 0.00341149 -0.00223551 0.00132656
internal_weight=0 22.6246 18.4899 14.1676
internal_count=146 117 92 71
is_linear=0
shrinkage=0.1


Tree=85
num_leaves=6
num_cat=0
split_feature=7 7 11 7 7
split_gain=0.180043 0.260761 0.740625 1.15376 0.308251
threshold=36.500000000000007 105.50000000000001 0.55000000000000004 60.500000000000007 126.50000000000001
decision_type=2 2 2 2 2
left_child=-1 2 -2 -4 -3
right_child=1 4 3 -5 -6
leaf_value=-0.013961014402912997 0.050097968877570037 -0.02864929598989607 0.034216101471078141 -0.035361906915724696 0.0099591272033272768
leaf_weight=6.9384177215397385 3.86400153115392 4.1512314230203611 4.6049952358007413 4.939762108027935 4.12070032954216
leaf_count=36 21 21 21 27 20
internal_value=0 0.00454658 0.0131604 -0.00179307 -0.00941633
internal_weight=0 21.6807 13.4088 9.54476 8.27193
internal_count=146 110 69 48 41
is_linear=0
shrinkage=0.1


Tree=86
num_leaves=6
num_cat=0
split_feature=4 5 7 7 7
split_gain=0.205692 0.634299 0.678599 0.507876 0.248792
threshold=1.0000000180025095e-35 150.81410825199643 36.500000000000007 105.50000000000001 126.50000000000001
decision_type=2 2 2 2 2
left_child=3 -2 -3 -1 -5
right_child=1 2 -4 4 -6
leaf_value=0.028504262891147637 0.02329583358280608 -0.05072583291097707 0.0031521535751963814 -0.025694151290429647 0.0089564876326985524
leaf_weight=6.7422004416584995 4.2260656431317321 4.6067092381417734 4.7462022490799427 4.1650288850069028 4.1236310750246048
leaf_count=38 21 23 23 21 20
internal_value=0 -0.00885698 -0.0233851 0.00812314 -0.00845536
internal_weight=0 13.579 9.35291 15.0309 8.28866
internal_count=146 67 46 79 41
is_linear=0
shrinkage=0.1


Tree=87
num_leaves=5
num_cat=0
split_feature=7 7 10 11
split_gain=0.211526 0.447868 0.723861 0.995021
threshold=30.500000000000004 57.500000000000007 600.83333333333951 1.0000000180025095e-35
decision_type=2 2 2 2
left_child=-1 -2 3 -3
right_child=1 2 -4 -5
leaf_value=0.017326730325570069 -0.027998464452157302 -0.015967331697606169 -0.033000990139569815 0.039878230503593307
leaf_weight=5.6865025497972992 5.8857510238885906 5.6604584753513354 4.032065834850072 7.3115945160388947
leaf_count=30 27 28 23 38
internal_value=0 -0.00422297 0.00400661 0.0155096
internal_weight=0 22.8899 17.0041 12.9721
internal_count=146 116 89 66
is_linear=0
shrinkage=0.1


Tree=88
num_leaves=4
num_cat=0
split_feature=5 5 5
split_gain=0.18332 0.776255 0.400732
threshold=279.75243147657073 150.81410825199643 912.78571428571411
decision_type=2 2 2
left_child=1 -1 -2
right_child=2 -3 -4
leaf_value=0.0046714911825627972 0.036446873233154431 -0.044007792196298634 -0.01017195791082407
leaf_weight=17.057189818471677 3.7678901553153983 4.0544365048408499 3.6109424531459808
leaf_count=87 21 18 20
internal_value=0 -0.00467725 0.0136332
internal_weight=0 21.1116 7.37883
internal_count=146 105 41
is_linear=0
shrinkage=0.1


Tree=89
num_leaves=5
num_cat=0
split_feature=7 11 7 7
split_gain=0.183327 0.365674 0.616144 0.170495
threshold=30.500000000000004 1.5000000000000002 72.500000000000014 108.50000000000001
decision_type=2 2 2 2
left_child=-1 2 -2 -4
right_child=1 -3 3 -5
leaf_value=0.016189513461418097 -0.043687863357407521 0.018881522530435527 -0.013446274087296477 0.0096247250757714384
leaf_weight=5.6494965367019203 4.3253367990255418 5.3715258464217177 5.5636659972369653 7.549779124557972
leaf_count=30 19 28 31 38
internal_value=0 -0.00393191 -0.010959 -0.000163651
internal_weight=0 22.8103 17.4388 13.1134
internal_count=146 116 88 69
is_linear=0
shrinkage=0.1


Tree=90
num_leaves=6
num_cat=0
split_feature=7 13 7 7 11
split_gain=0.149131 0.353054 0.803174 1.57768 0.344008
threshold=30.500000000000004 1.0000000180025095e-35 63.500000000000007 117.50000000000001 0.55000000000000004
decision_type=2 2 2 2 2
left_child=-1 -2 -3 4 -4
right_child=1 2 3 -5 -6
leaf_value=0.014649867221495624 0.017936910248506809 -0.044193298412142278 0.050725723022226249 -0.044365226234191563 0.0081870259748953352
leaf_weight=5.6205115802586105 5.7342720143497052 5.0540380626916876 4.0585765652358514 4.4027595445513725 3.5762061849236488
leaf_count=30 30 23 22 21 20
internal_value=0 -0.00353442 -0.0107381 0.00330826 0.0308002
internal_weight=0 22.8259 17.0916 12.0375 7.63478
internal_count=146 116 86 63 42
is_linear=0
shrinkage=0.1


Tree=91
num_leaves=6
num_cat=0
split_feature=7 11 7 11 11
split_gain=0.154375 0.830263 0.372462 0.384176 0.322676
threshold=96.500000000000014 0.55000000000000004 69.500000000000014 2.4000000000000008 1.0500000000000003
decision_type=2 2 2 2 2
left_child=2 -2 3 4 -1
right_child=1 -3 -4 -5 -6
leaf_value=-0.002662912741108843 -0.017076854940833122 0.042390390036955349 -0.029514722168805532 -0.016759593007417702 0.036731261776972376
leaf_weight=4.2226562947034889 5.0633243396878225 4.3776498883962631 4.7127322256565085 5.8203649073839179 4.0961840748786926
leaf_count=19 25 25 27 28 22
internal_value=0 0.0104973 -0.00516809 0.00294688 0.0167347
internal_weight=0 9.44097 18.8519 14.1392 8.31884
internal_count=146 50 96 69 41
is_linear=0
shrinkage=0.1


Tree=92
num_leaves=5
num_cat=0
split_feature=10 10 11 10
split_gain=0.206471 0.483311 0.355158 0.284284
threshold=616.50000000000011 399.00000000000369 0.55000000000000004 349.33333333333337
decision_type=2 2 2 2
left_child=1 2 -1 -4
right_child=-2 -3 3 -5
leaf_value=-0.014469509395318637 0.017553512470571048 -0.026931053132749336 0.034896799286198016 0.0015228508781954804
leaf_weight=5.8725149780511954 5.4476207420229903 6.5986540392041197 4.5862422920763475 5.7552476525306702
leaf_count=29 32 33 24 28
internal_value=0 -0.00411489 0.00517066 0.0163235
internal_weight=0 22.8127 16.214 10.3415
internal_count=146 114 81 52
is_linear=0
shrinkage=0.1


Tree=93
num_leaves=5
num_cat=0
split_feature=10 7 11 7
split_gain=0.167238 0.766828 1.05019 0.524225
threshold=616.50000000000011 39.500000000000007 1.0000000180025095e-35 72.500000000000014
decision_type=2 2 2 2
left_child=1 -1 -3 -4
right_child=-2 2 3 -5
leaf_value=-0.032816915213747549 0.015809613933533778 -0.024814129705221018 0.0064219841197780281 0.051891273182866043
leaf_weight=6.4761279076337877 5.4438798315823069 6.1435405164957073 5.4629089087247831 4.731916531920433
leaf_count=32 32 30 25 27
internal_value=0 -0.003697 0.00784542 0.0275265
internal_weight=0 22.8145 16.3384 10.1948
internal_count=146 114 82 52
is_linear=0
shrinkage=0.1


Tree=94
num_leaves=5
num_cat=0
split_feature=5 5 5 4
split_gain=0.159589 0.642612 0.328808 0.210049
threshold=279.75243147657073 150.81410825199643 912.78571428571411 1.0000000180025095e-35
decision_type=2 2 2 2
left_child=1 3 -2 -1
right_child=2 -3 -4 -5
leaf_value=-0.0021879281467310652 0.033901039187978224 -0.04013132073872519 -0.0087125547327455959 0.02360270295072199
leaf_weight=12.735721360892066 3.6677549108862868 4.0506942570209494 3.5761886201798916 4.199069418013095
leaf_count=66 21 18 20 21
internal_value=0 -0.00435135 0.0128636 0.00420699
internal_weight=0 20.9855 7.24394 16.9348
internal_count=146 105 41 87
is_linear=0
shrinkage=0.1


Tree=95
num_leaves=5
num_cat=0
split_feature=0 13 5 7
split_gain=0.218104 0.673578 1.14182 0.443269
threshold=0.15000000000000005 1.0000000180025095e-35 228.64923747276717 114.50000000000001
decision_type=2 2 2 2
left_child=3 -2 -3 -1
right_child=1 2 -4 -5
leaf_value=-0.033929717299677628 -0.02580053213935625 0.047318022665291525 -0.011940506045102439 0.0073070482138510029
leaf_weight=4.7571995109319705 4.6540772914886501 6.6920566484332067 6.3246515579521656 5.7665738835930824
leaf_count=23 25 35 34 29
internal_value=0 0.00685072 0.0185251 -0.0113337
internal_weight=0 17.6708 13.0167 10.5238
internal_count=146 94 69 52
is_linear=0
shrinkage=0.1


Tree=96
num_leaves=4
num_cat=0
split_feature=0 0 0
split_gain=0.221713 0.654294 0.208767
threshold=1.0500000000000003 0.25000000000000006 2.4500000000000015
decision_type=2 2 2
left_child=1 -1 -2
right_child=2 -3 -4
leaf_value=-0.0088461661829771863 -0.02835589974885059 0.028932839645840525 0.0020290089113681473
leaf_weight=11.539016224443918 4.425972566008566 7.6060830056667319 4.6232893168926239
leaf_count=58 20 44 24
internal_value=0 0.00616291 -0.0128322
internal_weight=0 19.1451 9.04926
internal_count=146 102 44
is_linear=0
shrinkage=0.1


Tree=97
num_leaves=5
num_cat=0
split_feature=10 7 4 10
split_gain=0.164874 0.58036 0.759876 0.779833
threshold=348.33333333334127 114.50000000000001 1.0000000180025095e-35 382.33333333333491
decision_type=2 2 2 2
left_child=-1 2 -2 -4
right_child=1 -3 3 -5
leaf_value=0.01367927792217747 0.033856635660510219 -0.039467985169268902 -0.044248067771199523 0.0087207991773786287
leaf_weight=6.7576895505189922 5.6008082218468251 3.8372507020831099 4.3993948772549611 7.5484031997621059
leaf_count=35 33 20 20 38
internal_value=0 -0.00423928 0.00346397 -0.0107833
internal_weight=0 21.3859 17.5486 11.9478
internal_count=146 111 91 58
is_linear=0
shrinkage=0.1


Tree=98
num_leaves=5
num_cat=0
split_feature=4 11 11 4
split_gain=0.117203 0.342348 0.316211 0.000798792
threshold=1.0000000180025095e-35 1.5000000000000002 1.0000000180025095e-35 1.5000000000000002
decision_type=2 2 2 2
left_child=2 -2 -1 -3
right_child=1 3 -4 -5
leaf_value=-0.0091346936192864547 -0.025172754021199228 0.0081882295791438353 0.020261757214595388 0.0061428213331294482
leaf_weight=6.9992680773139018 5.7359175309538823 3.7785057798027992 7.6680437549948692 3.8595472052693367
leaf_count=36 27 20 43 20
internal_value=0 -0.00671013 0.00623372 0.00715467
internal_weight=0 13.374 14.6673 7.63805
internal_count=146 67 79 40
is_linear=0
shrinkage=0.1


Tree=99
num_leaves=6
num_cat=0
split_feature=7 7 10 10 7
split_gain=0.183739 0.279944 0.487653 0.210403 0.0730755
threshold=30.500000000000004 96.500000000000014 357.33333333333218 337.83333333333809 57.500000000000007
decision_type=2 2 2 2 2
left_child=-1 2 -2 -3 -4
right_child=1 3 4 -5 -6
leaf_value=0.016298840899172558 -0.040722834291241822 0.02812072988413173 -0.009388795795473949 -0.0027464393501268787 0.0088512228301561042
leaf_weight=5.5779338292777565 4.3565227948129204 3.6270431280136091 4.1867506057023984 5.645569022744894 4.6203941069543362
leaf_count=30 22 17 20 33 24
internal_value=0 -0.00398161 -0.0133566 0.00932746 0.000180262
internal_weight=0 22.4363 13.1637 9.27261 8.80714
internal_count=146 116 66 50 44
is_linear=0
shrinkage=0.1


end of trees

feature_importances:
taskNum=165
s_view_position=97
scroll_time=55
response_time=36
s_scroll_speed=34
scroll_length=28
event_scroll=10
s_choice_left=10

parameters:
[boosting: gbdt]
[objective: binary]
[metric: binary_error]
[tree_learner: serial]
[device_type: cpu]
[data_sample_strategy: bagging]
[data: ]
[valid: ]
[num_iterations: 100]
[learning_rate: 0.1]
[num_leaves: 31]
[num_threads: 0]
[seed: 0]
[deterministic: 0]
[force_col_wise: 0]
[force_row_wise: 0]
[histogram_pool_size: -1]
[max_depth: -1]
[min_data_in_leaf: 20]
[min_sum_hessian_in_leaf: 0.001]
[bagging_fraction: 1]
[pos_bagging_fraction: 1]
[neg_bagging_fraction: 1]
[bagging_freq: 0]
[bagging_seed: 3]
[feature_fraction: 0.4]
[feature_fraction_bynode: 1]
[feature_fraction_seed: 2]
[extra_trees: 0]
[extra_seed: 6]
[early_stopping_round: 0]
[first_metric_only: 0]
[max_delta_step: 0]
[lambda_l1: 0]
[lambda_l2: 0]
[linear_lambda: 0]
[min_gain_to_split: 0]
[drop_rate: 0.1]
[max_drop: 50]
[skip_drop: 0.5]
[xgboost_dart_mode: 0]
[uniform_drop: 0]
[drop_seed: 4]
[top_rate: 0.2]
[other_rate: 0.1]
[min_data_per_group: 100]
[max_cat_threshold: 32]
[cat_l2: 10]
[cat_smooth: 10]
[max_cat_to_onehot: 4]
[top_k: 20]
[monotone_constraints: ]
[monotone_constraints_method: basic]
[monotone_penalty: 0]
[feature_contri: ]
[forcedsplits_filename: ]
[refit_decay_rate: 0.9]
[cegb_tradeoff: 1]
[cegb_penalty_split: 0]
[cegb_penalty_feature_lazy: ]
[cegb_penalty_feature_coupled: ]
[path_smooth: 0]
[interaction_constraints: ]
[verbosity: -1]
[saved_feature_importance_type: 0]
[use_quantized_grad: 0]
[num_grad_quant_bins: 4]
[quant_train_renew_leaf: 0]
[stochastic_rounding: 1]
[linear_tree: 0]
[max_bin: 255]
[max_bin_by_feature: ]
[min_data_in_bin: 3]
[bin_construct_sample_cnt: 200000]
[data_random_seed: 1]
[is_enable_sparse: 1]
[enable_bundle: 1]
[use_missing: 1]
[zero_as_missing: 0]
[feature_pre_filter: 0]
[pre_partition: 0]
[two_round: 0]
[header: 0]
[label_column: ]
[weight_column: ]
[group_column: ]
[ignore_column: ]
[categorical_feature: ]
[forcedbins_filename: ]
[precise_float_parser: 0]
[parser_config_file: ]
[objective_seed: 5]
[num_class: 1]
[is_unbalance: 0]
[scale_pos_weight: 1]
[sigmoid: 1]
[boost_from_average: 1]
[reg_sqrt: 0]
[alpha: 0.9]
[fair_c: 1]
[poisson_max_delta_step: 0.7]
[tweedie_variance_power: 1.5]
[lambdarank_truncation_level: 30]
[lambdarank_norm: 1]
[label_gain: ]
[lambdarank_position_bias_regularization: 0]
[eval_at: ]
[multi_error_top_k: 1]
[auc_mu_weights: ]
[num_machines: 1]
[local_listen_port: 12400]
[time_out: 120]
[machine_list_filename: ]
[machines: ]
[gpu_platform_id: -1]
[gpu_device_id: -1]
[gpu_use_dp: 0]
[num_gpu: 1]

end of parameters

pandas_categorical:[]
