tree
version=v4
num_class=1
num_tree_per_iteration=1
label_index=0
max_feature_idx=14
objective=binary sigmoid:1
feature_names=response_time s_tap_count ratio_tap_position_y scroll_length event_scroll s_scroll_speed tap_position_x taskNum tap_position_y screen_width s_view_position scroll_time ratio_tap_position_x s_choice_left screen_height
feature_infos=[0.10000000000000001:7.6999999999999869] [1:1] none [0:1530] [0:6] [0:1911.6666666666704] none [1:38] none [390:390] [-343.99999999999989:756.66666666666788] [0:10.999999999999993] none [0:1] [844:844]
tree_sizes=441 439 442 440 440 442 446 444 442 442 446 447 443 449 444 444 446 444 444 443 446 342 442 448 343 447 441 445 342 448 443 439 448 545 445 446 442 443 445 441 443 342 442 444 445 443 444 442 444 443 342 446 445 442 443 442 444 442 442 343 444 444 442 445 444 444 440 445 444 445 342 441 343 444 441 343 444 343 443 445 444 343 443 343 443 445 443 444 440 443 444 443 445 343 445 343 446 445 444 343

Tree=0
num_leaves=3
num_cat=0
split_feature=5 3
split_gain=3.11159 5.00587
threshold=151.66129898013955 772.66666666666754
decision_type=2 2
left_child=-1 -2
right_child=1 -3
leaf_value=0.73757143965742422 0.49491108738706441 0.68744441853115268
leaf_weight=2.9259003102779388 2.2506925463676453 3.3760388195514679
leaf_count=13 10 15
internal_value=0.653926 0.610431
internal_weight=0 5.62673
internal_count=38 25
is_linear=0
shrinkage=1


Tree=1
num_leaves=3
num_cat=0
split_feature=5 3
split_gain=2.55562 3.85204
threshold=151.66129898013955 772.66666666666754
decision_type=2 2
left_child=-1 -2
right_child=1 -3
leaf_value=0.077533168149021947 -0.13653590772370938 0.030512982719720683
leaf_weight=2.8451832979917526 2.35295370221138 3.3396515250205994
leaf_count=13 10 15
internal_value=0 -0.0385342
internal_weight=0 5.69261
internal_count=38 25
is_linear=0
shrinkage=0.1


Tree=2
num_leaves=3
num_cat=0
split_feature=5 3
split_gain=2.10692 3.05772
threshold=151.66129898013955 866.83333333333405
decision_type=2 2
left_child=-1 -2
right_child=1 -3
leaf_value=0.071920761236799524 -0.092167104396240651 0.058014974060469654
leaf_weight=2.7647779732942581 3.5232266783714294 2.2036194801330566
leaf_count=13 15 10
internal_value=0 -0.0343789
internal_weight=0 5.72685
internal_count=38 25
is_linear=0
shrinkage=0.1


Tree=3
num_leaves=3
num_cat=0
split_feature=5 3
split_gain=1.73927 2.58369
threshold=151.66129898013955 772.66666666666754
decision_type=2 2
left_child=-1 -2
right_child=1 -3
leaf_value=0.066729816021275534 -0.10836206851051551 0.027149775499747099
leaf_weight=2.686074823141098 2.4562261998653412 3.2936341315507889
leaf_count=13 10 15
internal_value=0 -0.0307382
internal_weight=0 5.74986
internal_count=38 25
is_linear=0
shrinkage=0.1


Tree=4
num_leaves=3
num_cat=0
split_feature=7 3
split_gain=1.7494 1.29105
threshold=12.500000000000002 772.66666666666754
decision_type=2 2
left_child=-1 -2
right_child=1 -3
leaf_value=0.069751756250955005 -0.078923773913260761 0.015305492578425943
leaf_weight=2.5304003357887268 2.7906891703605652 3.0357156246900558
leaf_count=12 12 14
internal_value=0 -0.0298278
internal_weight=0 5.8264
internal_count=38 26
is_linear=0
shrinkage=0.1


Tree=5
num_leaves=3
num_cat=0
split_feature=7 3
split_gain=1.44407 1.02795
threshold=12.500000000000002 772.66666666666754
decision_type=2 2
left_child=-1 -2
right_child=1 -3
leaf_value=0.064534424747160465 -0.070052095629948699 0.013856226588487848
leaf_weight=2.4649818241596222 2.8275566101074219 3.0188377052545547
leaf_count=12 12 14
internal_value=0 -0.0267253
internal_weight=0 5.84639
internal_count=38 26
is_linear=0
shrinkage=0.1


Tree=6
num_leaves=3
num_cat=0
split_feature=5 0
split_gain=1.29989 0.442173
threshold=151.66129898013955 0.84999999999999998
decision_type=2 2
left_child=-1 -2
right_child=1 -3
leaf_value=0.059536470125232291 0.00040671722873290156 -0.055356283039780477
leaf_weight=2.5601586103439331 2.9753577560186386 2.7237532734870911
leaf_count=13 13 12
internal_value=0 -0.0262439
internal_weight=0 5.69911
internal_count=38 25
is_linear=0
shrinkage=0.1


Tree=7
num_leaves=3
num_cat=0
split_feature=7 3
split_gain=1.19534 0.238687
threshold=15.500000000000002 772.66666666666754
decision_type=2 2
left_child=-1 -2
right_child=1 -3
leaf_value=0.050041386218297845 -0.050411245083055167 -0.007463032104948213
leaf_weight=3.0470780432224274 2.5839538425207138 2.5921072363853455
leaf_count=15 11 12
internal_value=0 -0.0289033
internal_weight=0 5.17606
internal_count=38 23
is_linear=0
shrinkage=0.1


Tree=8
num_leaves=3
num_cat=0
split_feature=5 3
split_gain=1.03676 1.68888
threshold=151.66129898013955 866.83333333333405
decision_type=2 2
left_child=-1 -2
right_child=1 -3
leaf_value=0.054486978728784108 -0.064517239406602506 0.048176414914770219
leaf_weight=2.4694821536540985 3.6137743890285492 2.1041606962680817
leaf_count=13 15 10
internal_value=0 -0.0230468
internal_weight=0 5.71794
internal_count=38 25
is_linear=0
shrinkage=0.1


Tree=9
num_leaves=3
num_cat=0
split_feature=5 3
split_gain=0.857764 1.36874
threshold=151.66129898013955 866.83333333333405
decision_type=2 2
left_child=-1 -2
right_child=1 -3
leaf_value=0.050438303253275411 -0.057713813204078784 0.044264392661014396
leaf_weight=2.4044407308101654 3.634570375084877 2.0633220970630646
leaf_count=13 15 10
internal_value=0 -0.0207854
internal_weight=0 5.69789
internal_count=38 25
is_linear=0
shrinkage=0.1


Tree=10
num_leaves=3
num_cat=0
split_feature=7 0
split_gain=0.82564 0.190523
threshold=15.500000000000002 0.65000000000000002
decision_type=2 2
left_child=-1 -2
right_child=1 -3
leaf_value=0.043192900542781541 -0.041803514353716827 -0.0032024300107590577
leaf_weight=2.881589412689209 2.7249632030725479 2.4090471863746643
leaf_count=15 12 11
internal_value=0 -0.0236906
internal_weight=0 5.13401
internal_count=38 23
is_linear=0
shrinkage=0.1


Tree=11
num_leaves=3
num_cat=0
split_feature=7 0
split_gain=0.698703 0.486333
threshold=12.500000000000002 0.84999999999999998
decision_type=2 2
left_child=-1 -2
right_child=1 -3
leaf_value=0.048509230646480661 0.0049853252049089341 -0.054590806434473331
leaf_weight=2.1865914463996887 3.5787097960710526 2.2203403413295746
leaf_count=12 16 10
internal_value=0 -0.0178252
internal_weight=0 5.79905
internal_count=38 26
is_linear=0
shrinkage=0.1


Tree=12
num_leaves=3
num_cat=0
split_feature=3 5
split_gain=0.688992 1.04276
threshold=772.66666666666754 151.66129898013955
decision_type=2 2
left_child=1 -1
right_child=-2 -3
leaf_value=0.028774079432837326 0.033133131958146114 -0.06917983645067316
leaf_weight=1.9413056373596189 3.5481614321470261 2.4689198285341263
leaf_count=11 17 10
internal_value=0 -0.0260622
internal_weight=0 4.41023
internal_count=38 21
is_linear=0
shrinkage=0.1


Tree=13
num_leaves=3
num_cat=0
split_feature=7 0
split_gain=0.581769 0.171967
threshold=15.500000000000002 0.65000000000000002
decision_type=2 2
left_child=-1 -2
right_child=1 -3
leaf_value=0.037374576661731766 -0.036885103367222748 -0.00015616140197189607
leaf_weight=2.7533504962921143 2.7136958837509155 2.4040693193674088
leaf_count=15 12 11
internal_value=0 -0.0196317
internal_weight=0 5.11777
internal_count=38 23
is_linear=0
shrinkage=0.1


Tree=14
num_leaves=3
num_cat=0
split_feature=3 5
split_gain=0.574271 0.814232
threshold=772.66666666666754 151.66129898013955
decision_type=2 2
left_child=1 -1
right_child=-2 -3
leaf_value=0.025242806536230535 0.030436503804094062 -0.062082048782066496
leaf_weight=1.8934321552515028 3.4996043294668198 2.4485737234354019
leaf_count=11 17 10
internal_value=0 -0.024002
internal_weight=0 4.34201
internal_count=38 21
is_linear=0
shrinkage=0.1


Tree=15
num_leaves=3
num_cat=0
split_feature=7 11
split_gain=0.498445 1.39369
threshold=27.500000000000004 2.1000000000000005
decision_type=2 2
left_child=1 -1
right_child=-2 -3
leaf_value=0.080655028971589313 -0.03714848178348501 -0.024020758782522744
leaf_weight=2.1063181459903717 2.4398894160985947 3.2110354006290436
leaf_count=10 11 17
internal_value=0 0.0174436
internal_weight=0 5.31735
internal_count=38 27
is_linear=0
shrinkage=0.1


Tree=16
num_leaves=3
num_cat=0
split_feature=7 0
split_gain=0.507001 0.424115
threshold=12.500000000000002 0.84999999999999998
decision_type=2 2
left_child=-1 -2
right_child=1 -3
leaf_value=0.042710763746901199 0.0064602857520742159 -0.049620367508143047
leaf_weight=2.0661049634218216 3.5051479786634445 2.191737487912178
leaf_count=12 16 10
internal_value=0 -0.0151154
internal_weight=0 5.69689
internal_count=38 26
is_linear=0
shrinkage=0.1


Tree=17
num_leaves=3
num_cat=0
split_feature=5 0
split_gain=0.441355 0.44132
threshold=151.66129898013955 0.84999999999999998
decision_type=2 2
left_child=-1 -2
right_child=1 -3
leaf_value=0.038314026170357847 0.012292456821596477 -0.044159511865814946
leaf_weight=2.1870004832744598 2.8932797461748123 2.656156450510025
leaf_count=13 13 12
internal_value=0 -0.0147275
internal_weight=0 5.54944
internal_count=38 25
is_linear=0
shrinkage=0.1


Tree=18
num_leaves=3
num_cat=0
split_feature=3 5
split_gain=0.519131 0.574755
threshold=772.66666666666754 151.66129898013955
decision_type=2 2
left_child=1 -1
right_child=-2 -3
leaf_value=0.019304756982864116 0.029024507912007239 -0.055037580223281903
leaf_weight=1.820320129394531 3.4577828496694565 2.4257998615503311
leaf_count=11 17 10
internal_value=0 -0.0231669
internal_weight=0 4.24612
internal_count=38 21
is_linear=0
shrinkage=0.1


Tree=19
num_leaves=3
num_cat=0
split_feature=3 5
split_gain=0.447596 0.539777
threshold=866.83333333333405 151.66129898013955
decision_type=2 2
left_child=1 -1
right_child=-2 -3
leaf_value=0.027359757645869526 0.039802445016015958 -0.037795654286197126
leaf_weight=1.9744774997234342 2.079615592956543 3.5712459981441498
leaf_count=12 11 15
internal_value=0 -0.014598
internal_weight=0 5.54572
internal_count=38 27
is_linear=0
shrinkage=0.1


Tree=20
num_leaves=3
num_cat=0
split_feature=3 10
split_gain=0.390009 0.199616
threshold=772.66666666666754 382.33333333333036
decision_type=2 2
left_child=1 -1
right_child=-2 -3
leaf_value=0.0033243293415883106 0.025433179614193991 -0.040583198568419819
leaf_weight=1.9275154024362562 3.3866984993219376 2.2372119724750519
leaf_count=11 17 10
internal_value=0 -0.020262
internal_weight=0 4.16473
internal_count=38 21
is_linear=0
shrinkage=0.1


Tree=21
num_leaves=2
num_cat=0
split_feature=5
split_gain=0.486281
threshold=269.05128205128187
decision_type=2
left_child=-1
right_child=-2
leaf_value=-0.027787166264629799 0.023345573891648527
leaf_weight=3.3963316828012466 4.111360177397728
leaf_count=19 19
internal_value=0
internal_weight=0
internal_count=38
is_linear=0
shrinkage=0.1


Tree=22
num_leaves=3
num_cat=0
split_feature=7 3
split_gain=0.497498 1.06556
threshold=27.500000000000004 772.66666666666754
decision_type=2 2
left_child=1 -1
right_child=-2 -3
leaf_value=-0.015908956594213944 -0.037289373977866663 0.079458679681672806
leaf_weight=3.31313157081604 2.4081388860940933 1.8125512748956678
leaf_count=17 11 10
internal_value=0 0.0178151
internal_weight=0 5.12568
internal_count=38 27
is_linear=0
shrinkage=0.1


Tree=23
num_leaves=3
num_cat=0
split_feature=7 11
split_gain=0.457329 0.181875
threshold=15.500000000000002 0.90000000000000002
decision_type=2 2
left_child=-1 -2
right_child=1 -3
leaf_value=0.034674441401384648 0.0042928033887276139 -0.034372329158039464
leaf_weight=2.5446876883506775 2.1587797254323959 2.7873333990573883
leaf_count=15 10 13
internal_value=0 -0.0174966
internal_weight=0 4.94611
internal_count=38 23
is_linear=0
shrinkage=0.1


Tree=24
num_leaves=2
num_cat=0
split_feature=5
split_gain=0.479726
threshold=269.05128205128187
decision_type=2
left_child=-1
right_child=-2
leaf_value=-0.027572534939085222 0.023320940266810652
leaf_weight=3.3919219076633453 4.0799079388380051
leaf_count=19 19
internal_value=0
internal_weight=0
internal_count=38
is_linear=0
shrinkage=0.1


Tree=25
num_leaves=3
num_cat=0
split_feature=7 7
split_gain=0.425024 0.124618
threshold=15.500000000000002 27.500000000000004
decision_type=2 2
left_child=-1 -2
right_child=1 -3
leaf_value=0.033591383726216832 -0.0012654321411896066 -0.032940773149570439
leaf_weight=2.5275191217660904 2.5367493331432343 2.4335780888795853
leaf_count=15 12 11
internal_value=0 -0.0167744
internal_weight=0 4.97033
internal_count=38 23
is_linear=0
shrinkage=0.1


Tree=26
num_leaves=3
num_cat=0
split_feature=0 11
split_gain=1.82579 1.38838
threshold=0.55000000000000016 2.1000000000000005
decision_type=2 2
left_child=-1 -2
right_child=1 -3
leaf_value=-0.09697371356253659 0.075348016737058821 -0.021371448668662613
leaf_weight=1.5365060269832609 2.869039922952652 3.0747010558843613
leaf_count=7 14 17
internal_value=0 0.025315
internal_weight=0 5.94374
internal_count=38 31
is_linear=0
shrinkage=0.1


Tree=27
num_leaves=3
num_cat=0
split_feature=5 7
split_gain=0.381744 0.149539
threshold=151.66129898013955 24.500000000000004
decision_type=2 2
left_child=-1 -2
right_child=1 -3
leaf_value=0.036057232109356421 -0.030855908057356458 0.0025500132480189954
leaf_weight=2.1284937113523483 2.6555640548467636 2.7049370557069778
leaf_count=13 13 12
internal_value=0 -0.0139991
internal_weight=0 5.3605
internal_count=38 25
is_linear=0
shrinkage=0.1


Tree=28
num_leaves=2
num_cat=0
split_feature=5
split_gain=0.41161
threshold=269.05128205128187
decision_type=2
left_child=-1
right_child=-2
leaf_value=-0.025482572981025992 0.021694930606498124
leaf_weight=3.3946983516216278 4.0624422878026962
leaf_count=19 19
internal_value=0
internal_weight=0
internal_count=38
is_linear=0
shrinkage=0.1


Tree=29
num_leaves=3
num_cat=0
split_feature=7 7
split_gain=0.421985 0.0838439
threshold=15.500000000000002 27.500000000000004
decision_type=2 2
left_child=-1 -2
right_child=1 -3
leaf_value=0.033757985765361223 -0.0037114537305427777 -0.029654711406044466
leaf_weight=2.4968761801719666 2.5056509524583817 2.4774143397808075
leaf_count=15 12 11
internal_value=0 -0.0166096
internal_weight=0 4.98307
internal_count=38 23
is_linear=0
shrinkage=0.1


Tree=30
num_leaves=3
num_cat=0
split_feature=0 0
split_gain=1.42863 1.13248
threshold=0.55000000000000016 1.8000000000000005
decision_type=2 2
left_child=-1 -2
right_child=1 -3
leaf_value=-0.084235341483096027 0.061456117879624732 -0.027028507317249897
leaf_weight=1.5798092037439344 3.3170363456010818 2.5648315399885178
leaf_count=7 16 15
internal_value=0 0.0228717
internal_weight=0 5.88187
internal_count=38 31
is_linear=0
shrinkage=0.1


Tree=31
num_leaves=3
num_cat=0
split_feature=0 11
split_gain=1.1408 0.9993
threshold=0.55000000000000016 2.1000000000000005
decision_type=2 2
left_child=-1 -2
right_child=1 -3
leaf_value=-0.074395179630768943 0.064129231610137213 -0.018552795165446483
leaf_weight=1.6082426011562345 2.78171406686306 3.0805218368768692
leaf_count=7 14 17
internal_value=0 0.020681
internal_weight=0 5.86224
internal_count=38 31
is_linear=0
shrinkage=0.1


Tree=32
num_leaves=3
num_cat=0
split_feature=7 11
split_gain=0.419801 0.182191
threshold=12.500000000000002 0.90000000000000002
decision_type=2 2
left_child=-1 -2
right_child=1 -3
leaf_value=0.040378719033513151 0.0083778877841821052 -0.028648386818054511
leaf_weight=1.9301412552595136 2.2199480980634689 3.3110779374837875
leaf_count=12 10 16
internal_value=0 -0.0137874
internal_weight=0 5.53103
internal_count=38 26
is_linear=0
shrinkage=0.1


Tree=33
num_leaves=4
num_cat=0
split_feature=0 3 0
split_gain=0.908546 0.905459 0.960312
threshold=0.55000000000000016 798.66666666666708 1.8000000000000005
decision_type=2 2 2
left_child=-1 2 -2
right_child=1 -3 -4
leaf_value=-0.065731461768792174 0.045063669788221426 0.07675863392506295 -0.053582082956725591
leaf_weight=1.6311013698577879 1.8302464187145235 1.8382508307695387 2.1416023224592209
leaf_count=7 8 11 12
internal_value=0 0.0187308 -0.00812566
internal_weight=0 5.8101 3.97185
internal_count=38 31 20
is_linear=0
shrinkage=0.1


Tree=34
num_leaves=3
num_cat=0
split_feature=5 5
split_gain=0.454099 0.284625
threshold=151.66129898013955 512.99999999999966
decision_type=2 2
left_child=-1 -2
right_child=1 -3
leaf_value=0.039217049736926107 -0.046071119155406626 0.0021501022195315202
leaf_weight=2.1308807507157326 1.9292832911014555 3.3485454842448235
leaf_count=13 9 16
internal_value=0 -0.0154769
internal_weight=0 5.27783
internal_count=38 25
is_linear=0
shrinkage=0.1


Tree=35
num_leaves=3
num_cat=0
split_feature=7 11
split_gain=0.390193 0.210612
threshold=15.500000000000002 0.90000000000000002
decision_type=2 2
left_child=-1 -2
right_child=1 -3
leaf_value=0.033203652862835602 0.0071775595831262418 -0.034310315301735214
leaf_weight=2.4145584851503372 2.2069405019283295 2.74616539478302
leaf_count=15 10 13
internal_value=0 -0.0158247
internal_weight=0 4.95311
internal_count=38 23
is_linear=0
shrinkage=0.1


Tree=36
num_leaves=3
num_cat=0
split_feature=7 11
split_gain=2.70283 1.80696
threshold=30.500000000000004 2.1000000000000005
decision_type=2 2
left_child=1 -1
right_child=-2 -3
leaf_value=0.097954442518795995 -0.10491935662442571 -0.016998607102043005
leaf_weight=2.5048392117023468 1.8344753086566923 3.0114265009760857
leaf_count=13 8 17
internal_value=0 0.0351996
internal_weight=0 5.51627
internal_count=38 30
is_linear=0
shrinkage=0.1


Tree=37
num_leaves=3
num_cat=0
split_feature=7 11
split_gain=2.15823 1.50906
threshold=30.500000000000004 2.1000000000000005
decision_type=2 2
left_child=1 -1
right_child=-2 -3
leaf_value=0.090409764484853619 -0.092371318081877818 -0.015225659227023278
leaf_weight=2.4456383138895035 1.8730421364307401 3.0251174420118332
leaf_count=13 8 17
internal_value=0 0.0319974
internal_weight=0 5.47076
internal_count=38 30
is_linear=0
shrinkage=0.1


Tree=38
num_leaves=3
num_cat=0
split_feature=5 3
split_gain=0.337997 0.532661
threshold=151.66129898013955 772.66666666666754
decision_type=2 2
left_child=-1 -2
right_child=1 -3
leaf_value=0.034746138965844914 -0.048398722825392343 0.015522389565873713
leaf_weight=2.0513359680771828 2.3603992611169815 2.9119075760245323
leaf_count=13 10 15
internal_value=0 -0.0130949
internal_weight=0 5.27231
internal_count=38 25
is_linear=0
shrinkage=0.1


Tree=39
num_leaves=3
num_cat=0
split_feature=7 0
split_gain=1.78571 1.32157
threshold=30.500000000000004 1.1000000000000003
decision_type=2 2
left_child=1 -1
right_child=-2 -3
leaf_value=0.086141134889252055 -0.08324269954080149 -0.013983919584426827
leaf_weight=2.3415400162339211 1.8917528390884397 3.0166028141975403
leaf_count=12 8 18
internal_value=0 0.0297713
internal_weight=0 5.35814
internal_count=38 30
is_linear=0
shrinkage=0.1


Tree=40
num_leaves=3
num_cat=0
split_feature=7 11
split_gain=1.43878 1.10077
threshold=30.500000000000004 2.1000000000000005
decision_type=2 2
left_child=1 -1
right_child=-2 -3
leaf_value=0.078675248490262611 -0.074123975999598149 -0.013054062875735468
leaf_weight=2.3243094384670258 1.9109003692865369 2.9925611093640327
leaf_count=13 8 17
internal_value=0 0.0270461
internal_weight=0 5.31687
internal_count=38 30
is_linear=0
shrinkage=0.1


Tree=41
num_leaves=2
num_cat=0
split_feature=5
split_gain=0.352055
threshold=269.05128205128187
decision_type=2
left_child=-1
right_child=-2
leaf_value=-0.02384810240245611 0.020569347362488451
leaf_weight=3.2811284735798836 3.9119727164506912
leaf_count=19 19
internal_value=0
internal_weight=0
internal_count=38
is_linear=0
shrinkage=0.1


Tree=42
num_leaves=3
num_cat=0
split_feature=7 0
split_gain=1.21427 0.894796
threshold=30.500000000000004 1.8000000000000005
decision_type=2 2
left_child=1 -1
right_child=-2 -3
leaf_value=0.063946689973702273 -0.067807604012882813 -0.018414080370608415
leaf_weight=2.7898828536272049 1.9214332848787306 2.5022188276052475
leaf_count=15 8 15
internal_value=0 0.0250048
internal_weight=0 5.2921
internal_count=38 30
is_linear=0
shrinkage=0.1


Tree=43
num_leaves=3
num_cat=0
split_feature=5 3
split_gain=0.344049 0.596731
threshold=151.66129898013955 772.66666666666754
decision_type=2 2
left_child=-1 -2
right_child=1 -3
leaf_value=0.035130038120168343 -0.05099629190397173 0.017390550623777569
leaf_weight=2.0320391580462456 2.3244968354701996 2.8286212161183357
leaf_count=13 10 15
internal_value=0 -0.0134578
internal_weight=0 5.15312
internal_count=38 25
is_linear=0
shrinkage=0.1


Tree=44
num_leaves=3
num_cat=0
split_feature=7 11
split_gain=1.02683 0.774326
threshold=30.500000000000004 2.1000000000000005
decision_type=2 2
left_child=1 -1
right_child=-2 -3
leaf_value=0.068326505349147165 -0.062173639518180307 -0.0098109453382999572
leaf_weight=2.2050590664148331 1.9222034662961958 2.9852094948291779
leaf_count=13 8 17
internal_value=0 0.0233854
internal_weight=0 5.19027
internal_count=38 30
is_linear=0
shrinkage=0.1


Tree=45
num_leaves=3
num_cat=0
split_feature=7 0
split_gain=0.832907 0.682383
threshold=30.500000000000004 1.1000000000000003
decision_type=2 2
left_child=1 -1
right_child=-2 -3
leaf_value=0.064352103578376729 -0.055816530460166394 -0.0095143761238801784
leaf_weight=2.144067570567131 1.9267328530550001 3.0013329386711121
leaf_count=12 8 18
internal_value=0 0.0212655
internal_weight=0 5.1454
internal_count=38 30
is_linear=0
shrinkage=0.1


Tree=46
num_leaves=3
num_cat=0
split_feature=3 5
split_gain=0.355771 0.424695
threshold=798.66666666666708 151.66129898013955
decision_type=2 2
left_child=1 -1
right_child=-2 -3
leaf_value=0.022974232522136817 0.031970160075219294 -0.039164534343118777
leaf_weight=1.7676762342453001 2.3542545735836029 2.9115283489227295
leaf_count=11 14 13
internal_value=0 -0.0156902
internal_weight=0 4.6792
internal_count=38 24
is_linear=0
shrinkage=0.1


Tree=47
num_leaves=3
num_cat=0
split_feature=7 0
split_gain=0.717063 0.60525
threshold=30.500000000000004 1.8000000000000005
decision_type=2 2
left_child=1 -1
right_child=-2 -3
leaf_value=0.053468823212638496 -0.051752343483020838 -0.01575429867294886
leaf_weight=2.6126689240336418 1.9218313395977018 2.4452121555805206
leaf_count=15 8 15
internal_value=0 0.0200032
internal_weight=0 5.05788
internal_count=38 30
is_linear=0
shrinkage=0.1


Tree=48
num_leaves=3
num_cat=0
split_feature=7 0
split_gain=0.582436 0.51726
threshold=30.500000000000004 1.1000000000000003
decision_type=2 2
left_child=1 -1
right_child=-2 -3
leaf_value=0.056746866076302832 -0.046590537763158614 -0.0085184376975602286
leaf_weight=2.0530207380652428 1.9212864041328428 2.9726649448275566
leaf_count=12 8 18
internal_value=0 0.0181428
internal_weight=0 5.02569
internal_count=38 30
is_linear=0
shrinkage=0.1


Tree=49
num_leaves=3
num_cat=0
split_feature=3 5
split_gain=0.358095 0.408823
threshold=798.66666666666708 151.66129898013955
decision_type=2 2
left_child=1 -1
right_child=-2 -3
leaf_value=0.022292235797935947 0.032457006920354699 -0.039111817434033753
leaf_weight=1.7454425096511839 2.3004060387611389 2.862452819943428
leaf_count=11 14 13
internal_value=0 -0.0158523
internal_weight=0 4.6079
internal_count=38 24
is_linear=0
shrinkage=0.1


Tree=50
num_leaves=2
num_cat=0
split_feature=5
split_gain=0.366599
threshold=269.05128205128187
decision_type=2
left_child=-1
right_child=-2
leaf_value=-0.025012607057387851 0.02140901753530991
leaf_weight=3.1298265010118484 3.7268891781568527
leaf_count=19 19
internal_value=0
internal_weight=0
internal_count=38
is_linear=0
shrinkage=0.1


Tree=51
num_leaves=3
num_cat=0
split_feature=7 3
split_gain=0.562806 0.370909
threshold=12.500000000000002 772.66666666666754
decision_type=2 2
left_child=-1 -2
right_child=1 -3
leaf_value=0.047512241620755541 -0.044375277422792396 0.0098985029395077077
leaf_weight=1.8413978666067121 2.5048974752426147 2.5319677963852882
leaf_count=12 12 14
internal_value=0 -0.0170925
internal_weight=0 5.03687
internal_count=38 26
is_linear=0
shrinkage=0.1


Tree=52
num_leaves=3
num_cat=0
split_feature=7 5
split_gain=0.539489 0.503052
threshold=30.500000000000004 269.05128205128187
decision_type=2 2
left_child=1 -1
right_child=-2 -3
leaf_value=-0.0092511208366903418 -0.044922856400507777 0.055616854761090122
leaf_weight=2.8776859045028687 1.9093988984823225 2.0451426804065704
leaf_count=18 8 12
internal_value=0 0.0176977
internal_weight=0 4.92283
internal_count=38 30
is_linear=0
shrinkage=0.1


Tree=53
num_leaves=3
num_cat=0
split_feature=7 3
split_gain=0.477721 0.344294
threshold=12.500000000000002 772.66666666666754
decision_type=2 2
left_child=-1 -2
right_child=1 -3
leaf_value=0.04427305240985141 -0.041929542801259143 0.010482602369133594
leaf_weight=1.80669230222702 2.5046660676598549 2.5086646340787411
leaf_count=12 12 14
internal_value=0 -0.0157026
internal_weight=0 5.01333
internal_count=38 26
is_linear=0
shrinkage=0.1


Tree=54
num_leaves=3
num_cat=0
split_feature=7 0
split_gain=0.436418 0.487924
threshold=30.500000000000004 1.8000000000000005
decision_type=2 2
left_child=1 -1
right_child=-2 -3
leaf_value=0.046802355953529877 -0.04045289191563118 -0.016497033883183305
leaf_weight=2.5049048773944378 1.9015747755765913 2.3697878941893578
leaf_count=15 8 15
internal_value=0 0.0160299
internal_weight=0 4.87469
internal_count=38 30
is_linear=0
shrinkage=0.1


Tree=55
num_leaves=3
num_cat=0
split_feature=7 7
split_gain=0.425002 0.334625
threshold=12.500000000000002 27.500000000000004
decision_type=2 2
left_child=-1 -2
right_child=1 -3
leaf_value=0.042024241852835792 -0.041261624691087809 0.010690049175688438
leaf_weight=1.78468582034111 2.441553246229887 2.5189352035522461
leaf_count=12 15 11
internal_value=0 -0.0148806
internal_weight=0 4.96049
internal_count=38 26
is_linear=0
shrinkage=0.1


Tree=56
num_leaves=3
num_cat=0
split_feature=0 0
split_gain=0.570081 0.48671
threshold=0.55000000000000016 1.8000000000000005
decision_type=2 2
left_child=-1 -2
right_child=1 -3
leaf_value=-0.051860930338896931 0.044705867519595308 -0.017147110029471283
leaf_weight=1.6037284433841703 2.7850276306271553 2.3419788032770157
leaf_count=7 16 15
internal_value=0 0.0164519
internal_weight=0 5.12701
internal_count=38 31
is_linear=0
shrinkage=0.1


Tree=57
num_leaves=3
num_cat=0
split_feature=7 7
split_gain=0.3796 0.305124
threshold=12.500000000000002 27.500000000000004
decision_type=2 2
left_child=-1 -2
right_child=1 -3
leaf_value=0.039991277396078183 -0.03931325078420618 0.010332190748138702
leaf_weight=1.7650042176246641 2.4297173358500004 2.5240358859300613
leaf_count=12 15 11
internal_value=0 -0.0140179
internal_weight=0 4.95375
internal_count=38 26
is_linear=0
shrinkage=0.1


Tree=58
num_leaves=3
num_cat=0
split_feature=7 5
split_gain=0.386827 0.498627
threshold=30.500000000000004 269.05128205128187
decision_type=2 2
left_child=1 -1
right_child=-2 -3
leaf_value=-0.011840730640977933 -0.038064904914039625 0.05353599439364054
leaf_weight=2.8143692314624786 1.897360101342201 1.9925982020795343
leaf_count=18 8 12
internal_value=0 0.0152594
internal_weight=0 4.80697
internal_count=38 30
is_linear=0
shrinkage=0.1


Tree=59
num_leaves=2
num_cat=0
split_feature=5
split_gain=0.328795
threshold=269.05128205128187
decision_type=2
left_child=-1
right_child=-2
leaf_value=-0.023896609896032896 0.020577854582509898
leaf_weight=3.0732262879610062 3.6206469759345055
leaf_count=19 19
internal_value=0
internal_weight=0
internal_count=38
is_linear=0
shrinkage=0.1


Tree=60
num_leaves=3
num_cat=0
split_feature=7 3
split_gain=0.36518 0.288779
threshold=12.500000000000002 772.66666666666754
decision_type=2 2
left_child=-1 -2
right_child=1 -3
leaf_value=0.039349935680952207 -0.037784078232620352 0.010479734288285043
leaf_weight=1.7550999000668523 2.4870791658759117 2.4718349426984787
leaf_count=12 12 14
internal_value=0 -0.0137264
internal_weight=0 4.95891
internal_count=38 26
is_linear=0
shrinkage=0.1


Tree=61
num_leaves=3
num_cat=0
split_feature=0 5
split_gain=0.446818 0.653557
threshold=0.55000000000000016 269.05128205128187
decision_type=2 2
left_child=-1 -2
right_child=1 -3
leaf_value=-0.045884485143063231 -0.019733759507253628 0.05212544828208017
leaf_weight=1.6026398986577985 2.6422053873538971 2.4293823465704918
leaf_count=7 17 14
internal_value=0 0.0146881
internal_weight=0 5.07159
internal_count=38 31
is_linear=0
shrinkage=0.1


Tree=62
num_leaves=3
num_cat=0
split_feature=5 3
split_gain=0.377592 0.497912
threshold=151.66129898013955 772.66666666666754
decision_type=2 2
left_child=-1 -2
right_child=1 -3
leaf_value=0.037640093217895125 -0.04999117368247364 0.014861674451398691
leaf_weight=1.9152628630399702 2.1897638589143753 2.5770883783698082
leaf_count=13 10 15
internal_value=0 -0.01493
internal_weight=0 4.76685
internal_count=38 25
is_linear=0
shrinkage=0.1


Tree=63
num_leaves=3
num_cat=0
split_feature=5 3
split_gain=0.311146 0.406814
threshold=151.66129898013955 772.66666666666754
decision_type=2 2
left_child=-1 -2
right_child=1 -3
leaf_value=0.034564769229324728 -0.045367663270776203 0.013432336756125374
leaf_weight=1.8790737390518186 2.1725651919841766 2.5667554326355457
leaf_count=13 10 15
internal_value=0 -0.0135223
internal_weight=0 4.73932
internal_count=38 25
is_linear=0
shrinkage=0.1


Tree=64
num_leaves=3
num_cat=0
split_feature=0 5
split_gain=0.402886 0.642141
threshold=0.55000000000000016 269.05128205128187
decision_type=2 2
left_child=-1 -2
right_child=1 -3
leaf_value=-0.043566015149146792 -0.020510957358890872 0.051485711221587571
leaf_weight=1.596886560320854 2.5707849711179733 2.3909789174795151
leaf_count=7 17 14
internal_value=0 0.0141829
internal_weight=0 4.96176
internal_count=38 31
is_linear=0
shrinkage=0.1


Tree=65
num_leaves=3
num_cat=0
split_feature=0 5
split_gain=0.326155 0.522638
threshold=0.55000000000000016 269.05128205128187
decision_type=2 2
left_child=-1 -2
right_child=1 -3
leaf_value=-0.039176013151566109 -0.018309684283809895 0.04661982670369573
leaf_weight=1.5981660038232801 2.5907523781061172 2.3772270083427429
leaf_count=7 17 14
internal_value=0 0.0127597
internal_weight=0 4.96798
internal_count=38 31
is_linear=0
shrinkage=0.1


Tree=66
num_leaves=3
num_cat=0
split_feature=7 0
split_gain=0.40058 0.405233
threshold=30.500000000000004 1.1000000000000003
decision_type=2 2
left_child=1 -1
right_child=-2 -3
leaf_value=0.05106585996724318 -0.039088892786968733 -0.0086678230715332757
leaf_weight=1.9163808412849901 1.8661535978317259 2.78791468963027
leaf_count=12 8 18
internal_value=0 0.0156658
internal_weight=0 4.7043
internal_count=38 30
is_linear=0
shrinkage=0.1


Tree=67
num_leaves=3
num_cat=0
split_feature=7 7
split_gain=0.385157 0.415345
threshold=15.500000000000002 27.500000000000004
decision_type=2 2
left_child=-1 -2
right_child=1 -3
leaf_value=0.036006799314037566 -0.050266869549362908 0.010971364173219025
leaf_weight=2.0514679253101349 1.9970630034804342 2.4865929782390594
leaf_count=15 12 11
internal_value=0 -0.0163047
internal_weight=0 4.48366
internal_count=38 23
is_linear=0
shrinkage=0.1


Tree=68
num_leaves=3
num_cat=0
split_feature=7 5
split_gain=0.346661 0.641477
threshold=30.500000000000004 151.66129898013955
decision_type=2 2
left_child=1 -1
right_child=-2 -3
leaf_value=0.065382086597737726 -0.036342894540266811 -0.012454600821835707
leaf_weight=1.6258057877421377 1.8628993928432462 3.0359234623610973
leaf_count=12 8 18
internal_value=0 0.0146914
internal_weight=0 4.66173
internal_count=38 30
is_linear=0
shrinkage=0.1


Tree=69
num_leaves=3
num_cat=0
split_feature=3 11
split_gain=0.306203 0.150553
threshold=798.66666666666708 1.6000000000000001
decision_type=2 2
left_child=1 -1
right_child=-2 -3
leaf_value=-0.034362045597413009 0.031166604292897072 0.0029551919638934805
leaf_weight=2.098514623939991 2.1314456127583981 2.2299140095710754
leaf_count=10 14 14
internal_value=0 -0.015137
internal_weight=0 4.32843
internal_count=38 24
is_linear=0
shrinkage=0.1


Tree=70
num_leaves=2
num_cat=0
split_feature=5
split_gain=0.310993
threshold=269.05128205128187
decision_type=2
left_child=-1
right_child=-2
leaf_value=-0.023820885050328547 0.020271740524719195
leaf_weight=2.9443910792469978 3.502420037984848
leaf_count=19 19
internal_value=0
internal_weight=0
internal_count=38
is_linear=0
shrinkage=0.1


Tree=71
num_leaves=3
num_cat=0
split_feature=7 5
split_gain=0.32274 0.571232
threshold=30.500000000000004 151.66129898013955
decision_type=2 2
left_child=1 -1
right_child=-2 -3
leaf_value=0.062938155473394888 -0.035129378770612618 -0.011165891838460718
leaf_weight=1.5843143314123151 1.852697357535362 3.0290208123624325
leaf_count=12 8 18
internal_value=0 0.014283
internal_weight=0 4.61334
internal_count=38 30
is_linear=0
shrinkage=0.1


Tree=72
num_leaves=2
num_cat=0
split_feature=5
split_gain=0.319272
threshold=269.05128205128187
decision_type=2
left_child=-1
right_child=-2
leaf_value=-0.024360333802739845 0.020490689997159538
leaf_weight=2.9051517173647881 3.4983738362789154
leaf_count=19 19
internal_value=0
internal_weight=0
internal_count=38
is_linear=0
shrinkage=0.1


Tree=73
num_leaves=3
num_cat=0
split_feature=7 7
split_gain=0.293039 0.386689
threshold=15.500000000000002 27.500000000000004
decision_type=2 2
left_child=-1 -2
right_child=1 -3
leaf_value=0.032445107059256899 -0.04665441543860771 0.012496489856020436
leaf_weight=1.9531843736767767 2.0011713020503521 2.4684607684612274
leaf_count=15 12 11
internal_value=0 -0.0139869
internal_weight=0 4.46963
internal_count=38 23
is_linear=0
shrinkage=0.1


Tree=74
num_leaves=3
num_cat=0
split_feature=7 0
split_gain=0.310063 0.505163
threshold=30.500000000000004 1.8000000000000005
decision_type=2 2
left_child=1 -1
right_child=-2 -3
leaf_value=0.0455088320457573 -0.03440596970922917 -0.021140676813999885
leaf_weight=2.4153360985219479 1.8497030884027479 2.1490101292729378
leaf_count=15 8 15
internal_value=0 0.0141286
internal_weight=0 4.56435
internal_count=38 30
is_linear=0
shrinkage=0.1


Tree=75
num_leaves=2
num_cat=0
split_feature=5
split_gain=0.274873
threshold=269.05128205128187
decision_type=2
left_child=-1
right_child=-2
leaf_value=-0.022535158798376847 0.019122313135227938
leaf_weight=2.9109805077314377 3.4746550060808659
leaf_count=19 19
internal_value=0
internal_weight=0
internal_count=38
is_linear=0
shrinkage=0.1


Tree=76
num_leaves=3
num_cat=0
split_feature=5 3
split_gain=0.291523 0.389133
threshold=151.66129898013955 798.66666666666708
decision_type=2 2
left_child=-1 -2
right_child=1 -3
leaf_value=0.034423585103535874 -0.037764720713958172 0.021094910630681057
leaf_weight=1.7864865288138387 2.685949295759201 1.9305289648473261
leaf_count=13 13 12
internal_value=0 -0.0131507
internal_weight=0 4.61648
internal_count=38 25
is_linear=0
shrinkage=0.1


Tree=77
num_leaves=2
num_cat=0
split_feature=5
split_gain=0.262147
threshold=269.05128205128187
decision_type=2
left_child=-1
right_child=-2
leaf_value=-0.022135781933092895 0.018656688198496689
leaf_weight=2.8875969499349594 3.4666840396821499
leaf_count=19 19
internal_value=0
internal_weight=0
internal_count=38
is_linear=0
shrinkage=0.1


Tree=78
num_leaves=3
num_cat=0
split_feature=7 7
split_gain=0.323129 0.335877
threshold=15.500000000000002 27.500000000000004
decision_type=2 2
left_child=-1 -2
right_child=1 -3
leaf_value=0.03433969944667007 -0.045165677819072145 0.01009462502694785
leaf_weight=1.9247870258986948 1.9954835921525953 2.4507312774658203
leaf_count=15 12 11
internal_value=0 -0.0147065
internal_weight=0 4.44621
internal_count=38 23
is_linear=0
shrinkage=0.1


Tree=79
num_leaves=3
num_cat=0
split_feature=0 5
split_gain=0.274846 0.505073
threshold=0.55000000000000016 269.05128205128187
decision_type=2 2
left_child=-1 -2
right_child=1 -3
leaf_value=-0.036362695452279679 -0.019245452846515812 0.045672794178704165
leaf_weight=1.5593631714582441 2.4932378083467484 2.3077344298362732
leaf_count=7 17 14
internal_value=0 0.0119595
internal_weight=0 4.80097
internal_count=38 31
is_linear=0
shrinkage=0.1


Tree=80
num_leaves=3
num_cat=0
split_feature=7 5
split_gain=0.340348 0.533848
threshold=30.500000000000004 151.66129898013955
decision_type=2 2
left_child=1 -1
right_child=-2 -3
leaf_value=0.062410786074531904 -0.036198312960269978 -0.0099506008861458065
leaf_weight=1.5508213490247724 1.8367655575275419 2.976048294454813
leaf_count=12 8 18
internal_value=0 0.0148391
internal_weight=0 4.52687
internal_count=38 30
is_linear=0
shrinkage=0.1


Tree=81
num_leaves=2
num_cat=0
split_feature=5
split_gain=0.252425
threshold=269.05128205128187
decision_type=2
left_child=-1
right_child=-2
leaf_value=-0.021867867769455776 0.018336794225489672
leaf_weight=2.8546229600906372 3.4477321058511734
leaf_count=19 19
internal_value=0
internal_weight=0
internal_count=38
is_linear=0
shrinkage=0.1


Tree=82
num_leaves=3
num_cat=0
split_feature=7 5
split_gain=0.30055 0.479436
threshold=30.500000000000004 151.66129898013955
decision_type=2 2
left_child=1 -1
right_child=-2 -3
leaf_value=0.059897629174536761 -0.03402029458878035 -0.0092554355459852355
leaf_weight=1.5122278630733488 1.8314386457204817 2.9746354147791862
leaf_count=12 8 18
internal_value=0 0.0140515
internal_weight=0 4.48686
internal_count=38 30
is_linear=0
shrinkage=0.1


Tree=83
num_leaves=2
num_cat=0
split_feature=5
split_gain=0.261216
threshold=269.05128205128187
decision_type=2
left_child=-1
right_child=-2
leaf_value=-0.022458965640879961 0.018604400836303242
leaf_weight=2.8158078491687775 3.4437353163957596
leaf_count=19 19
internal_value=0
internal_weight=0
internal_count=38
is_linear=0
shrinkage=0.1


Tree=84
num_leaves=3
num_cat=0
split_feature=5 5
split_gain=0.221842 0.0796051
threshold=151.66129898013955 798.33333333333405
decision_type=2 2
left_child=-1 -2
right_child=1 -3
leaf_value=0.03101975900793846 -0.025227766795895924 0.001178232021829601
leaf_weight=1.6958927139639852 2.167344506829977 2.412396639585495
leaf_count=13 12 13
internal_value=0 -0.0113183
internal_weight=0 4.57974
internal_count=38 25
is_linear=0
shrinkage=0.1


Tree=85
num_leaves=3
num_cat=0
split_feature=7 7
split_gain=0.285629 0.337249
threshold=15.500000000000002 27.500000000000004
decision_type=2 2
left_child=-1 -2
right_child=1 -3
leaf_value=0.033296889561146792 -0.044184941387213787 0.011361404148168755
leaf_weight=1.8333809226751325 1.9889234937727449 2.4266667366027832
leaf_count=15 12 11
internal_value=0 -0.0136585
internal_weight=0 4.41559
internal_count=38 23
is_linear=0
shrinkage=0.1


Tree=86
num_leaves=3
num_cat=0
split_feature=7 5
split_gain=0.288507 0.397347
threshold=30.500000000000004 269.05128205128187
decision_type=2 2
left_child=1 -1
right_child=-2 -3
leaf_value=-0.011330738885286625 -0.033262047069795408 0.049584088601538796
leaf_weight=2.5782827585935593 1.8300117403268812 1.8315260857343671
leaf_count=18 8 12
internal_value=0 0.013969
internal_weight=0 4.40981
internal_count=38 30
is_linear=0
shrinkage=0.1


Tree=87
num_leaves=3
num_cat=0
split_feature=7 7
split_gain=0.247148 0.323716
threshold=15.500000000000002 27.500000000000004
decision_type=2 2
left_child=-1 -2
right_child=1 -3
leaf_value=0.031181167454891245 -0.042383004529327924 0.012002438894967138
leaf_weight=1.8145509399473665 2.0022877976298332 2.4139087796211243
leaf_count=15 12 11
internal_value=0 -0.0126557
internal_weight=0 4.4162
internal_count=38 23
is_linear=0
shrinkage=0.1


Tree=88
num_leaves=3
num_cat=0
split_feature=7 0
split_gain=0.2534 0.499778
threshold=30.500000000000004 1.8000000000000005
decision_type=2 2
left_child=1 -1
right_child=-2 -3
leaf_value=0.04420979499974953 -0.031196155691084755 -0.02344852023872401
leaf_weight=2.3757826313376427 1.8266022205352781 2.0201101563870907
leaf_count=15 8 15
internal_value=0 0.0131178
internal_weight=0 4.39589
internal_count=38 30
is_linear=0
shrinkage=0.1


Tree=89
num_leaves=3
num_cat=0
split_feature=3 0
split_gain=0.30636 0.239048
threshold=798.66666666666708 1.8000000000000005
decision_type=2 2
left_child=1 -1
right_child=-2 -3
leaf_value=0.004986582381611853 0.031355055700698818 -0.04379839344331618
leaf_weight=2.3667121976613998 2.0830722637474537 1.7449576258659361
leaf_count=12 14 12
internal_value=0 -0.0157173
internal_weight=0 4.11167
internal_count=38 24
is_linear=0
shrinkage=0.1


Tree=90
num_leaves=3
num_cat=0
split_feature=7 7
split_gain=0.26508 0.293528
threshold=15.500000000000002 27.500000000000004
decision_type=2 2
left_child=-1 -2
right_child=1 -3
leaf_value=0.032351327269366258 -0.041599803665548621 0.010389542309110435
leaf_weight=1.8057760912925003 1.9864323809742925 2.3956930786371231
leaf_count=15 12 11
internal_value=0 -0.0131774
internal_weight=0 4.38213
internal_count=38 23
is_linear=0
shrinkage=0.1


Tree=91
num_leaves=3
num_cat=0
split_feature=7 5
split_gain=0.256387 0.432279
threshold=30.500000000000004 151.66129898013955
decision_type=2 2
left_child=1 -1
right_child=-2 -3
leaf_value=0.05805516118907203 -0.031372555444794718 -0.0088845414080520393
leaf_weight=1.4425863549113271 1.8235116600990293 2.9122144337743521
leaf_count=12 8 18
internal_value=0 0.0132901
internal_weight=0 4.3548
internal_count=38 30
is_linear=0
shrinkage=0.1


Tree=92
num_leaves=3
num_cat=0
split_feature=3 0
split_gain=0.273033 0.263508
threshold=798.66666666666708 1.8000000000000005
decision_type=2 2
left_child=1 -1
right_child=-2 -3
leaf_value=0.0067498110778929131 0.029768608676644739 -0.044852882601949702
leaf_weight=2.3567049130797386 2.0608999002724886 1.7058603987097738
leaf_count=12 14 12
internal_value=0 -0.014918
internal_weight=0 4.06257
internal_count=38 24
is_linear=0
shrinkage=0.1


Tree=93
num_leaves=2
num_cat=0
split_feature=5
split_gain=0.246657
threshold=269.05128205128187
decision_type=2
left_child=-1
right_child=-2
leaf_value=-0.022210640992039541 0.018177054228403131
leaf_weight=2.7351991757750511 3.3817555475980043
leaf_count=19 19
internal_value=0
internal_weight=0
internal_count=38
is_linear=0
shrinkage=0.1


Tree=94
num_leaves=3
num_cat=0
split_feature=7 5
split_gain=0.263613 0.415105
threshold=30.500000000000004 151.66129898013955
decision_type=2 2
left_child=1 -1
right_child=-2 -3
leaf_value=0.057588876464994533 -0.031819952610544065 -0.0082936567219808015
leaf_weight=1.4315116778016088 1.8187423497438429 2.8811955023556948
leaf_count=12 8 18
internal_value=0 0.0135747
internal_weight=0 4.31271
internal_count=38 30
is_linear=0
shrinkage=0.1


Tree=95
num_leaves=2
num_cat=0
split_feature=5
split_gain=0.251942
threshold=269.05128205128187
decision_type=2
left_child=-1
right_child=-2
leaf_value=-0.022652380435136021 0.018325445323144989
leaf_weight=2.6995822861790657 3.3776094913482666
leaf_count=19 19
internal_value=0
internal_weight=0
internal_count=38
is_linear=0
shrinkage=0.1


Tree=96
num_leaves=3
num_cat=0
split_feature=3 11
split_gain=0.235542 0.199774
threshold=798.66666666666708 1.6000000000000001
decision_type=2 2
left_child=1 -1
right_child=-2 -3
leaf_value=-0.036353960118713474 0.027710912886155178 0.0081202554852564633
leaf_weight=2.0002366378903389 2.0512967575341463 2.0401642620563507
leaf_count=10 14 14
internal_value=0 -0.0138971
internal_weight=0 4.0404
internal_count=38 24
is_linear=0
shrinkage=0.1


Tree=97
num_leaves=3
num_cat=0
split_feature=7 11
split_gain=0.244632 0.351222
threshold=30.500000000000004 2.7499999999999996
decision_type=2 2
left_child=1 -1
right_child=-2 -3
leaf_value=0.039201960147168466 -0.030760935409182233 -0.018374448927746589
leaf_weight=2.3405670803040266 1.8051682710647581 1.9356835335493086
leaf_count=16 8 14
internal_value=0 0.0131395
internal_weight=0 4.27625
internal_count=38 30
is_linear=0
shrinkage=0.1


Tree=98
num_leaves=3
num_cat=0
split_feature=7 7
split_gain=0.251281 0.306701
threshold=15.500000000000002 27.500000000000004
decision_type=2 2
left_child=-1 -2
right_child=1 -3
leaf_value=0.032167904938724942 -0.04192470210143584 0.011524874059682425
leaf_weight=1.7426414061337707 1.9704173281788824 2.3586494475603104
leaf_count=15 12 11
internal_value=0 -0.0128032
internal_weight=0 4.32907
internal_count=38 23
is_linear=0
shrinkage=0.1


Tree=99
num_leaves=2
num_cat=0
split_feature=5
split_gain=0.222429
threshold=269.05128205128187
decision_type=2
left_child=-1
right_child=-2
leaf_value=-0.021253047776339663 0.017283217368382304
leaf_weight=2.7027082145214081 3.3596704751253128
leaf_count=19 19
internal_value=0
internal_weight=0
internal_count=38
is_linear=0
shrinkage=0.1


end of trees

feature_importances:
taskNum=61
s_scroll_speed=52
scroll_length=30
response_time=29
scroll_time=13
s_view_position=1

parameters:
[boosting: gbdt]
[objective: binary]
[metric: binary_error]
[tree_learner: serial]
[device_type: cpu]
[data_sample_strategy: bagging]
[data: ]
[valid: ]
[num_iterations: 100]
[learning_rate: 0.1]
[num_leaves: 31]
[num_threads: 0]
[seed: 0]
[deterministic: 0]
[force_col_wise: 0]
[force_row_wise: 0]
[histogram_pool_size: -1]
[max_depth: -1]
[min_data_in_leaf: 10]
[min_sum_hessian_in_leaf: 0.001]
[bagging_fraction: 1]
[pos_bagging_fraction: 1]
[neg_bagging_fraction: 1]
[bagging_freq: 0]
[bagging_seed: 3]
[feature_fraction: 0.7]
[feature_fraction_bynode: 1]
[feature_fraction_seed: 2]
[extra_trees: 0]
[extra_seed: 6]
[early_stopping_round: 0]
[first_metric_only: 0]
[max_delta_step: 0]
[lambda_l1: 0]
[lambda_l2: 0]
[linear_lambda: 0]
[min_gain_to_split: 0]
[drop_rate: 0.1]
[max_drop: 50]
[skip_drop: 0.5]
[xgboost_dart_mode: 0]
[uniform_drop: 0]
[drop_seed: 4]
[top_rate: 0.2]
[other_rate: 0.1]
[min_data_per_group: 100]
[max_cat_threshold: 32]
[cat_l2: 10]
[cat_smooth: 10]
[max_cat_to_onehot: 4]
[top_k: 20]
[monotone_constraints: ]
[monotone_constraints_method: basic]
[monotone_penalty: 0]
[feature_contri: ]
[forcedsplits_filename: ]
[refit_decay_rate: 0.9]
[cegb_tradeoff: 1]
[cegb_penalty_split: 0]
[cegb_penalty_feature_lazy: ]
[cegb_penalty_feature_coupled: ]
[path_smooth: 0]
[interaction_constraints: ]
[verbosity: -1]
[saved_feature_importance_type: 0]
[use_quantized_grad: 0]
[num_grad_quant_bins: 4]
[quant_train_renew_leaf: 0]
[stochastic_rounding: 1]
[linear_tree: 0]
[max_bin: 255]
[max_bin_by_feature: ]
[min_data_in_bin: 3]
[bin_construct_sample_cnt: 200000]
[data_random_seed: 1]
[is_enable_sparse: 1]
[enable_bundle: 1]
[use_missing: 1]
[zero_as_missing: 0]
[feature_pre_filter: 0]
[pre_partition: 0]
[two_round: 0]
[header: 0]
[label_column: ]
[weight_column: ]
[group_column: ]
[ignore_column: ]
[categorical_feature: ]
[forcedbins_filename: ]
[precise_float_parser: 0]
[parser_config_file: ]
[objective_seed: 5]
[num_class: 1]
[is_unbalance: 0]
[scale_pos_weight: 1]
[sigmoid: 1]
[boost_from_average: 1]
[reg_sqrt: 0]
[alpha: 0.9]
[fair_c: 1]
[poisson_max_delta_step: 0.7]
[tweedie_variance_power: 1.5]
[lambdarank_truncation_level: 30]
[lambdarank_norm: 1]
[label_gain: ]
[lambdarank_position_bias_regularization: 0]
[eval_at: ]
[multi_error_top_k: 1]
[auc_mu_weights: ]
[num_machines: 1]
[local_listen_port: 12400]
[time_out: 120]
[machine_list_filename: ]
[machines: ]
[gpu_platform_id: -1]
[gpu_device_id: -1]
[gpu_use_dp: 0]
[num_gpu: 1]

end of parameters

pandas_categorical:[]
